[
    {
        "class": "keras.layers.core.dense.Dense",
        "config": {
            "name": "dense",
            "trainable": true,
            "dtype": "float32",
            "units": 64,
            "activation": "softplus",
            "use_bias": true,
            "kernel_initializer": {
                "class_name": "GlorotUniform",
                "config": {
                    "seed": null
                }
            },
            "bias_initializer": {
                "class_name": "Zeros",
                "config": {}
            },
            "kernel_regularizer": null,
            "bias_regularizer": null,
            "activity_regularizer": null,
            "kernel_constraint": null,
            "bias_constraint": null
        },
        "weights": [
            {
                "_type": "ndarray",
                "shape": [
                    6,
                    64
                ],
                "dtype": "float32",
                "data": [
                    -0.07222260534763336,
                    -0.2151685506105423,
                    -0.2397143840789795,
                    -0.2603347897529602,
                    0.05199906975030899,
                    -0.0027121317107230425,
                    -0.07988990843296051,
                    -0.2399638444185257,
                    0.011232240125536919,
                    -0.0025480615440756083,
                    0.28348401188850403,
                    0.045245036482810974,
                    -0.1221921518445015,
                    0.10032253712415695,
                    -0.031628016382455826,
                    -0.15194810926914215,
                    -0.12014038115739822,
                    0.09432350844144821,
                    0.1374736875295639,
                    -0.14551308751106262,
                    0.25621315836906433,
                    0.11702787131071091,
                    -0.2219824492931366,
                    -0.20162475109100342,
                    0.25456053018569946,
                    0.1642751544713974,
                    0.07991652190685272,
                    0.04395335540175438,
                    -0.03178269788622856,
                    0.2187352180480957,
                    -0.015416016802191734,
                    0.20012563467025757,
                    0.21436385810375214,
                    -0.08344075828790665,
                    -0.0888659805059433,
                    -0.11448166519403458,
                    -0.28221970796585083,
                    -0.07591021060943604,
                    -0.0994228646159172,
                    0.1951422542333603,
                    0.0302568506449461,
                    0.2261214554309845,
                    0.27794092893600464,
                    -0.14840394258499146,
                    -0.05635322630405426,
                    -0.2897152006626129,
                    -0.1208990067243576,
                    -0.18172989785671234,
                    0.22133107483386993,
                    -0.23556506633758545,
                    -0.04633335396647453,
                    0.12607210874557495,
                    -0.21563217043876648,
                    -0.13992854952812195,
                    -0.18619942665100098,
                    0.07464098185300827,
                    0.20754402875900269,
                    -0.26403698325157166,
                    0.2899540066719055,
                    0.3079145550727844,
                    -0.10644674301147461,
                    -0.03817795589566231,
                    -0.24219687283039093,
                    0.10925352573394775,
                    0.019151104614138603,
                    -0.21066448092460632,
                    0.09804762899875641,
                    0.17261232435703278,
                    -0.24052570760250092,
                    -0.08686129003763199,
                    0.19959931075572968,
                    -0.16461025178432465,
                    -0.27676868438720703,
                    -0.16509248316287994,
                    -0.22556737065315247,
                    0.1023598462343216,
                    0.242945596575737,
                    0.008016452193260193,
                    -0.17396874725818634,
                    -0.23365996778011322,
                    0.15719501674175262,
                    -0.2651539742946625,
                    -0.10596614331007004,
                    0.08221468329429626,
                    0.14427168667316437,
                    0.25401222705841064,
                    0.3263753354549408,
                    -0.2691827416419983,
                    -0.3089922368526459,
                    -0.09602231532335281,
                    -0.1774200201034546,
                    0.20358288288116455,
                    0.07897579669952393,
                    -0.0522155798971653,
                    0.30042850971221924,
                    -0.21160489320755005,
                    0.08549371361732483,
                    -0.006636873818933964,
                    -0.0717351958155632,
                    -0.21275952458381653,
                    0.06389416754245758,
                    0.2729664146900177,
                    -0.2840285897254944,
                    0.18885797262191772,
                    -0.1266341358423233,
                    0.18630272150039673,
                    0.1632494181394577,
                    -0.06936314702033997,
                    0.3263739049434662,
                    -0.19589753448963165,
                    0.06578616797924042,
                    -0.09016907960176468,
                    0.18171170353889465,
                    -0.16105273365974426,
                    0.20083001255989075,
                    0.022760311141610146,
                    -0.06737692654132843,
                    -0.14397652447223663,
                    -0.20692752301692963,
                    0.25314566493034363,
                    -0.12136484682559967,
                    -0.15624816715717316,
                    0.13634733855724335,
                    0.10797911137342453,
                    -0.13720007240772247,
                    0.31631726026535034,
                    -0.24213555455207825,
                    -0.051627032458782196,
                    0.011330287903547287,
                    0.12520375847816467,
                    0.20653881132602692,
                    0.07784856110811234,
                    -0.2261783331632614,
                    -0.21673732995986938,
                    0.08534494787454605,
                    0.26037704944610596,
                    0.09231933951377869,
                    -0.02293003909289837,
                    -0.23032110929489136,
                    -0.15180659294128418,
                    0.2954584062099457,
                    -0.13823339343070984,
                    -0.11602757126092911,
                    0.17069514095783234,
                    0.2642366290092468,
                    0.24343150854110718,
                    0.23936572670936584,
                    -0.03096175193786621,
                    0.03904828056693077,
                    0.027112867683172226,
                    -0.18345652520656586,
                    0.11314944922924042,
                    0.11091836541891098,
                    0.2915118634700775,
                    -0.01731747016310692,
                    -0.1444568932056427,
                    -0.1513516902923584,
                    0.22818537056446075,
                    -0.15637218952178955,
                    0.16805577278137207,
                    0.2638874053955078,
                    0.18544116616249084,
                    0.23490116000175476,
                    -0.05136266350746155,
                    0.18707355856895447,
                    0.2101559042930603,
                    -0.13860547542572021,
                    -0.1057443842291832,
                    0.1150079295039177,
                    0.2772308588027954,
                    -0.042879946529865265,
                    0.2072175294160843,
                    0.019622303545475006,
                    0.021920571103692055,
                    -0.18271170556545258,
                    -0.052236407995224,
                    0.0982569083571434,
                    -0.08568478375673294,
                    -0.2051330804824829,
                    0.02263234183192253,
                    0.2725287079811096,
                    -0.13862235844135284,
                    -0.08385096490383148,
                    0.1412479281425476,
                    -0.062043387442827225,
                    0.13026991486549377,
                    -0.0830097571015358,
                    -0.09483787417411804,
                    -0.16769185662269592,
                    -0.09785957634449005,
                    -0.2721700668334961,
                    0.1660316437482834,
                    0.1651764214038849,
                    0.1992635726928711,
                    0.11224634200334549,
                    0.11027071624994278,
                    -0.03571298345923424,
                    -0.12206698954105377,
                    0.07022082060575485,
                    0.09539064764976501,
                    0.2062419056892395,
                    -0.24698223173618317,
                    -0.0821160152554512,
                    -0.21158458292484283,
                    -0.1162281185388565,
                    0.07304920256137848,
                    0.13801810145378113,
                    0.11994528025388718,
                    -0.23522454500198364,
                    -0.0931927040219307,
                    -0.03320900723338127,
                    -0.19092445075511932,
                    -0.19274762272834778,
                    -0.08202635496854782,
                    -0.16020521521568298,
                    0.20975066721439362,
                    0.047164034098386765,
                    0.036140814423561096,
                    -0.22576242685317993,
                    -0.23362161219120026,
                    -0.1800157129764557,
                    0.03961361572146416,
                    0.1668597012758255,
                    -0.14975690841674805,
                    -0.06255783140659332,
                    -0.1638915240764618,
                    0.1004660353064537,
                    -0.144041046500206,
                    -0.03328322619199753,
                    0.10561377555131912,
                    0.05650365725159645,
                    -0.047560449689626694,
                    -0.02966451644897461,
                    0.09829697757959366,
                    0.061927955597639084,
                    0.21801239252090454,
                    0.15438473224639893,
                    0.11467672884464264,
                    0.005648983176797628,
                    -0.3081255257129669,
                    0.08173011243343353,
                    -0.23813632130622864,
                    -0.2677687406539917,
                    0.25065726041793823,
                    -0.18370065093040466,
                    -0.295995831489563,
                    -0.11008454114198685,
                    0.2778238356113434,
                    0.2827839255332947,
                    -0.18058079481124878,
                    -0.21394431591033936,
                    -0.26856085658073425,
                    0.27282193303108215,
                    -0.2555420994758606,
                    -0.20018179714679718,
                    -0.3503200113773346,
                    0.10762803256511688,
                    -0.24140359461307526,
                    -0.1509542465209961,
                    -0.08919872343540192,
                    0.09967376291751862,
                    -0.2299482524394989,
                    -0.22832787036895752,
                    0.0035076788626611233,
                    0.04770854488015175,
                    0.04697507992386818,
                    0.10123828798532486,
                    -0.24396727979183197,
                    -0.15781468152999878,
                    -0.23734739422798157,
                    0.24554121494293213,
                    0.06812368333339691,
                    0.12399084120988846,
                    -0.011938740499317646,
                    0.08184962719678879,
                    -0.26722902059555054,
                    0.20587784051895142,
                    -0.03377274051308632,
                    -0.23490150272846222,
                    -0.17925386130809784,
                    -0.26448675990104675,
                    0.230085551738739,
                    0.2745111882686615,
                    -0.005207416135817766,
                    0.23068690299987793,
                    0.19071434438228607,
                    0.07478009164333344,
                    -0.12360996007919312,
                    -0.10095829516649246,
                    -0.291777104139328,
                    0.31177911162376404,
                    0.04163214564323425,
                    -0.22794997692108154,
                    0.19086667895317078,
                    0.07951817661523819,
                    0.14741815626621246,
                    -0.20278340578079224,
                    -0.10326066613197327,
                    0.23418639600276947,
                    -0.14916780591011047,
                    0.2091032713651657,
                    -0.2956945300102234,
                    0.07496991008520126,
                    -0.39095383882522583,
                    0.2585356533527374,
                    -0.12720422446727753,
                    0.26858463883399963,
                    0.28652700781822205,
                    0.21899716556072235,
                    -0.13692082464694977,
                    0.21410582959651947,
                    -0.06569957733154297,
                    -0.20233561098575592,
                    0.05644458159804344,
                    0.05920618027448654,
                    0.3818279206752777,
                    -0.20530182123184204,
                    0.14570295810699463,
                    -0.03545793145895004,
                    0.015325970016419888,
                    0.024168098345398903,
                    -0.31220948696136475,
                    -0.25913429260253906,
                    -0.1447424441576004,
                    -0.023933129385113716,
                    -0.23811744153499603,
                    0.2213589996099472,
                    -0.13313673436641693,
                    0.16287589073181152,
                    0.1313808709383011,
                    0.0796373263001442,
                    0.04894823580980301,
                    -0.021510442718863487,
                    0.2332553118467331,
                    -0.20738163590431213,
                    -0.2086866945028305,
                    0.07373147457838058,
                    0.2821328341960907,
                    -0.23929156363010406,
                    -0.28311121463775635,
                    0.1932077258825302,
                    0.35300788283348083,
                    -0.3126842677593231,
                    -0.2395181655883789,
                    -0.14618097245693207,
                    0.10847748070955276,
                    0.24625617265701294,
                    -0.15911950170993805,
                    0.19513748586177826,
                    0.14855775237083435,
                    -0.2305779904127121,
                    0.21362704038619995,
                    -0.31411463022232056,
                    0.29488620162010193,
                    0.25460007786750793,
                    0.20386290550231934,
                    0.3226158022880554,
                    -0.036030374467372894,
                    0.1114451065659523,
                    0.09343276917934418,
                    -0.012625849805772305,
                    -0.20669755339622498,
                    -0.11326845735311508,
                    -0.14817245304584503,
                    0.24245460331439972,
                    -0.32295265793800354,
                    -0.007507797330617905,
                    0.2179946005344391,
                    0.2567710280418396,
                    0.19831837713718414,
                    0.16446228325366974,
                    0.25629639625549316,
                    0.07053753733634949,
                    -0.27373987436294556,
                    0.26845788955688477,
                    -0.025098394602537155,
                    -0.009501266293227673,
                    -0.07174952328205109,
                    0.21581792831420898,
                    -0.07887996733188629,
                    0.21739307045936584,
                    0.4137520492076874,
                    0.28983551263809204,
                    0.2109348624944687
                ]
            },
            {
                "_type": "ndarray",
                "shape": [
                    64
                ],
                "dtype": "float32",
                "data": [
                    -0.006802281364798546,
                    -0.0026179614942520857,
                    0.006446204613894224,
                    0.034670256078243256,
                    -0.01605937071144581,
                    0.00959294755011797,
                    -0.013593677431344986,
                    0.021262342110276222,
                    -0.0074225375428795815,
                    -0.010136149823665619,
                    -0.003492731135338545,
                    0.0020047472789883614,
                    0.010286897420883179,
                    0.017359880730509758,
                    -0.0036119783762842417,
                    -0.0193026065826416,
                    -0.012610095553100109,
                    -0.006664976477622986,
                    0.0033960919827222824,
                    -0.020916011184453964,
                    -0.013561909087002277,
                    -0.0011271568946540356,
                    0.005247296299785376,
                    0.008514726534485817,
                    -0.009081105701625347,
                    0.008749078027904034,
                    -0.022465504705905914,
                    0.029666149988770485,
                    -0.006764828693121672,
                    -0.0006960327154956758,
                    -0.0012787668965756893,
                    -0.010352245531976223,
                    0.002128402702510357,
                    -0.022199325263500214,
                    0.026691963896155357,
                    -0.005530302878469229,
                    0.021872522309422493,
                    -0.011011806316673756,
                    0.02290656790137291,
                    -0.0028466328512877226,
                    -0.012425585649907589,
                    0.0024740754161030054,
                    0.006474822759628296,
                    0.0042069754563272,
                    0.01018254179507494,
                    0.0012173587456345558,
                    -3.5398799809627235e-05,
                    0.016452660784125328,
                    0.004863550420850515,
                    0.0037392904050648212,
                    -0.016524916514754295,
                    -0.006762458477169275,
                    -0.006354881916195154,
                    -0.009665485471487045,
                    -0.004959292244166136,
                    -0.0029503514524549246,
                    -0.012590393424034119,
                    -0.0034627660643309355,
                    -0.003192066913470626,
                    0.01855362020432949,
                    -0.018338803201913834,
                    0.035180479288101196,
                    -0.009825920686125755,
                    -0.005740309599786997
                ]
            }
        ]
    },
    {
        "class": "keras.layers.core.dense.Dense",
        "config": {
            "name": "dense_1",
            "trainable": true,
            "dtype": "float32",
            "units": 64,
            "activation": "softplus",
            "use_bias": true,
            "kernel_initializer": {
                "class_name": "GlorotUniform",
                "config": {
                    "seed": null
                }
            },
            "bias_initializer": {
                "class_name": "Zeros",
                "config": {}
            },
            "kernel_regularizer": null,
            "bias_regularizer": null,
            "activity_regularizer": null,
            "kernel_constraint": null,
            "bias_constraint": null
        },
        "weights": [
            {
                "_type": "ndarray",
                "shape": [
                    64,
                    64
                ],
                "dtype": "float32",
                "data": [
                    -0.12193083763122559,
                    0.09854244440793991,
                    -0.02053539827466011,
                    0.10263557732105255,
                    -0.1310456544160843,
                    0.05556849017739296,
                    -0.026428313925862312,
                    -0.15076586604118347,
                    -0.10401470214128494,
                    0.20921775698661804,
                    0.05718202516436577,
                    0.20967189967632294,
                    0.13601766526699066,
                    -0.017307095229625702,
                    -0.18217094242572784,
                    -0.14914338290691376,
                    0.07782367616891861,
                    0.009496578015387058,
                    -0.012605034746229649,
                    0.04775490611791611,
                    0.12601932883262634,
                    -0.03874941170215607,
                    -0.17833107709884644,
                    -0.18496748805046082,
                    0.03386523574590683,
                    0.16003504395484924,
                    0.1324084997177124,
                    0.02998283877968788,
                    0.052993495017290115,
                    0.09249036759138107,
                    -0.08923414349555969,
                    0.059176843613386154,
                    -0.0731521025300026,
                    0.2120753824710846,
                    0.02298750914633274,
                    -0.1629965454339981,
                    0.1587548553943634,
                    0.07227590680122375,
                    0.01868806965649128,
                    -0.03641970083117485,
                    -0.11525168269872665,
                    0.16119138896465302,
                    0.11043240129947662,
                    -0.18049156665802002,
                    -0.03372635692358017,
                    0.08286606520414352,
                    0.02433597669005394,
                    -0.1768796443939209,
                    0.10127240419387817,
                    -0.14456982910633087,
                    -0.09111414104700089,
                    -0.19191312789916992,
                    -0.23325902223587036,
                    0.1451016515493393,
                    0.033064208924770355,
                    0.06603763997554779,
                    0.10433107614517212,
                    0.17992834746837616,
                    0.07629799842834473,
                    0.13441471755504608,
                    0.144297257065773,
                    -0.07721268385648727,
                    0.14746426045894623,
                    -0.16927312314510345,
                    0.18839053809642792,
                    9.865742322290316e-05,
                    -0.019358715042471886,
                    0.2100956290960312,
                    -0.03637814149260521,
                    -0.05510909482836723,
                    -0.01709355041384697,
                    0.2008989453315735,
                    -0.14256469905376434,
                    -0.1719823181629181,
                    -0.13809196650981903,
                    0.21903622150421143,
                    -0.20188534259796143,
                    -0.13492286205291748,
                    -0.04116593673825264,
                    -0.01655828393995762,
                    0.026050860062241554,
                    -0.06849686801433563,
                    -0.17066948115825653,
                    0.10087514668703079,
                    -0.022722570225596428,
                    0.06688537448644638,
                    0.16872477531433105,
                    0.13802702724933624,
                    -0.06841809302568436,
                    -0.091534323990345,
                    -0.12727363407611847,
                    -0.0800274908542633,
                    0.03114021010696888,
                    -0.10675346851348877,
                    -0.07403077185153961,
                    0.08684481680393219,
                    -0.10048557072877884,
                    0.1898725926876068,
                    -0.07910120487213135,
                    -0.04368354380130768,
                    -0.1109945997595787,
                    0.019309397786855698,
                    -0.1184227243065834,
                    0.0517151765525341,
                    0.005567660089582205,
                    0.18681441247463226,
                    0.15568315982818604,
                    -0.029864123091101646,
                    -0.04796380549669266,
                    0.09659595042467117,
                    -0.1818426102399826,
                    -0.18038509786128998,
                    -0.06251323968172073,
                    -0.015382821671664715,
                    -0.08995731920003891,
                    -0.05104129761457443,
                    0.17633098363876343,
                    -0.20297619700431824,
                    -0.06770609319210052,
                    -0.17949335277080536,
                    -0.10083798319101334,
                    -0.022057268768548965,
                    -0.11555805802345276,
                    0.14743372797966003,
                    0.13641990721225739,
                    0.20613135397434235,
                    -0.16105064749717712,
                    -0.056100983172655106,
                    -0.022402767091989517,
                    0.07115330547094345,
                    0.0291653610765934,
                    0.18111607432365417,
                    -0.05925493314862251,
                    0.11506496369838715,
                    0.005877370480448008,
                    0.07376382499933243,
                    -0.11395270377397537,
                    0.08821751922369003,
                    -0.15840893983840942,
                    -0.093020498752594,
                    0.15670855343341827,
                    -0.18923763930797577,
                    0.11674455553293228,
                    0.06004582345485687,
                    0.17204628884792328,
                    -0.08212480694055557,
                    -0.03378378599882126,
                    -0.13561925292015076,
                    0.16685162484645844,
                    -0.0898168757557869,
                    -0.06045025959610939,
                    -0.11784002184867859,
                    -0.12299341708421707,
                    -0.06168605759739876,
                    0.16310152411460876,
                    -0.06448879837989807,
                    -0.18941916525363922,
                    -0.06371068954467773,
                    -0.0021494680549949408,
                    0.21309655904769897,
                    -0.05866668000817299,
                    -0.04423623904585838,
                    0.18331505358219147,
                    -0.030652860179543495,
                    -0.04843021556735039,
                    0.07204338908195496,
                    0.027193475514650345,
                    0.1705942451953888,
                    -0.1399288922548294,
                    -0.02688705176115036,
                    0.12429150193929672,
                    -0.18611136078834534,
                    -0.07630366832017899,
                    0.002601557644084096,
                    -0.13897554576396942,
                    0.22052937746047974,
                    0.1826377511024475,
                    0.07839605957269669,
                    -0.1695908159017563,
                    -0.019364984706044197,
                    -0.038093436509370804,
                    0.003459606785327196,
                    0.05640352889895439,
                    0.1394747793674469,
                    0.08545281738042831,
                    -0.049715012311935425,
                    -0.17900201678276062,
                    -0.1943923830986023,
                    -0.021001847460865974,
                    0.12099505960941315,
                    -0.17572177946567535,
                    -0.21008560061454773,
                    -0.007407882250845432,
                    -0.16775155067443848,
                    0.0003763423883356154,
                    0.09519166499376297,
                    -0.09637337923049927,
                    -0.18836458027362823,
                    0.0974949449300766,
                    0.0804792270064354,
                    -0.14236687123775482,
                    0.020023483783006668,
                    -0.10232575237751007,
                    0.055677060037851334,
                    -0.07430482655763626,
                    -0.04001600667834282,
                    -0.1314448118209839,
                    0.018659770488739014,
                    -0.1566992998123169,
                    -0.1336546689271927,
                    0.17772366106510162,
                    0.020022008568048477,
                    0.08459244668483734,
                    0.15179304778575897,
                    -0.17039699852466583,
                    0.114289790391922,
                    -0.0602426640689373,
                    0.12246812880039215,
                    -0.1264132708311081,
                    0.017514357343316078,
                    0.02081439271569252,
                    -0.16215665638446808,
                    -0.08329834043979645,
                    0.06956464052200317,
                    -0.06461085379123688,
                    -0.015693791210651398,
                    -0.059179551899433136,
                    -0.044654954224824905,
                    0.03645846247673035,
                    0.12428546696901321,
                    -0.03601843863725662,
                    -0.19185829162597656,
                    -0.06339054554700851,
                    0.0201828945428133,
                    -0.06136032193899155,
                    0.012683876790106297,
                    -0.06792064011096954,
                    0.11857467889785767,
                    -0.029172176495194435,
                    0.14062047004699707,
                    0.1563611477613449,
                    0.10105986893177032,
                    -0.201651930809021,
                    0.009539266116917133,
                    0.019653620198369026,
                    0.15268650650978088,
                    0.09100250899791718,
                    -0.08518730849027634,
                    -0.0365975946187973,
                    -0.02654123120009899,
                    -0.08776713907718658,
                    -0.11839710175991058,
                    0.17475485801696777,
                    0.17004196345806122,
                    0.10564909875392914,
                    0.10322979092597961,
                    0.0035753208212554455,
                    -0.09822046011686325,
                    -0.18505309522151947,
                    0.035701677203178406,
                    0.1760769635438919,
                    -0.11067507416009903,
                    -0.055665869265794754,
                    0.05055517703294754,
                    -0.12225828319787979,
                    0.06440635770559311,
                    0.019529571756720543,
                    -0.18019874393939972,
                    -0.1581641435623169,
                    0.10155926644802094,
                    0.06415211409330368,
                    -0.18759480118751526,
                    -0.0080732312053442,
                    -0.037920404225587845,
                    -0.04300795495510101,
                    -0.07163341343402863,
                    0.036853961646556854,
                    -0.034639567136764526,
                    -0.1569548100233078,
                    -0.10627233237028122,
                    -0.002356281504034996,
                    0.10561554878950119,
                    0.11499787122011185,
                    -0.04595142602920532,
                    0.06180942431092262,
                    0.07706441730260849,
                    -0.03490138798952103,
                    -0.09178027510643005,
                    -0.16287761926651,
                    0.19602428376674652,
                    -0.03845192492008209,
                    -0.17936518788337708,
                    -0.1753482073545456,
                    0.07607026398181915,
                    0.11535291373729706,
                    0.09575117379426956,
                    -0.05213983729481697,
                    -0.22327174246311188,
                    0.1288916915655136,
                    -0.22152064740657806,
                    0.054301824420690536,
                    -0.06298928707838058,
                    -0.02084936574101448,
                    0.1846083253622055,
                    0.08428256958723068,
                    0.05854358151555061,
                    0.04984740912914276,
                    -0.05895458534359932,
                    -0.15967108309268951,
                    0.04202008992433548,
                    -0.12841394543647766,
                    0.0014889526646584272,
                    0.08427467197179794,
                    0.04661628603935242,
                    -0.12026999145746231,
                    -0.22676168382167816,
                    -0.16637298464775085,
                    0.04338638857007027,
                    -0.2092096358537674,
                    0.1197948306798935,
                    -0.08501920849084854,
                    -0.17177462577819824,
                    -0.17810246348381042,
                    -0.17820893228054047,
                    -0.10270382463932037,
                    0.009786617010831833,
                    0.022373011335730553,
                    -0.17240916192531586,
                    -0.006481473799794912,
                    0.017969314008951187,
                    0.18404820561408997,
                    0.18151800334453583,
                    -0.013675427995622158,
                    0.20639455318450928,
                    -0.08648260682821274,
                    0.1851269006729126,
                    0.04931824654340744,
                    -0.09493504464626312,
                    -0.2098017781972885,
                    0.1401783674955368,
                    -0.13040538132190704,
                    0.09010635316371918,
                    0.05925867706537247,
                    -0.08356176316738129,
                    0.205778568983078,
                    -0.12204281985759735,
                    0.04656542092561722,
                    -0.12770916521549225,
                    0.11441300809383392,
                    -0.1788237988948822,
                    -0.14941582083702087,
                    0.1487884372472763,
                    -0.1711881160736084,
                    0.16433517634868622,
                    -0.15760304033756256,
                    -0.18005307018756866,
                    -0.008948136121034622,
                    -0.20260608196258545,
                    -0.03559831157326698,
                    -0.23341554403305054,
                    0.08475882560014725,
                    0.17379388213157654,
                    0.12006452679634094,
                    -0.03174557536840439,
                    0.11178931593894958,
                    -0.11708112806081772,
                    -0.15341821312904358,
                    -0.07340987026691437,
                    0.007911735214293003,
                    0.15440312027931213,
                    0.020122656598687172,
                    -0.16965220868587494,
                    0.033113714307546616,
                    -0.06709157675504684,
                    -0.162758469581604,
                    0.1566743403673172,
                    -0.14766448736190796,
                    0.1465124785900116,
                    -0.18233966827392578,
                    -0.19808001816272736,
                    0.10111864656209946,
                    0.0388871505856514,
                    -0.14029844105243683,
                    0.19068698585033417,
                    0.14158254861831665,
                    0.14310583472251892,
                    -0.029040897265076637,
                    -0.16504867374897003,
                    -0.018615534529089928,
                    -0.01920875906944275,
                    -0.02407759614288807,
                    0.2102975994348526,
                    0.117693692445755,
                    -0.1941075474023819,
                    -0.0008519995608367026,
                    -0.05537141487002373,
                    -0.11690367013216019,
                    0.007905120961368084,
                    -0.05851082503795624,
                    0.11686767637729645,
                    0.1516849398612976,
                    -0.1372532993555069,
                    -0.2097795158624649,
                    0.0054872711189091206,
                    0.163772314786911,
                    0.12775833904743195,
                    0.07862892746925354,
                    -0.21033230423927307,
                    0.13825495541095734,
                    0.07232525944709778,
                    0.009441333822906017,
                    0.054258257150650024,
                    0.03648015484213829,
                    0.17547401785850525,
                    0.12902534008026123,
                    -0.07982958853244781,
                    -0.11245313286781311,
                    -0.0021473285742104053,
                    0.13472989201545715,
                    0.15525779128074646,
                    0.03355567529797554,
                    -0.10530416667461395,
                    -0.020584292709827423,
                    -0.1931038349866867,
                    -0.07701343297958374,
                    -0.16829290986061096,
                    -0.14660809934139252,
                    0.029995430260896683,
                    0.08894580602645874,
                    0.18678927421569824,
                    0.028913354501128197,
                    0.19772875308990479,
                    0.1447950303554535,
                    -0.04593818634748459,
                    0.17833904922008514,
                    -0.20699270069599152,
                    0.09817393869161606,
                    -0.039963651448488235,
                    -0.06513760983943939,
                    0.04206300526857376,
                    0.1729830503463745,
                    -0.05846817418932915,
                    -0.20199474692344666,
                    0.05596150830388069,
                    -0.06388045102357864,
                    -0.11462955921888351,
                    -0.1977681964635849,
                    0.0697067603468895,
                    -0.21338681876659393,
                    -0.2231568992137909,
                    0.05536476895213127,
                    -0.14362552762031555,
                    -0.13063494861125946,
                    -0.2078535109758377,
                    -0.06444204598665237,
                    0.13382180035114288,
                    0.11727799475193024,
                    -0.020589554682374,
                    0.19190213084220886,
                    -0.10582075268030167,
                    -0.17500165104866028,
                    0.010111748240888119,
                    0.016222620382905006,
                    -0.17018787562847137,
                    0.19354450702667236,
                    0.013358276337385178,
                    -0.1480521410703659,
                    0.20940957963466644,
                    -0.04800153896212578,
                    -0.11046123504638672,
                    -0.05830593407154083,
                    -0.20594114065170288,
                    0.13140282034873962,
                    0.2042500376701355,
                    0.096137635409832,
                    0.1241099014878273,
                    0.16684743762016296,
                    0.190574049949646,
                    -0.1507173776626587,
                    -0.1193210631608963,
                    0.07445967197418213,
                    0.036681123077869415,
                    0.2032526433467865,
                    0.15918678045272827,
                    -0.20825262367725372,
                    -0.1282513588666916,
                    0.06890819221735,
                    0.09163238108158112,
                    -0.17275317013263702,
                    -0.10865066945552826,
                    -0.18681678175926208,
                    -0.08222050219774246,
                    0.14506706595420837,
                    0.007675937842577696,
                    0.11165719479322433,
                    -0.13463181257247925,
                    -0.031135911121964455,
                    0.003941132687032223,
                    0.12371403723955154,
                    0.07671775668859482,
                    0.1641690582036972,
                    0.09714566916227341,
                    0.19038207828998566,
                    -0.10310058295726776,
                    -0.18000739812850952,
                    -0.033420439809560776,
                    0.2055198848247528,
                    0.16071191430091858,
                    0.0012455766554921865,
                    0.020390447229146957,
                    0.13623522222042084,
                    -0.17592883110046387,
                    0.046687740832567215,
                    0.1904759705066681,
                    -0.13273479044437408,
                    -0.0791054293513298,
                    0.006721197627484798,
                    0.04813417047262192,
                    -0.17930294573307037,
                    -0.027752788737416267,
                    0.09377097338438034,
                    -0.04719802364706993,
                    -0.030234092846512794,
                    -0.029305366799235344,
                    -0.006386096123605967,
                    0.056347887963056564,
                    0.19000200927257538,
                    -0.10681577026844025,
                    -0.09999682754278183,
                    0.13327062129974365,
                    -0.12931905686855316,
                    -0.06871655583381653,
                    -0.08462531119585037,
                    -0.16902144253253937,
                    -0.18590539693832397,
                    0.04448654502630234,
                    -0.17796926200389862,
                    -0.05331212654709816,
                    -0.17125369608402252,
                    -0.012890241108834743,
                    0.1572006791830063,
                    0.17004501819610596,
                    -0.18152464926242828,
                    -0.16245675086975098,
                    -0.14845243096351624,
                    0.016568228602409363,
                    -0.2016323357820511,
                    -0.13819335401058197,
                    -0.08175908029079437,
                    0.04071950539946556,
                    -0.131797656416893,
                    0.15160296857357025,
                    0.11018341034650803,
                    0.0658605620265007,
                    0.002567075425758958,
                    0.2037641406059265,
                    0.20538732409477234,
                    0.11177998036146164,
                    -0.004054417833685875,
                    -0.1474943906068802,
                    0.028303544968366623,
                    0.015015419572591782,
                    -0.1864873617887497,
                    -0.11329783499240875,
                    0.03763924911618233,
                    0.037516362965106964,
                    -0.1988084465265274,
                    0.10198863595724106,
                    0.05714979022741318,
                    0.18103578686714172,
                    0.09624642878770828,
                    -0.05931169539690018,
                    -0.019071869552135468,
                    0.12755164504051208,
                    0.20647186040878296,
                    0.15254472196102142,
                    0.03870175778865814,
                    0.17037786543369293,
                    -0.056183721870183945,
                    0.16935783624649048,
                    0.0820387676358223,
                    -0.14553335309028625,
                    -0.1599806845188141,
                    -0.08239128440618515,
                    -0.20684970915317535,
                    0.11828669905662537,
                    0.07909893989562988,
                    0.13817040622234344,
                    0.15694956481456757,
                    0.09482686221599579,
                    0.12663450837135315,
                    0.08706911653280258,
                    0.14271780848503113,
                    -0.18776682019233704,
                    0.15785767138004303,
                    -0.030264293774962425,
                    -0.17888076603412628,
                    -0.06674963980913162,
                    0.19863423705101013,
                    -0.12436538189649582,
                    0.06701052933931351,
                    -0.03782029449939728,
                    0.08174552768468857,
                    0.14098261296749115,
                    -0.04216362163424492,
                    -0.13745950162410736,
                    0.21784070134162903,
                    -0.19589920341968536,
                    -0.09579947590827942,
                    -0.05191072076559067,
                    0.05413379147648811,
                    -0.0637935996055603,
                    0.0804855078458786,
                    0.022700075060129166,
                    -0.025260288268327713,
                    -0.183004230260849,
                    0.018486402928829193,
                    0.03842413052916527,
                    0.19540530443191528,
                    0.1849668025970459,
                    0.22119465470314026,
                    -0.14638711512088776,
                    -0.06609932333230972,
                    0.1455225646495819,
                    0.08721940219402313,
                    0.05340290069580078,
                    -0.09540794044733047,
                    0.1263168901205063,
                    -0.04481925815343857,
                    -0.035757143050432205,
                    -0.16660232841968536,
                    -0.1762363761663437,
                    -0.18715810775756836,
                    0.1667386293411255,
                    0.09439985454082489,
                    -0.1788804978132248,
                    0.0789707601070404,
                    0.22326020896434784,
                    0.16688494384288788,
                    0.1479930877685547,
                    0.018347205594182014,
                    0.1382196843624115,
                    0.05495097488164902,
                    0.025349028408527374,
                    -0.11437918245792389,
                    0.188893124461174,
                    -0.11040906608104706,
                    0.14430725574493408,
                    0.0679989606142044,
                    0.14955969154834747,
                    -0.03404161334037781,
                    0.09561753273010254,
                    -0.10192911326885223,
                    0.06121936812996864,
                    0.16602863371372223,
                    0.0951550155878067,
                    0.17819653451442719,
                    -0.16328147053718567,
                    0.07947637885808945,
                    -0.15235300362110138,
                    0.1033104732632637,
                    -0.008194132708013058,
                    0.07705390453338623,
                    -0.14698441326618195,
                    -0.22424940764904022,
                    0.18784138560295105,
                    -0.16761945188045502,
                    0.09647411108016968,
                    -0.14716459810733795,
                    0.038677435368299484,
                    -0.14272825419902802,
                    -0.006434307433664799,
                    -0.1669970005750656,
                    -0.19430702924728394,
                    -0.14737536013126373,
                    -0.1793874353170395,
                    -0.16960546374320984,
                    -0.09647776186466217,
                    0.10860177874565125,
                    0.013863392174243927,
                    0.20387215912342072,
                    0.08403266966342926,
                    -0.1536097526550293,
                    -0.19989311695098877,
                    0.1965511590242386,
                    0.04765559360384941,
                    -0.18432842195034027,
                    -2.8738073524436913e-05,
                    -0.17200542986392975,
                    -0.21825043857097626,
                    -0.007098466157913208,
                    -0.14107878506183624,
                    0.03142205625772476,
                    -0.2155407816171646,
                    0.08850328624248505,
                    -0.1086382046341896,
                    -0.15419650077819824,
                    -0.12200609594583511,
                    0.19615870714187622,
                    0.15604159235954285,
                    -0.21665510535240173,
                    0.06910121440887451,
                    0.05330122262239456,
                    0.022653207182884216,
                    -0.032520126551389694,
                    0.13849756121635437,
                    -0.041834402829408646,
                    -0.19461274147033691,
                    0.1316029578447342,
                    0.19357521831989288,
                    -0.11845206469297409,
                    0.10524274408817291,
                    0.16067220270633698,
                    -0.006410351023077965,
                    0.18948742747306824,
                    -0.10083890706300735,
                    -0.05459381267428398,
                    0.029773473739624023,
                    -0.03899706155061722,
                    0.10158054530620575,
                    -0.08235009759664536,
                    0.16365496814250946,
                    -0.0754692405462265,
                    -0.20425401628017426,
                    -0.0882711410522461,
                    -0.0033491074573248625,
                    0.0346619188785553,
                    0.1939663290977478,
                    0.09288125485181808,
                    -0.12603206932544708,
                    -0.0763305202126503,
                    -0.07585573941469193,
                    -0.17373818159103394,
                    -0.1687212437391281,
                    0.08685308694839478,
                    -0.06836744397878647,
                    0.024449557065963745,
                    0.1031477078795433,
                    0.08465197682380676,
                    0.11346856504678726,
                    0.1310383528470993,
                    -0.2184871882200241,
                    -0.06957025080919266,
                    0.08892473578453064,
                    -0.07985980808734894,
                    -0.045622460544109344,
                    0.01786571368575096,
                    0.16478751599788666,
                    0.08366672694683075,
                    -0.10790133476257324,
                    -0.2200862616300583,
                    -0.09115481376647949,
                    0.14095701277256012,
                    -0.008478288538753986,
                    0.09941431879997253,
                    -0.16799823939800262,
                    0.1392563134431839,
                    -0.1509927660226822,
                    0.1692652553319931,
                    -0.12154082953929901,
                    0.09227669984102249,
                    0.17437481880187988,
                    -0.12395013868808746,
                    0.1365002542734146,
                    -0.021398259326815605,
                    0.18086279928684235,
                    -0.22048810124397278,
                    0.19269217550754547,
                    0.21373394131660461,
                    -0.0397762767970562,
                    -0.021196797490119934,
                    0.1340881586074829,
                    0.0815514624118805,
                    -0.20173481106758118,
                    -0.025047210976481438,
                    -0.11068996787071228,
                    -0.10880981385707855,
                    -0.02412763610482216,
                    0.20264647901058197,
                    0.030126020312309265,
                    0.1159052699804306,
                    0.21414753794670105,
                    -0.11155607551336288,
                    -0.13403181731700897,
                    0.02109474129974842,
                    0.18691487610340118,
                    0.11693905293941498,
                    0.06993239372968674,
                    -0.13550977408885956,
                    -0.05440691113471985,
                    0.00018201903731096536,
                    -0.048161622136831284,
                    -0.01785869710147381,
                    0.20895430445671082,
                    0.11912398040294647,
                    0.20269787311553955,
                    0.21300546824932098,
                    -0.017369119450449944,
                    -0.07485197484493256,
                    0.13903078436851501,
                    -0.1457967311143875,
                    -0.17841793596744537,
                    0.04771687462925911,
                    0.20156003534793854,
                    0.08424001187086105,
                    -0.1581910252571106,
                    -0.11764385551214218,
                    0.15269958972930908,
                    -0.06438859552145004,
                    -0.17786277830600739,
                    0.008915730752050877,
                    0.17446252703666687,
                    -0.00908659491688013,
                    -0.1663142591714859,
                    0.14322006702423096,
                    -0.01637503318488598,
                    -0.0658031702041626,
                    -0.15743745863437653,
                    0.0013216902734711766,
                    0.08684826642274857,
                    -0.15132185816764832,
                    0.21835924685001373,
                    -0.14204327762126923,
                    0.04522819072008133,
                    0.22140882909297943,
                    -0.18988892436027527,
                    0.10111719369888306,
                    -0.07176026701927185,
                    -0.21752895414829254,
                    -0.13992886245250702,
                    0.20040439069271088,
                    -0.017726536840200424,
                    -0.13793736696243286,
                    0.08652251958847046,
                    0.05724668502807617,
                    0.019444433972239494,
                    -0.17634186148643494,
                    -0.1192595437169075,
                    0.1499614417552948,
                    -0.010381191968917847,
                    -0.13177329301834106,
                    0.03629321977496147,
                    -0.1481393724679947,
                    0.12526990473270416,
                    0.055752091109752655,
                    0.03423716127872467,
                    -0.08149809390306473,
                    0.016437746584415436,
                    0.0780736431479454,
                    0.21275508403778076,
                    -0.0848366767168045,
                    0.149749293923378,
                    -0.21741746366024017,
                    0.015628008171916008,
                    0.1313711702823639,
                    -0.11611723899841309,
                    -0.1619996279478073,
                    -0.007929482497274876,
                    0.13688631355762482,
                    -0.19239263236522675,
                    0.09734859317541122,
                    -0.08162044733762741,
                    -0.031249625608325005,
                    0.1822328418493271,
                    -0.1591024398803711,
                    0.19017957150936127,
                    0.17320875823497772,
                    -0.19508413970470428,
                    0.11809323728084564,
                    -0.19966468214988708,
                    -0.0762672871351242,
                    -0.1383383423089981,
                    0.18110887706279755,
                    -0.14090299606323242,
                    -0.03772694990038872,
                    -0.0857807919383049,
                    0.04364780709147453,
                    0.13491638004779816,
                    0.06785118579864502,
                    0.036240916699171066,
                    -0.045030031353235245,
                    -0.09372302144765854,
                    -0.16933707892894745,
                    0.07027162611484528,
                    -0.1411166936159134,
                    -0.13648638129234314,
                    -0.021549250930547714,
                    0.1207018494606018,
                    -0.14468319714069366,
                    -0.21826790273189545,
                    -0.03424521163105965,
                    0.003152567893266678,
                    0.022452199831604958,
                    0.009235369972884655,
                    -0.0801641196012497,
                    -0.00287958444096148,
                    0.03031506948173046,
                    -0.12100020051002502,
                    -0.17285796999931335,
                    0.02213433012366295,
                    0.17994102835655212,
                    0.0963350310921669,
                    0.20162895321846008,
                    -0.13543175160884857,
                    -0.009457445703446865,
                    -0.0846395343542099,
                    -0.2090316116809845,
                    0.06261929869651794,
                    -0.08026067912578583,
                    0.03548678755760193,
                    -0.013127234764397144,
                    -0.044521838426589966,
                    -0.1785431206226349,
                    0.09550527483224869,
                    -0.04547099769115448,
                    -0.08886409550905228,
                    -0.18048208951950073,
                    -0.03968273103237152,
                    0.00417884299531579,
                    -0.2066292017698288,
                    -0.1763790249824524,
                    -0.02061404287815094,
                    -0.12682804465293884,
                    0.17494337260723114,
                    0.04772275313735008,
                    0.17183040082454681,
                    -0.13085581362247467,
                    -0.0698988139629364,
                    -0.15326431393623352,
                    -0.07586725801229477,
                    -0.21188192069530487,
                    0.09347301721572876,
                    0.06125028431415558,
                    0.03193902224302292,
                    0.18397264182567596,
                    -0.07365982234477997,
                    0.251312255859375,
                    -0.0728793814778328,
                    0.14604933559894562,
                    0.055445414036512375,
                    -0.19584989547729492,
                    0.09450803697109222,
                    0.08396927267313004,
                    -0.010344509966671467,
                    0.07706410437822342,
                    -0.06723025441169739,
                    -0.18628142774105072,
                    -0.08647465705871582,
                    -0.06572174280881882,
                    -0.15444007515907288,
                    0.1715104877948761,
                    -0.07589352875947952,
                    -0.12016598880290985,
                    0.08403322845697403,
                    0.199941486120224,
                    0.15322010219097137,
                    0.17919477820396423,
                    -0.08716066181659698,
                    0.19324171543121338,
                    -0.007222265470772982,
                    0.003672428196296096,
                    0.2050311118364334,
                    0.20425821840763092,
                    -0.18872089684009552,
                    0.10985857248306274,
                    0.19180503487586975,
                    -0.13342761993408203,
                    0.011416971683502197,
                    -0.19041523337364197,
                    0.044706929475069046,
                    -0.11672981828451157,
                    -0.06911496073007584,
                    0.00554684130474925,
                    0.08110083639621735,
                    0.11928881704807281,
                    0.06785571575164795,
                    0.10600940138101578,
                    -0.10448037087917328,
                    -0.14480866491794586,
                    0.11813224107027054,
                    0.08482340723276138,
                    -0.030682409182190895,
                    -0.12392144650220871,
                    -0.07738470286130905,
                    0.06430555880069733,
                    0.05611935257911682,
                    -0.01455005630850792,
                    -0.13621807098388672,
                    0.04797879606485367,
                    -0.16994665563106537,
                    0.04206532984972,
                    -0.10990680009126663,
                    0.01368333213031292,
                    -0.04911445826292038,
                    0.19134609401226044,
                    -0.0037707206793129444,
                    -0.2160973697900772,
                    0.2163534313440323,
                    -0.1293412148952484,
                    0.11782962083816528,
                    -0.146344393491745,
                    -0.17844268679618835,
                    0.16279393434524536,
                    0.023841451853513718,
                    0.0294260922819376,
                    -0.13163739442825317,
                    -0.1267242431640625,
                    -0.15120218694210052,
                    0.11609110236167908,
                    -0.16316692531108856,
                    0.22260034084320068,
                    0.154917910695076,
                    0.15233469009399414,
                    0.04045140743255615,
                    -0.05112297087907791,
                    -0.10398028790950775,
                    -0.07576346397399902,
                    0.143093079328537,
                    -0.15460050106048584,
                    0.010601479560136795,
                    0.03670851141214371,
                    0.10361874103546143,
                    -0.15112058818340302,
                    -0.09188320487737656,
                    -0.006445068866014481,
                    -0.1987232118844986,
                    0.1779094636440277,
                    0.06413566321134567,
                    -0.07186977565288544,
                    -0.20662754774093628,
                    0.10420689731836319,
                    -0.1770990490913391,
                    -0.1483938992023468,
                    -0.16584286093711853,
                    0.06830552220344543,
                    0.0586872473359108,
                    -0.14688003063201904,
                    -0.07692615687847137,
                    0.06457719206809998,
                    0.10754597932100296,
                    0.19349569082260132,
                    -0.10301869362592697,
                    0.13188940286636353,
                    0.011089891195297241,
                    -0.06034339219331741,
                    0.027791855856776237,
                    0.140095055103302,
                    -0.17207948863506317,
                    -0.04968227073550224,
                    -0.08938905596733093,
                    0.15591730177402496,
                    -0.11524304002523422,
                    -0.0026500048115849495,
                    -0.028732161968946457,
                    -0.014495025388896465,
                    0.03838041424751282,
                    0.10024302452802658,
                    0.12402092665433884,
                    0.1714380979537964,
                    -0.19210319221019745,
                    0.014132187701761723,
                    -0.02173001319169998,
                    0.0028592562302947044,
                    0.023556340485811234,
                    0.07593681663274765,
                    0.00031526730163022876,
                    -0.15657971799373627,
                    -0.1656193733215332,
                    0.1753929704427719,
                    0.018182599917054176,
                    -0.09639591723680496,
                    0.024295391514897346,
                    0.15746529400348663,
                    0.013353046029806137,
                    0.007533594500273466,
                    0.0008719609468244016,
                    -0.11745651066303253,
                    -0.17601223289966583,
                    0.06312210112810135,
                    -0.18249627947807312,
                    -0.11365960538387299,
                    0.003956283442676067,
                    -0.2148919254541397,
                    0.018442371860146523,
                    0.018466342240571976,
                    -0.09903677552938461,
                    -0.168397456407547,
                    -0.06066189706325531,
                    -0.15489010512828827,
                    -0.17163079977035522,
                    -0.18443362414836884,
                    0.03587102144956589,
                    0.16631554067134857,
                    -0.15920759737491608,
                    -0.11714240908622742,
                    -0.034177109599113464,
                    0.1531570702791214,
                    0.048391614109277725,
                    0.19449108839035034,
                    -0.07340861856937408,
                    0.12791834771633148,
                    0.0879112184047699,
                    0.17542515695095062,
                    -0.1347741186618805,
                    -0.06458041071891785,
                    -0.19187943637371063,
                    0.2054114192724228,
                    0.1140996664762497,
                    0.10178591310977936,
                    -0.12619253993034363,
                    -0.095697782933712,
                    -0.07671194523572922,
                    -0.20364494621753693,
                    0.18667034804821014,
                    -0.1337386965751648,
                    -0.10338817536830902,
                    -0.10405238717794418,
                    -0.20805694162845612,
                    0.18401280045509338,
                    -0.015512626618146896,
                    0.17200003564357758,
                    -0.18168067932128906,
                    0.15874776244163513,
                    -0.06266465783119202,
                    0.04457194730639458,
                    -0.1306595504283905,
                    0.12851683795452118,
                    0.19399912655353546,
                    0.1769751012325287,
                    -0.13159483671188354,
                    0.094757080078125,
                    0.04264713078737259,
                    -0.08299337327480316,
                    -0.026392418891191483,
                    -0.08788146823644638,
                    0.03595724701881409,
                    0.011976750567555428,
                    -0.07173581421375275,
                    -0.008508691564202309,
                    0.008061044849455357,
                    0.05981101840734482,
                    -0.1529957503080368,
                    -0.14452403783798218,
                    -0.04400404542684555,
                    0.14566676318645477,
                    0.02816869504749775,
                    -0.20394277572631836,
                    -0.027270380407571793,
                    -0.036556702107191086,
                    -0.19915954768657684,
                    -0.013874680735170841,
                    -0.06462199240922928,
                    -0.15410828590393066,
                    0.12482467293739319,
                    -0.10019353777170181,
                    0.2028859704732895,
                    0.02081734873354435,
                    0.12687143683433533,
                    -0.18177717924118042,
                    -0.15088294446468353,
                    0.005608319770544767,
                    0.0579102523624897,
                    0.19838379323482513,
                    -0.21015456318855286,
                    -0.2016666680574417,
                    0.06876663118600845,
                    -0.14519096910953522,
                    0.02127091959118843,
                    0.0203557126224041,
                    -0.2245195209980011,
                    -0.12493173032999039,
                    -0.1717125028371811,
                    -0.06668677926063538,
                    0.09878747165203094,
                    -0.011634156107902527,
                    0.021690720692276955,
                    -0.1537325233221054,
                    -0.13715848326683044,
                    0.17727115750312805,
                    -0.10761856287717819,
                    0.03395968675613403,
                    -0.09263090044260025,
                    -0.004180070478469133,
                    0.1387452781200409,
                    -0.13045883178710938,
                    -0.13946759700775146,
                    -0.2097233384847641,
                    0.1959245800971985,
                    -0.07537885010242462,
                    -0.008612736128270626,
                    -0.184453547000885,
                    -0.06010083481669426,
                    -0.02825276181101799,
                    -0.026609959080815315,
                    0.03647632896900177,
                    -0.15344278514385223,
                    0.11244983971118927,
                    -0.15222561359405518,
                    -0.07279663532972336,
                    -0.1870509535074234,
                    -0.1457505077123642,
                    -0.0047055985778570175,
                    -0.12487957626581192,
                    -0.15729714930057526,
                    -0.10963880270719528,
                    -0.07884585857391357,
                    0.2369993031024933,
                    0.08255462348461151,
                    0.14621670544147491,
                    -0.06277558952569962,
                    0.20592044293880463,
                    0.08451492339372635,
                    0.1267511248588562,
                    0.18489998579025269,
                    0.12433699518442154,
                    0.06455674767494202,
                    0.058018844574689865,
                    0.09285318851470947,
                    0.09506957232952118,
                    -0.17272081971168518,
                    -0.06199781596660614,
                    0.16698801517486572,
                    0.01002725400030613,
                    -0.17585813999176025,
                    0.21614916622638702,
                    0.015488875098526478,
                    0.0675206407904625,
                    -0.1103682741522789,
                    0.03948469087481499,
                    0.11854957789182663,
                    0.02505001425743103,
                    0.07692380994558334,
                    0.10253290086984634,
                    0.1510157287120819,
                    -0.049464304000139236,
                    -0.15069828927516937,
                    0.10842359811067581,
                    0.08472855389118195,
                    0.009883544407784939,
                    -0.05103788897395134,
                    -0.027246927842497826,
                    0.11314190924167633,
                    0.10639388114213943,
                    -0.19188235700130463,
                    0.0021979003213346004,
                    -0.30902305245399475,
                    0.04502461105585098,
                    -0.15803003311157227,
                    -0.20991283655166626,
                    -0.07431359589099884,
                    0.13732470571994781,
                    -0.09639516472816467,
                    0.10332560539245605,
                    -0.12287352234125137,
                    0.009157364256680012,
                    -0.07599033415317535,
                    -0.1288873702287674,
                    -0.1075039654970169,
                    -0.05122896283864975,
                    -0.003722701920196414,
                    -0.12275255471467972,
                    -0.12623094022274017,
                    -0.00915503315627575,
                    -0.09203790873289108,
                    -0.027445904910564423,
                    -0.13050857186317444,
                    -0.01124497875571251,
                    -0.10588572174310684,
                    0.19094595313072205,
                    0.10108731687068939,
                    -0.1085275411605835,
                    0.009563579224050045,
                    0.10888839513063431,
                    -0.18174432218074799,
                    -0.016381941735744476,
                    -0.12056322395801544,
                    0.2102629393339157,
                    0.03566018119454384,
                    -0.11139703541994095,
                    -0.007477994542568922,
                    -0.1988837867975235,
                    0.06984691321849823,
                    0.17772820591926575,
                    0.07994602620601654,
                    0.11821095645427704,
                    -0.07946470379829407,
                    -0.20878759026527405,
                    -0.09303370118141174,
                    0.17851150035858154,
                    -0.16471241414546967,
                    0.11624807864427567,
                    0.08991269767284393,
                    0.02404368668794632,
                    -0.003993607591837645,
                    0.07861693203449249,
                    0.022510327398777008,
                    -0.15455219149589539,
                    -0.18816867470741272,
                    -0.17242243885993958,
                    0.09581968188285828,
                    0.13575372099876404,
                    -0.022172721102833748,
                    0.12732352316379547,
                    0.04000713303685188,
                    -0.13793209195137024,
                    0.01898335851728916,
                    -0.08120407909154892,
                    0.13268545269966125,
                    -0.10882259160280228,
                    0.07076053321361542,
                    -0.1320146918296814,
                    -0.0695582926273346,
                    -0.018456418067216873,
                    -0.216078981757164,
                    -0.11691857129335403,
                    -0.07794179767370224,
                    0.04517606273293495,
                    -0.10693877190351486,
                    0.20734180510044098,
                    0.03688481077551842,
                    -0.1561809629201889,
                    -0.19670085608959198,
                    -0.13096724450588226,
                    0.08220169693231583,
                    -0.11014346033334732,
                    -0.008792608976364136,
                    0.1535467952489853,
                    0.20999592542648315,
                    -0.20494726300239563,
                    -0.17348121106624603,
                    -0.17265670001506805,
                    0.13236494362354279,
                    -0.02211986854672432,
                    0.1229221448302269,
                    0.16113723814487457,
                    0.1042577251791954,
                    -0.1754886507987976,
                    -0.10724250227212906,
                    -0.07064849883317947,
                    0.017034219577908516,
                    -0.14559082686901093,
                    0.14687994122505188,
                    -0.2127734124660492,
                    0.0034440658055245876,
                    -0.014872094616293907,
                    -0.09052129834890366,
                    0.017456505447626114,
                    -0.04134300351142883,
                    -0.14552485942840576,
                    -0.10987676680088043,
                    -0.05484122782945633,
                    0.08994574099779129,
                    -0.02508929744362831,
                    -0.1214737668633461,
                    0.017551664263010025,
                    -0.13021276891231537,
                    -0.17162492871284485,
                    0.15521395206451416,
                    -0.19192644953727722,
                    -0.02781778573989868,
                    -0.08295675367116928,
                    -0.1332205981016159,
                    -0.14084729552268982,
                    -0.19053441286087036,
                    -0.047050442546606064,
                    0.17379634082317352,
                    -0.18941853940486908,
                    0.025118304416537285,
                    -0.08611597865819931,
                    -0.06709473580121994,
                    -0.00584530970081687,
                    0.1265530288219452,
                    0.030566083267331123,
                    0.025282863527536392,
                    0.19703230261802673,
                    -0.04310304671525955,
                    0.1118989959359169,
                    0.14552654325962067,
                    0.16412392258644104,
                    -0.0605575293302536,
                    0.06034351885318756,
                    -0.12329484522342682,
                    -0.11010044813156128,
                    0.049234598875045776,
                    -0.0114171477034688,
                    -0.20346295833587646,
                    0.014568641781806946,
                    -0.050955936312675476,
                    -0.17184922099113464,
                    -0.047643858939409256,
                    0.10248613357543945,
                    0.06004349887371063,
                    0.05515703931450844,
                    -0.1852324903011322,
                    -0.0361369252204895,
                    -0.03639472648501396,
                    -0.1737554967403412,
                    0.09775391966104507,
                    -0.08673987537622452,
                    0.18208172917366028,
                    0.061906203627586365,
                    -0.007186606992036104,
                    0.18812251091003418,
                    0.08678492158651352,
                    0.008217068389058113,
                    -0.11436361074447632,
                    -0.14972899854183197,
                    0.10165999829769135,
                    0.2130933254957199,
                    -0.08944208174943924,
                    -0.06090707704424858,
                    0.06927955895662308,
                    -0.20528028905391693,
                    0.07045604288578033,
                    0.19611996412277222,
                    0.14346103370189667,
                    -0.19058585166931152,
                    0.09573008865118027,
                    0.06547950953245163,
                    -0.14715386927127838,
                    0.2028326541185379,
                    0.031151726841926575,
                    0.08870253711938858,
                    -0.19597609341144562,
                    -0.14996233582496643,
                    -0.19063593447208405,
                    -0.08206427842378616,
                    -0.10290348529815674,
                    -0.10626215487718582,
                    -0.04606099799275398,
                    0.10492641478776932,
                    -0.13164880871772766,
                    0.00817888043820858,
                    -0.16832244396209717,
                    0.20178069174289703,
                    0.15860436856746674,
                    0.20422104001045227,
                    -0.09347037225961685,
                    0.17980557680130005,
                    0.07409144192934036,
                    -0.11161568760871887,
                    -0.02778882160782814,
                    -0.07411302626132965,
                    -0.03308091312646866,
                    -0.18169058859348297,
                    -0.148707315325737,
                    -0.05350347235798836,
                    -0.09800265729427338,
                    0.10358082503080368,
                    -0.07197627425193787,
                    0.15492407977581024,
                    -0.02190290577709675,
                    -0.19138501584529877,
                    -0.19896940886974335,
                    0.16428488492965698,
                    -0.06269657611846924,
                    0.13191378116607666,
                    -0.01237507350742817,
                    -0.05705135315656662,
                    0.09075511991977692,
                    0.05056390166282654,
                    -0.11441892385482788,
                    0.008868982084095478,
                    -0.12970255315303802,
                    -0.014953128062188625,
                    -0.03033268451690674,
                    -0.13469535112380981,
                    -0.0872846245765686,
                    0.1985561102628708,
                    -0.06618320196866989,
                    0.22042971849441528,
                    -0.03202909231185913,
                    0.14356178045272827,
                    -0.198173388838768,
                    -0.17813429236412048,
                    -0.08398128300905228,
                    0.014896039851009846,
                    -0.018396541476249695,
                    0.12304341048002243,
                    0.09897851198911667,
                    0.07685619592666626,
                    0.183991476893425,
                    0.1228414848446846,
                    -0.19991755485534668,
                    -0.13052159547805786,
                    -0.190029114484787,
                    0.19332431256771088,
                    0.16737565398216248,
                    0.08386939018964767,
                    -0.22593794763088226,
                    0.06992819160223007,
                    0.1444443166255951,
                    0.028798116371035576,
                    -0.1958361715078354,
                    0.03408926725387573,
                    -0.13997125625610352,
                    -0.2059105932712555,
                    0.08060995489358902,
                    -0.11055333912372589,
                    0.027891483157873154,
                    -0.14697077870368958,
                    -0.01806967332959175,
                    -0.21832381188869476,
                    -0.1203123927116394,
                    0.07075310498476028,
                    0.1627349704504013,
                    -0.020143995061516762,
                    -0.05006766319274902,
                    0.07978670299053192,
                    0.06495565921068192,
                    -0.05431215465068817,
                    0.16432775557041168,
                    -0.134795680642128,
                    0.01242214348167181,
                    -0.005940155126154423,
                    0.08756466209888458,
                    -0.033253032714128494,
                    0.10413925349712372,
                    -0.18407844007015228,
                    -0.20288340747356415,
                    -0.18559637665748596,
                    -0.051662757992744446,
                    -0.09383704513311386,
                    0.15902455151081085,
                    0.0403083972632885,
                    0.05139555409550667,
                    -0.03792983293533325,
                    0.1233474463224411,
                    -0.1786390095949173,
                    -0.0856260359287262,
                    0.15347155928611755,
                    -0.113616943359375,
                    -0.07454900443553925,
                    0.07704450190067291,
                    0.09564769268035889,
                    -0.022271841764450073,
                    -0.16946066915988922,
                    -0.07602893561124802,
                    0.1243419423699379,
                    -0.08755651861429214,
                    -0.029546093195676804,
                    0.041191112250089645,
                    0.01728915423154831,
                    -0.08389466255903244,
                    -0.1898626983165741,
                    -0.10804982483386993,
                    -0.08321203291416168,
                    0.11936276406049728,
                    -0.1438092440366745,
                    -0.08162622898817062,
                    -0.1524004340171814,
                    -0.14079158008098602,
                    -0.10556540638208389,
                    -0.0953928679227829,
                    -0.11671258509159088,
                    0.08064159750938416,
                    0.06985234469175339,
                    0.10822802037000656,
                    -0.11587068438529968,
                    -0.13509567081928253,
                    -0.13013871014118195,
                    -0.021266253665089607,
                    -0.0697232261300087,
                    -0.2007935345172882,
                    0.011998285539448261,
                    -0.09349441528320312,
                    -0.07265926152467728,
                    -0.1702049821615219,
                    0.08658068627119064,
                    -0.07383859902620316,
                    -0.0212276428937912,
                    -0.06987569481134415,
                    0.18231408298015594,
                    0.0768861249089241,
                    0.06474960595369339,
                    0.08814225345849991,
                    0.09826185554265976,
                    0.18828140199184418,
                    0.08023074269294739,
                    -0.161018967628479,
                    0.015208627097308636,
                    -0.1812439262866974,
                    0.1244044378399849,
                    0.03332758694887161,
                    -0.13224604725837708,
                    -0.1359998732805252,
                    -0.1597549021244049,
                    -0.20984020829200745,
                    -0.09037704020738602,
                    -0.056642379611730576,
                    0.16984312236309052,
                    -0.19527192413806915,
                    -0.0540936216711998,
                    0.07060620188713074,
                    0.11000031977891922,
                    -0.01520564779639244,
                    -0.10315513610839844,
                    0.19308021664619446,
                    -0.159709170460701,
                    0.15901996195316315,
                    0.041932735592126846,
                    -0.20854780077934265,
                    0.045319266617298126,
                    -0.19926957786083221,
                    0.011399250477552414,
                    0.14467668533325195,
                    0.1836193948984146,
                    -0.204188272356987,
                    0.21699945628643036,
                    0.22228014469146729,
                    0.08204319328069687,
                    -0.16143926978111267,
                    0.09627822786569595,
                    0.002621058374643326,
                    -0.06253179907798767,
                    0.20993053913116455,
                    0.0035230382345616817,
                    -0.12847398221492767,
                    -0.03085849992930889,
                    0.17569498717784882,
                    0.10936302691698074,
                    0.011821949854493141,
                    -0.0607428103685379,
                    0.1508650779724121,
                    -0.12354101985692978,
                    -0.12752370536327362,
                    0.04296674206852913,
                    -0.06986457109451294,
                    -0.03763106092810631,
                    -0.001972960075363517,
                    -0.17381145060062408,
                    0.12563025951385498,
                    -0.1404075175523758,
                    0.16692978143692017,
                    -0.15014338493347168,
                    -0.07695275545120239,
                    -0.13229086995124817,
                    -0.03812272474169731,
                    0.14979536831378937,
                    0.20475667715072632,
                    -0.18663254380226135,
                    -0.03868650645017624,
                    -0.0007308869389817119,
                    -0.08184297382831573,
                    -0.19301263988018036,
                    -0.10287109762430191,
                    0.03616882115602493,
                    -0.07866993546485901,
                    -0.14979858696460724,
                    -0.061261583119630814,
                    0.22440314292907715,
                    -0.0014446593122556806,
                    0.20411014556884766,
                    0.1483534574508667,
                    -0.14541003108024597,
                    -0.12200277298688889,
                    -0.19670026004314423,
                    0.0947551503777504,
                    -0.17180611193180084,
                    0.1510109156370163,
                    0.11413811147212982,
                    0.13438382744789124,
                    0.20466038584709167,
                    0.20942775905132294,
                    0.14440959692001343,
                    0.15670160949230194,
                    -0.08254282921552658,
                    -0.1363346129655838,
                    -0.0024529029615223408,
                    0.1983841061592102,
                    0.12602156400680542,
                    -0.01631886139512062,
                    -0.05689825117588043,
                    0.07839407026767731,
                    -0.13908877968788147,
                    0.050301600247621536,
                    0.1749005913734436,
                    -0.12915608286857605,
                    0.20150132477283478,
                    0.17782007157802582,
                    0.21200934052467346,
                    -0.17003901302814484,
                    -0.20370200276374817,
                    -0.13848073780536652,
                    -0.20409885048866272,
                    0.02969307079911232,
                    -0.08468665927648544,
                    0.07032958418130875,
                    0.19211381673812866,
                    0.06029725447297096,
                    0.06508131325244904,
                    0.0344727598130703,
                    0.1798323690891266,
                    0.011169384233653545,
                    0.11038461327552795,
                    0.01498851552605629,
                    -0.1290542632341385,
                    0.07883003354072571,
                    0.06714006513357162,
                    -0.12688516080379486,
                    -0.11851160228252411,
                    -0.17893660068511963,
                    0.195927694439888,
                    -0.16118569672107697,
                    0.16310514509677887,
                    -0.15719559788703918,
                    -0.21940942108631134,
                    -0.1386987268924713,
                    0.12365193665027618,
                    0.033306390047073364,
                    -0.1779884397983551,
                    -0.07242759317159653,
                    0.16913680732250214,
                    0.03807056322693825,
                    -0.15747995674610138,
                    0.07903800904750824,
                    -0.06093015521764755,
                    -0.15497508645057678,
                    0.1969473958015442,
                    -0.03554874658584595,
                    -0.049774326384067535,
                    0.1802491396665573,
                    0.20842598378658295,
                    0.1333889663219452,
                    -0.06668239831924438,
                    -0.07771269977092743,
                    0.014571551233530045,
                    -0.1664988100528717,
                    0.012179519981145859,
                    0.12235580384731293,
                    -0.21443091332912445,
                    0.012998395599424839,
                    -0.20739765465259552,
                    -0.0919371247291565,
                    0.0818340852856636,
                    0.18265625834465027,
                    0.18526442348957062,
                    0.07509467005729675,
                    -0.03524651378393173,
                    -0.16152091324329376,
                    -0.08530008792877197,
                    0.12602177262306213,
                    -0.08028124272823334,
                    0.12713390588760376,
                    0.010809855535626411,
                    -0.1591981053352356,
                    -0.1959686130285263,
                    0.19289296865463257,
                    0.037229713052511215,
                    -0.20685352385044098,
                    0.18068119883537292,
                    -0.07573535293340683,
                    -0.09022487699985504,
                    -0.17899417877197266,
                    -0.052482496947050095,
                    0.05664060264825821,
                    0.0805000439286232,
                    -0.013252437114715576,
                    0.07086587697267532,
                    -0.14520356059074402,
                    0.08529233187437057,
                    0.007529855240136385,
                    0.005963250529021025,
                    0.03037913329899311,
                    0.03946550562977791,
                    -0.07744187861680984,
                    -0.006128659006208181,
                    -0.19360080361366272,
                    -0.03887312486767769,
                    0.14555132389068604,
                    -0.14344468712806702,
                    -0.16590319573879242,
                    -0.07195921987295151,
                    -0.020679539069533348,
                    -0.0371052511036396,
                    0.16874969005584717,
                    2.686563129827846e-05,
                    -0.12479254603385925,
                    0.12841551005840302,
                    0.09488531202077866,
                    -0.15125013887882233,
                    -0.13480296730995178,
                    0.08246637135744095,
                    0.04742426052689552,
                    0.19207803905010223,
                    -0.20471568405628204,
                    0.059700120240449905,
                    -0.17011985182762146,
                    -0.05470883473753929,
                    -0.1955251544713974,
                    -0.2230965942144394,
                    -0.15220531821250916,
                    -0.0015378198586404324,
                    0.06163797900080681,
                    -0.052619073539972305,
                    -0.17847277224063873,
                    0.0032759609166532755,
                    -0.06823735684156418,
                    0.18169470131397247,
                    -0.08216937631368637,
                    0.05145862326025963,
                    0.04262246936559677,
                    -0.15905383229255676,
                    0.1438606083393097,
                    -0.19291244447231293,
                    -0.006854095496237278,
                    0.015152349136769772,
                    0.047748126089572906,
                    0.08890167623758316,
                    0.05202328413724899,
                    -0.17869776487350464,
                    -0.2029820829629898,
                    0.04648939147591591,
                    0.07438728958368301,
                    0.08429080247879028,
                    0.05453556776046753,
                    -0.08220435678958893,
                    -0.006876322440803051,
                    0.08878423273563385,
                    0.16197341680526733,
                    -0.023909037932753563,
                    -0.01882454939186573,
                    -0.19962038099765778,
                    -0.043845612555742264,
                    0.10285896807909012,
                    -0.004616837948560715,
                    0.0042005437426269054,
                    -0.08263692259788513,
                    0.17447178065776825,
                    -0.0994749590754509,
                    -0.008864197880029678,
                    0.09592592716217041,
                    -0.0990171730518341,
                    -0.046976108103990555,
                    -0.06439657509326935,
                    0.02299417369067669,
                    0.05340053141117096,
                    0.1303229033946991,
                    0.04119465500116348,
                    -0.1441372185945511,
                    -0.08542092144489288,
                    0.145935520529747,
                    -0.061206474900245667,
                    0.19619975984096527,
                    0.1933627873659134,
                    0.017816804349422455,
                    0.08383944630622864,
                    -0.12118828296661377,
                    0.1938210427761078,
                    -0.07301847636699677,
                    0.06176695600152016,
                    -0.02249145694077015,
                    -0.23626865446567535,
                    -0.20030759274959564,
                    0.19278140366077423,
                    0.19186124205589294,
                    0.07704994082450867,
                    0.20446132123470306,
                    -0.15361833572387695,
                    0.089510478079319,
                    0.13463620841503143,
                    -0.03761530667543411,
                    0.026481255888938904,
                    -0.12852385640144348,
                    0.04371626302599907,
                    -0.14582853019237518,
                    0.14157487452030182,
                    0.21086779236793518,
                    -0.13791336119174957,
                    0.0672827884554863,
                    0.06604760885238647,
                    0.09809918701648712,
                    0.12974636256694794,
                    0.05950288847088814,
                    -0.13900324702262878,
                    -0.005279783625155687,
                    0.03574851527810097,
                    -0.13230270147323608,
                    -0.16338443756103516,
                    0.2204359769821167,
                    -0.11808335036039352,
                    -0.01863447017967701,
                    0.1128527820110321,
                    -0.04750990495085716,
                    0.003372960025444627,
                    -0.020785346627235413,
                    -0.01082875207066536,
                    -0.056074146181344986,
                    0.08507633954286575,
                    0.15073862671852112,
                    -0.04732639342546463,
                    -0.0636279359459877,
                    0.022762196138501167,
                    0.03920021280646324,
                    0.13430547714233398,
                    -0.022663287818431854,
                    0.09800878167152405,
                    0.1451980620622635,
                    0.09700725227594376,
                    -0.11995925009250641,
                    -0.05408850684762001,
                    0.1294035166501999,
                    -0.1924537867307663,
                    -0.06941914558410645,
                    0.11052008718252182,
                    0.06657804548740387,
                    0.1576770544052124,
