[
    {
        "class": "keras.layers.core.dense.Dense",
        "config": {
            "name": "dense_11",
            "trainable": true,
            "dtype": "float32",
            "units": 128,
            "activation": "softplus",
            "use_bias": true,
            "kernel_initializer": {
                "class_name": "GlorotUniform",
                "config": {
                    "seed": null
                }
            },
            "bias_initializer": {
                "class_name": "Zeros",
                "config": {}
            },
            "kernel_regularizer": null,
            "bias_regularizer": null,
            "activity_regularizer": null,
            "kernel_constraint": null,
            "bias_constraint": null
        },
        "weights": [
            {
                "_type": "ndarray",
                "shape": [
                    6,
                    128
                ],
                "dtype": "float32",
                "data": [
                    -0.029516132548451424,
                    -0.17693568766117096,
                    -0.11851432919502258,
                    0.15916801989078522,
                    0.04874700307846069,
                    0.14288070797920227,
                    0.22481507062911987,
                    0.16199736297130585,
                    0.09783462435007095,
                    0.2003735601902008,
                    -0.10105840861797333,
                    -0.16643714904785156,
                    0.008362160064280033,
                    -0.18844161927700043,
                    -0.058253686875104904,
                    0.03699915483593941,
                    -0.08510637283325195,
                    -0.23160721361637115,
                    -0.026438262313604355,
                    -0.0005479985848069191,
                    0.2013072371482849,
                    0.1927085667848587,
                    -0.19710354506969452,
                    -0.12473954260349274,
                    0.2177140861749649,
                    -0.1464271992444992,
                    0.11875901371240616,
                    0.08927465975284576,
                    -0.13588790595531464,
                    -0.15132537484169006,
                    0.06335117667913437,
                    -0.06376368552446365,
                    -0.057348620146512985,
                    -0.18290896713733673,
                    -0.20672808587551117,
                    0.01601034589111805,
                    -0.22945190966129303,
                    -0.12504331767559052,
                    -0.1286371797323227,
                    0.16676504909992218,
                    0.15955863893032074,
                    0.030323654413223267,
                    -0.12519429624080658,
                    -0.11127495765686035,
                    0.03701910749077797,
                    -0.20259436964988708,
                    0.0034068282693624496,
                    -0.00658566365018487,
                    -0.18695074319839478,
                    -0.08651971817016602,
                    -0.10534271597862244,
                    -0.05630780756473541,
                    0.16909435391426086,
                    0.16956308484077454,
                    0.1364154815673828,
                    -0.11001041531562805,
                    -0.06759896129369736,
                    0.10057485103607178,
                    -0.018490707501769066,
                    -0.14119476079940796,
                    0.13211755454540253,
                    -0.15131410956382751,
                    -0.06152499094605446,
                    -0.09801528602838516,
                    -0.0503382608294487,
                    -0.22750809788703918,
                    0.014083219692111015,
                    0.06912671774625778,
                    -0.09714153409004211,
                    -0.21749043464660645,
                    -0.17377778887748718,
                    0.06210274249315262,
                    0.13590514659881592,
                    0.08939341455698013,
                    0.19416983425617218,
                    -0.1739266961812973,
                    -0.029242807999253273,
                    0.1830836981534958,
                    -0.08575168997049332,
                    0.1857828050851822,
                    -0.12453651428222656,
                    0.13069461286067963,
                    0.01436812523752451,
                    -0.13710123300552368,
                    -0.07606727629899979,
                    0.1090259999036789,
                    -0.15961426496505737,
                    -0.19311024248600006,
                    0.18245813250541687,
                    -0.039282914251089096,
                    0.20402374863624573,
                    0.06881070882081985,
                    -0.09010034799575806,
                    -0.1766555905342102,
                    0.05164489522576332,
                    0.16487978398799896,
                    -0.22528521716594696,
                    0.1712469905614853,
                    -0.10826294869184494,
                    0.052615489810705185,
                    -0.0026818769983947277,
                    0.08756251633167267,
                    0.20866511762142181,
                    0.07136783003807068,
                    -0.01894545927643776,
                    -0.009391825646162033,
                    -0.05354096740484238,
                    0.1248404011130333,
                    0.17064902186393738,
                    0.12499482929706573,
                    -0.12305662035942078,
                    0.15372544527053833,
                    0.10896065831184387,
                    -0.11539722234010696,
                    -0.1561361849308014,
                    0.012570989318192005,
                    0.027875415980815887,
                    0.1983034610748291,
                    0.005949045065790415,
                    -0.11849457025527954,
                    0.04369962215423584,
                    0.005269962828606367,
                    0.18762503564357758,
                    0.013271372765302658,
                    -0.13871239125728607,
                    0.1521286517381668,
                    0.0047328053042292595,
                    -0.020847706124186516,
                    -0.07934939861297607,
                    -0.060484401881694794,
                    0.015097684226930141,
                    -0.049907226115465164,
                    0.12284078449010849,
                    -0.008913615718483925,
                    -0.08865954726934433,
                    -0.04130660742521286,
                    -0.0070702810771763325,
                    0.151121586561203,
                    -0.1890096813440323,
                    -0.13075724244117737,
                    0.2099960297346115,
                    -0.0744573175907135,
                    -0.14465363323688507,
                    -0.0899854451417923,
                    -0.12012530118227005,
                    -0.06623910367488861,
                    -0.08006050437688828,
                    -0.14268137514591217,
                    0.04925522580742836,
                    0.19087865948677063,
                    -0.023180214688181877,
                    -0.17618493735790253,
                    -0.21401724219322205,
                    0.049375228583812714,
                    -0.17409120500087738,
                    -0.07662012428045273,
                    0.01135297305881977,
                    0.036887288093566895,
                    0.013898666948080063,
                    0.173446387052536,
                    -0.07688413560390472,
                    -0.15527032315731049,
                    0.1698995977640152,
                    0.17622239887714386,
                    0.08800122886896133,
                    -0.06933465600013733,
                    -0.03093087114393711,
                    -0.009518135339021683,
                    -0.18286658823490143,
                    -0.0018171301344409585,
                    -0.14395618438720703,
                    -0.048113614320755005,
                    -0.04775965213775635,
                    -0.06626729667186737,
                    -0.06416095048189163,
                    0.17964980006217957,
                    -0.09287513792514801,
                    0.1057044118642807,
                    -0.05742381885647774,
                    -0.0713963657617569,
                    -0.00384287117049098,
                    0.032471999526023865,
                    0.2056218832731247,
                    0.007831865921616554,
                    -0.033276576548814774,
                    -0.20363254845142365,
                    0.015482432208955288,
                    -0.1412855088710785,
                    0.10761716961860657,
                    0.004843107424676418,
                    0.07169010490179062,
                    -0.049157511442899704,
                    0.014646854251623154,
                    0.19912153482437134,
                    -0.16849273443222046,
                    0.07148540019989014,
                    0.023053238168358803,
                    -0.023068420588970184,
                    0.007838930934667587,
                    -0.1774645894765854,
                    0.13880842924118042,
                    -0.1268840730190277,
                    -0.04597755894064903,
                    0.13169075548648834,
                    -0.03242620453238487,
                    -0.03217775747179985,
                    0.21374128758907318,
                    -0.1233835220336914,
                    0.06522677838802338,
                    0.11689925938844681,
                    0.06522059440612793,
                    -0.047300174832344055,
                    -0.16356392204761505,
                    -0.13867361843585968,
                    0.001356962719000876,
                    -0.1518511027097702,
                    0.13750244677066803,
                    -0.04693854600191116,
                    -0.006339015439152718,
                    0.01770901307463646,
                    0.06954741477966309,
                    0.01668769307434559,
                    -0.05719633400440216,
                    -0.04201202839612961,
                    -0.049560174345970154,
                    0.009728290140628815,
                    -0.16215409338474274,
                    0.13423402607440948,
                    0.13845635950565338,
                    -0.03800632804632187,
                    0.10107099264860153,
                    -0.019614018499851227,
                    0.12909652292728424,
                    -0.1152242049574852,
                    0.10250485688447952,
                    -0.21096469461917877,
                    -0.04634435474872589,
                    0.1843956857919693,
                    -0.05561882257461548,
                    -0.1840001344680786,
                    -0.05769764259457588,
                    -0.042638059705495834,
                    0.029228005558252335,
                    -0.05438554659485817,
                    -0.042702797800302505,
                    -0.1975664347410202,
                    -0.054388344287872314,
                    -0.09045979380607605,
                    0.031191544607281685,
                    0.14103035628795624,
                    -0.09297344833612442,
                    -0.04960456117987633,
                    0.18459175527095795,
                    0.15537752211093903,
                    -0.07978660613298416,
                    0.061901696026325226,
                    -0.1856197863817215,
                    0.024314215406775475,
                    -0.10669170320034027,
                    0.010358553379774094,
                    -0.044788163155317307,
                    0.1075897067785263,
                    0.16539956629276276,
                    0.07132112979888916,
                    -0.18322396278381348,
                    -0.025091949850320816,
                    0.15765300393104553,
                    -0.1416352540254593,
                    -0.1309061348438263,
                    0.058733172714710236,
                    -0.023946214467287064,
                    0.11816906183958054,
                    -0.15699128806591034,
                    -0.06277631968259811,
                    0.18244469165802002,
                    -0.02087826281785965,
                    -0.016836203634738922,
                    0.009157942607998848,
                    -0.17206940054893494,
                    -0.04233251512050629,
                    -0.15850211679935455,
                    0.1484760046005249,
                    0.18996846675872803,
                    0.0928921028971672,
                    0.037892911583185196,
                    0.07196059077978134,
                    0.20730949938297272,
                    0.21749894320964813,
                    -0.1016647219657898,
                    0.1097683310508728,
                    -0.06265576928853989,
                    -0.1752196103334427,
                    0.06070569157600403,
                    0.1383541375398636,
                    -0.1474316418170929,
                    -0.03233899921178818,
                    0.18071532249450684,
                    -0.026955552399158478,
                    0.013928702101111412,
                    0.07214753329753876,
                    -0.08255207538604736,
                    -0.17161858081817627,
                    0.05303504690527916,
                    0.09371722489595413,
                    0.19173069298267365,
                    -0.04340119659900665,
                    -0.14852780103683472,
                    -0.06519322097301483,
                    -0.15803302824497223,
                    0.17790496349334717,
                    0.08011025935411453,
                    -0.14614194631576538,
                    0.17876450717449188,
                    -0.06689814478158951,
                    0.19769948720932007,
                    0.11093466728925705,
                    0.20814815163612366,
                    -0.024891063570976257,
                    -0.051041584461927414,
                    -0.1409328579902649,
                    0.19144277274608612,
                    -0.21505677700042725,
                    -0.15749232470989227,
                    -0.11406970769166946,
                    -0.07105936110019684,
                    -0.09707733988761902,
                    0.17597077786922455,
                    -0.013767972588539124,
                    0.04165106266736984,
                    -0.12449881434440613,
                    -0.03914063051342964,
                    -0.1969776302576065,
                    0.030026307329535484,
                    -0.1366603970527649,
                    0.14197471737861633,
                    0.09973980486392975,
                    -0.1687288135290146,
                    -0.19664816558361053,
                    0.2024552822113037,
                    0.004633718635886908,
                    0.009063773788511753,
                    -0.025511790066957474,
                    0.06837132573127747,
                    0.028195813298225403,
                    0.1888878047466278,
                    0.1611812859773636,
                    -0.11174945533275604,
                    0.09076455235481262,
                    -0.10841130465269089,
                    -0.0008733174181543291,
                    -0.15670843422412872,
                    0.022541819140315056,
                    -0.06944689154624939,
                    0.006846553646028042,
                    -0.1968161165714264,
                    0.06152014061808586,
                    -0.13589711487293243,
                    -0.15741218626499176,
                    -0.1737232357263565,
                    0.04810706153512001,
                    0.03887336701154709,
                    -0.05837246775627136,
                    0.1365574300289154,
                    -0.09019461274147034,
                    -0.20222461223602295,
                    -0.17031823098659515,
                    -0.04236897826194763,
                    -0.08996689319610596,
                    0.06866937130689621,
                    0.05253787711262703,
                    0.015472780913114548,
                    0.09161438792943954,
                    0.2049509435892105,
                    0.031336963176727295,
                    0.19124208390712738,
                    0.11274553090333939,
                    -0.05146436765789986,
                    -0.18824714422225952,
                    -0.15600037574768066,
                    0.11201440542936325,
                    -0.11921951174736023,
                    0.06739996373653412,
                    -0.15961875021457672,
                    -0.07003588229417801,
                    0.14189036190509796,
                    0.09749000519514084,
                    0.06386233866214752,
                    -0.18136803805828094,
                    -0.13862793147563934,
                    -0.09033279865980148,
                    0.10941120237112045,
                    -0.10212917625904083,
                    0.20154809951782227,
                    0.17729806900024414,
                    -0.07487976551055908,
                    0.11979276686906815,
                    -0.10547658801078796,
                    -0.06409523636102676,
                    -0.008035240694880486,
                    -0.194481760263443,
                    -0.08968018740415573,
                    0.0022415758576244116,
                    -0.028668250888586044,
                    -0.12839189171791077,
                    0.16055788099765778,
                    0.08001057803630829,
                    0.1953296661376953,
                    -0.08051025867462158,
                    -0.001164881163276732,
                    -0.06618532538414001,
                    -0.03837542608380318,
                    0.1454637199640274,
                    -0.1696653813123703,
                    -0.10133177042007446,
                    -0.20284275710582733,
                    -0.04699394106864929,
                    0.026577254757285118,
                    0.14165852963924408,
                    0.10915393382310867,
                    -0.07864602655172348,
                    0.09178568422794342,
                    0.07157862186431885,
                    -0.04931388795375824,
                    -0.06214315444231033,
                    0.04768387973308563,
                    -0.03989456966519356,
                    0.11035677045583725,
                    0.12841598689556122,
                    -0.10105238109827042,
                    0.16149652004241943,
                    -0.0883655920624733,
                    -0.040389735251665115,
                    -0.1797008365392685,
                    0.14900141954421997,
                    0.022255288437008858,
                    0.033818911761045456,
                    -0.027347633615136147,
                    0.072785884141922,
                    0.04685378819704056,
                    -0.15550023317337036,
                    0.15909956395626068,
                    -0.07260167598724365,
                    0.040689848363399506,
                    0.1447649449110031,
                    0.010144504718482494,
                    0.10826674103736877,
                    0.20231308043003082,
                    -0.004718934651464224,
                    0.13355284929275513,
                    -0.09601324796676636,
                    -0.11751937121152878,
                    -0.027870777994394302,
                    -0.13032566010951996,
                    -0.046715930104255676,
                    -0.04767487570643425,
                    -0.011721624061465263,
                    -0.01812184415757656,
                    0.0469086728990078,
                    -0.015608660876750946,
                    -0.17207083106040955,
                    0.1277584284543991,
                    -0.17880798876285553,
                    0.10802820324897766,
                    0.18970806896686554,
                    0.040373168885707855,
                    0.09805791825056076,
                    -0.20342624187469482,
                    -0.07944201678037643,
                    0.1615404486656189,
                    -0.14486898481845856,
                    0.00928712822496891,
                    0.10880593955516815,
                    -0.07182670384645462,
                    0.04039236903190613,
                    0.08090118318796158,
                    0.03426158055663109,
                    0.013102239929139614,
                    0.08525590598583221,
                    -0.00878504291176796,
                    -0.18901294469833374,
                    -0.18784283101558685,
                    -0.0542517714202404,
                    0.09053578972816467,
                    0.05515660345554352,
                    -0.046814966946840286,
                    -0.16867603361606598,
                    0.0778401792049408,
                    0.1024579405784607,
                    0.19248439371585846,
                    -0.06004476174712181,
                    -0.029755430296063423,
                    -0.13181011378765106,
                    -0.021264947950839996,
                    -0.1564684808254242,
                    -0.05748431384563446,
                    0.013137749396264553,
                    -0.14757254719734192,
                    0.07434513419866562,
                    0.0667276605963707,
                    -0.04290667176246643,
                    0.11835026741027832,
                    0.09481977671384811,
                    -0.029023658484220505,
                    0.04435276612639427,
                    0.14467094838619232,
                    0.11479823291301727,
                    0.04312434047460556,
                    0.07260914146900177,
                    0.20562990009784698,
                    0.0747092068195343,
                    0.16866859793663025,
                    -0.061464615166187286,
                    -0.1641184389591217,
                    0.06207084283232689,
                    0.16926217079162598,
                    -0.050891898572444916,
                    0.03575620800256729,
                    0.12886939942836761,
                    0.20796114206314087,
                    -0.110793337225914,
                    0.07921148091554642,
                    0.021967720240354538,
                    -0.21556811034679413,
                    -0.035054683685302734,
                    -0.16947492957115173,
                    -0.056343112140893936,
                    0.03522910177707672,
                    0.09474459290504456,
                    0.1494627743959427,
                    -0.0681299939751625,
                    0.0769369900226593,
                    -0.17566704750061035,
                    0.005045558791607618,
                    0.19229373335838318,
                    0.0944051444530487,
                    -0.043657176196575165,
                    0.16509497165679932,
                    -0.20060139894485474,
                    -0.11024914681911469,
                    0.027988219633698463,
                    0.12270741909742355,
                    -0.21395546197891235,
                    0.07402398437261581,
                    -0.13517232239246368,
                    0.15986549854278564,
                    -0.03875230625271797,
                    -0.035777654498815536,
                    -0.02759784646332264,
                    0.09499315172433853,
                    -0.06266641616821289,
                    0.18759825825691223,
                    -0.07127872854471207,
                    -0.10039938241243362,
                    0.02987665683031082,
                    -0.051335409283638,
                    0.1463538557291031,
                    -0.06378995627164841,
                    0.03139719367027283,
                    0.06254146248102188,
                    0.12438274919986725,
                    -0.1816750466823578,
                    0.022809213027358055,
                    -0.12410707771778107,
                    0.1595257967710495,
                    -0.0963907241821289,
                    -0.19607806205749512,
                    -0.15428471565246582,
                    -0.06231027841567993,
                    0.05856366455554962,
                    0.1630236804485321,
                    0.16665275394916534,
                    -0.07168982177972794,
                    0.19340062141418457,
                    0.09232652187347412,
                    -0.20141449570655823,
                    0.06124584376811981,
                    -0.1253909319639206,
                    0.0403747595846653,
                    0.0958428755402565,
                    -0.10759470611810684,
                    0.06967143714427948,
                    -0.12141567468643188,
                    0.2068917602300644,
                    0.09937392920255661,
                    -0.1640281230211258,
                    0.16213203966617584,
                    -0.050081487745046616,
                    -0.17815540730953217,
                    0.08723831921815872,
                    -0.053458381444215775,
                    0.08609091490507126,
                    0.11452443897724152,
                    -0.18888117372989655,
                    -0.08903147280216217,
                    0.14669227600097656,
                    -0.01762118563055992,
                    0.023506663739681244,
                    0.1476677805185318,
                    0.08876954019069672,
                    0.18226657807826996,
                    0.012168494053184986,
                    -0.08420990407466888,
                    -0.08895273506641388,
                    -0.11078578978776932,
                    0.2078111618757248,
                    -0.015998756512999535,
                    0.11450645327568054,
                    0.19486519694328308,
                    0.038060180842876434,
                    0.0676993876695633,
                    -0.059815652668476105,
                    0.020316055044531822,
                    -0.16433972120285034,
                    0.01626751385629177,
                    -0.03949331119656563,
                    0.15084008872509003,
                    -0.18984095752239227,
                    -0.1935555636882782,
                    0.001975406426936388,
                    0.06612365692853928,
                    0.18312738835811615,
                    -0.08333518356084824,
                    0.04541296884417534,
                    0.1708637923002243,
                    -0.12654271721839905,
                    -0.17977683246135712,
                    -0.19381670653820038,
                    -0.002357642399147153,
                    -0.043125759810209274,
                    0.12480644881725311,
                    0.04354171082377434,
                    0.06883061677217484,
                    -0.12343297898769379,
                    0.16253125667572021,
                    0.05932454392313957,
                    0.051794279366731644,
                    0.003518521087244153,
                    -0.025767100974917412,
                    -0.11271568387746811,
                    -0.11721361428499222,
                    -0.1753833293914795,
                    0.11386864632368088,
                    -0.12902091443538666,
                    0.20211860537528992,
                    0.1345745474100113,
                    0.00031427748035639524,
                    0.10681438446044922,
                    -0.033235952258110046,
                    -0.11806631833314896,
                    0.10676056146621704,
                    0.10020053386688232,
                    -0.14889325201511383,
                    0.03587467595934868,
                    0.04321694374084473,
                    -0.15871736407279968,
                    0.14217039942741394,
                    0.020512614399194717,
                    -0.19010835886001587,
                    0.1658596694469452,
                    -0.09933079034090042,
                    0.13438677787780762,
                    0.02451784536242485,
                    0.17970344424247742,
                    0.13189266622066498,
                    -0.19761209189891815,
                    -0.06683099269866943,
                    -0.025092557072639465,
                    -0.12704959511756897,
                    0.03786145895719528,
                    0.026668215170502663,
                    -0.0510377436876297,
                    -0.09804079681634903,
                    0.06933093070983887,
                    0.10856186598539352,
                    0.10986301302909851,
                    0.1915542185306549,
                    -0.09830375015735626,
                    -0.1402672380208969,
                    0.16898782551288605,
                    0.13920263946056366,
                    0.16937394440174103,
                    0.04686639457941055,
                    -0.1747215986251831,
                    -0.14995500445365906,
                    -0.08891505002975464,
                    0.09644307941198349,
                    -0.037803977727890015,
                    -0.08556174486875534,
                    0.0189383365213871,
                    -0.20071464776992798,
                    0.08462650328874588,
                    -0.16172534227371216,
                    -0.04524550959467888,
                    -0.12448541820049286,
                    0.03106779046356678,
                    -0.13132447004318237,
                    -0.10807298123836517,
                    -0.1573484092950821,
                    0.1840757429599762,
                    -0.040554601699113846,
                    -0.01663452945649624,
                    -0.14732544124126434,
                    0.15153713524341583,
                    0.012984736822545528,
                    -0.08172353357076645,
                    -0.12588614225387573,
                    -0.11390519887208939,
                    0.12839104235172272,
                    -0.14355351030826569,
                    -0.11242512613534927,
                    -0.1799527406692505,
                    0.15501855313777924,
                    -0.06168690323829651,
                    0.0639113038778305,
                    -0.12137475609779358,
                    -0.2099897414445877,
                    0.01595008373260498,
                    0.14129669964313507,
                    0.1542356014251709,
                    -0.1798030436038971,
                    0.09115106612443924,
                    0.1652236133813858,
                    0.16581830382347107,
                    0.1755049228668213,
                    -0.03444156423211098,
                    -0.08135461807250977,
                    -0.12282152473926544,
                    -0.0699208676815033,
                    -0.08698205649852753,
                    0.1281227171421051,
                    -0.10233034193515778,
                    -0.11843587458133698,
                    0.038144778460264206,
                    0.07212521880865097,
                    0.10060819238424301,
                    -0.0703728199005127,
                    0.09315933287143707,
                    -0.20365901291370392,
                    -0.05331357941031456,
                    -0.16753676533699036,
                    -0.03921970725059509,
                    -0.00959526002407074,
                    -0.04206102341413498,
                    0.0801384299993515,
                    0.12272317707538605,
                    0.037865910679101944,
                    -0.11894338577985764,
                    -0.111312136054039,
                    -0.1287681609392166,
                    -0.05025662109255791,
                    -0.1009412333369255,
                    0.1866610050201416,
                    0.15685473382472992,
                    -0.11862368881702423,
                    -0.034748565405607224,
                    0.10474420338869095,
                    -0.09362758696079254,
                    -0.0004959061043336987,
                    0.11740395426750183,
                    0.1605091243982315,
                    -0.05872116610407829,
                    -0.019491489976644516,
                    -0.15595299005508423,
                    0.040385063737630844,
                    -0.11501338332891464,
                    -0.08630720525979996,
                    0.06871453672647476,
                    -0.08956572413444519
                ]
            },
            {
                "_type": "ndarray",
                "shape": [
                    128
                ],
                "dtype": "float32",
                "data": [
                    0.0009765060967765749,
                    0.0033201456535607576,
                    -0.001353967934846878,
                    -0.0004408972163219005,
                    -0.004513123072683811,
                    0.004760365933179855,
                    0.012777350842952728,
                    -0.000777671579271555,
                    0.0043755192309618,
                    0.0016528473934158683,
                    -0.01134001649916172,
                    -0.005574134644120932,
                    0.0046385894529521465,
                    0.0036768577992916107,
                    -0.0021824007853865623,
                    0.004196041729301214,
                    -0.008226457983255386,
                    -0.0009024330065585673,
                    0.008409717120230198,
                    0.0013534673489630222,
                    -0.0013737959088757634,
                    0.0009551607072353363,
                    -0.007886565290391445,
                    0.0016380308661609888,
                    0.0018863396253436804,
                    -0.002724767429754138,
                    0.0059265559539198875,
                    0.0036691436544060707,
                    0.007625731639564037,
                    0.007324401754885912,
                    -0.001056388602592051,
                    -0.005400467198342085,
                    0.011193991638720036,
                    -0.006750745698809624,
                    -0.02663274295628071,
                    0.0038503536488860846,
                    -0.00018155011639464647,
                    0.006304749753326178,
                    0.004785810597240925,
                    0.0027942568995058537,
                    0.0025743490550667048,
                    0.002737947041168809,
                    -0.0041323695331811905,
                    0.0012109780218452215,
                    0.005239939317107201,
                    -0.0009690712322480977,
                    0.006037380080670118,
                    0.003865049220621586,
                    0.009306773543357849,
                    0.000638684316072613,
                    0.0031192409805953503,
                    -1.0758684766187798e-05,
                    4.926262772642076e-05,
                    -0.005356334149837494,
                    0.001598117989487946,
                    0.00011786970571847633,
                    0.001339433016255498,
                    -0.0039027445018291473,
                    0.002571410033851862,
                    0.00831596739590168,
                    0.0005677301669493318,
                    -1.1972388165304437e-05,
                    0.002114600036293268,
                    0.0009039643919095397,
                    -0.001824197475798428,
                    -0.0009106342913582921,
                    -0.002540204208344221,
                    -0.0020080420654267073,
                    -0.0030567971989512444,
                    -0.0017333230935037136,
                    -0.008531948551535606,
                    -0.0022594428155571222,
                    0.0009782768320292234,
                    0.009723064489662647,
                    -0.006854695733636618,
                    0.00748675549402833,
                    0.014932059682905674,
                    0.0030607632361352444,
                    0.009832456707954407,
                    -0.0019603094551712275,
                    0.00243411329574883,
                    0.003161648055538535,
                    0.009126582182943821,
                    -0.005266744643449783,
                    -0.001865021651610732,
                    9.406315803062171e-05,
                    0.009470616467297077,
                    0.002945941872894764,
                    0.002338763326406479,
                    -0.0012808156898245215,
                    -0.006008081138134003,
                    -0.005345960613340139,
                    0.004119994584470987,
                    0.0018675546161830425,
                    -0.00875728577375412,
                    -0.01631350629031658,
                    0.0031157624907791615,
                    -0.0001338829897576943,
                    -0.0035134879872202873,
                    0.0001727552298689261,
                    0.009458061307668686,
                    -0.004770918283611536,
                    -0.002234844723716378,
                    0.0021362716797739267,
                    -0.003829502733424306,
                    -0.0046297465451061726,
                    0.0050911311991512775,
                    0.004611746408045292,
                    0.00010263197327731177,
                    0.003056611865758896,
                    -0.000339131016517058,
                    -0.0012454274110496044,
                    -0.00405659107491374,
                    0.006469892803579569,
                    0.00704386830329895,
                    -0.0015330231981351972,
                    -0.004018539097160101,
                    0.0027170332614332438,
                    -0.0004903472727164626,
                    -0.0024725105613470078,
                    0.0040140594355762005,
                    -0.0018184696091338992,
                    0.007721323519945145,
                    0.0024894536472857,
                    0.008730575442314148,
                    0.0009641639771871269,
                    -0.0016275919042527676,
                    -0.0028186412528157234
                ]
            }
        ]
    },
    {
        "class": "keras.layers.core.dense.Dense",
        "config": {
            "name": "dense_12",
            "trainable": true,
            "dtype": "float32",
            "units": 128,
            "activation": "softplus",
            "use_bias": true,
            "kernel_initializer": {
                "class_name": "GlorotUniform",
                "config": {
                    "seed": null
                }
            },
            "bias_initializer": {
                "class_name": "Zeros",
                "config": {}
            },
            "kernel_regularizer": null,
            "bias_regularizer": null,
            "activity_regularizer": null,
            "kernel_constraint": null,
            "bias_constraint": null
        },
        "weights": [
            {
                "_type": "ndarray",
                "shape": [
                    128,
                    128
                ],
                "dtype": "float32",
                "data": [
                    -0.13681863248348236,
                    -0.12684939801692963,
                    -0.06829025596380234,
                    0.0875527411699295,
                    -0.05918177217245102,
                    0.0648687332868576,
                    0.08480450510978699,
                    -0.14152872562408447,
                    -0.052324648946523666,
                    0.08444367349147797,
                    -0.06507676839828491,
                    -0.09369222819805145,
                    0.05743672326207161,
                    0.11572123318910599,
                    0.09080813080072403,
                    -0.07328056544065475,
                    0.11656457930803299,
                    0.07558569312095642,
                    0.04755525663495064,
                    0.06847728043794632,
                    0.005488158669322729,
                    -0.04347081482410431,
                    -0.04827333986759186,
                    0.06411906331777573,
                    0.09921727329492569,
                    0.15656867623329163,
                    0.03200051188468933,
                    -0.009192327037453651,
                    -0.09194084256887436,
                    -0.13628120720386505,
                    0.07686062157154083,
                    0.07174494117498398,
                    -0.08067338913679123,
                    -0.056031808257102966,
                    0.05939510464668274,
                    -0.15043820440769196,
                    0.11366937309503555,
                    -0.1308412402868271,
                    0.1221020519733429,
                    0.03716755285859108,
                    -0.06324232369661331,
                    -0.03943762928247452,
                    -0.030861832201480865,
                    0.08531133085489273,
                    -0.016877615824341774,
                    -0.09767884016036987,
                    -0.09834831953048706,
                    -0.023093100637197495,
                    0.08298813551664352,
                    -0.11479436606168747,
                    -0.029291948303580284,
                    -0.08670561760663986,
                    0.02210760861635208,
                    0.08981284499168396,
                    0.1301291435956955,
                    -0.008132468909025192,
                    -0.08664580434560776,
                    -0.11657675355672836,
                    -0.0367329902946949,
                    0.004784456919878721,
                    0.06388343125581741,
                    0.03225390613079071,
                    -0.009309866465628147,
                    0.04862993210554123,
                    -0.08456883579492569,
                    0.13372470438480377,
                    0.08075951784849167,
                    0.10776297003030777,
                    -0.12092024087905884,
                    0.07410017400979996,
                    -0.09340080618858337,
                    -0.048206597566604614,
                    0.10950468480587006,
                    -0.021058334037661552,
                    -0.06050971895456314,
                    0.13047073781490326,
                    0.05435433238744736,
                    0.014515460468828678,
                    0.08852527290582657,
                    -0.09201761335134506,
                    -0.014880183152854443,
                    -0.01243655662983656,
                    -0.007976214401423931,
                    -0.11168503761291504,
                    0.07646683603525162,
                    -0.02943049557507038,
                    0.1247040182352066,
                    0.1430615782737732,
                    0.06904163211584091,
                    0.050358790904283524,
                    -0.027451597154140472,
                    -0.005378791596740484,
                    -0.030275436118245125,
                    0.022409921512007713,
                    0.0639321580529213,
                    -0.12799468636512756,
                    0.14800475537776947,
                    -0.08454124629497528,
                    -0.05861100181937218,
                    0.12458565086126328,
                    -0.0070434147492051125,
                    -0.03741639479994774,
                    0.0981670394539833,
                    0.07602021843194962,
                    0.09060088545084,
                    -0.08911275863647461,
                    -0.019247325137257576,
                    -0.07104325294494629,
                    -0.037251707166433334,
                    -0.08470937609672546,
                    -0.03698991239070892,
                    -0.033975761383771896,
                    0.14545944333076477,
                    0.058336757123470306,
                    0.13395707309246063,
                    0.11849340051412582,
                    0.11216150969266891,
                    0.12613937258720398,
                    -0.12404417991638184,
                    -0.10629841685295105,
                    0.11699195951223373,
                    0.1369331330060959,
                    -0.023093940690159798,
                    0.06092185527086258,
                    -0.08808983862400055,
                    -0.0372481532394886,
                    0.12505832314491272,
                    -0.09096980839967728,
                    -0.10495536774396896,
                    0.09480340033769608,
                    0.09029185771942139,
                    -0.09666597098112106,
                    -0.07140064239501953,
                    0.13572639226913452,
                    -0.07625280320644379,
                    -0.084409698843956,
                    -0.11532653123140335,
                    -0.10790561884641647,
                    0.12260284274816513,
                    -0.016895994544029236,
                    -0.03837938606739044,
                    0.1497277021408081,
                    0.03383447974920273,
                    -0.15412265062332153,
                    0.02353908121585846,
                    0.01292887981981039,
                    0.01953987032175064,
                    -0.0893205851316452,
                    0.012627404183149338,
                    0.06937923282384872,
                    -0.04512130469083786,
                    0.08686201274394989,
                    -0.0964188203215599,
                    -0.0031920422334223986,
                    0.007230409886687994,
                    -0.1125892922282219,
                    0.13968928158283234,
                    0.06808894127607346,
                    -0.13323773443698883,
                    -0.10917700082063675,
                    0.02525591477751732,
                    0.1073988676071167,
                    0.06371814012527466,
                    -0.11684992164373398,
                    0.011574587784707546,
                    -0.06990840286016464,
                    -0.14175115525722504,
                    0.12979000806808472,
                    0.13465146720409393,
                    -0.04241054877638817,
                    0.026000836864113808,
                    -0.014558444730937481,
                    0.09644216299057007,
                    0.14680679142475128,
                    0.011904973536729813,
                    0.05376884713768959,
                    -0.0011923586716875434,
                    0.006861382629722357,
                    0.08832859992980957,
                    0.08957769721746445,
                    -0.041894592344760895,
                    0.02887585200369358,
                    -0.09692757576704025,
                    -0.024974852800369263,
                    -0.08319635689258575,
                    0.14232198894023895,
                    -0.07523883879184723,
                    -0.13526029884815216,
                    -0.14431655406951904,
                    -0.0737728402018547,
                    -0.15828333795070648,
                    0.11055750399827957,
                    -0.12631195783615112,
                    0.10912326723337173,
                    -0.0802360400557518,
                    0.02012753300368786,
                    0.13451844453811646,
                    -0.12698045372962952,
                    0.0376056507229805,
                    -0.08766980469226837,
                    -0.13132420182228088,
                    0.06190767511725426,
                    0.05668513476848602,
                    0.10277314484119415,
                    -0.026747284457087517,
                    0.010721602477133274,
                    -0.025597570464015007,
                    0.1381484568119049,
                    0.028167767450213432,
                    0.10546541959047318,
                    -0.012027123011648655,
                    -0.1218896210193634,
                    -0.0024069519713521004,
                    -0.07394714653491974,
                    -0.1119670569896698,
                    0.11225128173828125,
                    0.09591501206159592,
                    0.0867706760764122,
                    -0.009011943824589252,
                    -0.10946498066186905,
                    0.08252992480993271,
                    -0.06977245956659317,
                    -0.020333556458353996,
                    -0.12057521939277649,
                    -0.015230756253004074,
                    0.07882436364889145,
                    0.04214933142066002,
                    0.05855093151330948,
                    0.15375132858753204,
                    -0.07170315831899643,
                    -0.030444245785474777,
                    -0.0166725255548954,
                    -0.008774939924478531,
                    0.03149500489234924,
                    -0.00470530753955245,
                    0.07439418882131577,
                    0.15552641451358795,
                    -0.08875462412834167,
                    0.10444694757461548,
                    0.09111272543668747,
                    0.13825823366641998,
                    -0.04840797185897827,
                    -0.08376999944448471,
                    -0.026495594531297684,
                    0.026158759370446205,
                    0.05806436389684677,
                    -0.00726999482139945,
                    0.09440524876117706,
                    0.011892810463905334,
                    0.017361432313919067,
                    0.03838460519909859,
                    0.007433718536049128,
                    0.014126111753284931,
                    -0.12849950790405273,
                    -0.14075277745723724,
                    -0.005577373784035444,
                    0.09290468692779541,
                    -0.02516050823032856,
                    0.09989184141159058,
                    0.0034361318685114384,
                    0.031595125794410706,
                    0.09369964152574539,
                    0.034596435725688934,
                    -0.05121523514389992,
                    0.11290029436349869,
                    -0.1301935762166977,
                    -0.017169706523418427,
                    -0.026628298684954643,
                    0.10912816226482391,
                    -0.10884382575750351,
                    -0.03814477100968361,
                    -0.04299497604370117,
                    -0.000841570261400193,
                    -0.13721489906311035,
                    -0.10062132775783539,
                    -0.05586450174450874,
                    -0.07819011807441711,
                    -0.05334307998418808,
                    -0.13144391775131226,
                    -0.08552028983831406,
                    0.0003716317587532103,
                    -0.061755526810884476,
                    -0.036926209926605225,
                    0.11018220335245132,
                    -0.10258705168962479,
                    -0.11653350293636322,
                    -0.12343214452266693,
                    0.11553555727005005,
                    -0.13803236186504364,
                    0.05716759338974953,
                    0.09684363007545471,
                    0.1452980935573578,
                    -0.1382123827934265,
                    -0.02271299622952938,
                    0.04384894296526909,
                    -0.08214294910430908,
                    -0.1289384812116623,
                    0.1424691081047058,
                    0.036128316074609756,
                    0.056254792958498,
                    0.0837300643324852,
                    -0.07084303349256516,
                    -0.02252417430281639,
                    -0.14401240646839142,
                    -0.12239967286586761,
                    0.03877979889512062,
                    -0.10466857254505157,
                    -0.09371267259120941,
                    0.006282754708081484,
                    -0.01133039966225624,
                    0.00849605817347765,
                    -0.11170663684606552,
                    -0.07783398777246475,
                    0.09222632646560669,
                    -0.0618610680103302,
                    -0.13654138147830963,
                    0.13311976194381714,
                    0.07529275119304657,
                    -0.11640600860118866,
                    -0.1297636181116104,
                    0.07534430921077728,
                    0.13521090149879456,
                    -0.02686665579676628,
                    -0.06217676028609276,
                    -0.12845882773399353,
                    -0.07154998183250427,
                    0.0654817521572113,
                    0.035761065781116486,
                    -0.040972474962472916,
                    0.06252619624137878,
                    0.005137482658028603,
                    0.08335484564304352,
                    0.1010153666138649,
                    0.07563786208629608,
                    -0.1362524777650833,
                    -0.05866052955389023,
                    0.03769376873970032,
                    -0.013465948402881622,
                    -0.10578993707895279,
                    -0.04452254995703697,
                    0.005313174333423376,
                    -0.06694695353507996,
                    -0.12865272164344788,
                    0.09387998282909393,
                    -0.09550131857395172,
                    0.05336085706949234,
                    0.09744240343570709,
                    -0.11768466979265213,
                    -0.09504711627960205,
                    0.05167802423238754,
                    -0.09950856119394302,
                    0.15299686789512634,
                    0.10834144055843353,
                    0.03531891480088234,
                    0.03380940109491348,
                    -0.022352764382958412,
                    0.12334318459033966,
                    -0.0068463548086583614,
                    -0.06961055099964142,
                    -0.04904213920235634,
                    0.03047257475554943,
                    -0.0055511509999632835,
                    -0.135651096701622,
                    -0.14176009595394135,
                    -0.07359035313129425,
                    0.014406593516469002,
                    -0.14864081144332886,
                    -0.04617314785718918,
                    0.03176948428153992,
                    -0.09755618125200272,
                    -0.07828032970428467,
                    0.0902046412229538,
                    0.046435996890068054,
                    0.14106331765651703,
                    -0.13995428383350372,
                    -0.11025183647871017,
                    -0.08059491217136383,
                    -0.07186269760131836,
                    -0.006616665981709957,
                    0.11619606614112854,
                    -0.07099584490060806,
                    -0.14105553925037384,
                    0.11221569031476974,
                    0.12108106166124344,
                    0.022525811567902565,
                    -0.13296262919902802,
                    -0.015919210389256477,
                    -0.10602755099534988,
                    -0.08614228665828705,
                    -0.10593362897634506,
                    0.012664895504713058,
                    0.009041384793817997,
                    -0.14072617888450623,
                    0.09614285081624985,
                    0.047512151300907135,
                    0.04477086663246155,
                    -0.03485698997974396,
                    -0.0138854356482625,
                    0.12639875710010529,
                    -0.06365310400724411,
                    0.0724809467792511,
                    0.10249196738004684,
                    -0.048078637570142746,
                    -0.02541535161435604,
                    -0.03374044597148895,
                    0.054280880838632584,
                    -0.10011084377765656,
                    0.034765101969242096,
                    -0.10723644495010376,
                    0.13741305470466614,
                    -0.09814213216304779,
                    0.1128731295466423,
                    0.06958839297294617,
                    -0.08165854960680008,
                    0.10916052758693695,
                    -0.004668198060244322,
                    -0.14431814849376678,
                    -0.08119538426399231,
                    -0.08435700088739395,
                    0.10730810463428497,
                    -0.06585154682397842,
                    0.1569972187280655,
                    -0.03137830272316933,
                    -0.02347819320857525,
                    -0.07201121747493744,
                    -0.026654111221432686,
                    0.11471928656101227,
                    0.11467638611793518,
                    -0.018369536846876144,
                    -0.10121999680995941,
                    0.04373159632086754,
                    0.050155159085989,
                    -0.052729398012161255,
                    -0.14577659964561462,
                    -0.052538782358169556,
                    0.056103721261024475,
                    -0.0027342394459992647,
                    -0.06398116797208786,
                    -0.03903663158416748,
                    0.11071068793535233,
                    0.017864128574728966,
                    -0.012600608170032501,
                    0.10261071473360062,
                    0.10022008419036865,
                    0.14573822915554047,
                    0.04851703718304634,
                    -0.08850961178541183,
                    -0.04213407635688782,
                    -0.026996903121471405,
                    0.1440911591053009,
                    -0.023523621261119843,
                    -0.03603317588567734,
                    -0.07121919095516205,
                    -0.019788838922977448,
                    0.14377090334892273,
                    0.025769134983420372,
                    -0.05665142461657524,
                    -0.09875866025686264,
                    0.044569794088602066,
                    0.12531447410583496,
                    -0.056725673377513885,
                    0.0625501200556755,
                    -0.016812488436698914,
                    -0.0541607066988945,
                    0.11709076166152954,
                    -0.0471201129257679,
                    0.03470824658870697,
                    0.04124338924884796,
                    0.12828640639781952,
                    0.1344374418258667,
                    -0.1326187402009964,
                    0.11980918049812317,
                    0.11542254686355591,
                    -0.07726064324378967,
                    -0.10050417482852936,
                    0.13307417929172516,
                    0.0086447112262249,
                    -0.14206817746162415,
                    0.034676484763622284,
                    0.026475032791495323,
                    0.12618307769298553,
                    0.10611312091350555,
                    -0.004902965854853392,
                    -0.031169967725872993,
                    0.1050567552447319,
                    -0.02941552922129631,
                    0.09644623845815659,
                    0.04859298840165138,
                    0.13040988147258759,
                    0.09150207787752151,
                    -0.02240515872836113,
                    -0.03496577963232994,
                    -0.0840715691447258,
                    0.1403089314699173,
                    0.10664476454257965,
                    -0.03866368904709816,
                    0.06979759782552719,
                    0.13701727986335754,
                    -0.004675151780247688,
                    -0.03451217710971832,
                    -0.09420028328895569,
                    -0.06661655008792877,
                    -0.08802385628223419,
                    0.11950069665908813,
                    0.04013776406645775,
                    0.12040303647518158,
                    0.1077786237001419,
                    0.1268334984779358,
                    -0.09657921642065048,
                    0.12431599944829941,
                    -0.10697217285633087,
                    -0.10121475905179977,
                    -0.030671358108520508,
                    0.09205392748117447,
                    0.09126339852809906,
                    0.05194191634654999,
                    -0.007375311106443405,
                    -0.09737925231456757,
                    0.01055302657186985,
                    -0.0712282732129097,
                    -0.03610599413514137,
                    -0.09489089995622635,
                    -0.009602575562894344,
                    -0.1482309252023697,
                    0.049018748104572296,
                    -0.027490656822919846,
                    -0.1489856243133545,
                    -0.02085629478096962,
                    -0.14244769513607025,
                    -0.13038639724254608,
                    -0.13853251934051514,
                    0.0738358423113823,
                    -0.00020743373897857964,
                    0.05062800273299217,
                    -0.03290647640824318,
                    0.004169955383986235,
                    0.10728765279054642,
                    -0.05108141526579857,
                    -0.010905238799750805,
                    0.13070543110370636,
                    -0.08262515813112259,
                    -0.14688977599143982,
                    0.09574258327484131,
                    -0.14986485242843628,
                    -0.09098992496728897,
                    -0.07215174287557602,
                    0.11453668773174286,
                    0.041226379573345184,
                    0.06206296756863594,
                    0.012364926747977734,
                    0.108371302485466,
                    0.06591164320707321,
                    -0.13484573364257812,
                    -0.12737445533275604,
                    -0.052236512303352356,
                    0.09632854908704758,
                    0.15074416995048523,
                    -0.056618038564920425,
                    -0.09574581682682037,
                    -0.04995042085647583,
                    0.09644722938537598,
                    0.11415772885084152,
                    -0.009957698173820972,
                    0.07468236982822418,
                    -0.11948291957378387,
                    -0.07637128978967667,
                    -0.07651760429143906,
                    -0.012408463284373283,
                    -0.08183123916387558,
                    -0.0821533054113388,
                    -0.06640627980232239,
                    -0.061899494379758835,
                    0.13508960604667664,
                    0.12282083928585052,
                    -0.09130591154098511,
                    0.036028314381837845,
                    -0.0487617664039135,
                    -0.1398225873708725,
                    -0.05511593818664551,
                    -0.052759669721126556,
                    0.0030665001831948757,
                    -0.005813990719616413,
                    -0.13911613821983337,
                    0.06570468097925186,
                    0.05193493142724037,
                    0.07474451512098312,
                    -0.11807670444250107,
                    0.05011029914021492,
                    0.0001256810937775299,
                    -0.029143759980797768,
                    0.040547728538513184,
                    0.052150506526231766,
                    0.13429571688175201,
                    -0.10769933462142944,
                    -0.0021435797680169344,
                    0.052697062492370605,
                    -0.02450064942240715,
                    -0.14152540266513824,
                    -0.12121450901031494,
                    0.10816027224063873,
                    -0.13850942254066467,
                    0.11862914264202118,
                    -0.07199563086032867,
                    0.07123503088951111,
                    -0.07681133598089218,
                    -0.05371726304292679,
                    0.06888485699892044,
                    -0.14807631075382233,
                    -0.09522446244955063,
                    -0.13528276979923248,
                    -0.04383184760808945,
                    0.12318480014801025,
                    -0.059447821229696274,
                    -0.005069100297987461,
                    0.036385100334882736,
                    -0.14899198710918427,
                    -0.09755472093820572,
                    -0.05907120555639267,
                    0.14625369012355804,
                    -0.13055945932865143,
                    0.09212508052587509,
                    -0.13324648141860962,
                    0.14020001888275146,
                    0.012851911596953869,
                    -0.060204893350601196,
                    0.04496970400214195,
                    -0.006287802010774612,
                    0.008113150484859943,
                    0.15164417028427124,
                    0.03768806532025337,
                    -0.1168685257434845,
                    0.011791588738560677,
                    0.005225225817412138,
                    0.06477752327919006,
                    -0.000211916834814474,
                    0.06488148123025894,
                    0.007335557136684656,
                    0.007156343664973974,
                    0.057829879224300385,
                    -0.03920381888747215,
                    0.09830018877983093,
                    0.12468753755092621,
                    -0.07517042011022568,
                    -0.11700096726417542,
                    0.023651892319321632,
                    -0.035260159522295,
                    -0.024906927719712257,
                    -0.03533465042710304,
                    0.041498973965644836,
                    -0.08717899024486542,
                    -0.13504524528980255,
                    0.1525150090456009,
                    -0.06387250125408173,
                    0.017188260331749916,
                    0.11165226995944977,
                    -0.010977353900671005,
                    0.0979377031326294,
                    0.02282761223614216,
                    -0.027291884645819664,
                    -0.03351658582687378,
                    -0.13199815154075623,
                    0.1001034677028656,
                    0.0026347641833126545,
                    -0.07278811186552048,
                    0.14511780440807343,
                    -0.06043640524148941,
                    0.09727713465690613,
                    0.02385890856385231,
                    -0.12730824947357178,
                    -0.12759104371070862,
                    0.11408651620149612,
                    0.12445852160453796,
                    0.11232995986938477,
                    -0.07511645555496216,
                    0.009050842374563217,
                    -0.12985943257808685,
                    0.09496849775314331,
                    0.07138026505708694,
                    -0.13864198327064514,
                    0.01813524402678013,
                    0.07667934149503708,
                    -0.10924689471721649,
                    -0.10104076564311981,
                    0.11447582393884659,
                    -0.08005142211914062,
                    -0.08392463624477386,
                    0.1449611335992813,
                    0.12716403603553772,
                    -0.0971631407737732,
                    0.09586521238088608,
                    0.03275521472096443,
                    -0.12136995792388916,
                    0.08204927295446396,
                    0.12866921722888947,
                    -0.06625885516405106,
                    -0.07425489276647568,
                    -0.09918107837438583,
                    0.0536801852285862,
                    -0.06811631470918655,
                    -0.10467313975095749,
                    0.017807232216000557,
                    0.046512071043252945,
                    -0.10475383698940277,
                    0.14759831130504608,
                    -0.1407281905412674,
                    0.03013026900589466,
                    0.1311507374048233,
                    -0.008276527747511864,
                    -0.07856659591197968,
                    0.0063082436099648476,
                    0.0688905268907547,
                    0.023699767887592316,
                    -0.13007286190986633,
                    0.06400126963853836,
                    0.14085115492343903,
                    0.039205290377140045,
                    0.050438668578863144,
                    -0.03607398271560669,
                    -0.06563452631235123,
                    0.11121057718992233,
                    0.11328969150781631,
                    0.1108095571398735,
                    -0.10180187225341797,
                    0.005762147251516581,
                    -0.15080758929252625,
                    0.07047520577907562,
                    -0.037410102784633636,
                    0.09997063130140305,
                    0.1463460922241211,
                    -0.07713288813829422,
                    0.00787018146365881,
                    -0.1188327968120575,
                    -0.11037079244852066,
                    -0.0025168443098664284,
                    0.003641052870079875,
                    -0.02070741355419159,
                    0.1274433583021164,
                    0.1514969766139984,
                    0.08820874989032745,
                    0.0367378294467926,
                    0.10278262943029404,
                    -0.048928387463092804,
                    -0.08956153690814972,
                    -0.08064202219247818,
                    0.057922329753637314,
                    -0.058802563697099686,
                    -0.12970751523971558,
                    0.09729515016078949,
                    -0.029691532254219055,
                    -0.1471978724002838,
                    0.11917590349912643,
                    -0.14141912758350372,
                    0.08782192319631577,
                    -0.05350254476070404,
                    -0.09055453538894653,
                    -0.09326314181089401,
                    0.002596611389890313,
                    -0.09258157759904861,
                    -0.09244518727064133,
                    -0.09836476296186447,
                    0.03378305211663246,
                    0.09878671914339066,
                    0.03014306351542473,
                    0.1049298420548439,
                    0.1510724276304245,
                    0.10060161352157593,
                    -0.05123816803097725,
                    0.11520326882600784,
                    0.0735764354467392,
                    0.038614314049482346,
                    -0.05668583884835243,
                    -0.05104738101363182,
                    -0.0020058718509972095,
                    -0.1244884729385376,
                    -0.004663532134145498,
                    0.038389891386032104,
                    0.13362430036067963,
                    0.043329037725925446,
                    -0.006622203625738621,
                    0.04766354709863663,
                    0.06110779568552971,
                    -0.08775205165147781,
                    0.024247735738754272,
                    -0.05601995065808296,
                    -0.11643831431865692,
                    -0.06884679198265076,
                    -0.08235915750265121,
                    0.14329279959201813,
                    -0.13036607205867767,
                    0.06794919073581696,
                    0.10759160667657852,
                    0.07790017873048782,
                    0.08937950432300568,
                    0.04059835895895958,
                    -0.07867071032524109,
                    -0.020873012021183968,
                    -0.06563908606767654,
                    0.11696896702051163,
                    0.12967076897621155,
                    -0.11270096898078918,
                    -0.011344430968165398,
                    -0.1351330280303955,
                    0.019758759066462517,
                    -0.003735765116289258,
                    -0.0468318872153759,
                    -0.03914595767855644,
                    0.05097869411110878,
                    -0.13749609887599945,
                    -0.0032428165432065725,
                    0.04989064484834671,
                    0.05963318049907684,
                    0.1430342048406601,
                    0.05580230429768562,
                    -0.0649813711643219,
                    0.08927559107542038,
                    -0.1328551471233368,
                    -0.06156926974654198,
                    0.13483674824237823,
                    0.03337022662162781,
                    -0.07010610401630402,
                    -0.11890601366758347,
                    -0.0009456678526476026,
                    0.07508660852909088,
                    -0.15437881648540497,
                    0.11946891248226166,
                    0.12060969322919846,
                    0.12363829463720322,
                    0.11995241045951843,
                    -0.0756949707865715,
                    -0.14502587914466858,
                    -0.08698863536119461,
                    -0.0005268335808068514,
                    -0.05965958163142204,
                    -0.13812215626239777,
                    0.039339128881692886,
                    0.027733197435736656,
                    0.13474909961223602,
                    -0.11089473217725754,
                    -0.1034197211265564,
                    0.017633356153964996,
                    -0.04397045075893402,
                    0.08244231343269348,
                    -0.12215998023748398,
                    -0.08338360488414764,
                    0.0342274010181427,
                    -0.07652194052934647,
                    0.01988912560045719,
                    -0.012341227382421494,
                    0.025445498526096344,
                    -0.094154953956604,
                    0.03858504816889763,
                    -0.131277933716774,
                    -0.04052435979247093,
                    -0.03072439692914486,
                    -0.09823023527860641,
                    -0.039361611008644104,
                    0.08078209310770035,
                    -0.016740452498197556,
                    -0.0916682630777359,
                    -0.12266580015420914,
                    0.1497335582971573,
                    0.12485510110855103,
                    0.14365506172180176,
                    0.038926392793655396,
                    -0.13939815759658813,
                    0.15065118670463562,
                    -0.09393052011728287,
                    -0.04405874386429787,
                    0.09255936741828918,
                    -0.05134819075465202,
                    0.05435991659760475,
                    -0.06556704640388489,
                    -0.09559719264507294,
                    -0.059831488877534866,
                    -0.04139893129467964,
                    0.09445329010486603,
                    0.15620939433574677,
                    -0.1447710543870926,
                    0.15680569410324097,
                    -0.06344456970691681,
                    0.027056768536567688,
                    -0.13874316215515137,
                    0.07583311200141907,
                    -0.12825599312782288,
                    0.09939022362232208,
                    -0.12722475826740265,
                    -0.05211816355586052,
                    0.08285214751958847,
                    -0.03195814788341522,
                    0.131161630153656,
                    -0.052703555673360825,
                    0.07336403429508209,
                    -0.13189461827278137,
                    0.06788983941078186,
                    -0.05915893241763115,
                    -0.03432987257838249,
                    -0.004107547923922539,
                    -0.045689940452575684,
                    -0.017221907153725624,
                    0.13172301650047302,
                    0.017232468351721764,
                    -0.08193084597587585,
                    -0.002666871529072523,
                    0.040081024169921875,
                    -0.1448495239019394,
                    -0.09922029078006744,
                    0.062007397413253784,
                    0.10300928354263306,
                    -0.050462137907743454,
                    -0.01910199224948883,
                    -0.029309511184692383,
                    0.009899203665554523,
                    0.005356632638722658,
                    -0.09564457088708878,
                    -0.061356071382761,
                    0.019264724105596542,
                    -0.11096362769603729,
                    0.07647263258695602,
                    0.07223044335842133,
                    -0.06657291203737259,
                    -0.07233087718486786,
                    0.08994743973016739,
                    0.06653591990470886,
                    -0.13257287442684174,
                    -0.14563657343387604,
                    0.08325918763875961,
                    -0.13953426480293274,
                    -0.04939239099621773,
                    -0.015099383890628815,
                    0.1251405030488968,
                    0.09740542620420456,
                    -0.10861938446760178,
                    -0.08326120674610138,
                    0.13468527793884277,
                    0.08528951555490494,
                    0.0011886823922395706,
                    0.010415928438305855,
                    0.07364771515130997,
                    -0.021318994462490082,
                    -0.12972643971443176,
                    0.12477319687604904,
                    0.06987982243299484,
                    -0.08163970708847046,
                    0.08375678211450577,
                    0.15598751604557037,
                    0.013618920929729939,
                    -0.10432957112789154,
                    0.13794299960136414,
                    0.14645916223526,
                    -0.012485763058066368,
                    -0.09974253922700882,
                    0.12625595927238464,
                    0.016330339014530182,
                    0.017499206587672234,
                    0.06367304176092148,
                    -0.09139764308929443,
                    -0.07223010808229446,
                    -0.08539167046546936,
                    -0.07842341810464859,
                    -0.019858531653881073,
                    -0.06496167182922363,
                    0.02671811170876026,
                    -0.141310915350914,
                    -0.13024796545505524,
                    -0.10399424284696579,
                    -0.03706410154700279,
                    0.03435957804322243,
                    -0.14590948820114136,
                    -0.022928522899746895,
                    0.06392715871334076,
                    -0.02164485864341259,
                    -0.13896949589252472,
                    -0.03038875386118889,
                    -0.05664994567632675,
                    0.007684532552957535,
                    0.07766208797693253,
                    -0.09448187798261642,
                    0.019278595224022865,
                    0.11684103310108185,
                    0.11892572790384293,
                    -0.10676462203264236,
                    0.0983845591545105,
                    0.10907618701457977,
                    0.06462500244379044,
                    0.14753152430057526,
                    0.05006927624344826,
                    -0.11950952559709549,
                    0.14987269043922424,
                    0.005657983478158712,
                    0.09153817594051361,
                    -0.11862265318632126,
                    -0.14555898308753967,
                    0.038943275809288025,
                    0.11727533489465714,
                    0.12560592591762543,
                    0.10778381675481796,
                    0.13800986111164093,
                    -0.11765904724597931,
                    0.010395171120762825,
                    -0.056201327592134476,
                    -0.044513341039419174,
                    -0.02755516767501831,
                    0.07659810036420822,
                    -0.03309075906872749,
                    -0.13493649661540985,
                    -0.0008616960840299726,
                    -0.1104448065161705,
                    -0.12240076065063477,
                    -0.10777726769447327,
                    0.07125518471002579,
                    -0.09442928433418274,
                    -0.1293456256389618,
                    -0.12476978451013565,
                    0.07700403779745102,
                    0.06796596199274063,
                    -0.15306606888771057,
                    0.1217692568898201,
                    -0.11133531481027603,
                    -0.05665068328380585,
                    0.03323225677013397,
                    -0.16032841801643372,
                    0.14202387630939484,
                    -0.11279616504907608,
                    -0.13483791053295135,
                    -0.06152363494038582,
                    0.13999660313129425,
                    -0.07100557535886765,
                    -0.013241991400718689,
                    0.0705549344420433,
                    -0.07511885464191437,
                    0.052506186068058014,
                    0.1532147079706192,
                    -0.1391681730747223,
                    -0.07356719672679901,
                    0.05028630048036575,
                    -0.00948330294340849,
                    -0.11154702305793762,
                    -0.09643614292144775,
                    0.0016130506992340088,
                    -0.14995422959327698,
                    -0.020522335544228554,
                    -0.036283835768699646,
                    -0.12119783461093903,
                    -0.023477183654904366,
                    -0.06272346526384354,
                    0.054718974977731705,
                    0.07316642999649048,
                    -0.13918189704418182,
                    0.14698192477226257,
                    -0.021640529856085777,
                    -0.0893341451883316,
                    0.067588672041893,
                    -0.12132784724235535,
                    -0.05892282724380493,
                    -0.016324730589985847,
                    -0.07504838705062866,
                    -0.03917217254638672,
                    -0.0719568058848381,
                    -0.0019301710417494178,
                    -0.08855189383029938,
                    -0.10792120546102524,
                    -0.1412566751241684,
                    0.13735739886760712,
                    -0.08870626986026764,
                    -0.04793563857674599,
                    -0.054324980825185776,
                    0.06814173609018326,
                    0.01609937474131584,
                    0.12055106461048126,
                    0.06430531293153763,
                    -0.07385493814945221,
                    -0.12030242383480072,
                    0.0726715549826622,
                    0.14122934639453888,
                    0.0008615427650511265,
                    0.12546159327030182,
                    0.1457817405462265,
                    0.0117717320099473,
                    -0.08737065643072128,
                    -0.05089901015162468,
                    -0.0493864044547081,
                    0.03779052942991257,
                    0.09287361055612564,
                    -0.05928665027022362,
                    -0.15195581316947937,
                    0.05898456647992134,
                    0.11702278256416321,
                    0.07495885342359543,
                    -0.022141702473163605,
                    -0.14453335106372833,
                    -0.1078096404671669,
                    -0.007903811521828175,
                    -0.05367760360240936,
                    -0.14573244750499725,
                    0.09981934726238251,
                    0.052525412291288376,
                    -0.09332513809204102,
                    -0.025531776249408722,
                    0.06123144179582596,
                    -0.131597101688385,
                    -0.03572980314493179,
                    -0.14566639065742493,
                    0.1415514498949051,
                    -0.07779473066329956,
                    -0.03446599468588829,
                    -0.12661118805408478,
                    -0.1260991245508194,
                    -0.08876461535692215,
                    -0.004221098963171244,
                    0.14142447710037231,
                    -0.05765348672866821,
                    -0.07334581762552261,
                    0.08771207928657532,
                    0.07888876646757126,
                    -0.0463985800743103,
                    0.07645528018474579,
                    0.07447101920843124,
                    -0.09022333472967148,
                    -0.08499297499656677,
                    0.015094656497240067,
                    0.008866237476468086,
                    0.13074517250061035,
                    -0.009377723559737206,
                    0.04988778755068779,
                    0.028068486601114273,
                    -0.011968016624450684,
                    0.01712300442159176,
                    -0.009792769327759743,
                    -0.08565571904182434,
                    0.011207768693566322,
                    0.10544826835393906,
                    0.09641630202531815,
                    -0.07764273881912231,
                    -0.12798349559307098,
                    0.1582716852426529,
                    0.028383895754814148,
                    -0.12581230700016022,
                    0.008427340537309647,
                    -0.054267287254333496,
                    0.0015664459206163883,
                    -0.030916627496480942,
                    -0.011043490841984749,
                    0.12469750642776489,
                    -0.009748989716172218,
                    -0.07382934540510178,
                    -0.024945808574557304,
                    -0.08248861134052277,
                    -0.07398543506860733,
                    0.1392991691827774,
                    -0.04981358349323273,
                    0.10104604065418243,
                    -0.056074630469083786,
                    -0.0727597251534462,
                    0.054109130054712296,
                    -0.04209381714463234,
                    0.092453733086586,
                    -0.14535361528396606,
                    -0.030918080359697342,
                    0.11460523307323456,
                    0.10222947597503662,
                    0.15093547105789185,
                    0.10002057254314423,
                    0.10647393018007278,
                    0.037740495055913925,
                    0.0911187157034874,
                    -0.06771068274974823,
                    -0.050825417041778564,
                    -0.13739851117134094,
                    -0.1370372623205185,
                    0.04696839675307274,
                    -0.05683163180947304,
                    -0.13310867547988892,
                    0.004250936675816774,
                    0.06450723111629486,
                    -0.03547954186797142,
                    -0.01287215668708086,
                    -0.09075852483510971,
                    0.0004431319539435208,
                    0.14080508053302765,
                    0.12821103632450104,
                    -0.10955759137868881,
                    0.13868802785873413,
                    -0.07979372143745422,
                    0.031207550317049026,
                    -0.13055428862571716,
                    -0.04815377667546272,
                    0.13830547034740448,
                    -0.025661880150437355,
                    -0.0957433208823204,
                    0.07058485597372055,
                    0.08402474224567413,
                    0.06394894421100616,
                    -0.018814818933606148,
                    -0.0743977352976799,
                    -0.0322066992521286,
                    -0.05515744537115097,
                    -0.03371675685048103,
                    -0.005591316148638725,
                    0.11566819250583649,
                    0.06597916781902313,
                    -0.03054840862751007,
                    0.02541215531527996,
                    0.08169913291931152,
                    0.07908084243535995,
                    -0.060534559190273285,
                    -0.1362673044204712,
                    -0.10746534913778305,
                    0.08454629778862,
                    0.013309785164892673,
                    -0.07059309631586075,
                    0.06731198728084564,
                    -0.05946767330169678,
                    -0.11944938451051712,
                    0.06231359764933586,
                    -0.05490272864699364,
                    -0.07879944890737534,
                    -0.036080386489629745,
                    0.13655829429626465,
                    -0.043131452053785324,
                    -0.09676326811313629,
                    -0.013323540799319744,
                    -0.017293309792876244,
                    0.03234447166323662,
                    0.014403745532035828,
                    -0.043532274663448334,
                    0.06927809864282608,
                    0.09253613650798798,
                    0.0786769837141037,
                    -0.10759143531322479,
                    -0.14915069937705994,
                    -0.02131480909883976,
                    -0.12408759444952011,
                    -0.06300083547830582,
                    0.04760335385799408,
                    0.0685388371348381,
                    -0.09080221503973007,
                    -0.0335552841424942,
                    0.1248355507850647,
                    0.033065956085920334,
                    -0.0481899194419384,
                    0.14432698488235474,
                    -0.0234056506305933,
                    -0.03995966538786888,
                    0.0882062092423439,
                    0.14039680361747742,
                    0.010963892564177513,
                    -0.0849737673997879,
                    0.050495218485593796,
                    0.015375346876680851,
                    0.08588511496782303,
                    0.08604350686073303,
                    -0.13812561333179474,
                    -0.05450962856411934,
                    -0.13665170967578888,
                    0.13953259587287903,
                    -0.02561807446181774,
                    -0.07078094780445099,
                    0.04030158370733261,
                    0.03292673081159592,
                    0.07723435759544373,
                    0.03989787772297859,
                    -0.010215999558568,
                    -0.021938271820545197,
                    -0.11252705752849579,
                    0.05228767544031143,
                    -0.03935092315077782,
                    0.14601415395736694,
                    0.11035744100809097,
                    0.06455225497484207,
                    0.0674217939376831,
                    -0.07822151482105255,
                    -0.13395549356937408,
                    -0.1116369441151619,
                    0.028237314894795418,
                    -0.04158011078834534,
                    -0.1586838662624359,
                    -0.10558071732521057,
                    0.13641858100891113,
                    0.0016249835025519133,
                    0.06466019153594971,
                    0.021711530163884163,
                    -0.1461588591337204,
                    -0.07352125644683838,
                    0.08148908615112305,
                    0.016146855428814888,
                    -0.11971166729927063,
                    0.06361992657184601,
                    -0.11378937214612961,
                    0.005853759590536356,
                    0.07321575284004211,
                    -0.10011343657970428,
                    0.08632932603359222,
                    0.09337101131677628,
                    -0.13669705390930176,
                    0.01577020063996315,
                    -0.02072647027671337,
                    -0.008637756109237671,
                    0.02976483292877674,
                    -0.11536380648612976,
                    0.05383061617612839,
                    0.09280815720558167,
                    0.10770399123430252,
                    0.04345283657312393,
                    0.1292273998260498,
                    -0.030335810035467148,
                    0.08522524684667587,
                    0.08840861171483994,
                    0.08307725936174393,
                    0.08931335061788559,
                    -0.046117547899484634,
                    0.07393483817577362,
                    -0.00947682373225689,
                    -0.01573162153363228,
                    0.13047702610492706,
                    -0.026587069034576416,
                    -0.11994296312332153,
                    -0.12007341533899307,
                    -0.1093614399433136,
                    -0.0976070687174797,
                    0.10188861191272736,
                    0.05795016512274742,
                    -0.08006035536527634,
                    0.1312779039144516,
                    0.0006279824883677065,
                    0.07767709344625473,
                    0.024170637130737305,
                    -0.15210723876953125,
                    -0.04313558340072632,
                    0.056304559111595154,
                    -0.035433243960142136,
                    -0.056731585413217545,
                    -0.03669961541891098,
                    0.15092501044273376,
                    0.06824491173028946,
                    0.10277184844017029,
                    -0.10070401430130005,
                    0.09412623196840286,
                    -0.01929071731865406,
                    -0.02775552310049534,
                    0.044387947767972946,
                    -0.07246671617031097,
                    -0.1273660957813263,
                    -0.09797276556491852,
                    0.10608220845460892,
                    0.12457991391420364,
                    -0.08605354279279709,
                    0.1566949486732483,
                    0.1383596807718277,
                    -0.0442633219063282,
                    -0.044226326048374176,
                    0.11517839878797531,
                    -0.059721894562244415,
                    0.09686318784952164,
                    -0.059808216989040375,
                    -0.05074375495314598,
                    0.007780556567013264,
                    -0.028276780620217323,
                    -0.14670753479003906,
                    0.09669966995716095,
                    0.14283548295497894,
                    0.0865088477730751,
                    0.038935981690883636,
                    0.04948531836271286,
                    0.09937598556280136,
                    0.02259710431098938,
                    -0.10266593098640442,
                    0.10530330240726471,
                    -0.057499147951602936,
                    -0.004764796234667301,
                    0.027691666036844254,
                    -0.10367946326732635,
                    -0.003331343876197934,
                    -0.11671144515275955,
                    0.040886349976062775,
                    -0.10305552184581757,
                    0.13620974123477936,
                    0.07393590360879898,
                    -0.024051522836089134,
                    0.05562438443303108,
                    -0.10330194979906082,
                    -0.13244707882404327,
                    0.06551562249660492,
                    0.13112621009349823,
                    -0.04373288154602051,
                    0.0816783681511879,
                    -0.05429929867386818,
                    -0.011353486217558384,
                    -0.09808337688446045,
                    -0.09915459901094437,
                    0.07069309800863266,
                    -0.01659080944955349,
                    -0.09974739700555801,
                    0.011632357724010944,
                    -0.04315689206123352,
                    0.010017182677984238,
                    0.05678340792655945,
                    -0.07009901851415634,
                    -0.0254672821611166,
                    -0.05906033143401146,
                    -0.13551835715770721,
                    -0.0015243202215060592,
                    0.03722996264696121,
                    -0.023500612005591393,
                    0.04707976058125496,
                    -0.0002919013786595315,
                    -0.04064159840345383,
                    0.008123227395117283,
                    -0.04236018657684326,
                    -0.05590427666902542,
                    -0.00892695877701044,
                    -0.07392463833093643,
                    0.032400649040937424,
                    -0.06737973541021347,
                    -0.07482556253671646,
                    -0.10326605290174484,
                    -0.02462656982243061,
                    0.06661356985569,
                    0.1016681045293808,
                    -0.11147180199623108,
                    -0.07848180830478668,
                    0.14303287863731384,
                    0.03924533724784851,
                    0.03035903535783291,
                    0.0429702028632164,
                    -0.09174338728189468,
                    -0.0960368886590004,
                    -0.08461428433656693,
                    -0.14681728184223175,
                    -0.06628351658582687,
                    -0.03132488951086998,
                    -0.12828640639781952,
                    0.05167648196220398,
                    -0.12913228571414948,
                    -0.10102815926074982,
                    -0.012267060577869415,
                    0.017459047958254814,
                    0.1197202056646347,
                    -0.13134829699993134,
                    0.09276364743709564,
                    -0.1221405491232872,
                    -0.10371986776590347,
                    0.10594508051872253,
                    0.05024178326129913,
                    0.0007988413562998176,
                    0.01954815723001957,
                    -0.007002078462392092,
                    -0.048305582255125046,
                    0.1464594304561615,
                    0.07612325996160507,
