[
    {
        "class": "keras.layers.core.dense.Dense",
        "config": {
            "name": "dense",
            "trainable": true,
            "dtype": "float32",
            "units": 128,
            "activation": "softplus",
            "use_bias": true,
            "kernel_initializer": {
                "class_name": "RandomNormal",
                "config": {
                    "mean": 0.0,
                    "stddev": 0.17677669529663687,
                    "seed": 214127
                }
            },
            "bias_initializer": {
                "class_name": "Zeros",
                "config": {}
            },
            "kernel_regularizer": null,
            "bias_regularizer": null,
            "activity_regularizer": null,
            "kernel_constraint": null,
            "bias_constraint": null
        },
        "weights": [
            {
                "_type": "ndarray",
                "shape": [
                    12,
                    128
                ],
                "dtype": "float32",
                "data": [
                    -0.45077669620513916,
                    0.004762959200888872,
                    -0.1707683801651001,
                    -0.28854501247406006,
                    -0.20350827276706696,
                    0.09813452512025833,
                    0.38357117772102356,
                    0.4502412974834442,
                    0.20836803317070007,
                    -0.052086226642131805,
                    0.078462153673172,
                    -0.04710571467876434,
                    0.059544943273067474,
                    -0.0638919323682785,
                    0.30290913581848145,
                    -0.008135207928717136,
                    -0.01795431599020958,
                    0.20476175844669342,
                    0.07556385546922684,
                    0.021408632397651672,
                    -0.012754235416650772,
                    0.0865226462483406,
                    0.025506727397441864,
                    0.1267288327217102,
                    -0.5028278231620789,
                    -0.15214557945728302,
                    0.10144999623298645,
                    0.8241292238235474,
                    0.005626874975860119,
                    -0.26524800062179565,
                    0.08213026076555252,
                    0.4548250734806061,
                    0.08479374647140503,
                    -0.3701098561286926,
                    -0.0494290329515934,
                    0.14473846554756165,
                    -0.7882242202758789,
                    -0.06796102970838547,
                    0.06364018470048904,
                    -0.069819875061512,
                    -0.13847032189369202,
                    -0.030227748677134514,
                    -0.025432612746953964,
                    0.5077324509620667,
                    -0.14529457688331604,
                    -0.4495511054992676,
                    0.03291081264615059,
                    0.2363215535879135,
                    0.08986645936965942,
                    -0.4450819492340088,
                    -0.2794777452945709,
                    -0.08842796832323074,
                    -0.0737876370549202,
                    -0.40282267332077026,
                    -0.061932165175676346,
                    0.0641867145895958,
                    0.16804547607898712,
                    -0.1370241343975067,
                    -0.10945577174425125,
                    0.02088964730501175,
                    0.1656392365694046,
                    0.5493311285972595,
                    0.28187423944473267,
                    -0.08819041401147842,
                    -0.15162980556488037,
                    0.03386279568076134,
                    -0.13593325018882751,
                    0.2807065546512604,
                    0.27040064334869385,
                    -0.15881305932998657,
                    0.26064833998680115,
                    0.26702186465263367,
                    -0.19010114669799805,
                    0.07870332896709442,
                    0.0798129290342331,
                    -0.3203427195549011,
                    -0.05891574174165726,
                    -0.07614900916814804,
                    -0.14983311295509338,
                    -0.1191331222653389,
                    0.15847547352313995,
                    -0.07064652442932129,
                    0.18708471953868866,
                    0.04312288388609886,
                    -0.7464019060134888,
                    0.09193874895572662,
                    -0.008672698400914669,
                    0.20018336176872253,
                    0.03973350673913956,
                    -0.07829006761312485,
                    -0.0998186245560646,
                    -0.07846421748399734,
                    -0.3290883004665375,
                    0.19667790830135345,
                    0.4914337396621704,
                    0.13134464621543884,
                    -0.4201020896434784,
                    -0.3465211093425751,
                    0.03223956748843193,
                    0.33895519375801086,
                    -0.5359793901443481,
                    0.24149714410305023,
                    0.034248050302267075,
                    0.0932655930519104,
                    -0.23575463891029358,
                    0.011053767055273056,
                    -0.037838809192180634,
                    0.07890625298023224,
                    -0.1786792129278183,
                    -0.042907651513814926,
                    -0.4703749418258667,
                    0.01582900993525982,
                    -0.29650700092315674,
                    0.061967045068740845,
                    0.4978088438510895,
                    0.3026769161224365,
                    0.42693930864334106,
                    -0.057503022253513336,
                    -0.1687350571155548,
                    0.06607447564601898,
                    -0.7458718419075012,
                    -0.17416010797023773,
                    0.16596978902816772,
                    0.19206543266773224,
                    0.46884506940841675,
                    -0.30972427129745483,
                    0.154246985912323,
                    0.0823035016655922,
                    -0.5638779401779175,
                    0.30865901708602905,
                    -1.037204384803772,
                    -0.5295992493629456,
                    -0.2941739559173584,
                    -0.3278046250343323,
                    0.9161287546157837,
                    0.31822285056114197,
                    0.8595178723335266,
                    0.20450957119464874,
                    0.003888462670147419,
                    -0.2049691528081894,
                    0.2299664169549942,
                    -0.08980335295200348,
                    -0.1663091480731964,
                    -0.16627515852451324,
                    0.010319140739738941,
                    -0.10707490146160126,
                    0.7884975075721741,
                    0.3751533031463623,
                    0.0784185454249382,
                    0.025645894929766655,
                    0.3037574291229248,
                    -0.1704503297805786,
                    0.27116987109184265,
                    -0.197343111038208,
                    0.08597788959741592,
                    0.4614424705505371,
                    0.23026637732982635,
                    -0.4310215711593628,
                    0.10950466245412827,
                    -0.2027524709701538,
                    0.14436878263950348,
                    -0.4419647753238678,
                    -0.32461291551589966,
                    -0.12473231554031372,
                    0.07310421019792557,
                    0.2842954099178314,
                    0.17789101600646973,
                    0.1142372190952301,
                    0.30064523220062256,
                    -0.2234816700220108,
                    0.021591324359178543,
                    0.1962311565876007,
                    -0.32971733808517456,
                    0.34296518564224243,
                    -0.1846102625131607,
                    0.47928503155708313,
                    -0.5441620349884033,
                    -0.44979920983314514,
                    -0.3136248290538788,
                    0.22443312406539917,
                    -0.195672407746315,
                    -0.5511522889137268,
                    -0.23920582234859467,
                    0.3488391637802124,
                    0.22928832471370697,
                    -0.05793819576501846,
                    -0.1467442512512207,
                    -0.12093332409858704,
                    -0.04558303952217102,
                    0.35053855180740356,
                    -0.15679802000522614,
                    0.03973638266324997,
                    -0.0008882576948963106,
                    0.27177271246910095,
                    0.10454832017421722,
                    -0.6701247096061707,
                    -0.3574611246585846,
                    -0.004555646330118179,
                    0.032047566026449203,
                    -0.24849359691143036,
                    -0.27722227573394775,
                    0.19414129853248596,
                    -0.13217973709106445,
                    -0.4241286814212799,
                    0.11537408083677292,
                    0.23396003246307373,
                    0.04979744926095009,
                    0.238821879029274,
                    0.024840734899044037,
                    0.2881442904472351,
                    -0.260223925113678,
                    0.23645253479480743,
                    0.6388086080551147,
                    0.044503577053546906,
                    -0.37905576825141907,
                    -0.10808412730693817,
                    -0.09138479083776474,
                    -0.32267677783966064,
                    -0.0309505183249712,
                    -0.11654496192932129,
                    0.26970282196998596,
                    0.11550862342119217,
                    -0.0987032949924469,
                    0.16931605339050293,
                    -0.06692188233137131,
                    -0.8259011507034302,
                    0.3135026693344116,
                    0.7532853484153748,
                    -0.6405066251754761,
                    0.44699156284332275,
                    -0.4911324679851532,
                    0.4367271065711975,
                    -0.13958556950092316,
                    0.029762987047433853,
                    0.45975351333618164,
                    0.3089422285556793,
                    -0.28794193267822266,
                    0.3497438132762909,
                    0.13366518914699554,
                    -0.044369444251060486,
                    0.14579753577709198,
                    -0.0961853638291359,
                    -0.15351830422878265,
                    0.01769791543483734,
                    0.4265879690647125,
                    0.21780438721179962,
                    0.1655661016702652,
                    0.08632630109786987,
                    -0.5865864157676697,
                    0.24992169439792633,
                    -0.6029070615768433,
                    0.2900852859020233,
                    0.18497690558433533,
                    -0.6393827795982361,
                    0.09597311913967133,
                    -0.2902735471725464,
                    0.32835814356803894,
                    0.2257511019706726,
                    0.48797598481178284,
                    0.22084398567676544,
                    0.06749076396226883,
                    -0.0784229040145874,
                    0.4798104763031006,
                    -0.08888810873031616,
                    0.3422183096408844,
                    -0.4636548161506653,
                    -0.052160538733005524,
                    0.08393171429634094,
                    -0.0702781155705452,
                    0.4014028310775757,
                    0.551987886428833,
                    -0.08344341069459915,
                    -0.26027604937553406,
                    0.3165736198425293,
                    0.2765890061855316,
                    0.13190045952796936,
                    -0.38235825300216675,
                    0.06703556329011917,
                    -0.21518120169639587,
                    0.2775835692882538,
                    -0.27905839681625366,
                    0.07309601455926895,
                    0.10070475190877914,
                    0.7326591610908508,
                    -0.33387047052383423,
                    -0.10630355775356293,
                    -0.27645882964134216,
                    0.3774139881134033,
                    0.21615183353424072,
                    -0.3728761672973633,
                    -0.2637123465538025,
                    -0.5751258730888367,
                    -0.4574753940105438,
                    0.06194356456398964,
                    -0.19470763206481934,
                    -0.29232290387153625,
                    0.21449415385723114,
                    0.0431411974132061,
                    -0.2865440547466278,
                    0.45821741223335266,
                    0.32071226835250854,
                    -0.10107509046792984,
                    -0.032428305596113205,
                    -0.02927183359861374,
                    0.2935870587825775,
                    -0.6463220715522766,
                    0.07550328224897385,
                    -0.0766778513789177,
                    0.13557465374469757,
                    0.7543476819992065,
                    -0.4181995987892151,
                    -0.24315088987350464,
                    -0.1345454901456833,
                    0.17284619808197021,
                    -0.22692427039146423,
                    -0.21078269183635712,
                    -0.106141097843647,
                    -0.5132484436035156,
                    0.0069509511813521385,
                    0.16108661890029907,
                    0.18750956654548645,
                    -0.052659258246421814,
                    -0.4309835433959961,
                    0.10461588948965073,
                    0.17723654210567474,
                    0.2994609773159027,
                    -0.029494918882846832,
                    0.3739374876022339,
                    0.11517181247472763,
                    0.05219969153404236,
                    -0.047024231404066086,
                    0.02860085479915142,
                    -0.22948592901229858,
                    -0.0031896906439214945,
                    -0.19506323337554932,
                    -0.32060807943344116,
                    -0.004260795656591654,
                    0.0008763413643464446,
                    0.6244432926177979,
                    -0.05122663453221321,
                    -0.8235679268836975,
                    0.23718087375164032,
                    0.13190387189388275,
                    0.34634554386138916,
                    -0.002019220497459173,
                    0.14014004170894623,
                    0.14580918848514557,
                    0.28181490302085876,
                    0.07691529393196106,
                    0.1941193789243698,
                    0.17734107375144958,
                    -0.1768941730260849,
                    0.08959314227104187,
                    0.03220854327082634,
                    0.02630721963942051,
                    0.08734111487865448,
                    -0.44735658168792725,
                    0.11969231069087982,
                    0.30337658524513245,
                    -0.2438802570104599,
                    0.2472841590642929,
                    0.05069208890199661,
                    -0.1573934704065323,
                    -0.18776175379753113,
                    -0.1878732442855835,
                    -0.0018982751062139869,
                    -0.36422643065452576,
                    0.47786617279052734,
                    -0.13433727622032166,
                    -0.012015318498015404,
                    0.43263715505599976,
                    0.4576990306377411,
                    -0.03807486593723297,
                    0.03675105795264244,
                    -0.2525990605354309,
                    0.06220778822898865,
                    -0.39149513840675354,
                    -0.40084999799728394,
                    0.15802101790905,
                    -0.0829709991812706,
                    0.1310412883758545,
                    -0.14321941137313843,
                    -0.10784972459077835,
                    0.1283036321401596,
                    0.3427642285823822,
                    -0.06706087291240692,
                    0.9137521386146545,
                    0.13381457328796387,
                    0.0029568711761385202,
                    0.025902297347784042,
                    -0.3406188189983368,
                    -0.24721701443195343,
                    -0.7562494874000549,
                    0.26523566246032715,
                    -0.22291649878025055,
                    -0.049891699105501175,
                    -0.055191390216350555,
                    0.07521890103816986,
                    0.18715065717697144,
                    0.06942030042409897,
                    0.19868870079517365,
                    -0.3350297212600708,
                    -0.523922860622406,
                    0.02962055429816246,
                    0.3047553300857544,
                    -0.04463721811771393,
                    0.1804111748933792,
                    -0.1008353903889656,
                    -0.16918106377124786,
                    0.16295063495635986,
                    -0.07569053769111633,
                    0.1940504014492035,
                    -0.032044194638729095,
                    0.13656939566135406,
                    0.028614819049835205,
                    0.16761581599712372,
                    -0.2048189789056778,
                    0.34761595726013184,
                    0.06884683668613434,
                    0.3948395550251007,
                    -0.8297825455665588,
                    -0.09988364577293396,
                    0.08668114989995956,
                    0.24944579601287842,
                    0.06931979954242706,
                    -0.1813143938779831,
                    0.3752826452255249,
                    -0.16232125461101532,
                    -0.5313237309455872,
                    0.03150076046586037,
                    -0.002728879451751709,
                    0.04077780619263649,
                    -0.2895851731300354,
                    0.22805507481098175,
                    0.19402456283569336,
                    0.20648549497127533,
                    -0.08979382365942001,
                    -0.2208929806947708,
                    -0.13372306525707245,
                    -0.31150302290916443,
                    0.40770137310028076,
                    0.05326485633850098,
                    -0.056967634707689285,
                    0.32243776321411133,
                    -0.15510573983192444,
                    -0.1696733683347702,
                    0.45543864369392395,
                    0.009411630220711231,
                    0.034025195986032486,
                    -0.1583947390317917,
                    0.2772490382194519,
                    0.7393578886985779,
                    0.026241909712553024,
                    -0.5413621664047241,
                    0.3245316445827484,
                    -0.4202952980995178,
                    -0.04092460870742798,
                    0.020103054121136665,
                    -0.09641627222299576,
                    0.22473786771297455,
                    0.11720559000968933,
                    0.08501193672418594,
                    0.141535222530365,
                    0.1353236585855484,
                    -0.14168620109558105,
                    0.0714857429265976,
                    -0.25794097781181335,
                    -0.1456965059041977,
                    -0.7544542551040649,
                    0.09651001542806625,
                    0.04103105142712593,
                    -0.32078760862350464,
                    -0.3483937978744507,
                    -0.19397838413715363,
                    0.12068865448236465,
                    -0.1434037983417511,
                    0.28734153509140015,
                    -0.1736534982919693,
                    0.579413890838623,
                    -0.01778412237763405,
                    -0.5515567064285278,
                    0.004868408665060997,
                    -0.21986070275306702,
                    -0.5643747448921204,
                    0.11915337294340134,
                    0.18011048436164856,
                    -0.2171056866645813,
                    -0.07325398921966553,
                    0.0058420682325959206,
                    -0.02137441188097,
                    0.27284902334213257,
                    -0.06923016160726547,
                    -0.3109687566757202,
                    0.10348045825958252,
                    -0.06846354156732559,
                    -0.3719707131385803,
                    -0.07598388940095901,
                    -0.13270749151706696,
                    0.09722504764795303,
                    -0.14381419122219086,
                    -0.07968512922525406,
                    0.10041917115449905,
                    0.49851974844932556,
                    -0.1338597536087036,
                    0.4311169981956482,
                    0.4740980267524719,
                    0.2755993604660034,
                    -0.037803370505571365,
                    0.3021809458732605,
                    0.443041056394577,
                    -0.10483550280332565,
                    0.03766229376196861,
                    0.45408931374549866,
                    -0.2072884887456894,
                    0.03777702525258064,
                    0.019831743091344833,
                    -0.10405091196298599,
                    -0.10718737542629242,
                    0.013699343428015709,
                    0.14868538081645966,
                    0.1970103532075882,
                    -0.01514661218971014,
                    -0.5071496963500977,
                    0.1774972826242447,
                    -0.1037549301981926,
                    0.18890580534934998,
                    0.10680962353944778,
                    0.4299754202365875,
                    -0.03375538811087608,
                    0.0843968316912651,
                    -0.1786196529865265,
                    -0.1217319518327713,
                    -0.15846914052963257,
                    -0.14870800077915192,
                    0.00924677588045597,
                    -0.0909094512462616,
                    0.07851877808570862,
                    0.08836644142866135,
                    -0.1807374209165573,
                    -0.06295343488454819,
                    -0.1555413156747818,
                    0.07363670319318771,
                    0.05478889122605324,
                    0.038883112370967865,
                    -0.17616578936576843,
                    -0.13039448857307434,
                    -0.4413701593875885,
                    0.05163951963186264,
                    0.09388147294521332,
                    -0.050560254603624344,
                    -0.10115807503461838,
                    -0.044476281851530075,
                    0.38050538301467896,
                    0.3431074321269989,
                    -0.0741971954703331,
                    -0.017009872943162918,
                    0.2158496081829071,
                    -0.18471425771713257,
                    0.37599363923072815,
                    0.3488928973674774,
                    -0.15940186381340027,
                    -0.22630582749843597,
                    -0.19590261578559875,
                    -0.11769504845142365,
                    -0.2770186960697174,
                    -0.15908950567245483,
                    0.22357167303562164,
                    0.1761726438999176,
                    -0.031041344627738,
                    -0.08785683661699295,
                    -0.3181205689907074,
                    -0.04463382437825203,
                    -0.02235342375934124,
                    0.23813895881175995,
                    -0.22331200540065765,
                    -0.03881027549505234,
                    0.08412335813045502,
                    -0.1718199998140335,
                    0.07179038971662521,
                    -0.016726547852158546,
                    0.013413097709417343,
                    -0.04430634528398514,
                    0.10692457109689713,
                    0.10820760577917099,
                    -0.10330145061016083,
                    -0.10568437725305557,
                    -0.09077303856611252,
                    0.4108714759349823,
                    0.2294062077999115,
                    -0.21874035894870758,
                    -0.17977677285671234,
                    -0.23536410927772522,
                    -0.09707033634185791,
                    -0.14336681365966797,
                    -0.10187146812677383,
                    -0.10417891293764114,
                    -0.1444820612668991,
                    0.21286557614803314,
                    -0.31509706377983093,
                    -0.16468024253845215,
                    -0.20562970638275146,
                    0.24328356981277466,
                    -0.07620561867952347,
                    -0.03262004256248474,
                    -0.02043859101831913,
                    -0.002403098624199629,
                    0.11115454137325287,
                    -0.20221944153308868,
                    0.12556475400924683,
                    0.22437162697315216,
                    0.13097549974918365,
                    0.05164788290858269,
                    -0.016712341457605362,
                    0.1851246953010559,
                    -0.01788989081978798,
                    -0.012281598523259163,
                    -0.2850377857685089,
                    -0.06336910277605057,
                    0.10702041536569595,
                    -0.10952790081501007,
                    -0.12898901104927063,
                    -0.2010572999715805,
                    -0.004286764655262232,
                    -0.22622597217559814,
                    -0.1404932588338852,
                    0.1335071176290512,
                    -0.08755531907081604,
                    -0.02980555221438408,
                    -0.2998983860015869,
                    -0.10757195949554443,
                    0.03209920972585678,
                    0.06653845310211182,
                    -0.10935483872890472,
                    -0.011049279011785984,
                    0.1988200694322586,
                    -0.07889573276042938,
                    0.15083515644073486,
                    -0.09931135922670364,
                    0.26985517144203186,
                    -0.046273764222860336,
                    -0.05037454143166542,
                    -0.09707757085561752,
                    0.1369282305240631,
                    -0.13424237072467804,
                    -0.2179916650056839,
                    -0.012420856393873692,
                    0.20840884745121002,
                    -0.024478036910295486,
                    0.11719093471765518,
                    -0.09844042360782623,
                    0.31886324286460876,
                    -0.00018448478658683598,
                    0.28534042835235596,
                    0.6764565706253052,
                    -0.06926681846380234,
                    -0.11069741100072861,
                    -0.509922444820404,
                    0.08275917917490005,
                    0.050070200115442276,
                    -0.20532411336898804,
                    0.3171755075454712,
                    0.08133800327777863,
                    -0.006602589040994644,
                    -0.005934624001383781,
                    -0.26060599088668823,
                    -0.12498555332422256,
                    0.25880077481269836,
                    0.14505290985107422,
                    0.017157286405563354,
                    0.06967145204544067,
                    0.19435147941112518,
                    0.11425915360450745,
                    -0.3073197305202484,
                    -0.018146466463804245,
                    0.3451573848724365,
                    0.03213195875287056,
                    0.010171176865696907,
                    0.0016209096647799015,
                    0.3323015570640564,
                    -0.09173859655857086,
                    -0.1417444944381714,
                    -0.1978665143251419,
                    0.3080771863460541,
                    0.20627477765083313,
                    0.25699856877326965,
                    0.04064882546663284,
                    -0.07691347599029541,
                    -0.20554819703102112,
                    0.13675019145011902,
                    0.3158992826938629,
                    0.3233879506587982,
                    0.14985018968582153,
                    0.22179652750492096,
                    -0.10948504507541656,
                    0.652922511100769,
                    0.07628235965967178,
                    0.27167418599128723,
                    -0.04975619539618492,
                    -0.511905312538147,
                    -0.28873276710510254,
                    0.35942038893699646,
                    -0.03992939740419388,
                    0.2569364309310913,
                    -0.20363891124725342,
                    -0.12415676563978195,
                    0.048606641590595245,
                    -0.0255321953445673,
                    -0.10171779245138168,
                    0.37165626883506775,
                    0.001523188198916614,
                    0.1061321422457695,
                    0.042444586753845215,
                    0.003947312477976084,
                    -0.25021010637283325,
                    -0.030989928171038628,
                    -0.02888450026512146,
                    0.05566259101033211,
                    -0.16105151176452637,
                    -0.12133266031742096,
                    0.04667053744196892,
                    0.008718306198716164,
                    0.3785271644592285,
                    -0.2606702446937561,
                    0.115867979824543,
                    0.012624810449779034,
                    -0.19858665764331818,
                    -0.049722034484148026,
                    -0.2173958569765091,
                    -0.009037193842232227,
                    0.10825341939926147,
                    0.04327084869146347,
                    0.07578366249799728,
                    0.22901561856269836,
                    -0.13841484487056732,
                    -0.25730615854263306,
                    -0.2367863655090332,
                    0.07885399460792542,
                    -0.1771806925535202,
                    0.20841555297374725,
                    -0.10446837544441223,
                    0.20122471451759338,
                    -0.11451499164104462,
                    0.15688453614711761,
                    0.22612352669239044,
                    0.42530906200408936,
                    0.1839500367641449,
                    0.2994467616081238,
                    -0.030549580231308937,
                    -0.4108392894268036,
                    -0.12455031275749207,
                    0.17171785235404968,
                    -0.10563718527555466,
                    0.02360735833644867,
                    0.03140067681670189,
                    -0.048045456409454346,
                    0.26707497239112854,
                    0.23461779952049255,
                    -0.20707052946090698,
                    -0.04484373703598976,
                    0.057055775076150894,
                    0.25803056359291077,
                    -0.40337416529655457,
                    0.1171686202287674,
                    -0.28474491834640503,
                    0.13339601457118988,
                    -0.1771111786365509,
                    -0.31682759523391724,
                    0.07215376943349838,
                    -0.03917684778571129,
                    -0.16972355544567108,
                    -0.09326367825269699,
                    0.01150100864470005,
                    -0.021321788430213928,
                    0.25852736830711365,
                    -0.13790585100650787,
                    0.21005766093730927,
                    -0.36230233311653137,
                    0.2623938322067261,
                    -0.13066788017749786,
                    0.10431700944900513,
                    0.0801284909248352,
                    -0.004717517178505659,
                    -0.10424228757619858,
                    0.09115564823150635,
                    0.032196108251810074,
                    -0.22400042414665222,
                    -0.05618095397949219,
                    0.2009609490633011,
                    -0.2061794102191925,
                    0.09285572171211243,
                    0.12013566493988037,
                    0.11311574280261993,
                    -0.19965960085391998,
                    -0.0423550121486187,
                    -0.13227331638336182,
                    -0.26317307353019714,
                    0.31407320499420166,
                    -0.24308174848556519,
                    -0.077991783618927,
                    0.00586070166900754,
                    0.10188200324773788,
                    0.06977929919958115,
                    0.04008937627077103,
                    -0.09916916489601135,
                    0.06489095836877823,
                    -0.05836682394146919,
                    -0.19623053073883057,
                    0.16910679638385773,
                    -0.4577726125717163,
                    -0.278102844953537,
                    0.0686623826622963,
                    -0.39647531509399414,
                    -0.10785860568284988,
                    0.14940878748893738,
                    0.34013378620147705,
                    0.29886594414711,
                    -0.04669193550944328,
                    -0.013247646391391754,
                    0.3124430775642395,
                    -0.024994220584630966,
                    -0.12400434166193008,
                    -0.20876063406467438,
                    -0.1581714004278183,
                    -0.025088146328926086,
                    0.10877424478530884,
                    0.02024080976843834,
                    0.07772904634475708,
                    -0.07586002349853516,
                    0.024503711611032486,
                    -0.03126639872789383,
                    0.2560325860977173,
                    0.4419128894805908,
                    -0.4127741754055023,
                    -0.030231954529881477,
                    0.1743672490119934,
                    0.07233405858278275,
                    0.2958224415779114,
                    -0.011705365963280201,
                    -0.15822811424732208,
                    -0.1834513545036316,
                    -0.5529119968414307,
                    -0.09374231100082397,
                    -0.144444078207016,
                    0.24274127185344696,
                    -0.014545134268701077,
                    -0.29570719599723816,
                    0.21263156831264496,
                    0.39742735028266907,
                    -0.22075669467449188,
                    -0.1944403052330017,
                    0.5443763732910156,
                    0.2041407823562622,
                    -0.1250639259815216,
                    -0.2817818522453308,
                    0.5204628705978394,
                    0.040690403431653976,
                    0.07998397201299667,
                    0.0851958766579628,
                    0.06064600870013237,
                    -0.16051654517650604,
                    0.1499597579240799,
                    0.012911390513181686,
                    0.026397569105029106,
                    -0.07369677722454071,
                    0.06698554009199142,
                    -0.0024494167882949114,
                    -0.017138859257102013,
                    0.3458222448825836,
                    -0.23098425567150116,
                    0.06298031657934189,
                    0.10068961977958679,
                    0.0631604939699173,
                    0.2761632204055786,
                    0.025733040645718575,
                    0.042631637305021286,
                    -0.14940202236175537,
                    0.4990084767341614,
                    -0.09813236445188522,
                    -0.06598682701587677,
                    -0.0654279813170433,
                    0.37210574746131897,
                    -0.241971954703331,
                    0.0255200807005167,
                    -0.09461179375648499,
                    0.12915147840976715,
                    0.1561966836452484,
                    -0.057547252625226974,
                    -0.2273074984550476,
                    -0.24458357691764832,
                    -0.08329744637012482,
                    0.056057706475257874,
                    -0.4626685678958893,
                    -0.003225573804229498,
                    0.16194894909858704,
                    -0.6061354279518127,
                    -0.2869361340999603,
                    -0.2576804459095001,
                    -0.057106759399175644,
                    0.02719304896891117,
                    0.16997063159942627,
                    0.15545569360256195,
                    -0.21177950501441956,
                    -0.12738089263439178,
                    -0.048817798495292664,
                    0.22603043913841248,
                    -0.09799274057149887,
                    0.33194926381111145,
                    -0.0925120934844017,
                    -0.31222039461135864,
                    0.12327683717012405,
                    0.14989760518074036,
                    0.39724457263946533,
                    0.16852504014968872,
                    -0.11761034280061722,
                    -0.05692550167441368,
                    -0.1529884934425354,
                    0.12663276493549347,
                    0.007866336964070797,
                    0.008971110917627811,
                    -0.03897213563323021,
                    0.12678663432598114,
                    0.14574553072452545,
                    0.1845594197511673,
                    0.10025832802057266,
                    0.08040516823530197,
                    0.12975464761257172,
                    -0.36688682436943054,
                    0.07371467351913452,
                    -0.13731910288333893,
                    -0.22198398411273956,
                    0.032887477427721024,
                    0.14471666514873505,
                    0.20773015916347504,
                    -0.2254224717617035,
                    -0.3788743019104004,
                    0.0596008338034153,
                    -0.15229402482509613,
                    -0.23979942500591278,
                    0.0032348562963306904,
                    0.058022599667310715,
                    0.1764288693666458,
                    0.21447235345840454,
                    -0.30031946301460266,
                    -0.034332163631916046,
                    0.0724358931183815,
                    -0.023483194410800934,
                    -0.13953585922718048,
                    -0.040536947548389435,
                    -0.3187589943408966,
                    0.06432390213012695,
                    0.18738481402397156,
                    -0.22831089794635773,
                    -0.011281129904091358,
                    -0.11277205497026443,
                    0.04536423832178116,
                    -0.056599121540784836,
                    -0.2095157951116562,
                    -0.28232792019844055,
                    -0.20816907286643982,
                    -0.13654811680316925,
                    -0.009089632891118526,
                    0.02605317533016205,
                    -0.2511312961578369,
                    -0.20547132194042206,
                    0.16254450380802155,
                    0.0823388397693634,
                    -0.04485747963190079,
                    0.03809957951307297,
                    0.20661239326000214,
                    0.1804579496383667,
                    0.02192262001335621,
                    -0.09712935239076614,
                    -0.18856248259544373,
                    0.0758495032787323,
                    0.3127857744693756,
                    0.2230537086725235,
                    -0.37044504284858704,
                    -0.2180013209581375,
                    -0.046545349061489105,
                    0.40551045536994934,
                    -0.060618750751018524,
                    0.08846267312765121,
                    0.14948025345802307,
                    -0.007824407890439034,
                    -0.13723328709602356,
                    0.2741176187992096,
                    0.1193428710103035,
                    -0.014920847490429878,
                    0.18114426732063293,
                    -0.057931412011384964,
                    -0.019115392118692398,
                    0.08536326885223389,
                    -0.02034553326666355,
                    0.2872592508792877,
                    0.09566424787044525,
                    -0.22822746634483337,
                    -0.2788684368133545,
                    0.20912900567054749,
                    -0.2500208914279938,
                    -0.0022273994982242584,
                    -0.011060534045100212,
                    -0.15395157039165497,
                    0.15289045870304108,
                    -0.113550566136837,
                    0.0997089147567749,
                    0.30186009407043457,
                    0.11154650151729584,
                    -0.3491021990776062,
                    -0.2138478010892868,
                    0.4596506357192993,
                    -0.2617246210575104,
                    -0.07392074912786484,
                    -0.009465574286878109,
                    0.06806980818510056,
                    0.03797000274062157,
                    0.035276420414447784,
                    0.5151350498199463,
                    -0.05407252907752991,
                    0.15856881439685822,
                    -0.01791776902973652,
                    0.28613364696502686,
                    -0.242376446723938,
                    -0.0517449826002121,
                    -0.018135912716388702,
                    0.11033625900745392,
                    0.10987458378076553,
                    -0.15157754719257355,
                    -0.15690214931964874,
                    -0.050407525151968,
                    -0.11696649342775345,
                    0.044621922075748444,
                    -0.06026565283536911,
                    -0.014271513558924198,
                    0.28906774520874023,
                    -0.047660354524850845,
                    0.26269081234931946,
                    0.10379812121391296,
                    0.025750139728188515,
                    0.08895880728960037,
                    0.1644827127456665,
                    0.05375069007277489,
                    -0.09122318029403687,
                    -0.0898403599858284,
                    -0.12590216100215912,
                    0.11974572390317917,
                    0.11964280158281326,
                    -0.06753035634756088,
                    0.13890831172466278,
                    0.04495558887720108,
                    -0.09517735242843628,
                    0.18584246933460236,
                    0.04403699189424515,
                    -0.11090247333049774,
                    -0.10057759284973145,
                    0.07222536951303482,
                    0.19932082295417786,
                    -0.31006887555122375,
                    0.03918550908565521,
                    -0.12746237218379974,
                    -0.11109262704849243,
                    -0.0828167125582695,
                    0.19888313114643097,
                    -0.14426933228969574,
                    -0.17438054084777832,
                    -0.0007739170687273145,
                    0.22991514205932617,
                    -0.10417602211236954,
                    -0.28510144352912903,
                    0.042322877794504166,
                    0.21877574920654297,
                    0.15883155167102814,
                    0.020080361515283585,
                    -0.042715802788734436,
                    0.22646020352840424,
                    -0.04631945490837097,
                    -0.20376795530319214,
                    -0.06252478063106537,
                    -0.03914720192551613,
                    0.20409221947193146,
                    0.27186453342437744,
                    -0.14245231449604034,
                    -0.23441290855407715,
                    -0.1764736920595169,
                    -0.05922958627343178,
                    -0.15330375730991364,
                    0.15678206086158752,
                    -0.1871267855167389,
                    0.04552129656076431,
                    -0.09594995528459549,
                    -0.14969182014465332,
                    0.07257676124572754,
                    0.17328406870365143,
                    -0.24830366671085358,
                    0.07643896341323853,
                    0.05804929509758949,
                    0.008981132879853249,
                    -0.4945332705974579,
                    0.05856487900018692,
                    -0.021301036700606346,
                    0.2905605733394623,
                    -0.23695018887519836,
                    -0.149115189909935,
                    0.13558372855186462,
                    -0.25735652446746826,
                    -0.4235704839229584,
                    -0.19348247349262238,
                    -0.007079561240971088,
                    0.1550481915473938,
                    0.2007266879081726,
                    -0.3506399989128113,
                    0.28311312198638916,
                    -0.14419783651828766,
                    -0.17986337840557098,
                    0.09949816763401031,
                    -0.12452382594347,
                    -0.18017707765102386,
                    -0.015175282023847103,
                    -0.07355763018131256,
                    0.16671450436115265,
                    -0.20460085570812225,
                    0.2395869940519333,
                    -0.12368946522474289,
                    0.1586049646139145,
                    0.06784554570913315,
                    0.04659263417124748,
                    0.0547633059322834,
                    0.35787516832351685,
                    -0.19459481537342072,
                    0.12187958508729935,
                    0.09483804553747177,
                    -0.12509597837924957,
                    -0.052469778805971146,
                    -0.0772562250494957,
                    -0.2618239223957062,
                    -0.055565353482961655,
                    -0.2969501316547394,
                    -0.12139301747083664,
                    0.17177647352218628,
                    0.10607756674289703,
                    -0.16910016536712646,
                    0.16849727928638458,
                    0.24896231293678284,
                    -0.06888788193464279,
                    0.3276723623275757,
                    0.07553333789110184,
                    0.008961285464465618,
                    -0.029921552166342735,
                    -0.2086482048034668,
                    -0.09419212490320206,
                    -0.22103135287761688,
                    -0.049455296248197556,
                    -0.2127385437488556,
                    0.16585534811019897,
                    0.09547694772481918,
                    -0.12205648422241211,
                    0.06623607128858566,
                    -0.01421847939491272,
                    0.005915360990911722,
                    -0.14117999374866486,
                    0.23543401062488556,
                    0.004471073392778635,
                    0.34623900055885315,
                    -0.16126486659049988,
                    -0.022354839369654655,
                    -0.05399544909596443,
                    0.27106842398643494,
                    0.0030528188217431307,
                    -0.1079351007938385,
                    0.10319634526968002,
                    -0.6395909786224365,
                    0.012118755839765072,
                    0.47257786989212036,
                    -0.07809601724147797,
                    0.1319696456193924,
                    0.24142730236053467,
                    0.49087828397750854,
                    0.0335894376039505,
                    0.06310418248176575,
                    -0.3322603404521942,
                    -0.19209913909435272,
                    -0.037700120359659195,
                    -0.22001594305038452,
                    0.09952782094478607,
                    0.11072643101215363,
                    -0.26886871457099915,
                    0.11756788194179535,
                    -0.2177548110485077,
                    0.1713230460882187,
                    0.02281990461051464,
                    0.2455899864435196,
                    0.02320665493607521,
                    -0.01200541015714407,
                    0.4475809633731842,
                    -0.1282239556312561,
                    -0.026193546131253242,
                    -0.05536673590540886,
                    -0.21196222305297852,
                    0.4498232901096344,
                    0.16223564743995667,
                    0.11330102384090424,
                    -0.034812457859516144,
                    -0.19907696545124054,
                    -0.04793444275856018,
                    -0.0868188664317131,
                    0.2639821767807007,
                    -0.13729822635650635,
                    0.38040784001350403,
                    -0.37982478737831116,
                    0.17987947165966034,
                    0.1704162359237671,
                    0.0015566508518531919,
                    -0.3658128082752228,
                    0.05900132656097412,
                    0.08039204031229019,
                    0.19823351502418518,
                    0.13068772852420807,
                    0.021434569731354713,
                    0.3608938455581665,
                    -0.08663966506719589,
                    0.03789118677377701,
                    0.17893794178962708,
                    0.3299115002155304,
                    -0.5739667415618896,
                    -0.09150540083646774,
                    0.19531364738941193,
                    -0.061123378574848175,
                    -0.012693998403847218,
                    0.16976512968540192,
                    0.04959897696971893,
                    0.32914459705352783,
                    0.14167706668376923,
                    0.2766578197479248,
                    -0.024272644892334938,
                    0.22892886400222778,
                    0.14606007933616638,
                    -0.2052803784608841,
                    0.07311660051345825,
                    0.3425287902355194,
                    -0.3073940873146057,
                    0.3159703016281128,
                    0.06058063730597496,
                    -0.09621015191078186,
                    -0.0034537450410425663,
                    -0.2861323952674866,
                    0.2656461298465729,
                    0.030674301087856293,
                    0.05920693278312683,
                    0.12284113466739655,
                    -0.014687471091747284,
                    0.10206697136163712,
                    -0.13348257541656494,
                    0.13649630546569824,
                    0.23028916120529175,
                    -0.23363864421844482,
                    -0.26571282744407654,
                    -0.2269938886165619,
                    -0.4942891597747803,
                    0.2223675698041916,
                    -0.10549605637788773,
                    0.06552185118198395,
                    0.09810368716716766,
                    0.12319079041481018,
                    -0.01177795510739088,
                    0.22764043509960175,
                    -0.0010341621236875653,
                    -0.20703566074371338,
                    -0.019301606342196465,
                    -0.0474921315908432,
                    -0.1223403736948967,
                    -0.1698409616947174,
                    0.06306111812591553,
                    -0.003118581138551235,
                    -0.4103775918483734,
                    -0.18553996086120605,
                    -0.08289682120084763,
                    0.23801560699939728,
                    0.10661757737398148,
                    0.12191732227802277,
                    0.33825305104255676,
                    0.06629244983196259,
                    0.04260056093335152,
                    -0.2554168999195099,
                    -0.010295395739376545,
                    -0.25138330459594727,
                    0.2010437697172165,
                    -0.2650114595890045,
                    0.3687395453453064,
                    -0.0499185249209404,
                    0.35547909140586853,
                    -0.252520889043808,
                    -0.27163803577423096,
                    -0.052507881075143814,
                    -0.06242429092526436,
                    0.16747257113456726,
                    -0.15234875679016113,
                    0.2257264107465744,
                    -0.08979540318250656,
                    0.13338062167167664,
                    -0.22134481370449066,
                    0.013267209753394127,
                    -0.14665736258029938,
                    -0.10972213000059128,
                    -0.01682336814701557,
                    -0.22023367881774902,
                    -0.06725333631038666,
                    0.10098189115524292,
                    0.09537987411022186,
                    0.2666977643966675,
                    -0.16045241057872772,
                    -0.2648354470729828,
                    -0.030988456681370735,
                    -0.31121826171875,
                    0.32809194922447205,
                    -0.4752323627471924,
                    0.07878578454256058,
                    0.019325943663716316,
                    0.0270092710852623,
                    0.18465545773506165,
                    -0.15740637481212616,
                    0.23871897161006927,
                    -0.02675463631749153,
                    0.129428431391716,
                    0.05326259508728981,
                    -0.3257337212562561,
                    0.16483981907367706,
                    -0.35867932438850403,
                    -0.07786262780427933,
                    -0.05093023180961609,
                    -0.4343779385089874,
                    -0.14076215028762817,
                    -0.20161055028438568,
                    0.07226061075925827,
                    -0.15998181700706482,
                    -0.21559424698352814,
                    -0.14078938961029053,
                    0.10121897608041763,
                    0.2715553343296051,
                    -0.08737412095069885,
                    0.09990677237510681,
                    -0.07708387821912766,
                    0.35570335388183594,
                    0.12132181227207184,
                    0.06779076904058456,
                    0.16347460448741913,
                    -0.0039064004085958,
                    -0.07569596916437149,
                    0.04405331239104271,
                    -0.1794559359550476,
                    0.5474264025688171,
                    -0.09043322503566742,
                    -0.1291378289461136,
                    -0.09487232565879822,
                    0.08303064852952957,
                    -0.15480972826480865,
                    -0.11239001154899597,
                    0.3887481093406677,
                    0.3450663983821869,
                    0.17531698942184448,
                    0.0024525339249521494,
                    0.4197816252708435,
                    0.03555123880505562,
                    0.05880064144730568,
                    0.33669036626815796,
                    0.16476157307624817,
                    0.10423453152179718,
                    -0.10834883898496628,
                    -0.39886385202407837,
                    0.05747264251112938,
                    0.08794844895601273,
                    -0.09073052555322647,
                    -0.10673393309116364,
                    0.08824694901704788,
                    0.10387036949396133,
                    -0.11858206987380981,
                    -0.2317657321691513,
                    0.009598608128726482,
                    -0.0041746278293430805,
                    -0.10235516726970673,
                    0.40130510926246643,
                    -0.021547604352235794,
                    0.17813341319561005,
                    -0.013193436898291111,
                    -0.181056410074234,
                    0.2955597937107086,
                    -0.01342076901346445,
                    -0.21390283107757568,
                    0.3441884517669678,
                    -0.3727359473705292,
                    0.4105284512042999,
                    -0.347719669342041,
                    0.071330226957798,
                    0.02250564470887184,
                    -0.12308267503976822,
                    0.1871606558561325,
                    0.16670867800712585,
                    0.12063654512166977,
                    -0.005750691518187523,
                    -0.42946478724479675,
                    -0.011653554625809193,
                    -0.22820307314395905,
                    0.169378399848938,
                    -0.13130587339401245,
                    -0.0784275233745575,
                    0.08540675044059753,
                    0.2477242648601532,
                    -0.18448179960250854,
                    0.06110922619700432,
                    0.2151390016078949,
                    0.04719316214323044,
                    -0.13969364762306213,
                    -0.3267955183982849,
                    0.25835946202278137,
                    0.33707964420318604,
                    0.0283052995800972,
                    -0.28438857197761536,
                    0.19281607866287231,
                    -0.055516649037599564,
                    -0.10214190185070038,
                    0.057875413447618484,
                    -0.09171364456415176,
                    -0.289527028799057,
                    0.13015398383140564,
                    0.19283123314380646,
                    0.09812983125448227,
                    -0.02301938086748123,
                    -0.1236913800239563,
                    0.23455825448036194,
                    0.2981557250022888,
                    -0.13755609095096588,
                    -0.12631790339946747,
                    -0.006638219580054283,
                    0.024749552831053734,
                    0.06278228014707565,
                    0.31441444158554077,
                    0.1679552048444748,
                    0.16059105098247528,
                    -0.1088760569691658,
                    0.13770504295825958,
                    -0.24154256284236908,
                    0.07342842221260071,
                    -0.026280561462044716,
                    -0.003465694608166814,
                    -0.4032844603061676,
                    0.18449370563030243,
                    -0.1689189076423645,
                    -0.11281847208738327,
                    -0.5660373568534851,
                    0.06566156446933746,
                    0.04927589371800423,
                    -0.023488391190767288,
                    -0.02478809840977192,
                    0.13617318868637085,
                    0.13283437490463257,
                    0.08343947678804398,
                    -0.027632009238004684,
                    0.02072731778025627,
                    0.09681060165166855,
                    -0.13497485220432281,
                    -0.09705494344234467,
                    -0.032985057681798935,
                    -0.004495338536798954,
                    -0.11792540550231934,
                    0.10631310194730759,
                    -0.107328400015831,
                    0.014245603233575821,
                    -0.19945533573627472,
                    -0.024681614711880684,
                    -0.07419062405824661,
                    -0.1069464236497879,
                    0.15140828490257263,
                    -0.09555808454751968,
                    -0.12913772463798523,
                    0.12041587382555008,
                    0.2507326304912567,
                    -0.28339508175849915,
                    0.1413612961769104,
                    0.21731454133987427,
                    0.07604142278432846,
                    -0.0890289917588234,
                    -0.18323980271816254,
                    0.06699265539646149,
                    -0.06220204755663872,
                    0.004119910299777985,
                    -0.21830065548419952,
                    -0.00025761406868696213,
                    -0.10725873708724976,
                    0.15887367725372314,
                    0.1784641295671463,
                    0.06952368468046188,
                    0.04387302324175835,
                    0.032561998814344406,
                    -0.14034956693649292,
                    0.09478778392076492,
                    0.24004696309566498,
                    0.200917586684227,
                    0.10375457257032394,
                    -0.0793677568435669,
                    0.032418277114629745,
                    -0.06302913278341293,
                    0.006174236070364714,
                    0.1336497664451599,
                    0.25841012597084045,
                    0.04595807194709778,
                    0.1532040685415268,
                    -0.09412787109613419,
                    0.153923898935318,
                    -0.14314670860767365,
                    0.18387441337108612,
                    -0.35950300097465515,
                    0.23661528527736664,
                    -0.2650698721408844,
                    -0.22841568291187286,
                    -0.34603390097618103,
                    -0.17825861275196075,
                    0.008585115894675255,
                    -0.18743453919887543,
                    0.15808357298374176,
                    0.1301925927400589,
                    0.03302311152219772,
                    -0.06931766122579575,
                    0.09093042463064194,
                    0.15837284922599792,
                    -0.041313037276268005,
                    0.011792486533522606,
                    -0.07875823974609375,
                    -0.04565120115876198,
                    0.03826690837740898,
                    -0.19651445746421814,
                    0.07171214371919632,
                    -0.05864182487130165,
                    -0.18688929080963135,
                    0.39043158292770386,
                    0.15447022020816803,
                    -0.001310571562498808,
                    0.18099968135356903,
                    -0.029760319739580154
                ]
            },
            {
                "_type": "ndarray",
                "shape": [
                    128
                ],
                "dtype": "float32",
                "data": [
                    -0.1055741161108017,
                    -0.277591735124588,
                    -0.08378925174474716,
                    -0.12189845740795135,
                    -0.34384357929229736,
                    -0.5505080819129944,
                    -0.1495949625968933,
                    -0.2648250162601471,
                    -0.19818581640720367,
                    -0.07122863084077835,
                    -0.06748799234628677,
                    -0.0647469311952591,
                    -0.1527828723192215,
                    -0.07905575633049011,
                    -0.10693107545375824,
                    -0.12905912101268768,
                    -0.12041792273521423,
                    -0.08157035708427429,
                    -0.2355673611164093,
                    -0.3623761236667633,
                    -0.2145620733499527,
                    -0.1950680911540985,
                    -0.08825381845235825,
                    -0.08763985335826874,
                    -0.012012489140033722,
                    -0.0863649994134903,
                    0.04414065554738045,
                    -0.11917458474636078,
                    -0.20821157097816467,
                    -0.19162674248218536,
                    -0.04615373909473419,
                    -0.03964206576347351,
                    -0.12245146185159683,
                    -0.25465723872184753,
                    -0.23761512339115143,
                    -0.15049491822719574,
                    -0.10144724696874619,
                    -0.2076192945241928,
                    0.035649374127388,
                    -0.02522420324385166,
                    -0.15747220814228058,
                    -0.10864652693271637,
                    -0.05712999776005745,
                    -0.22366134822368622,
                    0.04310324043035507,
                    -0.1359322965145111,
                    -0.1982903927564621,
                    -0.3177860975265503,
                    -0.1577131152153015,
                    -0.19666874408721924,
                    -0.4034048020839691,
                    -0.09175189584493637,
                    -0.1620226502418518,
                    0.008089291863143444,
                    -0.0723588839173317,
                    -0.10449158400297165,
                    -0.11500468850135803,
                    -0.13058267533779144,
                    -0.11892157793045044,
                    -0.04606252908706665,
                    -0.13818609714508057,
                    -0.20716580748558044,
                    -0.03684008866548538,
                    -0.14535804092884064,
                    -0.12331569939851761,
                    -0.1663092076778412,
                    -0.033907610923051834,
                    -0.22991418838500977,
                    -0.03468145430088043,
                    0.017301589250564575,
                    -0.025356389582157135,
                    -0.13486531376838684,
                    -0.15667986869812012,
                    -0.1716550886631012,
                    -0.0745513066649437,
                    -0.22713415324687958,
                    -0.13184967637062073,
                    -0.13679979741573334,
                    -0.3324904441833496,
                    -0.01985201984643936,
                    -0.18971888720989227,
                    -0.21752966940402985,
                    -0.02725224755704403,
                    -0.27778393030166626,
                    -0.12684479355812073,
                    -0.4705454111099243,
                    -0.17534823715686798,
                    -0.03784343600273132,
                    -0.07351978868246078,
                    -0.10374707728624344,
                    -0.13680021464824677,
                    -0.21403813362121582,
                    -0.14316216111183167,
                    -0.2946702241897583,
                    -0.11285334080457687,
                    -0.3617650270462036,
                    0.023786636069417,
                    -0.10917340964078903,
                    -0.29666993021965027,
                    -0.052212946116924286,
                    -0.31641098856925964,
                    -0.06810268759727478,
                    0.005318894051015377,
                    -0.06622280180454254,
                    -0.14480789005756378,
                    -0.38742825388908386,
                    -0.10356561094522476,
                    -0.18922406435012817,
                    -0.07226292788982391,
                    -0.2602695822715759,
                    -0.07493601739406586,
                    -0.20754525065422058,
                    -0.09488556534051895,
                    -0.19579288363456726,
                    -0.24543015658855438,
                    -0.025313757359981537,
                    -0.22244317829608917,
                    -0.10793706029653549,
                    -0.06715022772550583,
                    -0.7480513453483582,
                    -0.1447189450263977,
                    -0.14534583687782288,
                    -0.1911136507987976,
                    -0.053311921656131744,
                    -0.15339894592761993,
                    -0.44904816150665283,
                    -0.07693201303482056,
                    -0.10707800835371017
                ]
            }
        ]
    },
    {
        "class": "keras.layers.core.dense.Dense",
        "config": {
            "name": "dense_1",
            "trainable": true,
            "dtype": "float32",
            "units": 128,
            "activation": "softplus",
            "use_bias": true,
            "kernel_initializer": {
                "class_name": "RandomNormal",
                "config": {
                    "mean": 0.0,
                    "stddev": 0.08838834764831843,
                    "seed": 775411
                }
            },
            "bias_initializer": {
                "class_name": "Zeros",
                "config": {}
            },
            "kernel_regularizer": null,
            "bias_regularizer": null,
            "activity_regularizer": null,
            "kernel_constraint": null,
            "bias_constraint": null
        },
        "weights": [
            {
                "_type": "ndarray",
                "shape": [
                    128,
                    128
                ],
                "dtype": "float32",
                "data": [
                    -0.1880386620759964,
                    0.09502100944519043,
                    0.21611592173576355,
                    0.007118809502571821,
                    -0.3393891751766205,
                    0.09520188719034195,
                    -0.018607178702950478,
                    -0.12332296371459961,
                    0.27716511487960815,
                    0.17496731877326965,
                    0.1868741363286972,
                    -0.038119059056043625,
                    -0.48067396879196167,
                    0.014087204821407795,
                    0.008270933292806149,
                    0.03293661028146744,
                    -0.017120184376835823,
                    -0.14535793662071228,
                    0.05767763406038284,
                    -0.33771154284477234,
                    -0.2793833315372467,
                    -0.14556458592414856,
                    0.06766051799058914,
                    -0.2794005274772644,
                    0.2137213796377182,
                    0.15810860693454742,
                    -0.049091726541519165,
                    -0.08393259346485138,
                    0.04595402255654335,
                    0.1282876580953598,
                    -0.16410231590270996,
                    0.06623747944831848,
                    0.03553299978375435,
                    0.018436716869473457,
                    0.12375953048467636,
                    0.25520533323287964,
                    0.047124169766902924,
                    -0.18093079328536987,
                    -0.3647240698337555,
                    -0.08413439989089966,
                    0.014440586790442467,
                    -0.0896463468670845,
                    0.09945499151945114,
                    0.07868853211402893,
                    -0.003970542456954718,
                    -0.07786053419113159,
                    0.11067953705787659,
                    0.058453045785427094,
                    0.1991211175918579,
                    0.023013772442936897,
                    -0.06482183933258057,
                    0.017593979835510254,
                    -0.1580011248588562,
                    -0.06334595382213593,
                    0.0028307512402534485,
                    0.12799455225467682,
                    -0.01114740502089262,
                    -0.10835631936788559,
                    -0.024773897603154182,
                    0.18516527116298676,
                    0.11251198500394821,
                    0.11860496550798416,
                    -0.048944082111120224,
                    -0.08674094825983047,
                    -0.021680923178792,
                    0.09407952427864075,
                    -0.002980447607114911,
                    -0.0837002843618393,
                    0.3662591874599457,
                    0.2545009255409241,
                    -0.04042989760637283,
                    -0.11109419912099838,
                    -0.024893037974834442,
                    -0.016933146864175797,
                    -0.13974449038505554,
                    -0.12441346794366837,
                    0.05337366834282875,
                    -0.11037327349185944,
                    0.2777888774871826,
                    0.0886281207203865,
                    -0.08910664916038513,
                    0.23751118779182434,
                    0.15231865644454956,
                    0.0831790640950203,
                    -0.05520066246390343,
                    -0.06160246580839157,
                    0.23410537838935852,
                    -0.04065043479204178,
                    0.09101180732250214,
                    -0.011077207513153553,
                    0.10200067609548569,
                    0.27194032073020935,
                    -0.025060346350073814,
                    -0.22054427862167358,
                    -0.006235352251678705,
                    -0.01428929902613163,
                    -0.09908877313137054,
                    -0.0636788085103035,
                    -0.06415146589279175,
                    0.15127646923065186,
                    -0.20918779075145721,
                    0.30969759821891785,
                    -0.10772359371185303,
                    0.2803710699081421,
                    -0.08906609565019608,
                    -0.19794562458992004,
                    0.17935608327388763,
                    -0.16612182557582855,
                    0.15771834552288055,
                    -0.26406341791152954,
                    0.01597324013710022,
                    0.01701250486075878,
                    0.00774037092924118,
                    0.2173064798116684,
                    -0.018728259950876236,
                    -0.06543029844760895,
                    0.009019589051604271,
                    0.20867043733596802,
                    -0.0782867968082428,
                    -0.06208953261375427,
                    -0.24620559811592102,
                    0.2530021369457245,
                    -0.15832524001598358,
                    -0.1371234953403473,
                    -0.049629468470811844,
                    0.08335019648075104,
                    0.005419898312538862,
                    -0.005340429488569498,
                    0.003985605668276548,
                    0.08201390504837036,
                    0.009628260508179665,
                    -0.11592688411474228,
                    -0.03745107725262642,
                    -0.1352781355381012,
                    -0.1699536293745041,
                    -0.17329742014408112,
                    -0.1865115612745285,
                    -0.045137155801057816,
                    0.05754600465297699,
                    0.10552868992090225,
                    -0.14310742914676666,
                    -0.1538984179496765,
                    0.21565768122673035,
                    0.12595807015895844,
                    0.29875147342681885,
                    -0.032288916409015656,
                    -0.026776572689414024,
                    -0.20614521205425262,
                    0.0627080649137497,
                    0.008879763074219227,
                    -0.34982192516326904,
                    0.21227547526359558,
                    0.1274028718471527,
                    0.22000254690647125,
                    0.07432257384061813,
                    -0.020387405529618263,
                    -0.013760234229266644,
                    0.10010522603988647,
                    -0.042509909719228745,
                    0.16250887513160706,
                    -0.04412646219134331,
                    -0.2383664846420288,
                    0.06589163839817047,
                    -0.08366779237985611,
                    0.023574845865368843,
                    0.017786182463169098,
                    -0.09152061492204666,
                    0.0018573901616036892,
                    -0.11518454551696777,
                    0.07802679389715195,
                    -0.020970135927200317,
                    0.1801997423171997,
                    0.19215118885040283,
                    -0.21481181681156158,
                    -0.04668664187192917,
                    -0.11156842857599258,
                    -0.12547215819358826,
                    -0.11148180812597275,
                    -0.1081477478146553,
                    0.1003434881567955,
                    0.07982538640499115,
                    0.07832887768745422,
                    0.16750946640968323,
                    0.008114255964756012,
                    -0.017940249294042587,
                    -0.11441804468631744,
                    0.0834236890077591,
                    -0.0636630654335022,
                    0.03380049765110016,
                    -0.05358124524354935,
                    -0.1731068342924118,
                    -0.10310797393321991,
                    -0.04803398624062538,
                    0.19797110557556152,
                    -0.0537194162607193,
                    -0.02540051005780697,
                    0.08458298444747925,
                    -0.008580148220062256,
                    0.02205461822450161,
                    0.12123345583677292,
                    -0.024404775351285934,
                    0.00897523108869791,
                    0.06284152716398239,
                    0.09161107987165451,
                    0.04876145347952843,
                    0.1932227611541748,
                    -0.04408537968993187,
                    -0.10927768796682358,
                    0.030009675770998,
                    -0.05672970041632652,
                    -0.044084057211875916,
                    0.06904811412096024,
                    -0.01818411983549595,
                    0.15333139896392822,
                    -0.11137396097183228,
                    -0.10363133996725082,
                    0.06212138012051582,
                    -0.11178707331418991,
                    -0.07640903443098068,
                    -0.20428049564361572,
                    0.04917031526565552,
                    0.21189135313034058,
                    -0.19726070761680603,
                    -0.09001259505748749,
                    0.10357294976711273,
                    -0.05293872579932213,
                    0.023646894842386246,
                    0.025189897045493126,
                    -0.009020138531923294,
                    -0.09405307471752167,
                    -0.05245893821120262,
                    -0.015521553345024586,
                    0.004276246763765812,
                    -0.16629059612751007,
                    -0.13727428019046783,
                    0.07168802618980408,
                    0.019423477351665497,
                    -0.03539169579744339,
                    -0.31887689232826233,
                    0.06226806342601776,
                    0.050180550664663315,
                    -0.14641772210597992,
                    -0.1250801831483841,
                    -0.07239633798599243,
                    -0.11494527012109756,
                    -0.2142331600189209,
                    0.00457668025046587,
                    -0.0987803265452385,
                    0.15266215801239014,
                    0.07406173646450043,
                    -0.14282038807868958,
                    0.07615344971418381,
                    -0.0525624081492424,
                    -0.2968207597732544,
                    -0.049751315265893936,
                    -0.08641799539327621,
                    -0.024817753583192825,
                    -0.048899080604314804,
                    0.2582229971885681,
                    -0.024836773052811623,
                    -0.2800593078136444,
                    0.02432977221906185,
                    0.1074632927775383,
                    -0.06440504640340805,
                    -0.001342887175269425,
                    0.08356846868991852,
                    0.02145473100244999,
                    0.16416847705841064,
                    -0.1206355094909668,
                    0.2637585401535034,
                    -0.453404039144516,
                    0.13946755230426788,
                    -0.019882729277014732,
                    0.03912562131881714,
                    -0.1711311936378479,
                    -0.05014370381832123,
                    -0.11457844078540802,
                    -0.20036862790584564,
                    0.15406253933906555,
                    -0.04634656757116318,
                    -0.2541435956954956,
                    0.0766976848244667,
                    -0.02094089612364769,
                    -0.08468440920114517,
                    0.10805271565914154,
                    -0.6896986961364746,
                    -0.6183226704597473,
                    -0.3497373163700104,
                    0.10565018653869629,
                    0.010240307077765465,
                    0.04466090351343155,
                    -0.02425434999167919,
                    -0.09193576872348785,
                    0.11535992473363876,
                    0.018317177891731262,
                    -0.2660301625728607,
                    0.08016538619995117,
                    -0.29197731614112854,
                    0.031335409730672836,
                    -0.03811022266745567,
                    -0.06430523842573166,
                    0.2196333110332489,
                    0.09204388409852982,
                    0.23797890543937683,
                    -0.11040730774402618,
                    0.03946736454963684,
                    -1.1496617794036865,
                    0.13232049345970154,
                    -0.15342281758785248,
                    -0.4754689335823059,
                    -0.017996830865740776,
                    0.29771700501441956,
                    -0.1088825985789299,
                    0.09808729588985443,
                    0.22818545997142792,
                    0.010887165553867817,
                    -0.03214414045214653,
                    0.22664186358451843,
                    -0.07943382114171982,
                    -0.024683155119419098,
                    -0.16015951335430145,
                    0.019762655720114708,
                    -0.030079102143645287,
                    -0.080038882791996,
                    -0.030447134748101234,
                    -0.1339830756187439,
                    -0.19789062440395355,
                    0.11524979770183563,
                    -0.02178524062037468,
                    0.005916080437600613,
                    0.0006604989757761359,
                    -0.4678952991962433,
                    0.06444604694843292,
                    -0.18576589226722717,
                    0.12262000888586044,
                    0.1388237625360489,
                    0.06797251850366592,
                    -0.357045978307724,
                    0.05438898131251335,
                    -0.16333311796188354,
                    -0.10754892230033875,
                    -0.7048022747039795,
                    -0.07136853784322739,
                    -0.20673520863056183,
                    -0.25954532623291016,
                    0.10800689458847046,
                    -0.13202708959579468,
                    0.08094367384910583,
                    -0.12159199267625809,
                    -0.0692347064614296,
                    -0.16331036388874054,
                    -0.08444533497095108,
                    -0.23850862681865692,
                    0.12787413597106934,
                    0.04805820807814598,
                    -0.01736433617770672,
                    0.05535433068871498,
                    0.009722432121634483,
                    -0.03596466779708862,
                    0.04672049731016159,
                    0.11862801760435104,
                    0.18006591498851776,
                    0.006993789225816727,
                    0.19838280975818634,
                    0.02417437918484211,
                    0.2609787881374359,
                    0.04171004146337509,
                    0.005507410038262606,
                    0.1546873152256012,
                    0.20780453085899353,
                    0.02969396859407425,
                    0.007912231609225273,
                    -0.0641004666686058,
                    0.28904488682746887,
                    -0.15270064771175385,
                    0.15675795078277588,
                    0.06365209817886353,
                    0.20193976163864136,
                    -0.0021973096299916506,
                    0.05961179360747337,
                    -0.1733350306749344,
                    0.2181262969970703,
                    -0.1159290298819542,
                    -0.06973776966333389,
                    -0.09307089447975159,
                    0.05192222446203232,
                    -0.029385456815361977,
                    0.09460758417844772,
                    -0.07883039861917496,
                    -0.22828209400177002,
                    0.17085915803909302,
                    -0.207389235496521,
                    0.10999621450901031,
                    0.25192731618881226,
                    -0.0409659668803215,
                    0.060594670474529266,
                    -0.08857224881649017,
                    0.02490626648068428,
                    -0.0449632927775383,
                    0.020841380581259727,
                    0.1494533270597458,
                    -0.021218186244368553,
                    0.09118133038282394,
                    -0.18572890758514404,
                    -0.13637520372867584,
                    -0.04169851168990135,
                    0.17479979991912842,
                    -0.04572119563817978,
                    -0.012577901594340801,
                    0.3145920932292938,
                    -0.026175521314144135,
                    -0.13460448384284973,
                    0.17764392495155334,
                    0.042238861322402954,
                    -0.1302618384361267,
                    0.09883102774620056,
                    0.00897151604294777,
                    0.024273095652461052,
                    0.12555260956287384,
                    0.16418202221393585,
                    0.108368881046772,
                    0.031084511429071426,
                    0.07415398210287094,
                    0.05738670006394386,
                    0.288100928068161,
                    -0.09135601669549942,
                    -0.06911245733499527,
                    0.16957367956638336,
                    0.05108223110437393,
                    0.15006014704704285,
                    0.1971883326768875,
                    -0.05746239423751831,
                    0.04726191610097885,
                    0.09464512020349503,
                    -0.06489622592926025,
                    -0.06945255398750305,
                    -0.137930229306221,
                    0.11944745481014252,
                    0.07767642289400101,
                    -0.12185610085725784,
                    -0.060955096036195755,
                    -0.19278182089328766,
                    -0.05938629433512688,
                    0.08803343027830124,
                    -0.1829390674829483,
                    0.12566551566123962,
                    0.1884843111038208,
                    -0.015816325321793556,
                    0.07411132752895355,
                    0.10960100591182709,
                    -0.09163187444210052,
                    0.09841550141572952,
                    0.28070777654647827,
                    0.15224601328372955,
                    -0.04223734140396118,
                    -0.11299584805965424,
                    -0.10166733711957932,
                    0.030349723994731903,
                    -0.14896263182163239,
                    0.05260142311453819,
                    0.0587770901620388,
                    -0.040552590042352676,
                    0.06693053990602493,
                    0.04745000973343849,
                    -0.022315990179777145,
                    0.12793965637683868,
                    -0.07040783017873764,
                    0.08326777070760727,
                    -0.14080218970775604,
                    0.014163684099912643,
                    0.3385883867740631,
                    0.07995162159204483,
                    -0.0782700777053833,
                    -0.13734224438667297,
                    0.004346365574747324,
                    -0.0624302439391613,
                    -0.19772480428218842,
                    -0.10315655916929245,
                    0.09246480464935303,
                    -0.266822874546051,
                    0.07367152720689774,
                    0.13974758982658386,
                    -0.09224863350391388,
                    -0.06522022187709808,
                    0.0812719315290451,
                    0.10557833313941956,
                    -0.16532070934772491,
                    0.23272135853767395,
                    -0.06737909466028214,
                    -0.03790043666958809,
                    0.028172945603728294,
                    -0.2466067224740982,
                    0.014534322544932365,
                    -0.14475083351135254,
                    -0.26076754927635193,
                    -0.08129003643989563,
                    -0.033944021910429,
                    0.013338197953999043,
                    -0.08978903293609619,
                    0.04538922756910324,
                    -0.13744762539863586,
                    -0.03721887990832329,
                    -0.15729528665542603,
                    -0.17223098874092102,
                    -0.14026130735874176,
                    -0.025727927684783936,
                    -0.14716191589832306,
                    0.33917778730392456,
                    -0.06539759039878845,
                    0.0412745475769043,
                    -0.15872353315353394,
                    -0.02565091848373413,
                    0.04246337711811066,
                    -0.01033067051321268,
                    -0.09095968306064606,
                    -0.12115412205457687,
                    0.008257300592958927,
                    -0.2028225064277649,
                    0.1537063866853714,
                    -0.04561842232942581,
                    -0.06598968058824539,
                    0.06548699736595154,
                    0.09322037547826767,
                    0.03732352331280708,
                    -0.07438401877880096,
                    -0.06215734779834747,
                    0.15149752795696259,
                    0.07012113928794861,
                    0.03878997266292572,
                    0.0724058598279953,
                    -0.07406922429800034,
                    0.036250513046979904,
                    -0.019594907760620117,
                    -0.042767658829689026,
                    0.005176439881324768,
                    0.0813756063580513,
                    0.02687382884323597,
                    -0.021029425784945488,
                    -0.07041642814874649,
                    0.03140424191951752,
                    0.24978914856910706,
                    -0.06552039086818695,
                    0.08145241439342499,
                    -0.007034190930426121,
                    0.14116255939006805,
                    -0.03383534774184227,
                    0.015138675458729267,
                    0.004391410853713751,
                    0.29850679636001587,
                    -0.25849589705467224,
                    0.23196810483932495,
                    0.16286548972129822,
                    -0.022586727514863014,
                    0.10746077448129654,
                    0.06636164337396622,
                    0.02081679180264473,
                    -0.20153824985027313,
                    0.33522459864616394,
                    -0.03620041906833649,
                    -0.14210672676563263,
                    0.14251573383808136,
                    0.1450032889842987,
                    -0.1515795886516571,
                    0.01610962115228176,
                    -0.030727047473192215,
                    -0.16593380272388458,
                    0.0721345916390419,
                    -0.20333965122699738,
                    -0.04064716398715973,
                    -0.05988997220993042,
                    -0.15854354202747345,
                    0.16047371923923492,
                    0.10955802351236343,
                    0.1314184069633484,
                    0.13869647681713104,
                    0.04927796870470047,
                    -0.05470570921897888,
                    0.05054832622408867,
                    -0.20682837069034576,
                    0.1173371821641922,
                    0.0437852218747139,
                    0.14646074175834656,
                    0.01221651304513216,
                    0.081267811357975,
                    0.01976514607667923,
                    -0.022919682785868645,
                    0.03878843039274216,
                    -0.17520450055599213,
                    0.17052073776721954,
                    -0.10573041439056396,
                    0.026452666148543358,
                    -0.24487543106079102,
                    0.15748506784439087,
                    0.21050097048282623,
                    0.09920168668031693,
                    0.10477139055728912,
                    0.015560470521450043,
                    0.06113191321492195,
                    0.09236116707324982,
                    0.2310623824596405,
                    0.0770716667175293,
                    0.08654458820819855,
                    0.03534475341439247,
                    -0.20275193452835083,
                    -0.09215321391820908,
                    -0.05089547485113144,
                    -0.07276655733585358,
                    -0.2584425210952759,
                    0.332865834236145,
                    -0.07076434791088104,
                    -0.003212897339835763,
                    -0.0714479610323906,
                    0.068743497133255,
                    0.18017858266830444,
                    0.014847049489617348,
                    0.15910807251930237,
                    -0.33179375529289246,
                    0.050718098878860474,
                    -0.12798897922039032,
                    -0.00802073534578085,
                    -0.012219850905239582,
                    -0.40976113080978394,
                    -0.003473338671028614,
                    -0.08499151468276978,
                    -0.186562642455101,
                    0.04392019659280777,
                    -0.14475801587104797,
                    0.20536673069000244,
                    -0.12558887898921967,
                    0.07143288105726242,
                    0.02825275808572769,
                    -0.0414743535220623,
                    -0.07107353955507278,
                    0.08335353434085846,
                    0.04565202072262764,
                    0.16757193207740784,
                    -0.11144816875457764,
                    0.005033877212554216,
                    -0.07287254929542542,
                    0.14630036056041718,
                    0.18986102938652039,
                    -0.16386796534061432,
                    0.07371774315834045,
                    0.044702403247356415,
                    -0.0804244801402092,
                    -0.15813128650188446,
                    0.07545916736125946,
                    0.05195707082748413,
                    0.1209855005145073,
                    0.04992000386118889,
                    0.08019047975540161,
                    0.07166226208209991,
                    -0.4080897867679596,
                    -0.1535012274980545,
                    -0.22069808840751648,
                    0.05345780774950981,
                    -0.12378993630409241,
                    0.129790261387825,
                    -0.09213411808013916,
                    -0.04762912541627884,
                    0.07787337154150009,
                    0.04820803552865982,
                    0.06830743700265884,
                    0.034033481031656265,
                    0.08475803583860397,
                    0.09876670688390732,
                    -0.16573025286197662,
                    0.05301777273416519,
                    -0.0032810501288622618,
                    0.034272585064172745,
                    -0.7120006084442139,
                    0.07166273891925812,
                    0.2361897975206375,
                    0.015759099274873734,
                    0.06348812580108643,
                    0.1721688061952591,
                    0.11286941170692444,
                    -0.20474755764007568,
                    -0.18006320297718048,
                    -0.17800584435462952,
                    0.20704896748065948,
                    0.12557877600193024,
                    -0.052882712334394455,
                    0.21531198918819427,
                    0.10151707381010056,
                    0.16203999519348145,
                    0.024443896487355232,
                    -0.1442035585641861,
                    0.0869220718741417,
                    0.15787160396575928,
                    -0.03145831450819969,
                    0.21232551336288452,
                    0.006889005657285452,
