[
    {
        "class": "keras.layers.core.dense.Dense",
        "config": {
            "name": "dense",
            "trainable": true,
            "dtype": "float32",
            "units": 128,
            "activation": "softplus",
            "use_bias": true,
            "kernel_initializer": {
                "class_name": "GlorotUniform",
                "config": {
                    "seed": null
                }
            },
            "bias_initializer": {
                "class_name": "Zeros",
                "config": {}
            },
            "kernel_regularizer": null,
            "bias_regularizer": null,
            "activity_regularizer": null,
            "kernel_constraint": null,
            "bias_constraint": null
        },
        "weights": [
            {
                "_type": "ndarray",
                "shape": [
                    5,
                    128
                ],
                "dtype": "float32",
                "data": [
                    -0.12376606464385986,
                    0.10160432010889053,
                    -0.07623308897018433,
                    -0.015238061547279358,
                    0.1227438822388649,
                    0.145235076546669,
                    -0.14600810408592224,
                    0.06634857505559921,
                    -0.1941741555929184,
                    0.17531855404376984,
                    0.09864533692598343,
                    0.06203275918960571,
                    -0.13859687745571136,
                    -0.05733797699213028,
                    -0.020861821249127388,
                    -0.12450981140136719,
                    0.005332328379154205,
                    0.1474674940109253,
                    -0.1623564064502716,
                    -0.06603341549634933,
                    -0.002939799800515175,
                    0.021948011592030525,
                    0.0026798804756253958,
                    -0.0008932804339565337,
                    -0.018190117552876472,
                    0.00032060962985269725,
                    0.007640015333890915,
                    0.153128981590271,
                    -0.16362780332565308,
                    -0.18347615003585815,
                    0.17733222246170044,
                    -0.017467955127358437,
                    0.13973818719387054,
                    -0.014888116158545017,
                    0.20954668521881104,
                    0.009633693844079971,
                    0.19771158695220947,
                    0.20271572470664978,
                    0.12765832245349884,
                    -0.08861441910266876,
                    0.08719165623188019,
                    0.0900295078754425,
                    0.07854172587394714,
                    -0.051981620490550995,
                    0.08784561604261398,
                    -0.04516487941145897,
                    -0.13650576770305634,
                    0.07195529341697693,
                    -0.0003754135686904192,
                    0.14493215084075928,
                    0.008981230668723583,
                    -0.10482845455408096,
                    0.07195506244897842,
                    0.11732368171215057,
                    0.014148646965622902,
                    0.19541582465171814,
                    0.11269065737724304,
                    -0.14456674456596375,
                    0.19421565532684326,
                    0.03682466968894005,
                    -0.16398029029369354,
                    -0.15385696291923523,
                    0.049074437469244,
                    0.08347083628177643,
                    -0.11041925102472305,
                    -0.11036375910043716,
                    -0.04345376044511795,
                    -0.12219218164682388,
                    0.07979892194271088,
                    0.16506588459014893,
                    -0.13334937393665314,
                    -0.048388414084911346,
                    0.051509179174900055,
                    0.057857900857925415,
                    -0.10029315203428268,
                    0.0002640838793013245,
                    0.15994663536548615,
                    -0.08524462580680847,
                    -0.107335664331913,
                    -0.06166624650359154,
                    -0.000521086563821882,
                    0.09733819961547852,
                    0.007133715786039829,
                    0.0720110535621643,
                    0.033950325101614,
                    -0.16251535713672638,
                    -0.01675995998084545,
                    -0.17805059254169464,
                    0.19225385785102844,
                    0.1895545870065689,
                    0.011532529257237911,
                    0.015035572461783886,
                    -0.10057872533798218,
                    0.1408548206090927,
                    -0.13809055089950562,
                    -0.014516822062432766,
                    -0.010896662250161171,
                    -0.16756877303123474,
                    0.09383577853441238,
                    -0.15082818269729614,
                    0.13506470620632172,
                    -0.10119643062353134,
                    0.061041079461574554,
                    -0.08477475494146347,
                    -0.07544025033712387,
                    0.03534114360809326,
                    0.13870568573474884,
                    -0.11181377619504929,
                    -0.15189534425735474,
                    -0.18807244300842285,
                    -0.13502991199493408,
                    -0.036593832075595856,
                    0.0136581314727664,
                    -0.04021668806672096,
                    0.09947210550308228,
                    -0.14930307865142822,
                    -0.07448096573352814,
                    -0.11814875900745392,
                    0.0480932779610157,
                    0.01899399422109127,
                    -0.08743517845869064,
                    -0.06425817310810089,
                    0.08754894137382507,
                    0.03508707508444786,
                    -0.1694885641336441,
                    0.12339384108781815,
                    -0.14505992829799652,
                    0.18540450930595398,
                    0.10352552682161331,
                    0.0226705651730299,
                    -0.0598001629114151,
                    -0.18367886543273926,
                    0.13746680319309235,
                    0.11910902708768845,
                    -0.16903285682201385,
                    0.009342809207737446,
                    0.02603154256939888,
                    -0.17802071571350098,
                    0.07311603426933289,
                    0.03710772842168808,
                    -0.13069233298301697,
                    -0.0845986008644104,
                    -0.16198132932186127,
                    0.10159873962402344,
                    -0.09534507989883423,
                    0.07983149588108063,
                    -0.05885033681988716,
                    0.10063512623310089,
                    -0.06744713336229324,
                    0.13014931976795197,
                    0.18596984446048737,
                    -0.11050006002187729,
                    0.1674986481666565,
                    0.13981127738952637,
                    0.18894217908382416,
                    0.052428003400564194,
                    0.10434219241142273,
                    -0.20333267748355865,
                    0.08502964675426483,
                    0.17467810213565826,
                    -0.1092991977930069,
                    -0.1759135127067566,
                    -0.011438610963523388,
                    0.018141230568289757,
                    -0.0087136784568429,
                    -0.04197031632065773,
                    0.20394405722618103,
                    0.15150569379329681,
                    0.020636027678847313,
                    0.10810074955224991,
                    -0.012615975923836231,
                    0.11643686145544052,
                    0.06637358665466309,
                    -0.20670339465141296,
                    -0.13131767511367798,
                    0.12182363122701645,
                    0.05890309438109398,
                    0.007770217023789883,
                    0.19243213534355164,
                    -0.21095231175422668,
                    0.0019206629367545247,
                    0.121396504342556,
                    -0.06763184070587158,
                    -0.007110788021236658,
                    -0.11446306109428406,
                    -0.000860518601257354,
                    0.09601565450429916,
                    0.06538259983062744,
                    -0.18475903570652008,
                    -0.16376250982284546,
                    0.07436449825763702,
                    -0.19134069979190826,
                    -0.1222076267004013,
                    -0.07481010258197784,
                    -0.19980256259441376,
                    0.2000894397497177,
                    0.08349113166332245,
                    0.04164673388004303,
                    0.105058453977108,
                    0.027785679325461388,
                    0.10642842203378677,
                    0.2084156572818756,
                    0.07010408490896225,
                    -0.1125965267419815,
                    -0.16607974469661713,
                    -0.12967416644096375,
                    0.045027971267700195,
                    -0.06224462017416954,
                    0.04792597144842148,
                    0.18037986755371094,
                    -0.1982959806919098,
                    0.11094843596220016,
                    0.15286369621753693,
                    -0.13343489170074463,
                    -0.05902932211756706,
                    -0.1791778951883316,
                    0.006433981936424971,
                    -0.08404277265071869,
                    0.07281750440597534,
                    0.06164566054940224,
                    -0.09018343687057495,
                    0.19412891566753387,
                    -0.16773107647895813,
                    -0.19636452198028564,
                    0.11131247133016586,
                    -0.135523721575737,
                    -0.046614088118076324,
                    0.07737615704536438,
                    -0.020571304485201836,
                    -0.014074495993554592,
                    -0.1563737392425537,
                    -0.09918761998414993,
                    -0.1969405710697174,
                    -0.125246062874794,
                    0.03560621291399002,
                    -0.012371581979095936,
                    -0.07027619332075119,
                    0.18929140269756317,
                    0.10551448911428452,
                    -0.10007701814174652,
                    0.05354840308427811,
                    -0.04164436459541321,
                    0.2071305215358734,
                    0.03113105520606041,
                    0.06066323444247246,
                    0.009040103293955326,
                    -0.03805685415863991,
                    -0.07109519839286804,
                    0.027470111846923828,
                    0.004240145906805992,
                    -0.2043621987104416,
                    0.09868823736906052,
                    0.11851532012224197,
                    0.17946837842464447,
                    -0.11046967655420303,
                    0.18027594685554504,
                    -0.050924185663461685,
                    0.3822503089904785,
                    -0.5231847167015076,
                    0.8085932731628418,
                    0.21533285081386566,
                    -0.20089244842529297,
                    -0.5337150692939758,
                    0.01345487218350172,
                    -0.1338484287261963,
                    -0.046808525919914246,
                    0.4851871728897095,
                    0.18671707808971405,
                    0.621023416519165,
                    0.6316673755645752,
                    0.2123529314994812,
                    -0.7452183961868286,
                    -0.1929381787776947,
                    0.12498849630355835,
                    -0.056638360023498535,
                    0.7977743148803711,
                    0.8054894804954529,
                    0.38236311078071594,
                    -0.5660353302955627,
                    0.026822224259376526,
                    0.8418734669685364,
                    0.15792043507099152,
                    -0.14112384617328644,
                    0.19350792467594147,
                    -0.16338537633419037,
                    0.5788697600364685,
                    0.057989031076431274,
                    -0.1260865330696106,
                    0.7313027381896973,
                    0.19550015032291412,
                    -0.09384596347808838,
                    -0.15636411309242249,
                    0.24957683682441711,
                    -0.18843452632427216,
                    -0.09585237503051758,
                    -0.6370477676391602,
                    -0.17350003123283386,
                    -0.4292837679386139,
                    -0.38601449131965637,
                    -0.07486629486083984,
                    -0.14726261794567108,
                    -0.7552339434623718,
                    -0.15964239835739136,
                    0.377540647983551,
                    -0.20441049337387085,
                    -0.19483044743537903,
                    -0.0017996053211390972,
                    0.5185788869857788,
                    -0.016028815880417824,
                    0.08135468512773514,
                    -0.31339961290359497,
                    -0.4260401129722595,
                    -0.6307745575904846,
                    -0.4155098795890808,
                    0.18728861212730408,
                    -0.11400873214006424,
                    -0.08032911270856857,
                    -0.41163796186447144,
                    0.07371924072504044,
                    0.38814544677734375,
                    0.5085737705230713,
                    0.5991250276565552,
                    0.15751463174819946,
                    -0.1929168701171875,
                    0.1266508400440216,
                    0.6847994923591614,
                    -0.2941468060016632,
                    -0.48745542764663696,
                    0.04703925922513008,
                    -0.40221017599105835,
                    0.16431055963039398,
                    -0.3743215501308441,
                    0.18529070913791656,
                    0.1377251148223877,
                    -0.6913558840751648,
                    -0.17188043892383575,
                    0.06647413969039917,
                    -0.5541336536407471,
                    -0.15776607394218445,
                    0.5234807729721069,
                    -0.5330978035926819,
                    0.17362894117832184,
                    0.04771529138088226,
                    0.49919313192367554,
                    -0.7057440876960754,
                    -0.0703069344162941,
                    0.2822950780391693,
                    0.23640356957912445,
                    0.1757933348417282,
                    0.046464141458272934,
                    0.6118043065071106,
                    0.4612318277359009,
                    0.79490065574646,
                    0.04208771884441376,
                    -0.1518384963274002,
                    -0.507023274898529,
                    -0.29154160618782043,
                    0.14864566922187805,
                    -0.5141821503639221,
                    -0.5973876118659973,
                    0.04295852407813072,
                    0.10635027289390564,
                    -0.30486997961997986,
                    0.4133322834968567,
                    -0.17441880702972412,
                    -0.059532489627599716,
                    -0.6598753929138184,
                    0.1315784752368927,
                    -0.4312623143196106,
                    -0.6919876933097839,
                    -0.0475960448384285,
                    0.15107615292072296,
                    0.09695173799991608,
                    -0.3929362893104553,
                    0.06131325662136078,
                    0.5787706971168518,
                    -0.23283249139785767,
                    0.06690827757120132,
                    0.6394921541213989,
                    -0.7847170233726501,
                    0.5439067482948303,
                    -0.1845487356185913,
                    -0.424957811832428,
                    0.6366003751754761,
                    -0.13430213928222656,
                    0.08985792845487595,
                    0.12818580865859985,
                    0.10144194960594177,
                    0.1165395975112915,
                    0.12111084908246994,
                    0.2073993980884552,
                    -0.18306465446949005,
                    -0.042000964283943176,
                    -0.04041990637779236,
                    0.11652736365795135,
                    -0.12791948020458221,
                    0.07071295380592346,
                    0.07887506484985352,
                    0.04071502387523651,
                    0.018989482894539833,
                    -0.08551407605409622,
                    -0.17216971516609192,
                    -0.1773717850446701,
                    0.013137889094650745,
                    0.1958070546388626,
                    -0.0006219440838322043,
                    0.046556368470191956,
                    0.0209389366209507,
                    0.16064350306987762,
                    0.06538660079240799,
                    -0.013942359946668148,
                    -0.09669394046068192,
                    -0.11720909923315048,
                    0.01412451732903719,
                    -0.21134400367736816,
                    -0.1962933987379074,
                    0.14008156955242157,
                    -0.08828013390302658,
                    -0.16291168332099915,
                    0.11027513444423676,
                    0.21561643481254578,
                    -0.045178286731243134,
                    -0.11881167441606522,
                    0.043112363666296005,
                    -0.1779223531484604,
                    0.12474338710308075,
                    0.12457995861768723,
                    0.14591707289218903,
                    -0.13681228458881378,
                    0.08105956017971039,
                    -0.2100762128829956,
                    0.2031766176223755,
                    0.17097514867782593,
                    -0.1261400431394577,
                    -0.16116099059581757,
                    0.0510033555328846,
                    -0.03203370422124863,
                    -0.0047377548180520535,
                    0.16978001594543457,
                    0.0837145671248436,
                    0.20177926123142242,
                    0.02035144343972206,
                    -0.0507974810898304,
                    -0.13964268565177917,
                    -0.03781471401453018,
                    -0.0014980117557570338,
                    -0.02223287709057331,
                    0.011791005730628967,
                    0.019306730479002,
                    0.1992151439189911,
                    -0.18191225826740265,
                    -0.11293569207191467,
                    -0.015995923429727554,
                    0.16704317927360535,
                    0.0006122328341007233,
                    0.13198207318782806,
                    -0.18427778780460358,
                    0.16112807393074036,
                    -0.20650359988212585,
                    0.03674560785293579,
                    -0.05985259637236595,
                    -0.023430610075592995,
                    0.11627253890037537,
                    -0.14913374185562134,
                    0.06401415914297104,
                    0.1271335333585739,
                    -0.03450412303209305,
                    0.18641462922096252,
                    0.10743787884712219,
                    -0.11947046965360641,
                    -0.01422523707151413,
                    0.06385303288698196,
                    0.21124878525733948,
                    -0.15829797089099884,
                    0.09146086126565933,
                    -0.00041406037053093314,
                    0.13907413184642792,
                    -0.055971868336200714,
                    0.11622543632984161,
                    0.023012086749076843,
                    0.18560099601745605,
                    -0.04395589977502823,
                    -0.20710498094558716,
                    0.02082863263785839,
                    0.19211411476135254,
                    -0.06319189071655273,
                    0.17676369845867157,
                    0.18694700300693512,
                    -0.20052117109298706,
                    -0.10119912773370743,
                    0.06551527976989746,
                    0.09517256915569305,
                    -0.18312287330627441,
                    -0.08258026093244553,
                    0.024202965199947357,
                    -0.11274827271699905,
                    0.15048763155937195,
                    0.176881343126297,
                    -0.055200111120939255,
                    -0.08046796172857285,
                    -0.09723606705665588,
                    0.09462649375200272,
                    -0.20299020409584045,
                    0.062424369156360626,
                    -0.0013584884582087398,
                    -0.17002807557582855,
                    0.17229673266410828,
                    0.20365938544273376,
                    0.11697768419981003,
                    -0.1460886299610138,
                    0.03749372065067291,
                    0.0691085159778595,
                    0.015183048322796822,
                    -0.02518397569656372,
                    -0.10578765720129013,
                    -0.006046871189028025,
                    0.15683060884475708,
                    -0.15627889335155487,
                    0.02600262127816677,
                    0.20802733302116394,
                    0.0074883135966956615,
                    -0.2045142501592636,
                    0.1387738138437271,
                    -0.08585033565759659,
                    0.076180599629879,
                    0.08481892198324203,
                    0.14758069813251495,
                    -0.16970999538898468,
                    0.02837836556136608,
                    -0.12273948639631271,
                    0.1560538411140442,
                    -0.14380039274692535,
                    -0.210833340883255,
                    -0.16712601482868195,
                    -0.15381833910942078,
                    -0.15010572969913483,
                    -0.182036891579628,
                    -0.0909285768866539,
                    -0.02954206056892872,
                    0.15965507924556732,
                    0.13862836360931396,
                    -0.08977242559194565,
                    0.1049962267279625,
                    0.08944912999868393,
                    0.17769046127796173,
                    -0.047706227749586105,
                    0.03716709837317467,
                    0.1516449749469757,
                    -0.20088136196136475,
                    -0.1084463968873024,
                    0.19270022213459015,
                    0.1602482944726944,
                    0.07377426326274872,
                    0.13903172314167023,
                    -0.04383394867181778,
                    0.1038292720913887,
                    -0.12316136807203293,
                    -0.10705450177192688,
                    -0.020620163530111313,
                    0.12461531162261963,
                    -0.1848146915435791,
                    -0.06804865598678589,
                    -0.07542003691196442,
                    0.045133739709854126,
                    -0.13260674476623535,
                    0.009374700486660004,
                    0.01158546656370163,
                    0.10585222393274307,
                    0.18397338688373566,
                    -0.11762306839227676,
                    0.0740998387336731,
                    -0.00820397213101387,
                    -0.13149890303611755,
                    0.13143183290958405,
                    0.0868247002363205,
                    0.16998876631259918,
                    0.1418170928955078,
                    -0.16064922511577606,
                    0.04057122766971588,
                    0.10885486751794815,
                    0.07270817458629608,
                    0.20366880297660828,
                    0.13932275772094727,
                    -0.050312887877225876,
                    0.036210350692272186,
                    0.18818628787994385,
                    0.1257515549659729,
                    0.17956456542015076,
                    0.07394223660230637,
                    -0.10389189422130585,
                    0.09712207317352295,
                    0.011534477584064007,
                    -0.11050714552402496,
                    0.0996861532330513,
                    0.15776784718036652,
                    0.11190328001976013,
                    0.006214137654751539,
                    0.10746347904205322,
                    0.04220603033900261,
                    0.05459897592663765,
                    0.18916617333889008,
                    0.13207072019577026,
                    -0.06720694154500961,
                    0.18350696563720703,
                    -0.10752453655004501,
                    0.14056719839572906,
                    0.08233293890953064,
                    0.05587317794561386,
                    0.13528050482273102,
                    -0.14294789731502533,
                    0.15152327716350555,
                    0.15268582105636597,
                    0.06119759753346443,
                    0.19264470040798187,
                    0.02314387820661068,
                    0.16033777594566345,
                    0.13857720792293549,
                    0.09600880742073059,
                    -0.0628330409526825,
                    -0.18993455171585083,
                    -0.1930895745754242,
                    -0.20082727074623108,
                    -0.02825307659804821,
                    0.17800861597061157,
                    -0.11451058089733124,
                    0.010460917837917805,
                    0.028303775936365128,
                    -0.13526910543441772,
                    -0.030860941857099533,
                    -0.21061711013317108,
                    -0.056499019265174866,
                    -0.20322179794311523,
                    0.03182234987616539,
                    0.06939883530139923,
                    -0.2057632952928543,
                    -0.036478761583566666,
                    0.17502790689468384,
                    0.12846601009368896,
                    0.1839219331741333,
                    0.176349937915802
                ]
            },
            {
                "_type": "ndarray",
                "shape": [
                    128
                ],
                "dtype": "float32",
                "data": [
                    0.0008690181421115994,
                    0.0003229649446438998,
                    -0.0006176875322125852,
                    -0.0006962509360164404,
                    -0.00048504717415198684,
                    0.0007128239958547056,
                    0.0010164465056732297,
                    0.0003282522375229746,
                    0.001225789892487228,
                    -0.0009625746170058846,
                    -0.0004784778575412929,
                    -0.0003314591886010021,
                    -0.0012135785073041916,
                    -0.000597338774241507,
                    -4.436968993104529e-06,
                    0.00045367522398009896,
                    0.00016489188419654965,
                    -0.00014866425772197545,
                    0.000246510753640905,
                    4.599922613124363e-05,
                    -0.0007263082661665976,
                    -0.0006265062838792801,
                    -0.000207289878744632,
                    -0.000793512212112546,
                    0.0011128109181299806,
                    0.000940492085646838,
                    -0.0009041030425578356,
                    0.0001619806862436235,
                    0.0003600531199481338,
                    0.00044699650607071817,
                    -3.2900326914386824e-05,
                    0.0003020100702997297,
                    -0.0006767660961486399,
                    -0.0003497079887893051,
                    -0.0001315269764745608,
                    0.00038459859206341207,
                    0.001069150515832007,
                    0.0005310996784828603,
                    -0.00016265774320345372,
                    0.0008079912513494492,
                    0.00032943178666755557,
                    -0.0007931250729598105,
                    0.0005217546131461859,
                    -0.0005789996357634664,
                    0.00015471632650587708,
                    0.0009220167994499207,
                    7.714165258221328e-05,
                    -0.000575521495193243,
                    -0.0006450590444728732,
                    -0.00014686967188026756,
                    0.0004582674882840365,
                    0.0005888454616069794,
                    0.00024803163250908256,
                    0.0006081679021008313,
                    0.0006524927448481321,
                    -0.000512549711856991,
                    0.0008492766646668315,
                    -0.000617522222455591,
                    0.0002568318450357765,
                    -0.0004100359510630369,
                    0.0010071932338178158,
                    0.00032299832673743367,
                    6.534587009809911e-05,
                    -0.0007423522765748203,
                    -0.00012973208504263312,
                    -0.0006837563123553991,
                    0.0008029105374589562,
                    -0.0001490014692535624,
                    -0.0004182048432994634,
                    0.0007055880851112306,
                    0.0008168784552253783,
                    0.0007764715701341629,
                    0.0001030473576975055,
                    -0.0004095110925845802,
                    -0.00015579158207401633,
                    0.000398890144424513,
                    0.0006456705159507692,
                    -0.000609361391980201,
                    0.0007604305865243077,
                    -0.0003174841112922877,
                    -0.0005570027278736234,
                    -6.807682802900672e-05,
                    0.0007394008571282029,
                    0.00044786304351873696,
                    0.0006605433882214129,
                    0.0003051449893973768,
                    -0.0009442761656828225,
                    0.0005357228801585734,
                    -0.0004883315996266901,
                    -0.00016398091975133866,
                    -0.0006355682853609324,
                    -0.0004999946686439216,
                    0.0006463153986260295,
                    -0.0008157820557244122,
                    -0.0005067645106464624,
                    -0.0008515319204889238,
                    -0.00018710804579313844,
                    0.000993045512586832,
                    -0.0003166220849379897,
                    0.00032688677310943604,
                    -0.0006110541871748865,
                    2.1931504306849092e-05,
                    -0.0005443764384835958,
                    0.00043317858944647014,
                    -0.0002610492520034313,
                    0.00015382895071525127,
                    0.000717124086804688,
                    -7.538937643403187e-05,
                    -0.0002653462579473853,
                    -0.00030516376136802137,
                    -0.0008513491484336555,
                    -0.0008971126517280936,
                    0.0001822748890845105,
                    -0.0008987909532152116,
                    -0.00012047292693750933,
                    0.00012908311327919364,
                    -0.000317022786475718,
                    0.00026662315940484405,
                    -0.0002822842507157475,
                    -0.0011252174153923988,
                    -0.0004581468820106238,
                    0.00029724076739512384,
                    -7.910134445410222e-05,
                    0.0008261275943368673,
                    0.0001963808899745345,
                    -0.00016864019562490284,
                    0.00040921944309957325,
                    -0.0007473834557458758
                ]
            }
        ]
    },
    {
        "class": "keras.layers.core.dense.Dense",
        "config": {
            "name": "dense_1",
            "trainable": true,
            "dtype": "float32",
            "units": 128,
            "activation": "softplus",
            "use_bias": true,
            "kernel_initializer": {
                "class_name": "GlorotUniform",
                "config": {
                    "seed": null
                }
            },
            "bias_initializer": {
                "class_name": "Zeros",
                "config": {}
            },
            "kernel_regularizer": null,
            "bias_regularizer": null,
            "activity_regularizer": null,
            "kernel_constraint": null,
            "bias_constraint": null
        },
        "weights": [
            {
                "_type": "ndarray",
                "shape": [
                    128,
                    128
                ],
                "dtype": "float32",
                "data": [
                    -0.1233474463224411,
                    -0.024899616837501526,
                    0.15016873180866241,
                    -0.08515726774930954,
                    0.053296834230422974,
                    -0.017668742686510086,
                    0.13590292632579803,
                    0.13416220247745514,
                    -0.0007641547126695514,
                    -0.0561005175113678,
                    0.14625923335552216,
                    -0.03253556787967682,
                    -0.10528434813022614,
                    -0.13006822764873505,
                    -0.09214959293603897,
                    -0.14583256840705872,
                    -0.0122190210968256,
                    0.12688611447811127,
                    -0.08499905467033386,
                    -0.08700143545866013,
                    0.1278032660484314,
                    0.012404517270624638,
                    0.059773750603199005,
                    -0.09139110147953033,
                    0.022467968985438347,
                    0.10118409246206284,
                    -0.01248040609061718,
                    -0.007722892332822084,
                    -0.06753397732973099,
                    -0.08167105168104172,
                    0.13713040947914124,
                    -0.009774301201105118,
                    -0.050970401614904404,
                    -0.013246851041913033,
                    -0.0464966744184494,
                    -0.12652333080768585,
                    -0.017359575256705284,
                    0.14544357359409332,
                    -0.07711712270975113,
                    0.06139112636446953,
                    -0.04207174479961395,
                    0.017230328172445297,
                    0.0328994058072567,
                    0.00867223460227251,
                    0.09568298608064651,
                    0.010302120819687843,
                    -0.03246655687689781,
                    0.13862892985343933,
                    -0.11487331986427307,
                    0.10939065366983414,
                    0.09944918751716614,
                    0.028703302145004272,
                    0.0989963635802269,
                    0.14312155544757843,
                    0.032335590571165085,
                    0.14262717962265015,
                    -0.1056400015950203,
                    0.1502334028482437,
                    0.049488365650177,
                    0.02895348332822323,
                    -0.003576495684683323,
                    0.001271657063625753,
                    -0.11406081914901733,
                    0.11820072680711746,
                    0.01876133307814598,
                    0.10759304463863373,
                    -0.021561451256275177,
                    -0.03516276180744171,
                    -0.08435516804456711,
                    0.14196506142616272,
                    0.08740425109863281,
                    -0.037093259394168854,
                    -0.06427998095750809,
                    -0.05319550260901451,
                    0.07342583686113358,
                    0.023259198293089867,
                    -0.05049429088830948,
                    -0.013514302670955658,
                    0.014418845996260643,
                    0.08033863455057144,
                    0.0423707477748394,
                    0.1470751017332077,
                    -0.011181209236383438,
                    -0.07293225824832916,
                    0.10325171053409576,
                    0.13984590768814087,
                    0.021772826090455055,
                    -0.0483056977391243,
                    0.141414612531662,
                    -0.026041503995656967,
                    0.10510534793138504,
                    0.04868742823600769,
                    -0.019429383799433708,
                    0.0011235327692702413,
                    0.03492090851068497,
                    -0.004088771995157003,
                    0.04062117636203766,
                    -0.13107015192508698,
                    -0.04207209125161171,
                    -0.030307643115520477,
                    0.0732501819729805,
                    0.1517837643623352,
                    -0.08948764950037003,
                    -0.08233559131622314,
                    -0.08523213863372803,
                    -0.06749872118234634,
                    0.1350969821214676,
                    0.10197321325540543,
                    0.04050527885556221,
                    -0.06481074541807175,
                    0.07132133841514587,
                    0.07656197994947433,
                    0.013870562426745892,
                    -0.1477775126695633,
                    -0.01575872115790844,
                    -0.03365996479988098,
                    0.0655706524848938,
                    0.05331191420555115,
                    -0.1343662142753601,
                    -0.09844830632209778,
                    -0.008564969524741173,
                    -0.08947761356830597,
                    -0.1046128123998642,
                    -0.0793684720993042,
                    -0.05818367004394531,
                    0.0820792019367218,
                    0.03727978840470314,
                    0.0980699360370636,
                    0.1533370316028595,
                    -0.1151357963681221,
                    0.012626704759895802,
                    0.015985513105988503,
                    0.1423790454864502,
                    0.0858803316950798,
                    -0.0006932016694918275,
                    -0.02436036244034767,
                    -0.06541521102190018,
                    0.10470698773860931,
                    0.12911267578601837,
                    0.010987027548253536,
                    0.022601773962378502,
                    -0.1309792399406433,
                    -0.05161197856068611,
                    -0.14445023238658905,
                    -0.14372016489505768,
                    0.007792876102030277,
                    0.15180537104606628,
                    -0.10366669297218323,
                    0.1037701815366745,
                    0.0883089154958725,
                    -0.026028309017419815,
                    -0.04379316419363022,
                    0.14928945899009705,
                    -0.021828290075063705,
                    0.0034189200960099697,
                    0.07736868411302567,
                    0.03128967806696892,
                    0.014825795777142048,
                    -0.15018536150455475,
                    -0.012020106427371502,
                    0.01272845733910799,
                    -0.02028157189488411,
                    -0.11066627502441406,
                    0.14280518889427185,
                    -0.09925448149442673,
                    0.06756684929132462,
                    -0.16280528903007507,
                    0.11281260848045349,
                    0.05985347554087639,
                    0.035487230867147446,
                    0.0575685128569603,
                    -0.08979922533035278,
                    0.047626812011003494,
                    -0.13970264792442322,
                    0.080299511551857,
                    0.12930597364902496,
                    0.13362736999988556,
                    0.10796114802360535,
                    0.09840672463178635,
                    -0.14795605838298798,
                    0.07052436470985413,
                    0.07218560576438904,
                    -0.07001283764839172,
                    0.13966268301010132,
                    0.06219181790947914,
                    0.10701330751180649,
                    -0.058510921895504,
                    0.08583313971757889,
                    -0.1117483377456665,
                    -0.004926689434796572,
                    -0.05304531008005142,
                    -0.1323643922805786,
                    -0.05606875196099281,
                    0.08419180661439896,
                    -0.012169862166047096,
                    0.07594253122806549,
                    -0.0016818324802443385,
                    -0.06552847474813461,
                    0.0201872568577528,
                    -0.12702114880084991,
                    0.1365256905555725,
                    -0.13522261381149292,
                    0.062225375324487686,
                    -0.06738094240427017,
                    -0.014405850321054459,
                    0.07353424280881882,
                    -0.1051199659705162,
                    -0.0993710458278656,
                    0.09520294517278671,
                    -0.07587694376707077,
                    0.12446548044681549,
                    -0.014558005146682262,
                    -0.12140724062919617,
                    0.04016399756073952,
                    -0.005734560079872608,
                    -0.12828053534030914,
                    0.09927110373973846,
                    -0.01687629707157612,
                    -0.012356262654066086,
                    -0.12219598889350891,
                    -0.14463837444782257,
                    -0.04346023499965668,
                    0.112977035343647,
                    -0.14700183272361755,
                    0.08315327018499374,
                    0.149624764919281,
                    -0.13780392706394196,
                    -0.1141030490398407,
                    0.04552881792187691,
                    0.06402821093797684,
                    0.009070298634469509,
                    0.14513219892978668,
                    0.14616435766220093,
                    0.13514123857021332,
                    0.005750711541622877,
                    -0.09320811927318573,
                    -0.084520123898983,
                    0.13397423923015594,
                    0.15155699849128723,
                    -0.12894755601882935,
                    0.09614718705415726,
                    0.13024432957172394,
                    0.0389263816177845,
                    -0.1166381686925888,
                    -0.06132037937641144,
                    0.09931586682796478,
                    -0.0681641474366188,
                    0.1413899064064026,
                    0.06887473165988922,
                    0.15236099064350128,
                    0.03447847068309784,
                    0.1339837908744812,
                    -0.1213470995426178,
                    0.08022404462099075,
                    -0.11658858507871628,
                    -0.024159245193004608,
                    -0.10102348029613495,
                    0.012173840776085854,
                    0.03972049430012703,
                    0.05440019443631172,
                    0.12473081052303314,
                    0.048695508390665054,
                    -0.10095404088497162,
                    -0.031876493245363235,
                    -0.08639843761920929,
                    0.025006085634231567,
                    -0.0510372631251812,
                    -0.13440921902656555,
                    0.07105139642953873,
                    0.06911260634660721,
                    0.06565290689468384,
                    0.02172192558646202,
                    -0.06521658599376678,
                    0.024897553026676178,
                    0.07165411859750748,
                    0.0015941060846671462,
                    0.03517575189471245,
                    -0.025241199880838394,
                    -0.022078653797507286,
                    0.024648750200867653,
                    -0.12413055449724197,
                    -0.02945682220160961,
                    0.13084618747234344,
                    0.04364721104502678,
                    0.04197699576616287,
                    -0.04872951656579971,
                    0.0603204220533371,
                    0.10377722233533859,
                    0.050476137548685074,
                    0.15405447781085968,
                    0.02963247336447239,
                    -0.1358342170715332,
                    -0.021754076704382896,
                    0.13953936100006104,
                    -0.09806235879659653,
                    0.16363297402858734,
                    -0.13584940135478973,
                    -0.1317846179008484,
                    -0.08594858646392822,
                    -0.1403888612985611,
                    0.0770777016878128,
                    0.05339491739869118,
                    0.002665496664121747,
                    -0.14645470678806305,
                    0.0849621444940567,
                    0.09532830119132996,
                    -0.06560421735048294,
                    -0.0615721270442009,
                    0.044888582080602646,
                    0.06065275892615318,
                    -0.08347850292921066,
                    0.0923129990696907,
                    -0.07668960094451904,
                    -0.16030548512935638,
                    0.09433063119649887,
                    -0.044808752834796906,
                    -0.08186230808496475,
                    0.04855009540915489,
                    0.04511655494570732,
                    -0.019969923421740532,
                    0.01598833128809929,
                    0.0008797653135843575,
                    -0.035631563514471054,
                    0.03516701981425285,
                    0.13695159554481506,
                    0.06830117851495743,
                    -0.053746797144412994,
                    -0.13834524154663086,
                    0.11153186857700348,
                    -0.09916991740465164,
                    0.14866827428340912,
                    -0.12517543137073517,
                    -0.13989517092704773,
                    0.13573026657104492,
                    0.06134815886616707,
                    -0.00832100585103035,
                    0.04649558663368225,
                    -0.03546788915991783,
                    0.08581992238759995,
                    -0.14796572923660278,
                    0.0003182732325512916,
                    -0.1266668438911438,
                    0.12916593253612518,
                    0.11256982386112213,
                    -0.03209653124213219,
                    -0.07782373577356339,
                    0.009322338737547398,
                    0.07879497855901718,
                    0.09555184841156006,
                    0.07125797867774963,
                    -0.03866364806890488,
                    0.03195681422948837,
                    -0.12488698959350586,
                    -0.06495464593172073,
                    -0.14292064309120178,
                    0.12597791850566864,
                    0.09039080142974854,
                    0.03758591413497925,
                    0.09550856053829193,
                    0.08298028260469437,
                    -0.1544753611087799,
                    0.1313789039850235,
                    -0.0575140118598938,
                    -0.12465920299291611,
                    -0.05878199636936188,
                    -0.057693272829055786,
                    0.04824003949761391,
                    -0.12254389375448227,
                    0.09415757656097412,
                    0.13362041115760803,
                    0.04499439895153046,
                    0.0675002932548523,
                    0.09871666878461838,
                    -0.09047256410121918,
                    0.028197437524795532,
                    0.13250379264354706,
                    0.04016711935400963,
                    0.006200338713824749,
                    0.06085963919758797,
                    0.1381627321243286,
                    -0.02433471567928791,
                    0.13762538135051727,
                    0.11694634705781937,
                    -0.022285979241132736,
                    0.17288370430469513,
                    0.013951179571449757,
                    0.03535544499754906,
                    -0.03994292393326759,
                    -0.1983851045370102,
                    -0.07418056577444077,
                    -0.08877615630626678,
                    0.053990546613931656,
                    -0.05033339932560921,
                    -0.1334068328142166,
                    -0.10368040949106216,
                    0.006348971743136644,
                    -0.1388074904680252,
                    0.117792047560215,
                    -0.10825902968645096,
                    -0.017177876085042953,
                    0.1235671266913414,
                    -0.04964947700500488,
                    0.20636999607086182,
                    -0.11067094653844833,
                    0.14917895197868347,
                    0.022001981735229492,
                    0.027334781363606453,
                    0.1809573471546173,
                    0.013725397177040577,
                    -0.0483853742480278,
                    -0.053180862218141556,
                    -0.10292473435401917,
                    0.0338364914059639,
                    0.16810768842697144,
                    0.12111353129148483,
                    -0.00605377834290266,
                    -0.11361456662416458,
                    -0.18591707944869995,
                    -0.15028655529022217,
                    0.03346139192581177,
                    0.04887588694691658,
                    0.11540383100509644,
                    -0.16967236995697021,
                    -0.06201072409749031,
                    0.02125651016831398,
                    0.15581032633781433,
                    0.09587043523788452,
                    -0.13021816313266754,
                    0.01175685878843069,
                    -0.07657995820045471,
                    -0.019537214189767838,
                    0.1610940396785736,
                    -0.05032000318169594,
                    -0.09166305512189865,
                    0.05845675244927406,
                    -0.11091237515211105,
                    -0.09055069833993912,
                    0.012160592712461948,
                    -0.20629537105560303,
                    0.06626251339912415,
                    -0.12266586720943451,
                    0.022333644330501556,
                    0.10697084665298462,
                    -0.1012158989906311,
                    -0.0074669732712209225,
                    -0.05597364902496338,
                    0.019968625158071518,
                    0.01719881035387516,
                    0.017200233414769173,
                    -0.053660426288843155,
                    0.12231092154979706,
                    0.11230999231338501,
                    -0.1589307188987732,
                    -0.08718596398830414,
                    0.05873950570821762,
                    -0.04248806834220886,
                    -0.01730532757937908,
                    -0.10985101759433746,
                    -0.0037058116868138313,
                    0.08102762699127197,
                    0.09110148996114731,
                    -0.07548893243074417,
                    -0.09478478878736496,
                    -0.15966756641864777,
                    0.03149081766605377,
                    0.04874851554632187,
                    -0.09891361743211746,
                    -0.06285389512777328,
                    0.14605268836021423,
                    0.021663403138518333,
                    -0.005724179092794657,
                    -0.0532618947327137,
                    -0.053137049078941345,
                    -0.06460091471672058,
                    -0.06859104335308075,
                    -0.14621058106422424,
                    -0.11534036695957184,
                    -0.09104063361883163,
                    0.01713727042078972,
                    -0.02800329215824604,
                    -0.08113086968660355,
                    0.011200908571481705,
                    -0.06080886349081993,
                    -0.11583550274372101,
                    0.03397917002439499,
                    -0.08756270259618759,
                    0.12877142429351807,
                    0.09950290620326996,
                    -0.04501798376441002,
                    0.0525648258626461,
                    0.08934839069843292,
                    -0.19706302881240845,
                    -0.1508679836988449,
                    -0.002752386499196291,
                    0.20660366117954254,
                    0.036554645746946335,
                    0.16071465611457825,
                    -0.20342397689819336,
                    0.05041388422250748,
                    -0.07944110035896301,
                    0.030453477054834366,
                    -0.09065176546573639,
                    0.19367636740207672,
                    0.05119055137038231,
                    0.13575232028961182,
                    0.11590205878019333,
                    -0.07769110798835754,
                    -0.13005031645298004,
                    0.003567057428881526,
                    -0.16333258152008057,
                    0.0702591985464096,
                    0.09099934250116348,
                    -0.12349888682365417,
                    0.14612354338169098,
                    -0.08400973677635193,
                    0.1286451667547226,
                    0.007319610100239515,
                    -0.11098910123109818,
                    0.05017184093594551,
                    0.0207044780254364,
                    0.06704495847225189,
                    0.07723362743854523,
                    -0.061142392456531525,
                    0.06676477193832397,
                    0.010192951187491417,
                    0.01567167043685913,
                    0.04550115764141083,
                    0.057266686111688614,
                    0.07437080144882202,
                    0.004176363814622164,
                    0.08584235608577728,
                    -0.12335515022277832,
                    -0.06369075924158096,
                    0.07887367159128189,
                    -0.04511905834078789,
                    0.03158815577626228,
                    -0.13329945504665375,
                    0.007416578941047192,
                    0.05222262814640999,
                    -0.14819076657295227,
                    -0.04102913290262222,
                    -0.14462409913539886,
                    0.12714670598506927,
                    -0.041484586894512177,
                    -0.15167665481567383,
                    0.08482378721237183,
                    -0.060232486575841904,
                    0.13706503808498383,
                    -0.05815780907869339,
                    0.01646053045988083,
                    -0.06002417206764221,
                    0.106931671500206,
                    -0.06538538634777069,
                    0.12360268086194992,
                    0.1464519202709198,
                    -0.07685990631580353,
                    0.03155551105737686,
                    -0.14082901179790497,
                    0.009404188022017479,
                    0.0932215005159378,
                    -0.13760986924171448,
                    -0.09015195071697235,
                    0.07163260132074356,
                    0.002569993259385228,
                    0.031179634854197502,
                    0.051004424691200256,
                    0.14294447004795074,
                    0.08519537001848221,
                    0.12767241895198822,
                    0.08306632190942764,
                    -0.127851203083992,
                    -0.0788680911064148,
                    0.09460914880037308,
                    0.07228938490152359,
                    0.030891690403223038,
                    0.05666086822748184,
                    -0.1436377912759781,
                    -0.01475479081273079,
                    0.045869380235672,
                    0.08484610915184021,
                    0.094099260866642,
                    -0.019946562126278877,
                    -0.009503941982984543,
                    -0.11296013742685318,
                    0.009149299934506416,
                    -0.1222071722149849,
                    0.10369642078876495,
                    -0.11958343535661697,
                    0.06584067642688751,
                    -0.1359976828098297,
                    -0.04112761840224266,
                    0.15366050601005554,
                    0.0747857540845871,
                    0.033418405801057816,
                    0.11808758974075317,
                    0.01900114305317402,
                    -0.04995303973555565,
                    0.057244230061769485,
                    -0.15261009335517883,
                    -0.02702200599014759,
                    0.0786648839712143,
                    -0.03135116770863533,
                    -0.09489373117685318,
                    -0.11364081501960754,
                    -0.085600845515728,
                    -0.15079151093959808,
                    0.04859645292162895,
                    -0.14059382677078247,
                    -0.08470065891742706,
                    -0.08138959109783173,
                    0.14869897067546844,
                    -0.12823835015296936,
                    0.07446925342082977,
                    0.05998044088482857,
                    0.060175828635692596,
                    0.07001885026693344,
                    0.06079089269042015,
                    -0.13821178674697876,
                    0.10048394650220871,
                    -0.14850175380706787,
                    0.12006444483995438,
                    -0.0839080885052681,
                    -0.13237667083740234,
                    0.09816572070121765,
                    -0.08648926019668579,
                    -0.09129919856786728,
                    -0.029620343819260597,
                    0.12720216810703278,
                    -0.06424437463283539,
                    0.008308365009725094,
                    0.019989322870969772,
                    -0.04062741994857788,
                    -0.058892980217933655,
                    0.06702050566673279,
                    -0.13905929028987885,
                    -0.14566874504089355,
                    0.044848863035440445,
                    0.08303657174110413,
                    0.009701240807771683,
                    -0.049713797867298126,
                    -0.1479722261428833,
                    -0.10357113182544708,
                    0.010482482612133026,
                    -0.14195437729358673,
                    -0.09994741529226303,
                    -0.03407188504934311,
                    -0.06855123490095139,
                    -0.12347429245710373,
                    -0.07699137926101685,
                    -0.04785038158297539,
                    0.01017792895436287,
                    0.14454111456871033,
                    -0.11176851391792297,
                    0.04420621320605278,
                    -0.054996222257614136,
                    0.09811417013406754,
                    0.1522606760263443,
                    -0.10877681523561478,
                    -0.12458285689353943,
                    -0.09169106930494308,
                    -0.10472609847784042,
                    -0.09755713492631912,
                    0.09300946444272995,
                    -0.05233827605843544,
                    0.1169944480061531,
                    -0.14762279391288757,
                    -0.09173393994569778,
                    0.11668897420167923,
                    -0.021809501573443413,
                    0.08061130344867706,
                    0.09919247031211853,
                    0.07561225444078445,
                    0.06702354550361633,
                    -0.09895550459623337,
                    -0.033673278987407684,
                    0.12917941808700562,
                    0.11072263866662979,
                    -0.06509600579738617,
                    0.11170216649770737,
                    -0.046131033450365067,
                    -0.10428790003061295,
                    0.1387324184179306,
                    -0.1156516820192337,
                    -0.0335618332028389,
                    -0.1338350772857666,
                    0.008561053313314915,
                    0.0035271719098091125,
                    0.09551999717950821,
                    0.09916780143976212,
                    -0.11087509989738464,
                    0.1219218522310257,
                    0.026240786537528038,
                    0.06216510012745857,
                    0.08961150795221329,
                    -0.06618528068065643,
                    0.04742664098739624,
                    0.05080542713403702,
                    -0.07086499035358429,
                    0.06172236055135727,
                    0.06960364431142807,
                    -0.13203629851341248,
                    0.03775133192539215,
                    -0.1328597068786621,
                    -0.002982062054798007,
                    0.0664215013384819,
                    -0.025471016764640808,
                    -0.10231702029705048,
                    -0.024377528578042984,
                    -0.04067565128207207,
                    0.13995672762393951,
                    -0.11746605485677719,
                    -0.10108248144388199,
                    -0.0013327095657587051,
                    0.014406861737370491,
                    -0.14794987440109253,
                    0.03142263740301132,
                    0.09135114401578903,
                    0.045905426144599915,
                    0.057828452438116074,
                    0.024645108729600906,
                    -0.06334248185157776,
                    -0.07386127859354019,
                    0.11141875386238098,
                    -0.016864458099007607,
                    -0.037653274834156036,
                    -0.11681953072547913,
                    0.04139930009841919,
                    -0.03430725634098053,
                    -0.0371473953127861,
                    -0.024928178638219833,
                    -0.04039454460144043,
                    0.06166688725352287,
                    -0.13403859734535217,
                    0.09743752330541611,
                    0.01563200168311596,
                    0.14026135206222534,
                    -0.09570536017417908,
                    0.029895540326833725,
                    0.12934944033622742,
                    0.08029785007238388,
                    -0.06534112989902496,
                    -0.058163270354270935,
                    -0.031907495111227036,
                    -0.151520237326622,
                    -0.10842686146497726,
                    -0.042839936912059784,
                    -0.012759381905198097,
                    -0.029501277953386307,
                    0.1019996851682663,
                    0.05697285383939743,
                    0.020853107795119286,
                    0.10301825404167175,
                    -0.05743895098567009,
                    0.13026845455169678,
                    0.1432875543832779,
                    0.13097156584262848,
                    -5.4095991799840704e-05,
                    0.14332415163516998,
                    -0.07339610904455185,
                    0.09205659478902817,
                    0.04871688783168793,
                    -0.033460844308137894,
                    -0.11488831043243408,
                    0.11989846080541611,
                    0.03132370114326477,
                    0.035152457654476166,
                    -0.01595659740269184,
                    0.12571896612644196,
                    -0.1339195966720581,
                    0.08055330812931061,
                    -0.0540962815284729,
                    0.029119281098246574,
                    0.0877712219953537,
                    -0.017217664048075676,
                    0.01977597363293171,
                    -0.07286956906318665,
                    0.023114344105124474,
                    0.06168054789304733,
                    -0.13972529768943787,
                    -0.1040225401520729,
                    -0.1415550857782364,
                    -0.1421521008014679,
                    -0.034438587725162506,
                    -0.11369332671165466,
                    0.07433740794658661,
                    0.08307795971632004,
                    -0.0699281394481659,
                    0.14742548763751984,
                    -0.10488517582416534,
                    0.11394110321998596,
                    0.09646885842084885,
                    -0.02489660680294037,
                    0.016371790319681168,
                    0.07907198369503021,
                    -0.037636421620845795,
                    -0.029642872512340546,
                    -0.03937692567706108,
                    -0.1240612268447876,
                    0.10590007901191711,
                    -0.06142174080014229,
                    -0.040110018104314804,
                    -0.12862101197242737,
                    0.03282327950000763,
                    0.023203980177640915,
                    -0.06521952152252197,
                    -0.009800105355679989,
                    0.055384546518325806,
                    -0.12413841485977173,
                    0.14757893979549408,
                    -0.12271970510482788,
                    0.14979013800621033,
                    -0.13493295013904572,
                    -0.020086582750082016,
                    0.06597784906625748,
                    0.1290595382452011,
                    -0.058517951518297195,
                    -0.018241452053189278,
                    0.04039926454424858,
                    -0.0426393523812294,
                    -0.09498420357704163,
                    -0.14052198827266693,
                    0.023260559886693954,
                    0.09031225740909576,
                    0.05748371779918671,
                    -0.1013895720243454,
                    0.08167678117752075,
                    -0.1459953337907791,
                    -0.11839151382446289,
                    0.08524949103593826,
                    0.06706570833921432,
                    0.043708451092243195,
                    -0.019174795597791672,
                    -0.11871261894702911,
                    -0.08711374551057816,
                    0.005569750443100929,
                    0.008449610322713852,
                    0.002462885109707713,
                    0.05715647339820862,
                    -0.11430401355028152,
                    0.03527481108903885,
                    -0.05403083935379982,
                    -0.03412928804755211,
                    -0.032537464052438736,
                    0.06466586142778397,
                    -0.13403941690921783,
                    -0.08267112821340561,
                    0.07964257895946503,
                    0.08143385499715805,
                    -0.07069966197013855,
                    0.08255976438522339,
                    -0.02118491940200329,
                    -0.12623882293701172,
                    -0.13590021431446075,
                    0.08824358135461807,
                    -0.09609214961528778,
                    0.08119455724954605,
                    0.06451255083084106,
                    -0.06740148365497589,
                    0.13420629501342773,
                    -0.032020147889852524,
                    0.035000722855329514,
                    -0.13312828540802002,
                    -0.01861855387687683,
                    -0.02755494974553585,
                    -0.0394488163292408,
                    0.08293889462947845,
                    0.04973967745900154,
                    0.13922056555747986,
                    0.06291649490594864,
                    -0.04919125512242317,
                    0.10080387443304062,
                    0.08402601629495621,
                    -0.07257047295570374,
                    0.048049382865428925,
                    -0.09387423098087311,
                    0.0806797593832016,
                    0.04691348597407341,
                    0.024301933124661446,
                    -0.0030887406319379807,
                    -0.07544393837451935,
                    0.023935232311487198,
                    0.11021926999092102,
                    -0.044756460934877396,
                    -0.12437563389539719,
                    -0.11323230713605881,
                    0.11124976724386215,
                    -0.11788330972194672,
                    0.04355764016509056,
                    0.04303107410669327,
                    -0.06768586486577988,
                    0.07129722833633423,
                    0.10030170530080795,
                    0.025491833686828613,
                    0.03535027056932449,
                    -0.03423195332288742,
                    0.10746605694293976,
                    -0.04861285537481308,
                    -0.1215173602104187,
                    -0.13929693400859833,
                    -0.11898758262395859,
                    0.03899119049310684,
                    -0.073552206158638,
                    -0.04894853010773659,
                    -0.005679223220795393,
                    -0.11547514796257019,
                    -0.05973246693611145,
                    0.09555760771036148,
                    0.044789742678403854,
                    0.12830772995948792,
                    0.11216215044260025,
                    -0.12754541635513306,
                    0.09199333190917969,
                    0.07291338592767715,
                    -0.13309337198734283,
                    -0.06788851320743561,
                    0.05359755456447601,
                    0.09489583969116211,
                    -0.04539405182003975,
                    0.08917878568172455,
                    0.0446782186627388,
                    0.05348057672381401,
                    -0.11685054004192352,
                    0.11953233927488327,
                    0.006536266766488552,
                    0.1355506330728531,
                    0.019060978665947914,
                    -0.10038306564092636,
                    0.02850678749382496,
                    0.052735310047864914,
                    -0.06010964512825012,
                    0.07750649750232697,
                    0.05151616036891937,
                    0.13151618838310242,
                    0.12254004925489426,
                    0.026404064148664474,
                    0.007080405950546265,
                    0.05101173371076584,
                    -0.06584200263023376,
                    -0.09401252865791321,
                    -0.08295350521802902,
                    -0.022498829290270805,
                    -0.06327617913484573,
                    -0.011868614703416824,
                    0.09790130704641342,
                    -0.14524655044078827,
                    0.13758139312267303,
                    -0.10950203239917755,
                    -0.07426725327968597,
                    0.1253800094127655,
                    -0.14909474551677704,
                    -0.136414036154747,
                    -0.0591709241271019,
                    0.041869718581438065,
                    0.03753690421581268,
                    -0.0045308745466172695,
                    -0.13835765421390533,
                    -0.006345320027321577,
                    -0.11365654319524765,
                    -0.13440480828285217,
                    -0.025348706170916557,
                    -0.01873728446662426,
                    0.04673800989985466,
                    0.031469739973545074,
                    0.012008525431156158,
                    0.13657769560813904,
                    -0.0807509496808052,
                    0.025570837780833244,
                    -0.0712243914604187,
                    -0.0018927190685644746,
                    0.11538805067539215,
                    -0.03331860899925232,
                    -0.1368527114391327,
                    -0.09111932665109634,
                    -0.11312196403741837,
                    -0.1451859325170517,
                    -0.01240124087780714,
                    -0.027281442657113075,
                    0.05321883410215378,
                    -0.12907056510448456,
                    0.09135609120130539,
                    0.09551281481981277,
                    0.060222700238227844,
                    0.13472728431224823,
                    0.04113296791911125,
                    -0.075734943151474,
                    0.10974057763814926,
                    0.1272016167640686,
                    -0.08001609146595001,
                    -0.1307949423789978,
                    -0.036569129675626755,
                    -0.13996648788452148,
                    -0.034682948142290115,
                    -0.10403969883918762,
                    0.051080599427223206,
                    -0.1020883172750473,
                    -0.1384335309267044,
                    0.15164847671985626,
                    0.04846096783876419,
                    0.0880373865365982,
                    -0.10371336340904236,
                    -0.0930979773402214,
                    -0.071966752409935,
                    0.02605765126645565,
                    0.13666412234306335,
                    -0.09887396544218063,
                    -0.0903107300400734,
                    0.08900677412748337,
                    0.017973925918340683,
                    0.05150895193219185,
                    -0.1293739378452301,
                    -0.09909232705831528,
                    0.01117357611656189,
                    0.1485731154680252,
                    0.03448227420449257,
                    -0.06047198921442032,
                    -0.14767040312290192,
                    -0.13440454006195068,
                    -0.04925503209233284,
                    0.05053497850894928,
                    0.10111899673938751,
                    -0.009329893626272678,
                    0.12659090757369995,
                    -0.10417666286230087,
                    0.041882552206516266,
                    0.0023685963824391365,
                    -0.08364851772785187,
                    -0.14606161415576935,
                    -0.03497534245252609,
                    -0.14593350887298584,
                    0.08073906600475311,
                    0.15039534866809845,
                    -0.11098423600196838,
                    -0.13125085830688477,
                    0.007789405062794685,
                    0.11494650691747665,
                    0.048167310655117035,
                    -0.008883205242455006,
                    0.08951132744550705,
                    -0.14107318222522736,
                    -0.10979992896318436,
                    -0.13324014842510223,
                    0.13298027217388153,
                    0.05738247558474541,
                    0.04794347286224365,
                    0.0623607374727726,
                    -0.07951930165290833,
                    0.13909871876239777,
                    -0.11226000636816025,
                    0.1216379776597023,
                    0.03990848734974861,
                    -0.022759009152650833,
                    -0.15142323076725006,
                    0.11959319561719894,
                    -0.10399913787841797,
                    -0.09945709258317947,
                    0.08606220781803131,
                    0.14960867166519165,
                    0.08941175788640976,
                    0.04598301276564598,
                    0.0029037490021437407,
                    -0.017215000465512276,
                    -0.14726001024246216,
                    -0.1313301920890808,
                    -0.05864229053258896,
                    0.00525147607550025,
                    0.034066975116729736,
                    -0.14850232005119324,
                    0.10557295382022858,
                    0.12630130350589752,
                    0.09172983467578888,
                    -0.10996317863464355,
                    0.14393538236618042,
                    -0.1307460367679596,
                    0.11379244923591614,
                    -0.1150967925786972,
                    -0.06318190693855286,
                    -0.10195359587669373,
                    -0.0145167987793684,
                    0.04401864856481552,
                    -0.03366796672344208,
                    -0.1492079496383667,
                    0.13779856264591217,
                    -0.06036113575100899,
                    0.10071977227926254,
                    -0.07732793688774109,
                    -0.11727094650268555,
                    -0.018336771056056023,
                    0.13247404992580414,
                    0.06207345426082611,
                    -0.10714469105005264,
                    -0.14841096103191376,
                    -0.13617226481437683,
                    -0.08259114623069763,
                    -0.08357777446508408,
                    0.10289964824914932,
                    -0.13717859983444214,
                    0.005189994350075722,
                    -0.09254146367311478,
                    0.07388421148061752,
                    -0.04536613076925278,
                    -0.09728463739156723,
                    -0.1440536379814148,
                    0.059029385447502136,
                    0.1415700614452362,
                    0.009896967560052872,
                    -0.15196369588375092,
                    0.013974852859973907,
                    0.08965218812227249,
                    -0.04772324115037918,
                    -0.04367858171463013,
                    0.02873954549431801,
                    0.05840786173939705,
                    -0.1397978812456131,
                    -0.14050568640232086,
                    -0.11648911982774734,
                    -0.07128595560789108,
                    -0.05217199772596359,
                    -0.08544144034385681,
                    0.14897513389587402,
                    0.14858412742614746,
                    -0.06893206387758255,
                    -0.14810416102409363,
                    -0.1299912929534912,
                    -0.030413592234253883,
                    0.1213185265660286,
                    0.1019497737288475,
                    0.09749500453472137,
                    -0.10802256315946579,
                    0.10700681060552597,
                    -0.08894618600606918,
                    -0.11974510550498962,
                    0.045118313282728195,
                    -0.012317389249801636,
                    -0.044527243822813034,
                    -0.046037476509809494,
                    0.013955005444586277,
                    -0.07777674496173859,
                    0.11529367417097092,
                    0.11723190546035767,
                    -0.022549254819750786,
                    -0.11921179294586182,
                    0.030377617105841637,
                    0.05038696900010109,
                    0.06655772030353546,
                    0.08464927971363068,
                    -0.08011738210916519,
                    -0.06525009870529175,
                    -0.12088429927825928,
                    0.12835241854190826,
                    -0.01227380707859993,
                    -0.10632213205099106,
                    0.02695745788514614,
                    0.10201917588710785,
                    0.0836401879787445,
                    0.09627865999937057,
                    -0.12984995543956757,
                    -0.08878955245018005,
                    0.05125103518366814,
                    0.018917707726359367,
                    -0.08338858932256699,
                    0.08415397256612778,
                    0.10210534930229187,
                    0.11834950000047684,
                    -0.07321982085704803,
                    0.1414707899093628,
                    -0.12189918011426926,
                    -0.008830085396766663,
                    0.011070815846323967,
                    0.006267308257520199,
                    0.14732316136360168,
                    -0.11799591034650803,
                    -0.14378073811531067,
                    -0.13156680762767792,
                    0.0864836573600769,
                    0.008514721877872944,
                    0.04877037927508354,
                    0.04909566789865494,
                    0.12709330022335052,
                    -0.13163378834724426,
                    0.03738498315215111,
                    -0.14568226039409637,
                    0.0679045245051384,
                    -0.11019323766231537,
                    0.04743064194917679,
                    0.13801515102386475,
                    0.07911310344934464,
                    -0.04008812829852104,
                    -0.12973646819591522,
                    0.12293136864900589,
                    0.10506986081600189,
                    -0.08684065192937851,
                    0.022408660501241684,
                    0.11191369593143463,
                    0.045976366847753525,
                    0.09054738283157349,
                    -0.13668479025363922,
                    -0.14396776258945465,
                    0.052409034222364426,
                    0.0496399812400341,
                    0.07623378932476044,
                    -0.06161005049943924,
                    0.11114851385354996,
                    -0.012393685057759285,
                    -0.043361466377973557,
                    -0.11319667845964432,
                    -0.05403003469109535,
                    -0.06097310408949852,
                    0.10358229279518127,
                    -0.0829392820596695,
                    -0.11043784767389297,
                    -0.13913923501968384,
                    0.08792955428361893,
                    0.1173127219080925,
                    -0.09074988961219788,
                    -0.14232076704502106,
                    0.08196084201335907,
                    -0.023383887484669685,
                    -0.12452377378940582,
                    0.05571410059928894,
                    -0.096968874335289,
                    0.010485623963177204,
                    0.041387543082237244,
                    0.11088786274194717,
                    0.0007405293872579932,
                    0.10109259188175201,
                    -0.1465301513671875,
                    0.0571945421397686,
                    -0.1226777583360672,
                    -0.13437503576278687,
                    0.07247516512870789,
                    -0.05198126286268234,
                    -0.03743813931941986,
                    0.08156529814004898,
                    0.04941006377339363,
                    0.14297577738761902,
                    -0.13977521657943726,
                    0.117574043571949,
                    -0.07787910848855972,
                    -0.024823421612381935,
                    0.03446701914072037,
                    -0.11205093562602997,
                    -0.08767202496528625,
                    -0.10291391611099243,
                    -0.06297212839126587,
                    -0.10180091857910156,
                    -0.0678362026810646,
                    0.07803768664598465,
                    -0.09662658721208572,
                    -0.1301802545785904,
                    0.009819163009524345,
                    -0.12017834931612015,
                    -0.09174975007772446,
                    0.03894021734595299,
                    0.006308886222541332,
                    -0.011718207970261574,
                    -0.051191460341215134,
                    -0.10870334506034851,
                    0.05948520451784134,
                    -0.05580998212099075,
                    0.1352463662624359,
                    -0.14483380317687988,
                    -0.02846391312777996,
                    -0.01466135960072279,
                    0.04055045172572136,
                    0.12317310273647308,
                    -0.1381148397922516,
                    0.08081725239753723,
                    -0.10031741112470627,
                    0.06958301365375519,
                    0.02960190363228321,
                    -0.13420246541500092,
                    0.025795171037316322,
                    0.03553019464015961,
                    -0.15202009677886963,
                    0.139878049492836,
                    0.08371667563915253,
                    -0.022290492430329323,
                    -0.010495161637663841,
                    0.14617706835269928,
                    -0.1213279739022255,
                    -0.14315910637378693,
                    -0.04385547712445259,
                    -0.09634476155042648,
                    0.02767868898808956,
                    -0.0868193730711937,
                    -0.008619429543614388,
                    -0.08727692812681198,
                    0.12968678772449493,
                    0.07208418846130371,
                    -0.04241495952010155,
                    -0.11526938527822495,
                    0.08596735447645187,
                    -0.09275125712156296,
                    0.11527729779481888,
                    -0.0268284659832716,
                    -0.10093194991350174,
                    0.11163502186536789,
                    -0.11717098206281662,
                    0.14390303194522858,
                    -0.13977211713790894,
                    0.056237850338220596,
                    -0.137568861246109,
                    -0.10186454653739929,
                    0.14856022596359253,
                    -0.10675917565822601,
                    0.08180714398622513,
                    0.10328038036823273,
                    -0.08557029813528061,
                    -0.02647041343152523,
                    -0.060361992567777634,
                    0.03819555416703224,
                    -0.03264743834733963,
                    0.10805931687355042,
                    0.10946327447891235,
                    -0.03075866773724556,
                    0.11770855635404587,
                    -0.06623366475105286,
                    0.015777170658111572,
                    0.031248891726136208,
                    0.11499404162168503,
                    0.14797230064868927,
                    0.07558360695838928,
                    -0.027968207374215126,
                    -0.12327194213867188,
                    -0.03664550557732582,
                    0.08335694670677185,
                    -0.12417331337928772,
                    -0.12934865057468414,
                    0.034533049911260605,
                    -0.14117877185344696,
                    0.1084069088101387,
                    -0.07919766753911972,
                    0.002477745758369565,
                    -0.14148534834384918,
                    0.09244105219841003,
                    0.031591348350048065,
                    -0.06412901729345322,
                    -0.13321974873542786,
                    -0.02473899908363819,
                    0.11459291726350784,
                    -0.07808537781238556,
                    -0.14272646605968475,
                    -0.12898655235767365,
                    0.12114595621824265,
                    -0.1174340769648552,
                    0.01943364366889,
                    -0.02363237366080284,
                    0.06664473563432693,
                    -0.1478673666715622,
                    -0.10730604827404022,
                    -0.12191127985715866,
                    0.11653561145067215,
                    0.11446583271026611,
                    0.09323487430810928,
                    0.00930689089000225,
                    0.13224725425243378,
                    -0.042784519493579865,
                    -0.11810711026191711,
                    -0.027606859803199768,
                    0.1057196632027626,
                    0.0644911602139473,
                    -0.06066328287124634,
                    -0.022532537579536438,
                    0.005156068596988916,
                    0.04549378901720047,
                    -0.13690060377120972,
                    -0.07269152253866196,
                    -0.08762279897928238,
                    0.04792523756623268,
                    0.1446077525615692,
                    -0.1504981815814972,
                    -0.09838037192821503,
                    -0.00044458836782723665,
                    0.009386183694005013,
                    -0.03422972559928894,
                    -0.04093145951628685,
                    -0.006248242687433958,
                    0.09225393086671829,
                    -0.15199437737464905,
                    0.03279871866106987,
                    -0.11501842737197876,
                    -0.1113005205988884,
                    -0.11610777676105499,
                    0.03867887705564499,
                    0.00326060620136559,
                    -0.033277884125709534,
                    0.11666751652956009,
                    0.043019529432058334,
                    0.07879096269607544,
                    -0.06855878978967667,
                    0.0003320211253594607,
                    -0.024341685697436333,
                    -0.07489929348230362,
                    -0.059064652770757675,
                    -0.0022158229257911444,
                    0.11501020193099976,
                    0.04587597772479057,
                    0.09890252351760864,
                    0.13358552753925323,
                    -0.06075527146458626,
                    -0.15293732285499573,
                    -0.0022199968807399273,
                    0.10447298735380173,
                    -0.08218739926815033,
                    -0.030779769644141197,
                    0.0696304440498352,
                    -0.03590212017297745,
                    -0.11058367043733597,
                    0.10187274217605591,
                    -0.09787892550230026,
                    0.07487194985151291,
                    -0.019464729353785515,
                    0.10157958418130875,
                    0.015995366498827934,
                    0.010491565801203251,
                    0.15081915259361267,
                    0.14556239545345306,
                    0.07517600059509277,
                    0.04461538791656494,
                    -0.0653374046087265,
                    0.12132710218429565,
                    0.10102248936891556,
                    -0.018687505275011063,
                    -0.02283196896314621,
                    0.12616339325904846,
                    0.14642037451267242,
                    -0.10173814743757248,
                    0.07984773814678192,
                    0.06156730651855469,
                    -0.08976201713085175,
                    0.02666459046304226,
                    -0.10261034965515137,
                    -0.03334047272801399,
                    0.15138128399848938,
                    0.08074130117893219,
                    -0.05528105050325394,
                    0.015468659810721874,
                    -0.14719992876052856,
                    -0.15006762742996216,
                    0.08622736483812332,
                    0.08450568467378616,
                    0.054606564342975616,
                    -0.015550568699836731,
                    -0.050740934908390045,
                    0.1178702563047409,
                    0.009748532436788082,
                    0.09894043952226639,
                    0.00806993618607521,
                    -0.07052616775035858,
                    -0.1168607622385025,
                    -0.14602702856063843,
                    -0.049961306154727936,
                    0.08563131093978882,
                    0.13777956366539001,
                    -0.07167719304561615,
                    -0.11662156134843826,
                    0.1442222148180008,
                    0.0835004523396492,
                    -0.14429739117622375,
                    -0.030489569529891014,
                    -0.03291553258895874,
                    -0.07909072190523148,
                    0.09710543602705002,
                    0.0584859736263752,
                    0.13363111019134521,
                    0.07151783257722855,
                    -0.12214549630880356,
                    0.11929699778556824,
                    0.013266924768686295,
                    0.07559030503034592,
                    0.057790882885456085,
                    -0.13983306288719177,
                    -0.01908242702484131,
                    0.08329521119594574,
                    -0.10875485092401505,
                    0.061684995889663696,
                    0.08458895981311798,
                    0.14023375511169434,
                    0.014184191823005676,
                    -0.13075585663318634,
                    -0.008206461556255817,
                    0.15182599425315857,
                    -0.12335775792598724,
                    0.14193393290042877,
                    -0.13517099618911743,
                    -0.10328233242034912,
                    -0.15184839069843292,
                    0.1218574047088623,
                    -0.03928975388407707,
                    0.08601737767457962,
                    0.08931415528059006,
                    -0.15022291243076324,
                    0.034375131130218506,
                    -0.10704874247312546,
                    -0.09550102800130844,
                    -0.0028204447589814663,
                    -0.030828924849629402,
                    -0.14373689889907837,
                    -0.08620782196521759,
                    0.1345856487751007,
                    -0.08936010301113129,
                    0.10398733615875244,
                    0.10019318014383316,
                    -0.12808814644813538,
                    -0.15201745927333832,
                    0.08563831448554993,
                    0.0027656015008687973,
                    -0.1283891797065735,
                    -0.06838607788085938,
                    -0.03247946873307228,
                    -0.06475924700498581,
                    0.051422975957393646,
                    -0.0985528826713562,
                    -0.0885806456208229,
                    0.11731436848640442,
                    -0.15011203289031982,
                    0.1422775536775589,
                    -0.12462938576936722,
                    0.09554138034582138,
                    0.04274364933371544,
                    -0.11073002219200134,
                    -0.050445761531591415,
                    -0.02357161045074463,
                    0.14642854034900665,
                    -0.1030803993344307,
                    0.09829581528902054,
                    0.001742139458656311,
                    0.13709858059883118,
                    -0.006306138820946217,
                    0.08696665614843369,
                    0.02107255719602108,
                    0.011998658999800682,
                    0.12737919390201569,
                    0.1162685826420784,
                    0.13842743635177612,
                    -0.05439116805791855,
                    -0.1303982138633728,
                    0.1397542953491211,
                    0.08729466050863266,
                    0.04933435469865799,
                    -0.05357325077056885,
                    0.11279473453760147,
                    0.11532636731863022,
                    -0.096424400806427,
                    -0.06295575946569443,
                    0.12682528793811798,
                    0.060728900134563446,
                    -0.025840356945991516,
                    -0.07978428155183792,
                    0.022799428552389145,
                    0.14137712121009827,
                    0.05219096690416336,
                    0.12374094873666763,
                    -0.13350148499011993,
                    0.01939532905817032,
                    -0.03863568976521492,
                    0.03864549472928047,
                    -0.040659088641405106,
                    0.005090062972158194,
                    -0.034383680671453476,
                    -0.05567845702171326,
                    -0.08018357306718826,
                    -0.08589183539152145,
                    0.046858154237270355,
                    -0.10189398378133774,
                    -0.007452439516782761,
                    -0.14157864451408386,
                    -0.02377581037580967,
                    -0.1514749675989151,
                    0.11925914138555527,
                    0.06975781917572021,
                    0.0836026668548584,
                    -0.1335962861776352,
                    -0.1471152901649475,
                    0.10863225162029266,
                    -0.027133189141750336,
                    -0.021568233147263527,
                    0.12082953751087189,
                    0.05140437185764313,
                    -0.11755932867527008,
