[
    {
        "class": "keras.layers.core.dense.Dense",
        "config": {
            "name": "dense_2",
            "trainable": true,
            "dtype": "float32",
            "units": 128,
            "activation": "softplus",
            "use_bias": true,
            "kernel_initializer": {
                "class_name": "GlorotUniform",
                "config": {
                    "seed": null
                }
            },
            "bias_initializer": {
                "class_name": "Zeros",
                "config": {}
            },
            "kernel_regularizer": null,
            "bias_regularizer": null,
            "activity_regularizer": null,
            "kernel_constraint": null,
            "bias_constraint": null
        },
        "weights": [
            {
                "_type": "ndarray",
                "shape": [
                    12,
                    128
                ],
                "dtype": "float32",
                "data": [
                    -0.1964370161294937,
                    0.11495459824800491,
                    -0.19161580502986908,
                    0.19709333777427673,
                    -0.13598847389221191,
                    -0.12286829203367233,
                    -0.06848490238189697,
                    -0.03729905188083649,
                    -0.0977640151977539,
                    -0.05875762552022934,
                    -0.07363777607679367,
                    -0.1670936495065689,
                    0.17779205739498138,
                    0.13645565509796143,
                    -0.0876920223236084,
                    -0.1615462303161621,
                    0.14683844149112701,
                    0.07190581411123276,
                    0.04307302460074425,
                    -0.10373581200838089,
                    -0.0677492618560791,
                    -0.13054192066192627,
                    0.148017019033432,
                    -0.07168340682983398,
                    0.12239239364862442,
                    0.18740849196910858,
                    -0.04153614863753319,
                    -0.003962235990911722,
                    -0.1734386533498764,
                    0.09857797622680664,
                    0.16782602667808533,
                    0.048092711716890335,
                    -0.16240185499191284,
                    0.16721327602863312,
                    0.21200339496135712,
                    0.09458643943071365,
                    -0.1570541262626648,
                    -0.055952828377485275,
                    -0.012459512799978256,
                    0.15605859458446503,
                    -0.16940517723560333,
                    -0.0033597261644899845,
                    0.11986429244279861,
                    0.0864335224032402,
                    -0.16636012494564056,
                    -0.1712002456188202,
                    0.0855407789349556,
                    -0.02800140716135502,
                    0.10719535499811172,
                    -0.07974857836961746,
                    -0.07132098078727722,
                    -0.08420191705226898,
                    -0.10922402888536453,
                    -0.03732419013977051,
                    0.013860667124390602,
                    0.20371894538402557,
                    -0.034394435584545135,
                    -0.09404723346233368,
                    -0.14720283448696136,
                    -0.012798996642231941,
                    0.06542696058750153,
                    -0.11206819862127304,
                    -0.1374482661485672,
                    0.1487690657377243,
                    0.036578476428985596,
                    0.07884453237056732,
                    -0.07509755343198776,
                    -0.0961078479886055,
                    0.03785345330834389,
                    -0.014311371371150017,
                    0.045555632561445236,
                    -0.12693309783935547,
                    0.20688259601593018,
                    0.050513096153736115,
                    -0.13955673575401306,
                    0.06632981449365616,
                    0.1910732090473175,
                    0.21800898015499115,
                    0.15956327319145203,
                    0.1232442855834961,
                    0.046163614839315414,
                    0.13625121116638184,
                    0.17217454314231873,
                    -0.15330150723457336,
                    -0.17297789454460144,
                    0.1737893521785736,
                    0.03886907547712326,
                    -0.05649104714393616,
                    -0.16429057717323303,
                    -0.10296209156513214,
                    0.014225316233932972,
                    -0.01319189090281725,
                    0.03145866468548775,
                    0.10891894996166229,
                    0.03155907243490219,
                    0.16310888528823853,
                    0.005995143670588732,
                    0.19162492454051971,
                    -0.06725608557462692,
                    -0.04933458939194679,
                    -0.20372407138347626,
                    0.08569732308387756,
                    0.031857188791036606,
                    0.0870685949921608,
                    -0.10669894516468048,
                    -0.1870444267988205,
                    0.06637600809335709,
                    -0.19436390697956085,
                    0.14345674216747284,
                    -0.044860802590847015,
                    -0.20780982077121735,
                    -0.048750799149274826,
                    0.012646963819861412,
                    -0.022284742444753647,
                    -0.18224062025547028,
                    0.047312650829553604,
                    0.06055033579468727,
                    -0.14524731040000916,
                    -0.18154878914356232,
                    -0.18962940573692322,
                    0.10457052290439606,
                    0.025805475190281868,
                    -0.09588313847780228,
                    0.1022019311785698,
                    0.01837180368602276,
                    0.12362655252218246,
                    -0.17155033349990845,
                    -0.11578934639692307,
                    0.15904012322425842,
                    0.12306005507707596,
                    -0.07108894735574722,
                    -0.0701010599732399,
                    0.09612789750099182,
                    -0.005087351426482201,
                    0.12601333856582642,
                    0.18238338828086853,
                    0.034728266298770905,
                    -0.10210644453763962,
                    -0.05889838933944702,
                    0.19859056174755096,
                    -0.04261084645986557,
                    0.03319673612713814,
                    -0.1913633793592453,
                    -0.05773090571165085,
                    -0.18590493500232697,
                    -0.12375035136938095,
                    -0.14131678640842438,
                    0.16484586894512177,
                    -0.15337777137756348,
                    -0.0717809647321701,
                    -0.10095303505659103,
                    -0.16166211664676666,
                    0.09863661229610443,
                    -0.09151343256235123,
                    0.002038249047473073,
                    0.07452182471752167,
                    -0.12567190825939178,
                    0.12030350416898727,
                    0.055198315531015396,
                    -0.19509589672088623,
                    0.06770188361406326,
                    -0.0787990465760231,
                    -0.04334835335612297,
                    0.06496768444776535,
                    0.16876374185085297,
                    0.12572979927062988,
                    -0.0019227297743782401,
                    -0.10758747160434723,
                    0.0356253907084465,
                    -0.17975223064422607,
                    -0.059057559818029404,
                    0.19887256622314453,
                    0.12633828818798065,
                    -0.15851183235645294,
                    0.03904645889997482,
                    0.08074641227722168,
                    -0.18620948493480682,
                    0.14316962659358978,
                    0.021808823570609093,
                    0.01387729775160551,
                    0.11008691787719727,
                    -0.15840113162994385,
                    -0.05350346490740776,
                    -0.03957169130444527,
                    0.06842115521430969,
                    0.06568029522895813,
                    0.07325780391693115,
                    0.17018723487854004,
                    -0.16879068315029144,
                    -0.1808929145336151,
                    -0.12109029293060303,
                    -0.1039140373468399,
                    -0.1526041030883789,
                    -0.1539173722267151,
                    0.140623539686203,
                    -0.17949262261390686,
                    -0.17307943105697632,
                    0.048333510756492615,
                    -0.16847392916679382,
                    -0.01651681959629059,
                    -0.13782265782356262,
                    0.1911979764699936,
                    0.20521721243858337,
                    -0.1532350778579712,
                    0.2544500231742859,
                    0.12262655049562454,
                    -0.17015691101551056,
                    0.11166290938854218,
                    0.17723414301872253,
                    0.005070342216640711,
                    -0.06066533550620079,
                    -0.038126830011606216,
                    0.09044502675533295,
                    -0.008135959506034851,
                    -0.0352160818874836,
                    -0.10571426898241043,
                    0.018543001264333725,
                    0.0026603222358971834,
                    0.16975298523902893,
                    -0.15968097746372223,
                    0.20049582421779633,
                    -0.08003676682710648,
                    0.06526825577020645,
                    0.1986207365989685,
                    -0.015146558173000813,
                    0.032338228076696396,
                    0.06136957183480263,
                    0.15419232845306396,
                    0.08968647569417953,
                    -0.2072593867778778,
                    -0.10286486893892288,
                    -0.19011220335960388,
                    0.03515525907278061,
                    -0.06772445887327194,
                    0.16597360372543335,
                    -0.1666155904531479,
                    -0.1629684567451477,
                    -0.18786229193210602,
                    0.17258861660957336,
                    0.1645861566066742,
                    0.037746649235486984,
                    -0.20546403527259827,
                    0.03187058866024017,
                    -0.04968671500682831,
                    0.07523013651371002,
                    -0.1508530229330063,
                    -0.1428545117378235,
                    0.0007866185042075813,
                    0.005352362059056759,
                    -0.03644907474517822,
                    0.06365467607975006,
                    0.10697631537914276,
                    0.08280987292528152,
                    0.19563621282577515,
                    -0.02575272135436535,
                    -0.13171149790287018,
                    -0.16555871069431305,
                    0.13427238166332245,
                    0.015398792922496796,
                    0.011741291731595993,
                    0.05698409304022789,
                    0.13665273785591125,
                    -0.1009153425693512,
                    0.13228340446949005,
                    0.10658594965934753,
                    -0.09295137226581573,
                    -0.11999858170747757,
                    -0.1724538654088974,
                    0.14350491762161255,
                    0.14068101346492767,
                    0.09672858566045761,
                    0.15821269154548645,
                    -0.012769495137035847,
                    -0.039673469960689545,
                    0.028050821274518967,
                    -0.16466288268566132,
                    0.17772276699543,
                    0.16575032472610474,
                    -0.19023558497428894,
                    -0.07847075909376144,
                    -0.020032349973917007,
                    -0.1568433791399002,
                    -0.1137712374329567,
                    -0.004391160327941179,
                    -0.03612972050905228,
                    0.13031642138957977,
                    -0.1607234627008438,
                    -0.05039519816637039,
                    -0.15828099846839905,
                    0.19451899826526642,
                    0.005529170390218496,
                    0.2154141217470169,
                    -0.20087704062461853,
                    -0.010962340980768204,
                    -0.06745542585849762,
                    0.08757687360048294,
                    0.11604581028223038,
                    -0.2067209929227829,
                    0.19718706607818604,
                    0.13606643676757812,
                    0.02271750383079052,
                    -0.012771690264344215,
                    -0.1450107991695404,
                    -0.17064249515533447,
                    -0.08562953025102615,
                    0.08894158899784088,
                    0.19539287686347961,
                    0.09217110276222229,
                    -0.10806357860565186,
                    -0.040364522486925125,
                    0.15940694510936737,
                    -0.059729788452386856,
                    -0.11523495614528656,
                    0.17762811481952667,
                    -0.05643012002110481,
                    0.08037538826465607,
                    0.13550801575183868,
                    0.1956295371055603,
                    0.10767125338315964,
                    -0.07832479476928711,
                    0.07520618289709091,
                    0.14074328541755676,
                    -0.17048615217208862,
                    0.09094826877117157,
                    0.1987210065126419,
                    -0.12734100222587585,
                    0.16286678612232208,
                    -0.05411766469478607,
                    0.13696841895580292,
                    0.0293045062571764,
                    0.13994933664798737,
                    -0.10719309747219086,
                    -0.09450440108776093,
                    0.012814878486096859,
                    -0.021595686674118042,
                    0.06736647337675095,
                    0.10532551258802414,
                    -0.009988692589104176,
                    0.13385313749313354,
                    -0.055009085685014725,
                    0.17181025445461273,
                    -0.030013471841812134,
                    -0.18206657469272614,
                    -0.14629144966602325,
                    -0.19063779711723328,
                    -0.09969396144151688,
                    0.15033432841300964,
                    0.11535332351922989,
                    -0.13467144966125488,
                    0.10864503681659698,
                    0.10728884488344193,
                    -0.052636563777923584,
                    0.05503594130277634,
                    -0.10290201008319855,
                    -0.03975677490234375,
                    0.16601592302322388,
                    -0.10643318295478821,
                    -0.018480582162737846,
                    0.18503107130527496,
                    -0.11690168082714081,
                    -0.04448537528514862,
                    -0.10012918710708618,
                    0.06909498572349548,
                    0.10456044226884842,
                    -0.11722122877836227,
                    -0.040735550224781036,
                    0.08343107998371124,
                    0.15583586692810059,
                    -0.09988775104284286,
                    0.136404886841774,
                    0.008494903333485126,
                    -0.005903948564082384,
                    0.012942600063979626,
                    0.10099418461322784,
                    -0.13184113800525665,
                    0.15719598531723022,
                    -0.09176492691040039,
                    -0.15038365125656128,
                    0.05443709343671799,
                    -0.14595139026641846,
                    -0.02353326976299286,
                    0.06655289977788925,
                    0.16083107888698578,
                    0.036209434270858765,
                    -0.18132902681827545,
                    -0.24218249320983887,
                    -0.19016911089420319,
                    -0.19388970732688904,
                    0.19611448049545288,
                    -0.18595920503139496,
                    0.1313762068748474,
                    0.08049187809228897,
                    0.15502583980560303,
                    0.09714661538600922,
                    0.02026781626045704,
                    -0.12839797139167786,
                    0.11376886069774628,
                    0.014729993417859077,
                    -0.1639600694179535,
                    0.14714659750461578,
                    0.09064958989620209,
                    0.05599652975797653,
                    -0.0804586336016655,
                    0.031007640063762665,
                    -0.14552588760852814,
                    -0.1484241634607315,
                    -0.03123294748365879,
                    0.19224564731121063,
                    -0.09032655507326126,
                    0.07537263631820679,
                    0.18811093270778656,
                    -0.2009880244731903,
                    -0.17831075191497803,
                    -0.020126480609178543,
                    0.1735909879207611,
                    -0.12136249244213104,
                    0.17472273111343384,
                    -0.19687247276306152,
                    0.14128029346466064,
                    0.05113794654607773,
                    0.11545709520578384,
                    0.18525856733322144,
                    -0.1747705638408661,
                    0.177756205201149,
                    -0.11445623636245728,
                    0.045866817235946655,
                    -0.14418108761310577,
                    -0.15345336496829987,
                    -0.14292459189891815,
                    0.16166216135025024,
                    0.008684921078383923,
                    -0.009346471168100834,
                    -0.16235925257205963,
                    0.17409177124500275,
                    -0.18036134541034698,
                    0.07183894515037537,
                    0.02469572238624096,
                    0.21206550300121307,
                    -0.17724619805812836,
                    0.17099323868751526,
                    -0.12454519420862198,
                    0.09379006177186966,
                    0.12242031842470169,
                    0.14656798541545868,
                    0.013112960383296013,
                    0.19474662840366364,
                    0.07280783355236053,
                    -0.01998830772936344,
                    -0.12551762163639069,
                    0.03303315490484238,
                    -0.012961266562342644,
                    0.13395996391773224,
                    -0.024924082681536674,
                    0.11235850304365158,
                    0.05757283419370651,
                    -0.1808318793773651,
                    -0.18117262423038483,
                    0.013686680234968662,
                    0.047573257237672806,
                    -0.14073798060417175,
                    -0.1432112157344818,
                    -0.18722926080226898,
                    0.13472509384155273,
                    0.07758790254592896,
                    0.18190206587314606,
                    0.21701161563396454,
                    0.15284569561481476,
                    0.17329084873199463,
                    -0.07198506593704224,
                    -0.12072809040546417,
                    -0.006608104333281517,
                    0.09898621588945389,
                    -0.06322181224822998,
                    0.16860808432102203,
                    0.12624341249465942,
                    -0.19349539279937744,
                    0.1812281310558319,
                    -0.044885870069265366,
                    0.14150182902812958,
                    0.2038055956363678,
                    -0.12331917881965637,
                    -0.030982714146375656,
                    0.18474124372005463,
                    0.049672555178403854,
                    0.057394202798604965,
                    -0.01240514311939478,
                    -0.17232750356197357,
                    0.0005305116064846516,
                    -0.09722398221492767,
                    -0.01811661198735237,
                    0.08357076346874237,
                    0.019925447180867195,
                    0.08173535019159317,
                    0.1322547197341919,
                    -0.08550561964511871,
                    -0.17839467525482178,
                    0.14360712468624115,
                    -0.03605223074555397,
                    0.17892210185527802,
                    0.044741325080394745,
                    -0.11012628674507141,
                    -0.13327349722385406,
                    -0.1166948527097702,
                    -0.027980901300907135,
                    -0.06364967674016953,
                    -0.1881193220615387,
                    -0.12485960125923157,
                    -0.11799626052379608,
                    0.11256975680589676,
                    -0.0015077745774760842,
                    0.03815726190805435,
                    0.09105904400348663,
                    -0.04930952936410904,
                    -0.1500219702720642,
                    -0.16978712379932404,
                    0.1709733009338379,
                    0.15207882225513458,
                    0.013038457371294498,
                    -0.20908743143081665,
                    0.0011779428459703922,
                    0.19304953515529633,
                    0.10565956681966782,
                    0.09982810914516449,
                    0.11746301501989365,
                    0.003350812243297696,
                    -0.08719527721405029,
                    0.016167182475328445,
                    0.035255298018455505,
                    0.04236545041203499,
                    0.20663982629776,
                    -0.11008445173501968,
                    -0.1230064257979393,
                    -0.04225379228591919,
                    0.1834479570388794,
                    0.05894597992300987,
                    0.1120581403374672,
                    -0.1675800085067749,
                    0.13013814389705658,
                    0.16823343932628632,
                    0.0027125796768814325,
                    -0.1142951250076294,
                    -0.1525680124759674,
                    -0.16810008883476257,
                    -0.13361027836799622,
                    0.08855713903903961,
                    0.1667138934135437,
                    0.16070598363876343,
                    -0.021450750529766083,
                    -0.1393701583147049,
                    -0.09858129918575287,
                    -0.18701249361038208,
                    0.0308091901242733,
                    -0.03610945865511894,
                    -0.1663450002670288,
                    -0.20413365960121155,
                    -0.02398665063083172,
                    0.11633244901895523,
                    0.020641257986426353,
                    -0.02359551377594471,
                    -0.10457161068916321,
                    0.18041038513183594,
                    -0.11510159075260162,
                    0.12329339981079102,
                    -0.13361065089702606,
                    0.060021087527275085,
                    -0.04599952697753906,
                    0.2381221055984497,
                    0.12651795148849487,
                    -0.07577428221702576,
                    -0.1883828341960907,
                    -0.16348877549171448,
                    -0.029387779533863068,
                    -0.20003804564476013,
                    -0.054171934723854065,
                    -0.15114441514015198,
                    -0.03306201845407486,
                    0.07835806161165237,
                    0.11742477118968964,
                    0.16915832459926605,
                    -0.12943843007087708,
                    -0.1794252246618271,
                    -0.11961504071950912,
                    -0.1425517052412033,
                    0.07371220737695694,
                    0.03970222547650337,
                    -0.17664289474487305,
                    0.14188575744628906,
                    0.22228796780109406,
                    -0.027191773056983948,
                    0.19609442353248596,
                    -0.15865355730056763,
                    0.050731588155031204,
                    -0.07412272691726685,
                    0.009317738935351372,
                    -0.17537714540958405,
                    -0.08391004055738449,
                    -0.014704598113894463,
                    0.10873527824878693,
                    0.07083027064800262,
                    -0.1565912514925003,
                    0.16070488095283508,
                    -0.05365775525569916,
                    0.10934579372406006,
                    0.17826545238494873,
                    0.1869964301586151,
                    -0.0886424258351326,
                    -0.1250951737165451,
                    -0.09958700835704803,
                    -0.09647602587938309,
                    -0.2067297250032425,
                    0.07137095183134079,
                    -0.03918297961354256,
                    0.13249953091144562,
                    0.10184246301651001,
                    -0.16354723274707794,
                    -0.12388980388641357,
                    0.021257590502500534,
                    0.031061196699738503,
                    -0.17016935348510742,
                    0.1440814733505249,
                    0.01998269185423851,
                    -6.403418228728697e-05,
                    -0.1582702249288559,
                    -0.15711309015750885,
                    -0.1712864637374878,
                    -0.07361505180597305,
                    0.08823759853839874,
                    0.1699243187904358,
                    -0.1425904780626297,
                    0.016794882714748383,
                    0.20364443957805634,
                    0.002248072065412998,
                    0.15302257239818573,
                    -0.17564353346824646,
                    -0.08279035985469818,
                    -0.04312039911746979,
                    0.08745347708463669,
                    -0.22287636995315552,
                    0.003108072327449918,
                    0.16846586763858795,
                    0.07135166972875595,
                    0.059559524059295654,
                    -0.18282181024551392,
                    0.10746476799249649,
                    -0.16034336388111115,
                    -0.0013795484555885196,
                    0.08676408231258392,
                    0.05763313174247742,
                    0.036887407302856445,
                    -0.0878029391169548,
                    0.12807072699069977,
                    -0.0388355478644371,
                    0.033720917999744415,
                    -0.16041883826255798,
                    0.18395939469337463,
                    -0.05692589655518532,
                    0.15353260934352875,
                    0.20606473088264465,
                    0.12220538407564163,
                    -0.1421048492193222,
                    0.07875285297632217,
                    -0.019453413784503937,
                    -0.13596835732460022,
                    -0.16970942914485931,
                    0.027917571365833282,
                    0.1269572377204895,
                    0.1356489211320877,
                    -0.01953229308128357,
                    -0.06889434903860092,
                    -0.01783602312207222,
                    -0.17839576303958893,
                    0.012759448029100895,
                    -0.19439348578453064,
                    -0.017147677019238472,
                    0.17100144922733307,
                    -0.18264137208461761,
                    -0.09022874385118484,
                    0.03977435082197189,
                    -0.027843153104186058,
                    -0.18079639971256256,
                    -0.1519491970539093,
                    -0.036268748342990875,
                    0.12684758007526398,
                    -0.1690216064453125,
                    -0.050269223749637604,
                    0.11239102482795715,
                    -0.08908379077911377,
                    -0.02143046073615551,
                    0.17081356048583984,
                    0.1846635639667511,
                    -0.14433832466602325,
                    0.003310746280476451,
                    -0.12717720866203308,
                    -0.07470443844795227,
                    -0.053120262920856476,
                    -0.021395733579993248,
                    -0.1546577513217926,
                    0.21906794607639313,
                    -0.07467281818389893,
                    0.08596116304397583,
                    0.0273920688778162,
                    -0.026588618755340576,
                    -0.1580904722213745,
                    0.17226940393447876,
                    -0.0009458528365939856,
                    0.023221438750624657,
                    -0.1447342038154602,
                    -0.10583258420228958,
                    0.18841056525707245,
                    0.12989450991153717,
                    0.166293203830719,
                    0.10392789542675018,
                    -0.19714686274528503,
                    -0.1325598806142807,
                    0.18212030827999115,
                    0.12410616874694824,
                    0.07487397640943527,
                    0.06724012643098831,
                    -0.18092182278633118,
                    -0.17233918607234955,
                    0.10704705864191055,
                    0.14399366080760956,
                    -0.011643541976809502,
                    0.0683760866522789,
                    0.12368827313184738,
                    -0.0989951640367508,
                    -0.01634928397834301,
                    0.15720173716545105,
                    -0.06575088202953339,
                    0.06700275093317032,
                    0.06265490502119064,
                    0.16207271814346313,
                    -0.11017845571041107,
                    0.011515536345541477,
                    -0.017808187752962112,
                    0.07658722996711731,
                    0.08485858887434006,
                    0.048112861812114716,
                    0.11321403086185455,
                    -0.04207862541079521,
                    0.09519854187965393,
                    0.1622641682624817,
                    0.009600959718227386,
                    0.05520442873239517,
                    0.05297764390707016,
                    -0.16201044619083405,
                    0.10912119597196579,
                    -0.02059330977499485,
                    0.09695207327604294,
                    0.06112955883145332,
                    -0.08115073293447495,
                    -0.07798296958208084,
                    0.1720479279756546,
                    -0.05774640664458275,
                    -0.04203733429312706,
                    0.10769782215356827,
                    0.06544450670480728,
                    0.15479619801044464,
                    0.078501395881176,
                    -0.0781412273645401,
                    0.019475527107715607,
                    0.16789297759532928,
                    -0.16964861750602722,
                    -0.11951471120119095,
                    0.03437814116477966,
                    -0.07199983298778534,
                    -0.008647088892757893,
                    -0.04944197088479996,
                    0.0758083388209343,
                    0.17021986842155457,
                    0.20548762381076813,
                    0.14034999907016754,
                    -0.021520670503377914,
                    -0.13931776583194733,
                    0.026204155758023262,
                    0.1546143889427185,
                    0.11050225794315338,
                    -0.020866604521870613,
                    0.057593751698732376,
                    -0.05713890120387077,
                    -0.1607145518064499,
                    -0.19581323862075806,
                    0.2047709971666336,
                    -0.17348776757717133,
                    0.07749243080615997,
                    0.18725240230560303,
                    -0.103694386780262,
                    0.11556068807840347,
                    0.18549107015132904,
                    0.12630151212215424,
                    0.08893515169620514,
                    0.17824654281139374,
                    -0.18182161450386047,
                    -0.156411811709404,
                    -0.005279297474771738,
                    0.10494174063205719,
                    0.04199454188346863,
                    0.19453980028629303,
                    -0.09317447990179062,
                    0.131435364484787,
                    -0.0200992152094841,
                    0.07612647861242294,
                    -0.008147032000124454,
                    -0.017009075731039047,
                    0.07960864156484604,
                    -0.052940309047698975,
                    -0.02966522052884102,
                    0.07256180047988892,
                    0.13801398873329163,
                    0.07585462182760239,
                    0.17297862470149994,
                    -0.0871329978108406,
                    -0.1335924118757248,
                    -0.09397149831056595,
                    0.10690601170063019,
                    -0.00047692490625195205,
                    0.07608498632907867,
                    -0.08404736965894699,
                    -0.08303364366292953,
                    -0.15504540503025055,
                    0.11890384554862976,
                    -0.09100493043661118,
                    -0.007133301347494125,
                    -0.07901058346033096,
                    0.058143362402915955,
                    0.09912730753421783,
                    -0.06561791151762009,
                    0.19749385118484497,
                    -0.12328172475099564,
                    -0.05206799507141113,
                    0.005979312118142843,
                    0.182133749127388,
                    -0.01704384945333004,
                    -0.11149374395608902,
                    0.1761963665485382,
                    -0.11055116355419159,
                    0.03155220299959183,
                    0.002483880380168557,
                    0.07837628573179245,
                    0.18518950045108795,
                    -0.11423306167125702,
                    -0.14539456367492676,
                    0.20331399142742157,
                    0.06686487048864365,
                    0.01746639981865883,
                    -0.14108388125896454,
                    0.1553836613893509,
                    -0.0028448242228478193,
                    -0.09605653584003448,
                    -0.0027949188370257616,
                    0.13624373078346252,
                    -0.19009707868099213,
                    0.20542225241661072,
                    -0.1113036721944809,
                    -0.17268337309360504,
                    0.1804201751947403,
                    -0.0006366821471601725,
                    0.08833053708076477,
                    -0.1469113677740097,
                    0.20194576680660248,
                    0.17985311150550842,
                    -0.09203708916902542,
                    0.09426175802946091,
                    -0.016410410404205322,
                    -0.15529954433441162,
                    0.07917465269565582,
                    0.024608789011836052,
                    -0.10070536285638809,
                    -0.16709278523921967,
                    -0.19410440325737,
                    -0.08252716809511185,
                    -0.12068694084882736,
                    0.19371727108955383,
                    -0.17196190357208252,
                    -0.13383367657661438,
                    0.06787838786840439,
                    -0.040944769978523254,
                    -0.03484123572707176,
                    0.14506661891937256,
                    -0.08745186030864716,
                    0.05712498351931572,
                    -0.09552636742591858,
                    0.15312311053276062,
                    -0.19696985185146332,
                    -0.15097297728061676,
                    -0.036049723625183105,
                    -0.0981619656085968,
                    -0.17207813262939453,
                    0.018937762826681137,
                    -0.1514018177986145,
                    -0.09275201708078384,
                    -0.038459617644548416,
                    0.2055978924036026,
                    -0.10077182203531265,
                    0.05197867378592491,
                    -0.13618040084838867,
                    0.06513241678476334,
                    0.004715478979051113,
                    0.19660577178001404,
                    -0.07897898554801941,
                    -0.18924038112163544,
                    0.07805615663528442,
                    0.15700532495975494,
                    0.17924530804157257,
                    0.043212585151195526,
                    -0.1762261688709259,
                    -0.04263613745570183,
                    0.06028725951910019,
                    0.10411488264799118,
                    -0.10742798447608948,
                    0.17396517097949982,
                    -0.00570256682112813,
                    -0.18138964474201202,
                    -0.13476772606372833,
                    0.018172062933444977,
                    0.01305784098803997,
                    -0.012662497349083424,
                    0.13122045993804932,
                    0.016384653747081757,
                    -0.1146983876824379,
                    -0.10210710018873215,
                    -0.15983419120311737,
                    -0.12581336498260498,
                    -0.03416267782449722,
                    0.1620314121246338,
                    -0.20248958468437195,
                    -0.020011501386761665,
                    -0.022826964035630226,
                    0.09169784188270569,
                    0.002684251870959997,
                    -0.15428845584392548,
                    -0.15350350737571716,
                    0.013386904262006283,
                    0.03556458652019501,
                    0.013860370963811874,
                    0.007088731974363327,
                    0.001127508468925953,
                    0.08354297280311584,
                    0.18201979994773865,
                    -0.20504125952720642,
                    0.11912226676940918,
                    -0.08961808681488037,
                    0.03212551772594452,
                    0.18201710283756256,
                    0.10365094244480133,
                    -0.14808572828769684,
                    0.038195692002773285,
                    0.16161291301250458,
                    0.19680596888065338,
                    0.03944513201713562,
                    -0.17254400253295898,
                    0.1937980353832245,
                    0.13309596478939056,
                    -0.1826755404472351,
                    0.12615513801574707,
                    -0.18160362541675568,
                    -0.08099977672100067,
                    0.17354567348957062,
                    -0.02603376843035221,
                    0.05860574170947075,
                    -0.004576514940708876,
                    0.152937650680542,
                    -0.12983375787734985,
                    -0.06597454845905304,
                    -0.03200677037239075,
                    0.07232921570539474,
                    -0.019612085074186325,
                    0.18427437543869019,
                    0.11607997864484787,
                    -0.1748851090669632,
                    -0.18324121832847595,
                    0.039330411702394485,
                    -0.08506050705909729,
                    -0.16713333129882812,
                    0.03746895492076874,
                    -0.07131461054086685,
                    0.20620517432689667,
                    0.13161717355251312,
                    -0.01993676647543907,
                    -0.10919316858053207,
                    0.0765049010515213,
                    -0.1676759123802185,
                    0.10437136888504028,
                    0.11912030726671219,
                    0.09680517017841339,
                    -0.1687939316034317,
                    -0.1701185256242752,
                    0.20079100131988525,
                    -0.06390555202960968,
                    -0.13599325716495514,
                    -0.18950414657592773,
                    0.18477793037891388,
                    -0.16438443958759308,
                    0.14631441235542297,
                    0.12019626796245575,
                    0.10988430678844452,
                    -0.2025277316570282,
                    -0.09361366927623749,
                    0.04281853511929512,
                    0.07603143155574799,
                    0.21031208336353302,
                    0.00809493102133274,
                    -0.03099004551768303,
                    0.19949597120285034,
                    0.196723073720932,
                    -0.052376795560121536,
                    0.147451713681221,
                    -0.11317382752895355,
                    -0.15883980691432953,
                    0.03422531113028526,
                    -0.16075679659843445,
                    -0.05841424688696861,
                    0.011812129057943821,
                    0.19335302710533142,
                    -0.1638471633195877,
                    0.09623125940561295,
                    -0.1435813456773758,
                    0.041948847472667694,
                    0.18606461584568024,
                    0.07828305661678314,
                    -0.11265257745981216,
                    0.015583449974656105,
                    0.03625384718179703,
                    0.1518794596195221,
                    -0.127677783370018,
                    -0.01258347649127245,
                    0.19275039434432983,
                    -0.1545971930027008,
                    0.10247401148080826,
                    -0.1743064671754837,
                    -0.19420269131660461,
                    0.11988464742898941,
                    0.13230721652507782,
                    0.09772434085607529,
                    -0.17262400686740875,
                    0.191150963306427,
                    -0.10345224291086197,
                    0.11356081813573837,
                    -0.08200747519731522,
                    -0.15065312385559082,
                    -0.12528714537620544,
                    0.2035106122493744,
                    0.08090558648109436,
                    -0.13161221146583557,
                    -0.16093292832374573,
                    -0.19186711311340332,
                    -0.13020554184913635,
                    0.041880376636981964,
                    -0.04576713219285011,
                    0.013724441640079021,
                    -0.1836654394865036,
                    -0.010418608784675598,
                    -0.1926259994506836,
                    -0.10428516566753387,
                    -0.0028443580958992243,
                    -0.024573681876063347,
                    -0.014986775815486908,
                    -0.14469361305236816,
                    0.20091693103313446,
                    0.08139069378376007,
                    0.18176646530628204,
                    0.17049287259578705,
                    0.027497075498104095,
                    0.12984058260917664,
                    -0.07685708999633789,
                    0.028964813798666,
                    -0.16070757806301117,
                    -0.018271582201123238,
                    0.1065029576420784,
                    0.12810717523097992,
                    -0.17604176700115204,
                    -0.09881914407014847,
                    0.13051800429821014,
                    -0.15159378945827484,
                    -0.14203956723213196,
                    -0.0749678984284401,
                    -0.17565587162971497,
                    0.14115412533283234,
                    -0.15460674464702606,
                    0.17434903979301453,
                    -0.15298119187355042,
                    0.1222408190369606,
                    0.07122624665498734,
                    0.16921861469745636,
                    0.18814019858837128,
                    -0.034719668328762054,
                    -0.11176655441522598,
                    0.034983985126018524,
                    -0.012830047868192196,
                    0.05909237265586853,
                    -0.17659297585487366,
                    -0.016731975600123405,
                    -0.07647256553173065,
                    0.0004540591617114842,
                    -0.17609508335590363,
                    -0.17028629779815674,
                    -0.02314729616045952,
                    -0.11072858422994614,
                    -0.16989462077617645,
                    -0.020576195791363716,
                    0.13263154029846191,
                    -0.07238868623971939,
                    -0.0339006744325161,
                    0.0459720641374588,
                    -0.10751082748174667,
                    -0.015308983623981476,
                    0.14250971376895905,
                    0.20064179599285126,
                    0.001717529259622097,
                    0.051437858492136,
                    0.19929175078868866,
                    -0.1690954864025116,
                    0.07217246294021606,
                    -0.02301575243473053,
                    -0.11058968305587769,
                    0.062463678419589996,
                    -0.17453919351100922,
                    -0.08754606544971466,
                    0.06277046352624893,
                    -0.10845503956079483,
                    0.1766391098499298,
                    0.09990482777357101,
                    0.17301064729690552,
                    0.13594603538513184,
                    -0.03730623424053192,
                    -0.20479221642017365,
                    0.20063789188861847,
                    0.03158561885356903,
                    -0.06027054414153099,
                    0.19408109784126282,
                    0.16178244352340698,
                    0.08151843398809433,
                    0.03129682317376137,
                    0.06091601774096489,
                    0.06392399966716766,
                    -0.09121239930391312,
                    -0.08973682671785355,
                    -0.038632359355688095,
                    -0.003578833071514964,
                    -0.05232047289609909,
                    -0.10313308238983154,
                    0.10975854098796844,
                    -0.10190604627132416,
                    -0.033807218074798584,
                    -0.1455431878566742,
                    0.19903570413589478,
                    -0.006590059958398342,
                    0.0020370238926261663,
                    -0.15389223396778107,
                    -0.18806417286396027,
                    0.1433621346950531,
                    -0.091708242893219,
                    -0.1752198189496994,
                    0.20559707283973694,
                    0.07081922888755798,
                    -0.04877914488315582,
                    0.04544315114617348,
                    -0.16403831541538239,
                    -0.1334868222475052,
                    0.016201188787817955,
                    0.07221388816833496,
                    -0.1272977590560913,
                    0.10413335263729095,
                    0.003350166603922844,
                    -0.00213454756885767,
                    -0.13679328560829163,
                    -0.18812760710716248,
                    0.03289047256112099,
                    -0.10776577144861221,
                    0.19465449452400208,
                    -0.14159084856510162,
                    -0.19616524875164032,
                    -0.08145852386951447,
                    0.09557921439409256,
                    -0.07625420391559601,
                    -0.0872483104467392,
                    0.10161339491605759,
                    0.06517206132411957,
                    -0.12971404194831848,
                    0.16379278898239136,
                    0.025783589109778404,
                    -0.03008880652487278,
                    0.16102363169193268,
                    -0.17051643133163452,
                    -0.16148094832897186,
                    -0.17294767498970032,
                    -0.00618328433483839,
                    -0.15434396266937256,
                    0.07446028292179108,
                    -0.022146975621581078,
                    0.029863867908716202,
                    0.19114625453948975,
                    -0.08411435782909393,
                    0.10049211978912354,
                    -0.09494318813085556,
                    -0.13078632950782776,
                    0.06363612413406372,
                    0.13777464628219604,
                    0.011530703864991665,
                    -0.16626395285129547,
                    0.13840477168560028,
                    -0.12571828067302704,
                    -0.0893065482378006,
                    -0.11775416880846024,
                    0.08593659847974777,
                    0.09867873042821884,
                    0.13024494051933289,
                    -0.007410839200019836,
                    -0.04187321290373802,
                    -0.006255771964788437,
                    0.06302248686552048,
                    0.04975214973092079,
                    -0.05665779858827591,
                    -0.02205219306051731,
                    -0.1764639914035797,
                    -0.07334103435277939,
                    0.08053836971521378,
                    0.1400906890630722,
                    -0.07808348536491394,
                    0.1536087840795517,
                    -0.08822706341743469,
                    0.13665984570980072,
                    0.19920803606510162,
                    -0.12125851958990097,
                    0.14782454073429108,
                    0.009401961229741573,
                    -0.027922023087739944,
                    -0.008909445255994797,
                    -0.13301917910575867,
                    -0.17882142961025238,
                    -0.05304386466741562,
                    0.027859332039952278,
                    0.00956527516245842,
                    0.06795434653759003,
                    0.14335627853870392,
                    0.02020164206624031,
                    -0.04955966770648956,
                    -0.1278180032968521,
                    -0.17939156293869019,
                    0.1992756724357605,
                    -0.18546421825885773,
                    -0.08258633315563202,
                    -0.0346502885222435,
                    -0.0289018452167511,
                    0.017803475260734558,
                    -0.07502984255552292,
                    0.12602083384990692,
                    0.11783922463655472,
                    -0.08092281222343445,
                    -0.08309029787778854,
                    -0.06750815361738205,
                    0.01465651672333479,
                    0.14419366419315338,
                    -0.07466156780719757,
                    0.14071322977542877,
                    0.11604475975036621,
                    0.16306184232234955,
                    0.053253911435604095,
                    0.005350365303456783,
                    -0.1713043749332428,
                    0.0846363827586174,
                    -0.02394675649702549,
                    -0.08624596148729324,
                    -0.19994772970676422,
                    0.19177688658237457,
                    -0.06957224756479263,
                    0.014402979053556919,
                    -0.18971292674541473,
                    -0.027262330055236816,
                    0.04482664912939072,
                    -0.09706462174654007,
                    0.16318102180957794,
                    0.013547126203775406,
                    -0.1788981407880783,
                    -0.0475870817899704,
                    -0.0030085279140621424,
                    0.15682663023471832,
                    0.10206791013479233,
                    0.1922573298215866,
                    0.06647944450378418,
                    0.16495198011398315,
                    -0.02407795563340187,
                    0.11824778467416763,
                    0.023380296304821968,
                    -0.06204523891210556,
                    0.16068203747272491,
                    0.1963786780834198,
                    0.06909728795289993,
                    0.10316696017980576,
                    -0.13938769698143005,
                    0.10708795487880707,
                    -0.0497928149998188,
                    -0.14606589078903198,
                    0.03278625011444092,
                    0.11680284142494202,
                    0.05100119486451149,
                    -0.02006271854043007,
                    -0.09638096392154694,
                    -0.06724715232849121,
                    -0.01248958334326744,
                    0.04549429193139076,
                    -0.03358425199985504,
                    -0.0023173103109002113,
                    0.06400146335363388,
                    0.20170484483242035,
                    -0.12001775205135345,
                    0.07377985119819641,
                    -0.03568146377801895,
                    0.07739873975515366,
                    -0.02014688029885292,
                    -0.007251348812133074,
                    -0.16325075924396515,
                    -0.04726823419332504,
                    -0.17868351936340332,
                    -0.10524485260248184,
                    0.20219610631465912,
                    0.08127382397651672,
                    -0.1761295646429062,
                    0.1622229367494583,
                    -0.13633152842521667,
                    -0.04005976766347885,
                    0.18877868354320526,
                    -0.14908406138420105,
                    -0.017958618700504303,
                    -0.11169513314962387,
                    -0.13669751584529877,
                    -0.19919779896736145,
                    -0.11937975138425827,
                    0.1245620846748352,
                    0.06501933187246323,
                    -0.09307180345058441,
                    0.03669700399041176,
                    -0.20557920634746552,
                    0.1804199069738388,
                    0.16635526716709137,
                    0.20623824000358582,
                    -0.023379474878311157,
                    0.1724962741136551,
                    -0.004710986744612455,
                    -0.12473690509796143,
                    -0.06426254659891129,
                    0.02207193896174431,
                    0.15019738674163818,
                    0.061571501195430756,
                    0.010049011558294296,
                    0.08955197781324387,
                    -0.14816807210445404,
                    -0.11500434577465057,
                    0.037505362182855606,
                    0.112095907330513,
                    0.20192550122737885,
                    -0.13622218370437622,
                    0.01964578963816166,
                    0.0340774804353714,
                    -0.16663990914821625,
                    -0.13445080816745758,
                    -0.11187419295310974,
                    -0.015442335046827793,
                    -0.049977146089076996,
                    0.08840778470039368,
                    0.0359419584274292,
                    0.19556616246700287,
                    0.030213311314582825,
                    -0.023427661508321762,
                    -0.13154451549053192,
                    0.1415698528289795,
                    0.1346016228199005,
                    -0.06002992019057274,
                    0.04359610751271248,
                    -0.1814262568950653,
                    0.03875499963760376,
                    0.15447822213172913,
                    0.045575063675642014,
                    0.11036115884780884,
                    -0.05758192017674446,
                    -0.0451800562441349,
                    0.0063603161834180355,
                    0.03059367835521698,
                    -0.13812623918056488,
                    -0.1198459044098854,
                    -0.18540550768375397,
                    -0.17639240622520447,
                    0.03591112792491913,
                    -0.05690908059477806,
                    -0.12569878995418549,
                    0.11050491034984589,
                    -0.03990815207362175,
                    0.07822836935520172,
                    0.007965831086039543,
                    -0.09326658397912979,
                    -0.19519038498401642,
                    -0.14469940960407257,
                    0.16229957342147827,
                    0.09620684385299683,
                    -0.07915013283491135,
                    0.09862915426492691,
                    -0.1401098370552063,
                    -0.06783004105091095,
                    -0.13163398206233978,
                    0.04615006968379021,
                    -0.2028798907995224,
                    -0.01879907213151455,
                    -0.13205721974372864,
                    0.027042705565690994,
                    0.15750007331371307,
                    0.18567270040512085,
                    0.06797420978546143,
                    0.012389430776238441,
                    0.16294340789318085,
                    -0.17437657713890076,
                    -0.13143235445022583,
                    -0.2064710408449173,
                    0.15382102131843567,
                    0.16129332780838013,
                    0.008945303969085217,
                    0.18648704886436462,
                    0.07479982078075409,
                    0.10751073062419891,
                    -0.08767931908369064,
                    -0.047708697617053986,
                    -0.005991763900965452,
                    -0.04365267604589462,
                    0.08041473478078842,
                    0.1262226402759552,
                    -0.015799356624484062,
                    -0.05724017694592476,
                    0.16345761716365814,
                    -0.13370589911937714,
                    -0.17019371688365936,
                    0.10075617581605911,
                    -0.19818194210529327,
                    0.05257223919034004,
                    -0.1236698180437088,
                    -0.057171668857336044,
                    -0.09442701190710068,
                    0.20231013000011444,
                    -0.09285958856344223,
                    0.060322776436805725,
                    -0.18996970355510712,
                    0.06439422070980072,
                    -0.06474124640226364,
                    0.08577924966812134,
                    0.0522121861577034,
                    -0.014647631905972958,
                    -0.04895661398768425,
                    -0.14727863669395447,
                    -0.13695280253887177,
                    0.10655423253774643,
                    0.04228246957063675,
                    -0.005498801823705435,
                    -0.11195378005504608,
                    -0.161606565117836,
                    -0.10820750892162323,
                    -0.0016772635281085968,
                    0.08833521604537964,
                    -0.08633396774530411,
                    0.0810428187251091,
                    -0.050332482904195786,
                    -0.0896616205573082,
                    -0.003912976942956448,
                    -0.12236609309911728,
                    0.10113999992609024,
                    -0.21500657498836517,
                    -0.14047536253929138,
                    0.04467266425490379,
                    0.14134956896305084,
                    -0.1913253217935562,
                    -0.18651129305362701,
                    -0.20227526128292084,
                    -0.041460614651441574,
                    0.15573377907276154,
                    -0.03417757898569107,
                    -0.07575713098049164,
                    -0.08077747374773026,
                    -0.018844889476895332,
                    0.09101717174053192,
                    0.07508166134357452,
                    0.19973573088645935,
                    -0.010023110546171665,
                    0.13326944410800934,
                    -0.20420075953006744,
                    0.2164861261844635,
                    -0.13958019018173218,
                    0.20074577629566193,
                    -0.18350601196289062,
                    0.09462455660104752,
                    -0.16554920375347137,
                    0.16699159145355225,
                    0.19803544878959656,
                    0.1289130002260208,
                    -0.08894390612840652,
                    -0.08808686584234238,
                    -0.14599734544754028,
                    -0.025555429980158806,
                    0.16986511647701263,
                    -0.09399339556694031,
                    -0.16637852787971497,
                    -0.02681146375834942,
                    0.16631971299648285,
                    -0.20580370724201202,
                    -0.0790364146232605,
                    0.021599948406219482,
                    0.14236564934253693,
                    -0.0255680363625288,
                    0.1540360450744629,
                    0.1555694192647934,
                    -0.02366609312593937,
                    -0.13266709446907043,
                    -0.09016118943691254,
                    -0.1248486191034317,
                    0.0654301792383194,
                    -0.0601750873029232,
                    0.1161169558763504,
                    0.14165332913398743,
                    -0.022285383194684982,
                    0.10832468420267105,
                    0.19713222980499268,
                    -0.09087394922971725,
                    -0.11858252435922623,
                    -0.20815756916999817,
                    0.05152887850999832,
                    0.16389255225658417,
                    -0.10455898940563202,
                    -0.053710367530584335,
                    -0.12866562604904175,
                    -0.0648849755525589,
                    -0.1261245757341385,
                    -0.06303633749485016,
                    0.09259266406297684,
                    0.20893800258636475,
                    -0.10286906361579895,
                    0.15160951018333435,
                    0.015103917568922043,
                    -0.1555890440940857,
                    -0.1342603862285614,
                    -0.09949042648077011
                ]
            },
            {
                "_type": "ndarray",
                "shape": [
                    128
                ],
                "dtype": "float32",
                "data": [
                    -0.013243133202195168,
                    0.0016864335630089045,
                    -0.004431474022567272,
                    0.0010486911050975323,
                    0.007400179747492075,
                    0.0008460580720566213,
                    0.0034869012888520956,
                    -0.01679612509906292,
                    -0.003015704220160842,
                    -0.007105598691850901,
                    0.0017801730427891016,
                    0.004640504252165556,
                    -0.001704887137748301,
                    -0.003383595496416092,
                    0.001393212121911347,
                    -0.010435993783175945,
                    -0.004986127372831106,
                    0.0010166484862565994,
                    0.006121108774095774,
                    -0.0036567419301718473,
                    0.00401301309466362,
                    -0.0005928996251896024,
                    0.002389289904385805,
                    0.0012796547962352633,
                    -0.0005551254143938422,
                    0.0002043381828116253,
                    -0.0003591252025216818,
                    0.0010649265022948384,
                    0.006207060534507036,
                    -0.0050631253980100155,
                    0.0001917522313306108,
                    -0.009502338245511055,
                    -0.003493383526802063,
                    -0.0007863130886107683,
                    -0.0003711991594173014,
                    0.0024445154704153538,
                    0.00233732839114964,
                    0.013615524396300316,
                    -0.002210437785834074,
                    0.008072690106928349,
                    -0.00099433574359864,
                    -0.00050690135685727,
                    -0.003307012841105461,
                    -0.003526110667735338,
                    -0.001821121433749795,
                    0.008942854590713978,
                    -0.0012075445847585797,
                    -0.0050050136633217335,
                    -0.0016834811540320516,
                    -0.004836454056203365,
                    -0.0003693994658533484,
                    -0.0013226239243522286,
                    -0.0016999333165585995,
                    0.0016039537731558084,
                    0.00379009498283267,
                    0.0022188108414411545,
                    -0.0024516270495951176,
                    0.0032088616862893105,
                    0.00416363263502717,
                    0.005469151772558689,
                    -0.0011468753218650818,
                    0.0035760721657425165,
                    0.002777235582470894,
                    -0.00014183614985086024,
                    -0.003890171879902482,
                    0.012809189967811108,
                    -0.0007836514851078391,
                    0.0016094265738502145,
                    0.008437122218310833,
                    0.004024121444672346,
                    -0.00777221517637372,
                    -0.027671804651618004,
                    -0.006099165882915258,
                    0.0039050925988703966,
                    -0.0005752973956987262,
                    -0.004397095181047916,
                    0.005315244197845459,
                    0.001761629362590611,
                    -0.017173392698168755,
                    -0.0015692644519731402,
                    -0.0026392333675175905,
                    0.004236847162246704,
                    0.0008322031935676932,
                    -0.0015652620932087302,
                    0.000652277551125735,
                    0.003274539252743125,
                    -0.000683061545714736,
                    -0.0012716768542304635,
                    -0.007122622337192297,
                    0.0008105001761578023,
                    -0.0009771230397745967,
                    0.002953858347609639,
                    0.005092871841043234,
                    -0.009157254360616207,
                    -0.006038505584001541,
                    -0.0015696475747972727,
                    0.004312227480113506,
                    0.006437030620872974,
                    0.0004900294006802142,
                    0.0005428131553344429,
                    -0.00012753871851600707,
                    -0.0012967977672815323,
                    -0.004087537061423063,
                    -0.005247354973107576,
                    0.005037144757807255,
                    -0.0003070731181651354,
                    -0.00015233090380206704,
                    0.0017227997304871678,
                    -0.00017330938135273755,
                    -0.0009667716221883893,
                    0.0005941017880104482,
                    0.004209943115711212,
                    -0.0013503276277333498,
                    0.0020979060791432858,
                    0.0019864137284457684,
                    0.01010427251458168,
                    0.004218509420752525,
                    -0.003923826850950718,
                    0.0006866866606287658,
                    0.00492887431755662,
                    -0.0008985514868982136,
                    -0.005172621924430132,
                    0.0011442623799666762,
                    0.002233299193903804,
                    0.0022526865359395742,
                    0.002816289896145463,
                    0.0017190275248140097,
                    -0.0013055967865511775
                ]
            }
        ]
    },
    {
        "class": "keras.layers.core.dense.Dense",
        "config": {
            "name": "dense_3",
            "trainable": true,
            "dtype": "float32",
            "units": 128,
            "activation": "softplus",
            "use_bias": true,
            "kernel_initializer": {
                "class_name": "GlorotUniform",
                "config": {
                    "seed": null
                }
            },
            "bias_initializer": {
                "class_name": "Zeros",
                "config": {}
            },
            "kernel_regularizer": null,
            "bias_regularizer": null,
            "activity_regularizer": null,
            "kernel_constraint": null,
            "bias_constraint": null
        },
        "weights": [
            {
                "_type": "ndarray",
                "shape": [
                    128,
                    128
                ],
                "dtype": "float32",
                "data": [
                    0.09436438977718353,
                    -0.09110090881586075,
                    0.001092685153707862,
                    -0.021177208051085472,
                    -0.12587127089500427,
                    0.14611084759235382,
                    0.13452628254890442,
                    -0.14659647643566132,
                    -0.004909406416118145,
                    -0.081358902156353,
                    0.09324529767036438,
                    -0.03004889376461506,
                    0.062088239938020706,
                    0.09444468468427658,
                    0.11378037184476852,
                    -0.12390945106744766,
                    0.05547264590859413,
                    -0.12722040712833405,
                    -0.1181168407201767,
                    -0.05310678109526634,
                    -0.09071650356054306,
                    -0.03560454770922661,
                    -0.06763175129890442,
                    -0.06143217161297798,
                    -0.1285153180360794,
                    -0.13210313022136688,
                    -0.06328863650560379,
                    -0.12152577936649323,
                    0.07433412969112396,
                    -0.07964225113391876,
                    -0.040072645992040634,
                    -0.03575814515352249,
                    -0.03689241781830788,
                    -0.14267705380916595,
                    0.037162039428949356,
                    0.08492976427078247,
                    0.11530842632055283,
                    0.0476301945745945,
                    0.09929054230451584,
                    0.05999961495399475,
                    -0.02435300499200821,
                    0.11655687540769577,
                    -0.1192282885313034,
                    0.00774069968611002,
                    0.07108159363269806,
                    0.04729215055704117,
                    0.15066172182559967,
                    -0.07498957961797714,
                    -0.09904372692108154,
                    -0.08371629565954208,
                    -0.01964554376900196,
                    -0.0034065935760736465,
                    0.06295202672481537,
                    0.12963071465492249,
                    0.13927920162677765,
                    0.01733371615409851,
                    -0.07030871510505676,
                    -0.11961161345243454,
                    -0.06424812972545624,
                    -0.0006923114997334778,
                    -0.0038330473471432924,
                    -0.01654856652021408,
                    -0.02258390560746193,
                    0.06590896844863892,
                    0.00203669723123312,
                    0.14809510111808777,
                    0.10043484717607498,
                    0.13262447714805603,
                    0.10202866792678833,
                    0.0030057444237172604,
                    -0.02872745506465435,
                    0.038019899278879166,
                    0.07286787033081055,
                    -0.07783758640289307,
                    -0.004877141211181879,
                    0.0035147638991475105,
                    0.03160424157977104,
                    0.061184488236904144,
                    0.009008177556097507,
                    -0.14919842779636383,
                    -0.08216129243373871,
                    -0.044210318475961685,
                    -0.14181306958198547,
                    -0.0740935280919075,
                    0.05163003131747246,
                    -0.03542374446988106,
                    -0.11202399432659149,
                    -0.08899444341659546,
                    0.10069338977336884,
                    0.07418514788150787,
                    0.07124441862106323,
                    -0.05168379843235016,
                    -0.07844497263431549,
                    -0.1437525749206543,
                    -0.029439259320497513,
                    -0.0476888045668602,
                    -0.040039435029029846,
                    0.10616251826286316,
                    0.046641744673252106,
                    -0.11433713138103485,
                    0.1045118197798729,
                    0.054312966763973236,
                    0.09524233639240265,
                    0.06461714208126068,
                    0.05569162964820862,
                    0.043787844479084015,
                    -0.08530689775943756,
                    0.02623172104358673,
                    -0.040274642407894135,
                    -0.11981634050607681,
                    -0.04921731725335121,
                    -0.0897202119231224,
                    0.029090147465467453,
                    -0.10895639657974243,
                    0.08845897018909454,
                    0.11076707392930984,
                    0.08612587302923203,
                    0.11898574978113174,
                    0.0720689669251442,
                    0.11339934170246124,
                    -0.023268792778253555,
                    -0.1433825045824051,
                    -0.02508130669593811,
                    -0.13370734453201294,
                    0.015643637627363205,
                    -0.12060155719518661,
                    -0.026673588901758194,
                    -0.01513611525297165,
                    -0.06394673138856888,
                    0.0627184584736824,
                    -0.01055905595421791,
                    -0.09578628838062286,
                    -0.012403197586536407,
                    0.1382206678390503,
                    0.08291926234960556,
                    -0.12495208531618118,
                    -0.06550686806440353,
                    0.06519393622875214,
                    0.12558598816394806,
                    -0.017680995166301727,
                    -0.08722788095474243,
                    0.016966696828603745,
                    -0.10091054439544678,
                    0.02667018584907055,
                    -0.107571542263031,
                    0.05300106853246689,
                    -0.05412720516324043,
                    0.0019161709351465106,
                    0.018992014229297638,
                    -0.07778875529766083,
                    0.12802062928676605,
                    -0.09957131743431091,
                    0.04505063593387604,
                    0.128792405128479,
                    0.005072217900305986,
                    -0.14383924007415771,
                    -0.03099736198782921,
                    -0.045300036668777466,
                    -0.09310071915388107,
                    -0.11442577093839645,
                    0.08983808010816574,
                    -0.11956913024187088,
                    0.015457059256732464,
                    -0.07727327942848206,
                    0.1382281333208084,
                    0.039224423468112946,
                    0.06094815582036972,
                    -0.023067381232976913,
                    0.007776906248182058,
                    -0.10530988872051239,
                    0.12077096849679947,
                    0.034477975219488144,
                    -0.07260768115520477,
                    0.13515551388263702,
                    0.09927874803543091,
                    0.10755898803472519,
                    0.0799151137471199,
                    0.13170818984508514,
                    -0.13118848204612732,
                    -0.13960954546928406,
                    0.10909491777420044,
                    0.14394591748714447,
                    -0.08946762979030609,
                    -0.06630253046751022,
                    -0.1352599561214447,
                    -0.11187703907489777,
                    0.15390583872795105,
                    -0.022960027679800987,
                    0.1521061509847641,
                    0.10286721587181091,
                    0.07178980857133865,
                    -0.04337580129504204,
                    -0.0318855457007885,
                    0.09431121498346329,
                    -0.0872521623969078,
                    -0.020442718639969826,
                    -0.037697624415159225,
                    -0.019639218226075172,
                    -0.02180151827633381,
                    -0.11948290467262268,
                    0.035684116184711456,
                    0.06912007182836533,
                    -0.12185027450323105,
                    0.06779289990663528,
                    0.15370021760463715,
                    0.0710400715470314,
                    0.14283692836761475,
                    0.05830322206020355,
                    -0.02811930514872074,
                    -0.04693381115794182,
                    -0.13062210381031036,
                    -0.039037223905324936,
                    0.11014482378959656,
                    0.07172777503728867,
                    -0.011994416825473309,
                    -0.027043085545301437,
                    0.040404949337244034,
                    0.09066610038280487,
                    -0.017537835985422134,
                    -0.01455793995410204,
                    -0.07297684997320175,
                    0.13887865841388702,
                    0.046042464673519135,
                    -0.07672862708568573,
                    0.010449348948895931,
                    0.10643742978572845,
                    -0.10830476135015488,
                    -0.10760936886072159,
                    -0.03266752138733864,
                    0.038672078400850296,
                    -0.10227563977241516,
                    0.15828002989292145,
                    0.12721553444862366,
                    0.009549066424369812,
                    0.0068792179226875305,
                    -0.11188643425703049,
                    0.0964626893401146,
                    0.13380703330039978,
                    -0.028432661667466164,
                    -0.09491937607526779,
                    -0.0415596142411232,
                    0.057511068880558014,
                    0.1065053716301918,
                    -0.12834115326404572,
                    0.000956058909650892,
                    0.08111490309238434,
                    0.15206100046634674,
                    0.05744141712784767,
                    0.08581259101629257,
                    -0.03109913319349289,
                    0.10938151180744171,
                    -0.0005529305199161172,
                    -0.05744590237736702,
                    -0.1378432810306549,
                    -0.023861875757575035,
                    0.14076635241508484,
                    -0.07876471430063248,
                    0.10548406094312668,
                    0.02201763726770878,
                    0.13354812562465668,
                    -0.12163066118955612,
                    0.129932701587677,
                    0.11175496876239777,
                    -0.0012147928355261683,
                    -0.1414640098810196,
                    -0.02971673011779785,
                    -0.10050849616527557,
                    -0.01270790584385395,
                    0.12866979837417603,
                    0.05650975555181503,
                    0.11502347141504288,
                    -0.08409775793552399,
                    0.053903207182884216,
                    -0.11799664050340652,
                    -0.08009593188762665,
                    0.15216584503650665,
                    -0.02324869856238365,
                    -0.04610873758792877,
                    -0.07055015116930008,
                    0.1125829741358757,
                    0.03278451785445213,
                    -0.11538667231798172,
                    0.09294504672288895,
                    0.10486684739589691,
                    -0.0658695176243782,
                    0.13968224823474884,
                    0.11810684204101562,
                    -0.03267262130975723,
                    -0.08916623890399933,
                    -0.14029943943023682,
                    -0.0020537525415420532,
                    0.03178951144218445,
                    0.03811734914779663,
                    0.0369197353720665,
                    -0.005216761026531458,
                    -0.03351142257452011,
                    -0.02448488213121891,
                    -0.11505003273487091,
                    -0.13835500180721283,
                    -0.1434049755334854,
                    -0.08091996610164642,
                    -0.022624973207712173,
                    0.04735952615737915,
                    0.13680987060070038,
                    -0.05078825354576111,
                    -0.007025064434856176,
                    0.16965919733047485,
                    -0.07364502549171448,
                    -0.12650777399539948,
                    0.03538322076201439,
                    0.06278922408819199,
                    -0.12283141165971756,
                    0.031107725575566292,
                    0.061262309551239014,
                    0.09083710610866547,
                    -0.07799877226352692,
                    0.10769113898277283,
                    -0.1529977172613144,
                    -0.10496483743190765,
                    -0.06336744874715805,
                    0.12002042680978775,
                    -0.016798682510852814,
                    -0.06377066671848297,
                    -0.12523771822452545,
                    0.11866425722837448,
                    -0.13047237694263458,
                    0.13932809233665466,
                    -0.11628850549459457,
                    -0.09570235759019852,
                    -0.12919746339321136,
                    -0.0013244025176391006,
                    -0.1449887752532959,
                    -0.1466330587863922,
                    0.1287659853696823,
                    -0.07461428642272949,
                    0.14615567028522491,
                    -0.00358399236574769,
                    -0.15186259150505066,
                    -0.13327883183956146,
                    -0.1464850902557373,
                    0.1419636309146881,
                    0.0933699756860733,
                    -0.12723152339458466,
                    0.005960776936262846,
                    -0.060809165239334106,
                    0.12250950187444687,
                    0.07743726670742035,
                    0.035561129450798035,
                    0.0187225379049778,
                    -0.0015387156745418906,
                    -0.07479874789714813,
                    0.14653095602989197,
                    0.1384890377521515,
                    -0.11806327849626541,
                    0.13605156540870667,
                    -0.06640709936618805,
                    0.09145079553127289,
                    0.06138819083571434,
                    -0.09491344541311264,
                    0.07064908742904663,
                    -0.00600343057885766,
                    -0.0130320955067873,
                    0.14631403982639313,
                    0.012522065080702305,
                    0.033154524862766266,
                    0.01579066552221775,
                    -0.1440514326095581,
                    0.13707223534584045,
                    -0.11684520542621613,
                    0.13928499817848206,
                    0.041580792516469955,
                    0.04010018706321716,
                    0.07252533733844757,
                    -0.11504297703504562,
                    -0.034724242985248566,
                    0.0048867398872971535,
                    0.09028806537389755,
                    -0.02027687430381775,
                    0.13003669679164886,
                    -0.1293196827173233,
                    0.027682887390255928,
                    -0.08204587548971176,
                    -0.03326470032334328,
                    0.015647465363144875,
                    0.13848654925823212,
                    -0.09738713502883911,
                    -0.06425514072179794,
                    0.1297261267900467,
                    0.03056260384619236,
                    -0.020357269793748856,
                    -0.10436169803142548,
                    0.08564207702875137,
                    0.03088584542274475,
                    0.15672683715820312,
                    -0.007811177987605333,
                    0.0044329515658319,
                    -0.14902201294898987,
                    -0.00980767235159874,
                    -0.06557825207710266,
                    0.050338488072156906,
                    0.04726339876651764,
                    0.1249769851565361,
                    -0.06318221241235733,
                    -0.00030120371957309544,
                    -0.04569654166698456,
                    -0.0877007320523262,
                    -0.1377447247505188,
                    0.06970738619565964,
                    -0.07502875477075577,
                    -0.03452805429697037,
                    -0.013715654611587524,
                    0.08176899701356888,
                    0.09782829880714417,
                    -0.15015174448490143,
                    0.15190373361110687,
                    -0.05570346117019653,
                    0.11798486858606339,
                    -0.04775718227028847,
                    0.022944550961256027,
                    0.09768517315387726,
                    0.01536345761269331,
                    0.12655173242092133,
                    -0.07819610834121704,
                    -0.06378938257694244,
                    0.06942109018564224,
                    0.09830664843320847,
                    0.10081847757101059,
                    -0.043411239981651306,
                    -0.12805981934070587,
                    -0.011603389866650105,
                    0.053003691136837006,
                    0.06549536436796188,
                    -0.03748108819127083,
                    0.06533990055322647,
                    -0.12517039477825165,
                    0.11547695845365524,
                    -0.0864008292555809,
                    -0.10691492259502411,
                    0.07960622012615204,
                    -0.12404467165470123,
                    0.08601155132055283,
                    0.10559678822755814,
                    -0.01657159812748432,
                    -0.024058222770690918,
                    -0.0856931209564209,
                    0.1185590997338295,
                    0.13189874589443207,
                    -0.027711400762200356,
                    -0.017744679003953934,
                    -0.0024283742532134056,
                    0.09204567968845367,
                    -0.11904339492321014,
                    -0.07264234870672226,
                    0.08938805758953094,
                    0.06830784678459167,
                    -0.07676886022090912,
                    0.14151667058467865,
                    -0.11214449256658554,
                    0.1558556705713272,
                    0.11732538044452667,
                    -0.12007325142621994,
                    0.021826663985848427,
                    0.07169449329376221,
                    -0.030459608882665634,
                    -0.012144194915890694,
                    0.029628466814756393,
                    -0.05916188284754753,
                    0.012968085706233978,
                    0.06385409832000732,
                    0.11457480490207672,
                    -0.06926228106021881,
                    0.0514414943754673,
                    0.031910765916109085,
                    0.00679581705480814,
                    0.034477248787879944,
                    -0.11224056035280228,
                    0.02553623542189598,
                    0.11531542986631393,
                    0.007420703768730164,
                    -0.1227482482790947,
                    0.14129307866096497,
                    0.08558471500873566,
                    0.14390680193901062,
                    -0.14484792947769165,
                    0.15191587805747986,
                    0.11630788445472717,
                    -0.021688474342226982,
                    0.06231643632054329,
                    0.06831663101911545,
                    0.06055833771824837,
                    0.028526168316602707,
                    0.007127075456082821,
                    -0.06092597916722298,
                    0.12957996129989624,
                    0.03770828992128372,
                    0.04604087397456169,
                    0.12761253118515015,
                    -0.101773202419281,
                    0.10463687032461166,
                    -0.09913234412670135,
                    -0.09373152256011963,
                    0.05958583950996399,
                    0.08054248988628387,
                    -0.07426229864358902,
                    0.07246550172567368,
                    -0.13088884949684143,
                    0.09388460963964462,
                    -0.11832926422357559,
                    -0.051125459372997284,
                    -0.05821724981069565,
                    0.058008331805467606,
                    -0.0933898314833641,
                    0.036974869668483734,
                    0.04147089272737503,
                    -0.14354074001312256,
                    0.08812913298606873,
                    -0.1102876290678978,
                    -0.14205926656723022,
                    -0.010331481695175171,
                    0.15210993587970734,
                    0.06278710812330246,
                    -0.05381915345788002,
                    -0.023545924574136734,
                    -0.0747472271323204,
                    0.037835754454135895,
                    0.056656140834093094,
                    -0.11073008179664612,
                    0.13329501450061798,
                    0.02454565092921257,
                    -0.10336041450500488,
                    0.08854078501462936,
                    0.09240132570266724,
                    0.026791030541062355,
                    -0.08206488937139511,
                    0.040545351803302765,
                    -0.10682687908411026,
                    0.03976719453930855,
                    0.11156252026557922,
                    0.09526557475328445,
                    -0.08955512940883636,
                    0.13081082701683044,
                    0.003976049832999706,
                    0.09712684154510498,
                    -0.040429066866636276,
                    -0.051248278468847275,
                    -0.09979898482561111,
                    -0.08115626871585846,
                    -0.12029477953910828,
                    0.055060744285583496,
                    -0.019097566604614258,
                    0.056397419422864914,
                    -0.0597102977335453,
                    0.048253435641527176,
                    0.0858222171664238,
                    -0.10791309177875519,
                    0.010074400343000889,
                    -0.01858467236161232,
                    0.03849934786558151,
                    0.07356914132833481,
                    0.07085992395877838,
                    0.09810306876897812,
                    -0.006308471783995628,
                    0.01509170699864626,
                    0.1354728490114212,
                    0.014321548864245415,
                    -0.011347252875566483,
                    -0.04972962290048599,
                    0.005424235016107559,
                    -0.1300496906042099,
                    -0.028831778094172478,
                    0.054780684411525726,
                    -0.07471306622028351,
                    0.06462326645851135,
                    -0.1268484890460968,
                    0.0882968008518219,
                    0.10069914162158966,
                    -0.07916928827762604,
                    -0.13472937047481537,
                    0.08966722339391708,
                    0.06290032714605331,
                    0.061601556837558746,
                    -0.13795237243175507,
                    0.08394844830036163,
                    0.0822192057967186,
                    -0.0658898651599884,
                    -0.0756969153881073,
                    0.08010014146566391,
                    0.06803960353136063,
                    -0.11489856243133545,
                    -0.13807828724384308,
                    0.00813948456197977,
                    0.046305861324071884,
                    0.07255783677101135,
                    -0.006650234572589397,
                    0.1501416265964508,
                    -0.022419488057494164,
                    0.10134812444448471,
                    0.072956383228302,
                    -0.033677153289318085,
                    0.06294620782136917,
                    -0.0818682536482811,
                    0.09887322038412094,
                    -0.06763558834791183,
                    -0.06869511306285858,
                    0.05328064039349556,
                    -0.05852659046649933,
                    -0.10943557322025299,
                    -0.014937929809093475,
                    -0.04988551884889603,
                    0.022333836182951927,
                    -0.10497275739908218,
                    -0.125519260764122,
                    -0.025712352246046066,
                    -0.07881855219602585,
                    -0.05657024309039116,
                    -0.11556565761566162,
                    0.011674953624606133,
                    -0.10307281464338303,
                    -0.0916435569524765,
                    -0.13851982355117798,
                    -0.11537287384271622,
                    0.077621228992939,
                    0.09121958911418915,
                    -0.056807924062013626,
                    -0.020430192351341248,
                    -0.029010966420173645,
                    -0.1132904663681984,
                    0.04199092835187912,
                    0.09502549469470978,
                    -0.1498975306749344,
                    0.09307857602834702,
                    0.1191425547003746,
                    0.0811813473701477,
                    0.12720711529254913,
                    0.014390014111995697,
                    0.05385611951351166,
                    -0.03720121830701828,
                    -0.09745398163795471,
                    0.14363345503807068,
                    0.10565826296806335,
                    -0.12362935394048691,
                    0.07362045347690582,
                    0.044675279408693314,
                    -0.0237356498837471,
                    -0.0537412166595459,
                    0.13912524282932281,
                    0.026673484593629837,
                    0.10196336358785629,
                    0.03971787169575691,
                    -0.029681961983442307,
                    0.03705430403351784,
                    0.010446283966302872,
                    -0.09002119302749634,
                    0.046129271388053894,
                    -0.03612338751554489,
                    -0.12932372093200684,
                    -0.025988109409809113,
                    -0.0936821848154068,
                    0.029106630012392998,
                    -0.01890658587217331,
                    -0.04057321324944496,
                    0.04583105444908142,
                    0.14351904392242432,
                    0.09653542935848236,
                    -0.052810974419116974,
                    0.08028734475374222,
                    0.14832834899425507,
                    0.07491808384656906,
                    0.1385403573513031,
                    0.05833044648170471,
                    -0.05635939538478851,
                    -0.1077464148402214,
                    -0.13475681841373444,
                    0.0708051547408104,
                    -0.10988710075616837,
                    0.1447005569934845,
                    -0.0890289694070816,
                    0.048911262303590775,
                    0.05077807232737541,
                    -0.06847241520881653,
                    -0.15286163985729218,
                    0.026389656588435173,
                    -0.10603727400302887,
                    -0.06002449244260788,
