[
    {
        "class": "keras.layers.core.dense.Dense",
        "config": {
            "name": "dense",
            "trainable": true,
            "dtype": "float32",
            "units": 128,
            "activation": "softplus",
            "use_bias": true,
            "kernel_initializer": {
                "class_name": "RandomNormal",
                "config": {
                    "mean": 0.0,
                    "stddev": 0.17677669529663687,
                    "seed": 214127
                }
            },
            "bias_initializer": {
                "class_name": "Zeros",
                "config": {}
            },
            "kernel_regularizer": null,
            "bias_regularizer": null,
            "activity_regularizer": null,
            "kernel_constraint": null,
            "bias_constraint": null
        },
        "weights": [
            {
                "_type": "ndarray",
                "shape": [
                    6,
                    128
                ],
                "dtype": "float32",
                "data": [
                    -0.5154933929443359,
                    0.013535761274397373,
                    -0.3695335388183594,
                    -0.18259650468826294,
                    -0.23439013957977295,
                    0.140533909201622,
                    -0.009335179813206196,
                    0.11764324456453323,
                    -0.009220140054821968,
                    -0.08096088469028473,
                    -0.4158031642436981,
                    0.08515606820583344,
                    0.08838805556297302,
                    -0.1046510711312294,
                    -0.05546880140900612,
                    -0.09628412127494812,
                    0.02534720115363598,
                    0.13397377729415894,
                    0.17450778186321259,
                    -0.01034118328243494,
                    0.005826159380376339,
                    0.22608810663223267,
                    -0.01709412969648838,
                    0.1294553130865097,
                    -0.5835795402526855,
                    -0.17664465308189392,
                    0.20592334866523743,
                    0.08946563303470612,
                    -0.02818390727043152,
                    0.023283204063773155,
                    0.1359078586101532,
                    0.10274429619312286,
                    0.04121781513094902,
                    0.012331151403486729,
                    0.1577599197626114,
                    0.12467750161886215,
                    -0.39333778619766235,
                    -0.43153688311576843,
                    0.06835950165987015,
                    -0.1274951994419098,
                    -0.05893206223845482,
                    0.08848371356725693,
                    -0.231443390250206,
                    0.06299129873514175,
                    -0.15796837210655212,
                    -0.4060311019420624,
                    -0.3036179542541504,
                    0.13811324536800385,
                    0.2616690993309021,
                    -0.32720881700515747,
                    -0.3880939781665802,
                    0.021891210228204727,
                    -0.0030028957407921553,
                    -0.8064107894897461,
                    0.015396958217024803,
                    -0.0371253527700901,
                    0.017491649836301804,
                    -0.05226254463195801,
                    -0.4617367088794708,
                    -0.25602030754089355,
                    0.25185728073120117,
                    0.408589631319046,
                    -0.5364083051681519,
                    -0.11045438051223755,
                    -0.19218668341636658,
                    -0.1959654539823532,
                    -0.07306361943483353,
                    0.10017043352127075,
                    0.08497106283903122,
                    -0.17254650592803955,
                    0.045435115694999695,
                    0.22725358605384827,
                    -0.1848667412996292,
                    -0.02073701098561287,
                    -0.0568697452545166,
                    -0.2622428834438324,
                    -0.11673048883676529,
                    -0.03331039100885391,
                    0.07307536154985428,
                    -0.6253198981285095,
                    -0.0455322191119194,
                    -0.25381186604499817,
                    -0.0038069579750299454,
                    0.10775542259216309,
                    -0.07207859307527542,
                    0.028194565325975418,
                    0.16156016290187836,
                    0.23593007028102875,
                    0.036424536257982254,
                    0.09756988286972046,
                    0.04853421449661255,
                    -0.10862183570861816,
                    -0.28023940324783325,
                    0.27670106291770935,
                    0.23935073614120483,
                    0.10099665820598602,
                    -0.3735232949256897,
                    -0.18624594807624817,
                    -0.28671661019325256,
                    0.03660029172897339,
                    -0.33753323554992676,
                    0.05708734318614006,
                    0.2783856689929962,
                    -0.11258993297815323,
                    -0.0002452465705573559,
                    -0.024696610867977142,
                    -0.029034167528152466,
                    0.040839001536369324,
                    -0.047098223119974136,
                    -0.1101471334695816,
                    -0.16143634915351868,
                    -0.01764979399740696,
                    -0.0016538159688934684,
                    -0.052599385380744934,
                    0.530957818031311,
                    0.19024068117141724,
                    0.46001434326171875,
                    -0.06767598539590836,
                    -0.2025795876979828,
                    0.22181375324726105,
                    -0.4998618960380554,
                    -0.16386622190475464,
                    0.10801609605550766,
                    0.12133189290761948,
                    0.23461970686912537,
                    -0.18117552995681763,
                    -0.15654054284095764,
                    0.08306995779275894,
                    -0.11656394600868225,
                    0.029027698561549187,
                    -0.6059342622756958,
                    -0.3047012388706207,
                    -0.23453418910503387,
                    -0.18852266669273376,
                    0.3004038333892822,
                    0.05148473009467125,
                    0.24815447628498077,
                    0.24233439564704895,
                    -0.03097640536725521,
                    -0.25564485788345337,
                    0.062388744205236435,
                    0.1434401273727417,
                    0.07400953024625778,
                    -0.603702962398529,
                    0.015461163595318794,
                    -0.10464633256196976,
                    0.09748344868421555,
                    0.29197898507118225,
                    -0.10936689376831055,
                    0.06739617884159088,
                    -0.15313880145549774,
                    -0.03735297918319702,
                    0.2592293918132782,
                    -0.08367068320512772,
                    -0.043527211993932724,
                    0.01651591621339321,
                    0.33974358439445496,
                    -0.3295474350452423,
                    -0.40958115458488464,
                    -0.028615014627575874,
                    0.06244206801056862,
                    -0.20298995077610016,
                    -0.33672645688056946,
                    -0.16615840792655945,
                    0.11496089398860931,
                    0.4080030620098114,
                    0.04112451523542404,
                    0.16133327782154083,
                    0.5960413813591003,
                    -0.5218225717544556,
                    -0.07058394700288773,
                    0.06379424035549164,
                    -0.37442734837532043,
                    0.38238805532455444,
                    0.15628626942634583,
                    0.542094349861145,
                    -0.6794134378433228,
                    -0.799797773361206,
                    0.04896639287471771,
                    0.34477269649505615,
                    -0.27683520317077637,
                    -0.2703667879104614,
                    -0.45541247725486755,
                    -0.3130599856376648,
                    0.30239495635032654,
                    0.2080061286687851,
                    -0.2631492018699646,
                    -0.5685269236564636,
                    0.0029009373392909765,
                    0.20471151173114777,
                    -0.516636312007904,
                    -0.0173664391040802,
                    0.13221856951713562,
                    -0.010645690374076366,
                    0.10583558678627014,
                    -0.08928992599248886,
                    -0.31246957182884216,
                    -0.059595655649900436,
                    -0.03354285657405853,
                    0.4190167486667633,
                    -0.2356414645910263,
                    0.3533557653427124,
                    -0.25960180163383484,
                    -0.4512774646282196,
                    -0.10969385504722595,
                    0.06534909456968307,
                    -0.05244359374046326,
                    0.6406846046447754,
                    -0.010031327605247498,
                    0.30734091997146606,
                    0.027454867959022522,
                    0.07593410462141037,
                    0.02517431601881981,
                    0.039428871124982834,
                    -0.3025597631931305,
                    -0.03173578530550003,
                    -0.12449035793542862,
                    -0.3191011846065521,
                    -0.13333892822265625,
                    -0.022806629538536072,
                    0.3594261705875397,
                    0.18612685799598694,
                    -0.2237665206193924,
                    -0.07314664870500565,
                    0.00458681583404541,
                    -0.6237321496009827,
                    0.04520832747220993,
                    0.09775795787572861,
                    -0.24732013046741486,
                    0.28866907954216003,
                    -0.33994680643081665,
                    0.1344512403011322,
                    -0.06710080802440643,
                    0.33282750844955444,
                    0.31725582480430603,
                    0.04534469544887543,
                    -0.36658602952957153,
                    0.6524136662483215,
                    0.13010063767433167,
                    -0.17465591430664062,
                    0.09847533702850342,
                    -0.25975853204727173,
                    -0.14123030006885529,
                    0.10977688431739807,
                    0.10211808234453201,
                    0.2246452271938324,
                    0.23746822774410248,
                    0.13040746748447418,
                    -0.2781277894973755,
                    0.06935106962919235,
                    -0.5257180333137512,
                    -0.020322663709521294,
                    0.416726291179657,
                    -0.3269963264465332,
                    0.00898838508874178,
                    -0.07937665283679962,
                    0.13850776851177216,
                    0.07784758508205414,
                    -0.10542549192905426,
                    -0.07047855108976364,
                    -0.12211386859416962,
                    0.145720437169075,
                    0.22344227135181427,
                    0.02073216438293457,
                    0.2713804244995117,
                    -0.23624677956104279,
                    0.22380675375461578,
                    0.014775487594306469,
                    0.017615288496017456,
                    0.11852437257766724,
                    -0.014789882116019726,
                    -0.19975991547107697,
                    -0.10656324774026871,
                    0.015584412962198257,
                    0.030829468742012978,
                    0.08405955135822296,
                    -0.19547176361083984,
                    0.03803771734237671,
                    0.0807608813047409,
                    0.16821512579917908,
                    -0.016868775710463524,
                    0.0649011880159378,
                    0.14368703961372375,
                    0.29563766717910767,
                    -0.010998514480888844,
                    -0.11633255332708359,
                    -0.15140829980373383,
                    0.03578133136034012,
                    0.18433670699596405,
                    -0.005092208739370108,
                    -0.30676889419555664,
                    -0.39407017827033997,
                    -0.2091423124074936,
                    0.02052365243434906,
                    -0.17335224151611328,
                    -0.092776820063591,
                    0.28805023431777954,
                    -0.07525470852851868,
                    -0.2741243839263916,
                    -0.029054399579763412,
                    0.14896467328071594,
                    0.16077566146850586,
                    0.016850899904966354,
                    -0.017329422757029533,
                    -0.12690521776676178,
                    -0.34082749485969543,
                    -0.009569860063493252,
                    0.08886472135782242,
                    -0.032829444855451584,
                    0.40771690011024475,
                    -0.27138566970825195,
                    -0.21811768412590027,
                    -0.08031044155359268,
                    0.08079461753368378,
                    -0.1447262018918991,
                    -0.16546891629695892,
                    0.13739489018917084,
                    -0.08510459214448929,
                    -0.43882185220718384,
                    0.06005372852087021,
                    0.06671430915594101,
                    0.10171758383512497,
                    -0.05984603986144066,
                    0.0823197141289711,
                    0.08641637861728668,
                    0.20557570457458496,
                    0.044027335941791534,
                    0.5998172163963318,
                    -0.03272070735692978,
                    0.15963314473628998,
                    0.00785275362432003,
                    0.1536104530096054,
                    -0.15313750505447388,
                    -0.06093115732073784,
                    0.10376714915037155,
                    0.318509042263031,
                    -0.05827261880040169,
                    -0.15369082987308502,
                    0.29905256628990173,
                    0.08742775022983551,
                    0.09760735929012299,
                    0.13589511811733246,
                    0.3020138740539551,
                    0.12197955697774887,
                    -0.03899650275707245,
                    0.10738939046859741,
                    0.007154508493840694,
                    0.15305152535438538,
                    0.27670732140541077,
                    0.08663078397512436,
                    0.06687864661216736,
                    0.12219391018152237,
                    0.13003185391426086,
                    -0.026823177933692932,
                    0.10361981391906738,
                    -0.03478938341140747,
                    -0.25229451060295105,
                    0.23336879909038544,
                    0.015692658722400665,
                    0.10513892024755478,
                    0.06711819767951965,
                    0.1265874207019806,
                    0.11879491060972214,
                    -0.06625671684741974,
                    -0.16505981981754303,
                    0.20295803248882294,
                    -0.01741790771484375,
                    -0.0031523562502115965,
                    0.06052479147911072,
                    0.32314378023147583,
                    0.05432214215397835,
                    0.1263275444507599,
                    -0.08742442727088928,
                    0.08634120970964432,
                    -0.15960541367530823,
                    0.09970247000455856,
                    -0.21908365190029144,
                    -0.10690318793058395,
                    0.05690702050924301,
                    -0.017073940485715866,
                    0.15196500718593597,
                    -0.09392662346363068,
                    -0.1021452397108078,
                    0.07975486665964127,
                    0.4305224120616913,
                    0.33807793259620667,
                    0.8582020401954651,
                    0.658816397190094,
                    0.04754066467285156,
                    -0.01848161406815052,
                    -0.08249437063932419,
                    -0.3349844515323639,
                    -0.27736228704452515,
                    0.16962029039859772,
                    -0.48407700657844543,
                    -0.007003460079431534,
                    0.1687399297952652,
                    0.19597242772579193,
                    0.03867087885737419,
                    0.2877541780471802,
                    0.05001940578222275,
                    -0.020053086802363396,
                    0.11455213278532028,
                    0.2181907445192337,
                    -0.02321145310997963,
                    -0.03547883778810501,
                    0.04482954367995262,
                    -0.007159518077969551,
                    -0.4280329644680023,
                    -0.022298794239759445,
                    0.02239864505827427,
                    -0.024665214121341705,
                    0.03630415350198746,
                    -0.06443797796964645,
                    0.06264220923185349,
                    0.11088649928569794,
                    -0.06494885683059692,
                    -0.05279283970594406,
                    0.00842240173369646,
                    0.22804507613182068,
                    -0.7643740773200989,
                    -0.2803143560886383,
                    0.2575632631778717,
                    0.23615263402462006,
                    0.23310743272304535,
                    -0.08693365752696991,
                    0.38946032524108887,
                    -0.13454322516918182,
                    -0.3582875728607178,
                    0.4220874607563019,
                    -0.12006766349077225,
                    0.22946937382221222,
                    -0.08339536935091019,
                    -0.23192094266414642,
                    0.06606335937976837,
                    0.38135814666748047,
                    -0.15639550983905792,
                    -0.4204513728618622,
                    -0.08014170080423355,
                    -0.5331231951713562,
                    0.2483915388584137,
                    0.2671993374824524,
                    -0.07440079003572464,
                    0.4601340889930725,
                    -0.17025995254516602,
                    -0.06823930144309998,
                    0.933810293674469,
                    0.3834197521209717,
                    -0.03339238837361336,
                    -0.15890753269195557,
                    0.11342813074588776,
                    0.10334789752960205,
                    0.015004514716565609,
                    -0.22761887311935425,
                    0.08095564693212509,
                    -0.3116643726825714,
                    -0.2534829378128052,
                    0.26069802045822144,
                    -0.08128282427787781,
                    0.5353379845619202,
                    0.06419478356838226,
                    0.2765715420246124,
                    -0.05765087157487869,
                    -0.15331943333148956,
                    -0.31809794902801514,
                    0.08521456271409988,
                    -0.1697356402873993,
                    -0.01825387217104435,
                    -0.29042625427246094,
                    0.06948214024305344,
                    -0.061483196914196014,
                    -0.07223320752382278,
                    -0.3155411183834076,
                    -0.21265171468257904,
                    0.013545939698815346,
                    -0.14978961646556854,
                    0.3730711042881012,
                    -0.08759130537509918,
                    0.25981205701828003,
                    -0.02939317561686039,
                    -0.4729838967323303,
                    -0.0136116873472929,
                    -0.4453343152999878,
                    -0.4260065257549286,
                    -0.25206759572029114,
                    0.11304639279842377,
                    -0.14076371490955353,
                    -0.3685169219970703,
                    0.001915749628096819,
                    -0.01887923665344715,
                    0.2623341381549835,
                    0.062296971678733826,
                    -0.29176065325737,
                    0.33596155047416687,
                    0.07751458138227463,
                    -0.21626129746437073,
                    -0.05550798773765564,
                    -0.3129742741584778,
                    -0.028316481038928032,
                    0.1477496176958084,
                    0.053894784301519394,
                    0.30322515964508057,
                    0.38110801577568054,
                    -0.09421294927597046,
                    0.38730162382125854,
                    0.36115971207618713,
                    0.14046582579612732,
                    -0.09519177675247192,
                    0.08099517226219177,
                    0.3402310907840729,
                    -0.35314035415649414,
                    -0.03565790876746178,
                    0.4500315189361572,
                    -0.46835774183273315,
                    -0.06494727730751038,
                    -0.2303803265094757,
                    -0.35340824723243713,
                    -0.3622482419013977,
                    0.012311752885580063,
                    0.12295214086771011,
                    0.368647962808609,
                    0.09842654317617416,
                    -0.8893790245056152,
                    0.10373528301715851,
                    -0.620924711227417,
                    0.320125550031662,
                    0.05872773006558418,
                    0.6536905765533447,
                    -0.23078708350658417,
                    -0.3094576299190521,
                    -0.44032180309295654,
                    -0.3111521005630493,
                    -0.07871544361114502,
                    -0.30554258823394775,
                    0.02668081969022751,
                    -0.32739660143852234,
                    0.20071975886821747,
                    0.1179409772157669,
                    -0.27743107080459595,
                    -0.14051906764507294,
                    0.024578571319580078,
                    -0.10247702896595001,
                    0.09727667272090912,
                    -0.2731534242630005,
                    -0.40624862909317017,
                    -0.6540380716323853,
                    -0.540663480758667,
                    0.05288650095462799,
                    -0.06575369089841843,
                    -0.7539483904838562,
                    -0.24119016528129578,
                    0.20475375652313232,
                    0.4472758173942566,
                    0.26489153504371643,
                    -0.14688201248645782,
                    -0.10213863104581833,
                    0.31388843059539795,
                    -0.5031297206878662,
                    0.48270896077156067,
                    0.5758171081542969,
                    0.2717357575893402,
                    -1.270220160484314,
                    0.1577189564704895,
                    -0.18028876185417175,
                    -0.28161001205444336,
                    -0.5365849137306213,
                    0.40395331382751465,
                    0.23983751237392426,
                    -0.4966105818748474,
                    -0.3079557716846466,
                    -1.053199052810669,
                    -0.18403805792331696,
                    -0.2987155020236969,
                    0.13743536174297333,
                    -0.8446592092514038,
                    -0.05674644187092781,
                    0.1553107351064682,
                    -0.13567058742046356,
                    -0.027009597048163414,
                    -0.09319125860929489,
                    0.059530679136514664,
                    -0.07817333191633224,
                    -0.28790032863616943,
                    0.2709925174713135,
                    -0.1572944074869156,
                    0.07890614122152328,
                    -0.9581007957458496,
                    0.5171664953231812,
                    0.4198765456676483,
                    -0.3889372944831848,
                    -0.6165375709533691,
                    -1.415708065032959,
                    -0.1959044486284256,
                    0.14961764216423035,
                    -0.06135839223861694,
                    -0.14234963059425354,
                    -0.20993128418922424,
                    0.11601819097995758,
                    -0.2516353130340576,
                    -0.26812219619750977,
                    -0.18875347077846527,
                    0.3265896141529083,
                    -0.0465892069041729,
                    -0.06366192549467087,
                    -0.06856702268123627,
                    0.020890846848487854,
                    -0.028340207412838936,
                    -0.16864827275276184,
                    0.1747472882270813,
                    0.16862067580223083,
                    0.09563159942626953,
                    0.12400441616773605,
                    0.04167162626981735,
                    0.11668051034212112,
                    -0.24521207809448242,
                    -0.01125345379114151,
                    -0.7452914118766785,
                    -0.10777908563613892,
                    0.2147650420665741,
                    -0.3453601598739624,
                    -0.16791710257530212,
                    -1.2156169414520264,
                    -0.04878919944167137,
                    -0.14718714356422424,
                    -0.6276698708534241,
                    0.144966721534729,
                    -0.10956429690122604,
                    -0.17461678385734558,
                    -0.21159394085407257,
                    -0.4094657003879547,
                    0.16888916492462158,
                    0.06871115416288376,
                    -0.023494822904467583,
                    -0.38886067271232605,
                    0.3427985608577728,
                    -0.26309314370155334,
                    0.19373290240764618,
                    -0.010044009424746037,
                    0.20665760338306427,
                    -0.40072089433670044,
                    0.5030351877212524,
                    -0.32286208868026733,
                    0.026065608486533165,
                    0.7031018137931824,
                    -0.291327565908432,
                    -0.36191561818122864,
                    0.5287919640541077,
                    -0.06391356885433197,
                    0.12573190033435822,
                    1.2411022186279297,
                    0.6267389059066772,
                    -0.09627656638622284,
                    -0.2563941776752472,
                    0.5518729090690613,
                    0.28914201259613037,
                    -0.4543692171573639,
                    -0.9843077659606934,
                    0.3053903877735138,
                    0.2732008695602417,
                    0.001546361017972231,
                    1.6627036333084106,
                    0.2570427358150482,
                    0.448770672082901,
                    -0.13309365510940552,
                    -0.7374618649482727,
                    0.20448903739452362,
                    0.27215278148651123,
                    -0.33151543140411377,
                    -0.8287547826766968,
                    0.21527676284313202,
                    0.005114356521517038,
                    0.1973746120929718,
                    0.12263442575931549,
                    0.009776647202670574,
                    0.5343865156173706,
                    0.4237639605998993,
                    -0.1341121643781662,
                    -0.4372395873069763,
                    0.23757946491241455,
                    0.0878881961107254,
                    -0.10608804225921631,
                    -0.30805546045303345,
                    0.6751189231872559,
                    0.5927178859710693,
                    0.6890392899513245,
                    0.32679644227027893,
                    -1.2623735666275024,
                    -0.3319902718067169,
                    -0.48721906542778015,
                    0.9422151446342468,
                    1.4215359687805176,
                    0.2893693149089813,
                    0.4586555063724518,
                    -0.46483176946640015,
                    0.26241886615753174,
                    0.4686298668384552,
                    0.7296697497367859,
                    -0.2079015076160431,
                    -0.36306852102279663,
                    -0.3197019398212433,
                    0.4095942974090576,
                    0.10180047899484634,
                    0.750686526298523,
                    -0.610787570476532,
                    -0.31262218952178955,
                    0.19636152684688568,
                    -0.6955097913742065,
                    -0.456932008266449,
                    -0.1604723185300827,
                    0.020908942446112633,
                    -0.14878185093402863,
                    -0.16506408154964447,
                    0.11859933286905289,
                    -0.884679913520813,
                    -0.16943171620368958,
                    -0.8658789396286011,
                    -0.06541121751070023,
                    -0.2046409249305725,
                    0.2287401556968689,
                    -0.32167696952819824,
                    -0.4059072434902191,
                    0.6771870255470276,
                    -0.36326009035110474,
                    -0.027625372633337975,
                    -0.22331589460372925,
                    0.18131235241889954,
                    0.38160431385040283,
                    -0.4957379996776581,
                    0.0311044342815876,
                    -0.11585249751806259,
                    0.01867307350039482,
                    0.4845612943172455,
                    0.43383127450942993,
                    -0.4150359630584717,
                    -0.015119276940822601,
                    -0.1780778169631958,
                    0.29672494530677795,
                    -0.42903587222099304,
                    0.049742162227630615,
                    0.16057811677455902,
                    0.5119737386703491,
                    0.12508532404899597,
                    0.2739362120628357,
                    -0.21236255764961243,
                    0.3498746156692505,
                    -0.31769508123397827,
                    0.21473191678524017,
                    -0.27429822087287903,
                    -0.20112702250480652,
                    0.2484893798828125,
                    1.1829869747161865,
                    0.5603567361831665,
                    0.18228745460510254,
                    0.04247446358203888,
                    0.4222719669342041,
                    -0.0010313978418707848,
                    0.5108999609947205,
                    -0.26985254883766174,
                    0.043991509824991226,
                    0.32921653985977173,
                    0.7074236869812012,
                    -0.15808863937854767,
                    -0.314593106508255,
                    0.15316294133663177,
                    0.13517442345619202,
                    0.12547430396080017,
                    -0.6160545349121094,
                    -0.34719693660736084
                ]
            },
            {
                "_type": "ndarray",
                "shape": [
                    128
                ],
                "dtype": "float32",
                "data": [
                    0.010203100740909576,
                    0.029668649658560753,
                    0.061886440962553024,
                    0.00997563824057579,
                    -0.06500463932752609,
                    -0.27350783348083496,
                    -0.05379759147763252,
                    -0.04205666482448578,
                    0.15866784751415253,
                    0.011144991964101791,
                    0.011905784718692303,
                    -0.031190436333417892,
                    0.06111189350485802,
                    -0.05492823198437691,
                    -0.34310343861579895,
                    0.02436959557235241,
                    0.024844232946634293,
                    -0.26489657163619995,
                    -0.05489213764667511,
                    -0.18080410361289978,
                    0.09329245239496231,
                    -0.10166222602128983,
                    -0.0988425463438034,
                    -0.02824305184185505,
                    0.007228106260299683,
                    -0.10992248356342316,
                    -0.14622895419597626,
                    -0.0034024969208985567,
                    0.024051962420344353,
                    -0.0762866660952568,
                    -0.020887820050120354,
                    -0.39075595140457153,
                    -0.02423453889787197,
                    -0.005089395679533482,
                    -0.09441377967596054,
                    -0.020794782787561417,
                    -0.009538133628666401,
                    -0.038408245891332626,
                    -0.0498553067445755,
                    -0.06276777386665344,
                    0.03344672918319702,
                    -0.004605928901582956,
                    -0.020157312974333763,
                    -0.10147680342197418,
                    -0.058047592639923096,
                    -0.21857194602489471,
                    0.09731582552194595,
                    0.00021598394960165024,
                    0.02226541005074978,
                    0.14845648407936096,
                    -0.0849815085530281,
                    0.0283217690885067,
                    -0.07070423662662506,
                    -0.08236479014158249,
                    -0.08024035394191742,
                    0.024419885128736496,
                    -0.04915764927864075,
                    -0.19338910281658173,
                    0.03774449974298477,
                    -0.030992405489087105,
                    0.023252815008163452,
                    -0.14279843866825104,
                    0.058646123856306076,
                    -0.025348642840981483,
                    -0.10488621145486832,
                    -0.12538030743598938,
                    -0.04855436086654663,
                    -0.07718198746442795,
                    -0.10850108414888382,
                    -0.22505469620227814,
                    -0.21691523492336273,
                    -0.026313183829188347,
                    -0.01824065111577511,
                    0.06274048984050751,
                    -0.05453856661915779,
                    -0.034750718623399734,
                    -0.07086867094039917,
                    -0.0051964991725981236,
                    -0.002208357909694314,
                    0.02704094722867012,
                    -0.032368991523981094,
                    -0.2501562237739563,
                    -0.06880369782447815,
                    -0.06743782758712769,
                    0.03319723531603813,
                    -0.11718655377626419,
                    -0.11970140784978867,
                    -0.01855817809700966,
                    -0.005412653088569641,
                    -0.009998981840908527,
                    -0.09822562336921692,
                    -0.1028185784816742,
                    -0.08878233283758163,
                    -0.001163827022537589,
                    -0.07912565767765045,
                    -0.19793443381786346,
                    -0.006113271228969097,
                    -0.037449635565280914,
                    -0.008066358976066113,
                    0.0450000986456871,
                    -0.07795257866382599,
                    -0.01909959688782692,
                    0.032616253942251205,
                    -0.02133210375905037,
                    -0.05997411906719208,
                    -0.0471976101398468,
                    -0.04737427458167076,
                    -0.1578942835330963,
                    -0.016994722187519073,
                    0.06171344220638275,
                    -0.07375561445951462,
                    -0.02031739614903927,
                    -0.0871620774269104,
                    0.1932300180196762,
                    -0.09072738885879517,
                    -0.1539015769958496,
                    -0.02995876967906952,
                    -0.007920977659523487,
                    -0.010958798229694366,
                    -0.10595401376485825,
                    -0.011033706367015839,
                    -0.009904852136969566,
                    -0.019291456788778305,
                    -0.13025926053524017,
                    -0.12485949695110321,
                    -0.07542482763528824,
                    -0.01662451960146427,
                    -0.12439016252756119
                ]
            }
        ]
    },
    {
        "class": "keras.layers.core.dense.Dense",
        "config": {
            "name": "dense_1",
            "trainable": true,
            "dtype": "float32",
            "units": 128,
            "activation": "softplus",
            "use_bias": true,
            "kernel_initializer": {
                "class_name": "RandomNormal",
                "config": {
                    "mean": 0.0,
                    "stddev": 0.08838834764831843,
                    "seed": 775411
                }
            },
            "bias_initializer": {
                "class_name": "Zeros",
                "config": {}
            },
            "kernel_regularizer": null,
            "bias_regularizer": null,
            "activity_regularizer": null,
            "kernel_constraint": null,
            "bias_constraint": null
        },
        "weights": [
            {
                "_type": "ndarray",
                "shape": [
                    128,
                    128
                ],
                "dtype": "float32",
                "data": [
                    -0.15051506459712982,
                    0.22544804215431213,
                    0.3702268898487091,
                    -0.15400713682174683,
                    -0.2708072364330292,
                    -0.02691684663295746,
                    -0.12026070058345795,
                    -0.10870213061571121,
                    -0.016767853870987892,
                    -0.014712568372488022,
                    0.039142414927482605,
                    -0.08375195413827896,
                    -0.2775627076625824,
                    -0.0731973946094513,
                    -0.06986705958843231,
                    -0.14365319907665253,
                    -0.13309825956821442,
                    -0.3089064359664917,
                    0.0446627251803875,
                    -0.15829364955425262,
                    -0.06437063217163086,
                    -0.12672953307628632,
                    -0.11583473533391953,
                    -0.20368628203868866,
                    0.22287002205848694,
                    0.005754163954406977,
                    -0.07364888489246368,
                    -0.11487643420696259,
                    -0.11661866307258606,
                    0.2294752150774002,
                    -0.11511901766061783,
                    0.06645005196332932,
                    -0.11265859007835388,
                    -0.013059576973319054,
                    -0.026112379506230354,
                    0.13481727242469788,
                    0.010980106890201569,
                    -0.11539836972951889,
                    -0.24484150111675262,
                    -0.06664035469293594,
                    -0.06783653795719147,
                    -0.15679849684238434,
                    -0.04154341667890549,
                    0.02653842605650425,
                    -0.22781279683113098,
                    -0.1494619995355606,
                    0.10923629999160767,
                    -0.11770378798246384,
                    0.08677531778812408,
                    -0.054747506976127625,
                    0.02403549663722515,
                    0.016001416370272636,
                    0.0010380614548921585,
                    -0.027616411447525024,
                    -0.20548954606056213,
                    0.21132740378379822,
                    0.15196961164474487,
                    -0.056859251111745834,
                    0.08136538416147232,
                    0.0033995434641838074,
                    0.3742859959602356,
                    -0.08878039568662643,
                    -0.15941500663757324,
                    0.10505165159702301,
                    0.05392690375447273,
                    0.06083231046795845,
                    0.08647409826517105,
                    -0.09612467885017395,
                    0.09653124213218689,
                    0.11527678370475769,
                    -0.031196564435958862,
                    0.0034262060653418303,
                    -0.16571632027626038,
                    -0.11932183057069778,
                    -0.2679228186607361,
                    -0.15518158674240112,
                    -0.1599775105714798,
                    0.02101767249405384,
                    0.19601723551750183,
                    -0.1025349348783493,
                    -0.14898182451725006,
                    0.11637426167726517,
                    -0.10066820681095123,
                    -0.029088079929351807,
                    -0.14294932782649994,
                    -0.09632272273302078,
                    0.03867553174495697,
                    -0.175706684589386,
                    -0.08779042214155197,
                    -0.07971760630607605,
                    -0.01541794091463089,
                    0.25144341588020325,
                    0.0460582934319973,
                    -0.22205689549446106,
                    0.023546328768134117,
                    0.029685799032449722,
                    -0.23484563827514648,
                    -0.23686657845973969,
                    -0.05713491141796112,
                    0.17301931977272034,
                    -0.13851378858089447,
                    0.0402584969997406,
                    -0.017711924389004707,
                    0.19834233820438385,
                    0.023753754794597626,
                    -0.16155919432640076,
                    0.06492191553115845,
                    -0.09308328479528427,
                    -0.04535233974456787,
                    -0.32952848076820374,
                    0.04004334285855293,
                    0.2178727090358734,
                    -0.1365545690059662,
                    0.06044647470116615,
                    -0.021879572421312332,
                    0.02572157047688961,
                    0.06636868417263031,
                    -0.024690594524145126,
                    0.1463334858417511,
                    -0.09814349561929703,
                    0.1325901299715042,
                    -0.007895453833043575,
                    -0.07063568383455276,
                    -0.14692068099975586,
                    -0.054323460906744,
                    0.03542010486125946,
                    0.014529495500028133,
                    0.012803140096366405,
                    0.04101400822401047,
                    0.09383276849985123,
                    0.11863009631633759,
                    -0.15187083184719086,
                    0.15253672003746033,
                    -0.1380724310874939,
                    -0.37515684962272644,
                    -0.03161843866109848,
                    -0.02443661354482174,
                    -0.07366535067558289,
                    -0.11850851774215698,
                    0.07593037933111191,
                    -0.13871392607688904,
                    -0.10356304794549942,
                    0.20004045963287354,
                    0.12127937376499176,
                    0.2333427220582962,
                    0.09251664578914642,
                    0.16108128428459167,
                    -0.3071426451206207,
                    -0.11597363650798798,
                    0.012229752726852894,
                    -0.3298165202140808,
                    0.3093496561050415,
                    0.05981720611453056,
                    0.15789759159088135,
                    0.09127235412597656,
                    -0.0005550188361667097,
                    0.012417563237249851,
                    -0.05584586411714554,
                    -0.08658751845359802,
                    0.03607149049639702,
                    -0.10121903568506241,
                    -0.2281564176082611,
                    0.09181445837020874,
                    -0.20807714760303497,
                    0.0638335794210434,
                    0.051004648208618164,
                    -0.05763627588748932,
                    -0.13349926471710205,
                    0.0014766799286007881,
                    0.07302174717187881,
                    -0.05190238356590271,
                    -0.005758387967944145,
                    0.14635537564754486,
                    -0.06744426488876343,
                    0.07326383888721466,
                    0.017223110422492027,
                    -0.041571665555238724,
                    -0.08215752989053726,
                    -0.12861478328704834,
                    0.04175242409110069,
                    0.012641271576285362,
                    -0.07613689452409744,
                    0.19021447002887726,
                    0.013629126362502575,
                    -0.11860841512680054,
                    -0.15378324687480927,
                    0.020892281085252762,
                    -0.04546252265572548,
                    -0.007327288389205933,
                    -0.14610065519809723,
                    -0.06290189921855927,
                    -0.15023331344127655,
                    -0.19683952629566193,
                    0.07077651470899582,
                    -0.20344340801239014,
                    -0.08058428019285202,
                    0.0444115549325943,
                    -0.0909554660320282,
                    -0.09481137245893478,
                    0.12860316038131714,
                    0.06765516102313995,
                    -0.027943769469857216,
                    0.09905428439378738,
                    -0.025511877611279488,
                    -0.013085891492664814,
                    0.2858240306377411,
                    -0.05379643663764,
                    0.030625581741333008,
                    -0.11101849377155304,
                    -0.13384434580802917,
                    0.1513744443655014,
                    0.06086859852075577,
                    -0.05261736363172531,
                    -0.02588398940861225,
                    -0.11475144326686859,
                    -0.003888295264914632,
                    0.07239130884408951,
                    -0.10129041969776154,
                    -0.015152838081121445,
                    -0.152669295668602,
                    -0.06019505858421326,
                    0.17469917237758636,
                    -0.04466702789068222,
                    -0.092390276491642,
                    0.12935660779476166,
                    -0.1022384837269783,
                    -0.1349731981754303,
                    -0.00946858711540699,
                    -0.13840235769748688,
                    -0.025972869247198105,
                    -0.1586735099554062,
                    -0.049306344240903854,
                    0.023194175213575363,
                    -0.153106689453125,
                    -0.17465335130691528,
                    0.13401657342910767,
                    0.0246859360486269,
                    -0.03539566695690155,
                    -0.3392289876937866,
                    -0.07312512397766113,
                    0.03285480663180351,
                    -0.1669333577156067,
                    -0.1753401756286621,
                    0.12181133031845093,
                    -0.1209290400147438,
                    -0.3179541826248169,
                    -0.12320377677679062,
                    -0.07670465856790543,
                    -0.02272857166826725,
                    -0.04362011328339577,
                    -0.3099108636379242,
                    -0.02348199300467968,
                    -0.11385513842105865,
                    -0.34847965836524963,
                    -0.1021733507514,
                    -0.0715901181101799,
                    -0.03967373073101044,
                    -0.009705937467515469,
                    0.22979414463043213,
                    -0.10572537034749985,
                    -0.3405483067035675,
                    -0.04570790007710457,
                    0.1633446216583252,
                    -0.1160840392112732,
                    -0.18914154171943665,
                    -0.09642587602138519,
                    -0.09659764170646667,
                    0.007631547283381224,
                    -0.17166376113891602,
                    0.11887338757514954,
                    -0.3081628978252411,
                    0.06458791345357895,
                    -0.13668519258499146,
                    -0.25869572162628174,
                    -0.22476452589035034,
                    0.10983549803495407,
                    -0.10937786102294922,
                    -0.26260265707969666,
                    0.006128612905740738,
                    0.1455720216035843,
                    -0.07964175194501877,
                    -0.15717142820358276,
                    -0.15475991368293762,
                    -0.3279512822628021,
                    -0.024695221334695816,
                    -0.09745180606842041,
                    -0.0027342322282493114,
                    0.059576112776994705,
                    0.02909502573311329,
                    -0.14781349897384644,
                    -0.09002532809972763,
                    0.03977815806865692,
                    -0.07770942896604538,
                    -0.07217606902122498,
                    0.09662687033414841,
                    -0.25098586082458496,
                    -0.12930423021316528,
                    -0.2774764895439148,
                    0.01033827941864729,
                    0.00432334840297699,
                    -0.10534703731536865,
                    -0.02638157270848751,
                    0.10951059311628342,
                    0.08527804166078568,
                    -0.10920881479978561,
                    -0.027470724657177925,
                    -0.03849508985877037,
                    -0.029265843331813812,
                    -0.12930335104465485,
                    -0.154334157705307,
                    0.0018163749482482672,
                    0.25286978483200073,
                    0.017095986753702164,
                    0.26189595460891724,
                    0.18950919806957245,
                    -0.10349994897842407,
                    0.07917637377977371,
                    0.14072994887828827,
                    -0.04242052137851715,
                    -0.0067631956189870834,
                    -0.22362160682678223,
                    0.0229964442551136,
                    -0.49002188444137573,
                    -0.17623090744018555,
                    0.0564185194671154,
                    -0.01884295977652073,
                    -0.1669827103614807,
                    -0.018346376717090607,
                    -0.049101654440164566,
                    -0.1644638180732727,
                    0.013139004819095135,
                    0.0668276771903038,
                    -0.1699977070093155,
                    -0.2161092907190323,
                    0.11581182479858398,
                    0.005500261206179857,
                    -0.011013804003596306,
                    0.026206297799944878,
                    -0.11486032605171204,
                    -0.17700909078121185,
                    -0.19595640897750854,
                    -0.23587210476398468,
                    -0.05684608593583107,
                    -0.23454949259757996,
                    -0.17711086571216583,
                    -0.1961643546819687,
                    0.07708558440208435,
                    0.12638823688030243,
                    0.007617600727826357,
                    -0.08346818387508392,
                    -0.014364735223352909,
                    -0.17651112377643585,
                    -0.26080504059791565,
                    0.07277127355337143,
                    -0.2345685362815857,
                    0.09848727285861969,
                    -0.04663621261715889,
                    -0.2765085697174072,
                    -0.21601863205432892,
                    0.2188480794429779,
                    -0.080005943775177,
                    0.14834319055080414,
                    -0.04217742756009102,
                    0.03286994621157646,
                    -0.03477388992905617,
                    -0.062777578830719,
                    0.19739876687526703,
                    0.03637612983584404,
                    -0.03676950931549072,
                    0.10537733137607574,
                    -0.051111139357089996,
                    0.25500184297561646,
                    -0.20032213628292084,
                    0.3029477894306183,
                    -0.0954802855849266,
                    0.1388188600540161,
                    -0.05421067029237747,
                    0.0849422961473465,
                    -0.27451249957084656,
                    -0.07006959617137909,
                    -0.3141687512397766,
                    -0.10786975175142288,
                    0.054948896169662476,
                    -0.24506604671478271,
                    -0.20872052013874054,
                    0.15088751912117004,
                    0.29145547747612,
                    -0.019875263795256615,
                    -0.25712233781814575,
                    -0.18775351345539093,
                    0.12807683646678925,
                    -0.1693856120109558,
                    0.02245430089533329,
                    0.02043510228395462,
                    -0.11733434349298477,
                    0.0011058371746912599,
                    -0.03563463315367699,
                    -0.05539477616548538,
                    -0.16287687420845032,
                    -0.144535630941391,
                    -0.09079927951097488,
                    -0.2947196364402771,
                    0.034810785204172134,
                    -0.16116096079349518,
                    -0.0670623853802681,
                    -0.10338950157165527,
                    0.059120211750268936,
                    0.11668652296066284,
                    -0.036736633628606796,
                    0.12974193692207336,
                    -0.05479472875595093,
                    -0.20239898562431335,
                    0.054427847266197205,
                    -0.004329952411353588,
                    0.015193554572761059,
                    0.06494659185409546,
                    -0.11996912211179733,
                    0.031557679176330566,
                    -0.017660275101661682,
                    0.14562980830669403,
                    0.0686722844839096,
                    -0.00684597110375762,
                    0.16833782196044922,
                    -0.02372697740793228,
                    0.2718866765499115,
                    -0.2665384113788605,
                    -0.1401931196451187,
                    0.1571452021598816,
                    -0.057961296290159225,
                    0.15360626578330994,
                    0.09864664077758789,
                    -0.10634829849004745,
                    0.1503007411956787,
                    0.04208708927035332,
                    -0.09853684157133102,
                    -0.16460926830768585,
                    -0.17649303376674652,
                    0.03879817947745323,
                    0.09636328369379044,
                    0.02351861074566841,
                    0.04987772926688194,
                    -0.14004947245121002,
                    0.0774238258600235,
                    0.023164302110671997,
                    -0.035923071205616,
                    -0.04894151911139488,
                    -0.11206179857254028,
                    0.06286897510290146,
                    -0.07803096622228622,
                    0.11381255835294724,
                    -0.19446732103824615,
                    -0.034940578043460846,
                    0.07802045345306396,
                    -0.0071128602139651775,
                    -0.06379508972167969,
                    -0.09263462573289871,
                    -0.041923217475414276,
                    -0.013022237457334995,
                    0.01537479367107153,
                    0.0781889259815216,
                    -0.025954796001315117,
                    -0.16938890516757965,
                    -0.09280387312173843,
                    -0.02112487703561783,
                    -0.06782971322536469,
                    -0.009739624336361885,
                    -0.07685299962759018,
                    0.016508933156728745,
                    -0.2447476089000702,
                    -0.1341506689786911,
                    -0.014931702055037022,
                    0.014139579609036446,
                    -0.3176485300064087,
                    -0.2568053603172302,
                    0.03631873056292534,
                    0.01741907000541687,
                    0.02469382993876934,
                    -0.05877896398305893,
                    -0.059561148285865784,
                    -0.12600117921829224,
                    0.010571044869720936,
                    0.09365386515855789,
                    -0.15821440517902374,
                    0.028378237038850784,
                    -0.047093331813812256,
                    -0.1041693389415741,
                    -0.14812524616718292,
                    0.0031314524821937084,
                    0.033520858734846115,
                    0.039529282599687576,
                    -0.23618511855602264,
                    -0.228471040725708,
                    -0.03545500710606575,
                    -0.19230124354362488,
                    -0.07999216020107269,
                    0.0834072083234787,
                    -0.02980899251997471,
                    -0.08946065604686737,
                    -0.0742674395442009,
                    0.19087733328342438,
                    -0.03805540129542351,
                    -0.046497415751218796,
                    -0.10623107850551605,
                    0.0700715184211731,
                    0.15245753526687622,
                    -0.1505482792854309,
                    -0.15176057815551758,
                    0.048033419996500015,
                    -0.19410037994384766,
                    -0.06956838071346283,
                    -0.03436962515115738,
                    -0.14104542136192322,
                    -0.035019949078559875,
                    0.030284062027931213,
                    -0.041679803282022476,
                    -0.18877966701984406,
                    -0.036549899727106094,
                    0.10325785726308823,
                    0.11014311015605927,
                    -0.03359219804406166,
                    -0.03875945881009102,
                    -0.11917605251073837,
                    0.031191613525152206,
                    -0.033416423946619034,
                    -0.12395644187927246,
                    -0.0018600852927193046,
                    0.10094060748815536,
                    0.07181770354509354,
                    -0.0019129114225506783,
                    0.07789573818445206,
                    -0.04770306870341301,
                    0.06737125664949417,
                    0.03129943832755089,
                    0.009686695411801338,
                    -0.15478470921516418,
                    0.17548424005508423,
                    -0.06417927891016006,
                    -0.08388524502515793,
                    -0.022742953151464462,
                    0.046125784516334534,
                    0.11586137115955353,
                    -0.14189952611923218,
                    0.02465720847249031,
                    -0.09399616718292236,
                    0.05322469398379326,
                    0.047806188464164734,
                    -0.01549635361880064,
                    -0.012856224551796913,
                    0.0547112375497818,
                    -0.06716969609260559,
                    -0.04573472961783409,
                    0.11291138827800751,
                    -0.012483400292694569,
                    0.059861402958631516,
                    0.11368264257907867,
                    -0.07166782766580582,
                    -0.03494744747877121,
                    0.22203752398490906,
                    0.04356853663921356,
                    -0.09256292134523392,
                    -0.13355259597301483,
                    0.08116258680820465,
                    -0.14730384945869446,
                    0.019397784024477005,
                    -0.16578947007656097,
                    -0.2818507254123688,
                    0.04492936655879021,
                    -0.1964534968137741,
                    -0.11308090388774872,
                    0.10816646367311478,
                    -0.09622208029031754,
                    0.07223387062549591,
                    0.06656671315431595,
                    0.04605947434902191,
                    -0.026484694331884384,
                    -0.07648128271102905,
                    -0.19866684079170227,
                    -0.08080790936946869,
                    -0.28278136253356934,
                    0.08697396516799927,
                    -0.02113928645849228,
                    0.11837201565504074,
                    -0.04970001056790352,
                    0.009949258528649807,
                    -0.11641061305999756,
                    -0.09195595979690552,
                    0.13986808061599731,
                    -0.3126647472381592,
                    0.06985244154930115,
                    -0.19898580014705658,
                    -0.015394528396427631,
                    -0.19982510805130005,
                    0.08587435632944107,
                    0.0029998819809406996,
                    0.07699696719646454,
                    -0.11803542822599411,
                    -0.019586609676480293,
                    -0.09286991506814957,
                    -0.1606295108795166,
                    0.13728997111320496,
                    0.034926146268844604,
                    -0.002221646485850215,
                    -0.02275516651570797,
                    0.009586010128259659,
                    0.060250185430049896,
                    -0.012226569466292858,
                    -0.15300129354000092,
                    -0.1316632628440857,
                    0.21472036838531494,
                    -0.1171140968799591,
                    -0.03482777252793312,
                    -0.03956104442477226,
                    0.029176609590649605,
                    0.13568522036075592,
                    -0.1036466434597969,
                    -0.004576599691063166,
                    -0.2175549864768982,
                    0.015887148678302765,
                    -0.09751919656991959,
                    0.06529076397418976,
                    -0.14280951023101807,
                    -0.24279125034809113,
                    0.07205001264810562,
                    -0.15254555642604828,
                    -0.12636321783065796,
                    0.07600520551204681,
                    -0.1593756079673767,
                    0.2623637616634369,
                    0.04147496819496155,
                    0.09052299708127975,
                    -0.08740852773189545,
                    -0.10174566507339478,
                    -0.09558529406785965,
                    -0.01265515387058258,
                    -0.040419068187475204,
                    0.008539686910808086,
                    -0.24715080857276917,
                    -0.04070626571774483,
                    -0.13200700283050537,
                    0.08131558448076248,
                    0.20568951964378357,
                    -0.1719302088022232,
                    0.05678693950176239,
                    -0.057874370366334915,
                    0.22445152699947357,
                    -0.14218686521053314,
                    -0.1226530373096466,
                    0.18954922258853912,
                    -0.03692484647035599,
                    -0.049675438553094864,
                    0.09166053682565689,
                    -0.07801330089569092,
                    0.06709495931863785,
                    -0.07534469664096832,
                    -0.15087933838367462,
                    -0.01328906137496233,
                    -0.03334766998887062,
                    0.24447979032993317,
                    -0.032681819051504135,
                    -0.06435807794332504,
                    -0.1842086762189865,
                    0.10746768116950989,
                    -0.03375821188092232,
                    0.10985441505908966,
                    -0.029580336064100266,
                    -0.04925955832004547,
                    -0.017900949344038963,
                    0.13638654351234436,
                    -0.1850648820400238,
                    -0.18700626492500305,
                    -0.30295896530151367,
                    0.09375490248203278,
                    0.052518121898174286,
                    0.06386902183294296,
                    0.09242089092731476,
                    0.030015699565410614,
                    -0.05863521248102188,
                    -0.16795603930950165,
                    -0.09476310759782791,
                    -0.18417476117610931,
                    0.14642135798931122,
                    0.21031329035758972,
                    -0.10554485023021698,
                    -0.025987133383750916,
                    0.08197135478258133,
                    0.06241245195269585,
                    0.02157328836619854,
                    -0.11114773899316788,
                    -0.048999931663274765,
                    -0.0014177910052239895,
                    0.013162278570234776,
                    0.17809920012950897,
                    -0.01670145057141781,
                    -0.08710397034883499,
                    0.1058882474899292,
                    -0.07516040652990341,
                    -0.09906625002622604,
                    -0.10457873344421387,
                    -0.12695381045341492,
                    -0.03628724068403244,
                    0.0492798276245594,
                    -0.15322084724903107,
                    0.08732044696807861,
                    -0.334768682718277,
                    -0.5489199161529541,
                    -0.17674501240253448,
                    0.0515592098236084,
                    -0.06870868802070618,
                    -0.059809524565935135,
                    0.01432088203728199,
                    0.08244301378726959,
                    0.08034452795982361,
                    -0.261366605758667,
                    -0.007057333830744028,
                    0.0532064288854599,
                    0.1521673947572708,
                    0.0917474552989006,
                    0.12413795292377472,
                    -0.15840743482112885,
                    0.025710472837090492,
                    -0.0038844426162540913,
                    -0.23252607882022858,
                    0.035118553787469864,
                    -0.1486399918794632,
                    0.15842974185943604,
                    -0.06162461265921593,
                    -0.1340772658586502,
                    0.05759529769420624,
                    -0.05274375528097153,
                    -0.18618007004261017,
                    -0.19941972196102142,
                    0.07610119134187698,
                    -0.09303534775972366,
                    0.10357401520013809,
                    0.10091322660446167,
                    -0.10334833711385727,
                    -0.08779936283826828,
                    -0.11887911707162857,
                    -0.020544303581118584,
                    -0.02131340652704239,
                    -0.11502141505479813,
                    -0.10829998552799225,
                    -0.08120869845151901,
                    0.0013320489088073373,
                    -0.27387377619743347,
                    -0.11137069016695023,
                    0.07047339528799057,
                    0.08671768009662628,
                    -0.08776075392961502,
                    -0.04247204586863518,
                    -0.025747716426849365,
                    -0.1319381594657898,
                    0.0587991327047348,
                    -0.3083201050758362,
                    0.05702240765094757,
                    -0.027965150773525238,
                    -0.17895911633968353,
                    -0.07254932075738907,
                    -0.06100877374410629,
                    -0.20690852403640747,
                    0.13194575905799866,
                    -0.09510234743356705,
                    0.04519817233085632,
                    -0.013649380765855312,
                    -0.00046050341916270554,
                    0.025903640314936638,
                    -0.1365530788898468,
                    0.013227837160229683,
                    -0.029516728594899178,
                    0.0680599957704544,
                    -0.07947877794504166,
                    0.018819652497768402,
                    -0.18953746557235718,
                    -0.06739304959774017,
                    -0.015302264131605625,
                    0.007399362046271563,
                    0.01637839712202549,
                    -0.21334025263786316,
                    -0.01479729451239109,
                    -0.07634656876325607,
                    -0.25581684708595276,
                    -0.12081033736467361,
                    -0.021745003759860992,
                    -0.07181266695261002,
                    -0.06859476119279861,
                    -0.025614576414227486,
                    -0.06379532068967819,
                    -0.0333835743367672,
                    0.004100285470485687,
                    0.03375348821282387,
                    0.0666598305106163,
                    -0.17221735417842865,
                    -0.010955650359392166,
                    0.00893181748688221,
                    -0.2025793045759201,
                    -0.17197835445404053,
                    0.0820714458823204,
                    -0.05823475122451782,
                    0.1422654241323471,
                    -0.05768905207514763,
                    0.05032305046916008,
                    -0.09686685353517532,
                    -0.20375685393810272,
                    0.09499090909957886,
                    0.026281721889972687,
                    -0.18640461564064026,
                    0.07480815798044205,
                    0.059217315167188644,
                    -0.120120108127594,
                    -0.19250042736530304,
                    0.021591635420918465,
                    0.08433418720960617,
                    -0.10227276384830475,
                    -0.2984691560268402,
                    -0.2605533301830292,
                    0.03599187359213829,
                    -0.09136060625314713,
                    -0.16396299004554749,
                    -0.006199404131621122,
                    -0.04833075404167175,
                    0.05794546753168106,
                    -0.13004042208194733,
                    0.0003854355891235173,
                    -0.1599268615245819,
                    0.17175862193107605,
                    0.259708970785141,
                    -0.13524912297725677,
                    -0.024070629850029945,
                    -0.10500789433717728,
                    -0.08302585035562515,
                    -0.01299299206584692,
                    0.15656813979148865,
                    0.2493736892938614,
                    -0.014843153767287731,
                    0.09951797127723694,
                    0.0013035930460318923,
                    -0.2132614403963089,
                    -0.029823536053299904,
                    -0.08031655102968216,
                    -0.11723877489566803,
                    -0.12430868297815323,
                    0.08695381879806519,
                    -0.15856395661830902,
                    -0.08268287032842636,
                    -0.046842221170663834,
                    -0.18234218657016754,
                    -0.4085933566093445,
                    0.026519889011979103,
                    -0.002207462675869465,
                    -0.07129368931055069,
                    -0.12115371227264404,
                    0.035762738436460495,
                    -0.20551255345344543,
                    -0.1108383908867836,
                    0.10824862867593765,
                    0.1733725666999817,
                    -0.06394603103399277,
                    0.010956913232803345,
                    -0.1408187597990036,
                    0.02156013622879982,
                    -0.07974769175052643,
                    -0.06416226178407669,
                    -0.19036263227462769,
                    0.08917876332998276,
                    0.03988080844283104,
                    -0.1573728322982788,
                    0.0456828810274601,
                    -0.17830848693847656,
                    -0.16513389348983765,
                    -0.06284910440444946,
                    -0.1958923041820526,
                    -0.051865819841623306,
                    0.0034068007953464985,
                    0.015421310439705849,
                    0.047542184591293335,
                    -0.037596408277750015,
                    -0.07987670600414276,
                    -0.1087820902466774,
                    0.14701730012893677,
                    -0.1803683489561081,
                    -0.025771746411919594,
                    -0.1696937531232834,
                    0.042394522577524185,
                    0.082147017121315,
                    -0.00017504261631984264,
                    -0.004566194489598274,
                    0.033651188015937805,
                    -0.0951806977391243,
                    0.033675070852041245,
                    -0.05820160359144211,
                    0.07703718543052673,
                    -0.16401556134223938,
                    0.10608134418725967,
                    0.1058657169342041,
                    0.040465567260980606,
                    -0.07651444524526596,
                    -0.04040436074137688,
                    -0.06999468803405762,
                    -0.024553332477808,
                    -0.0002851184690371156,
                    0.060922183096408844,
                    -0.06280945986509323,
                    0.04074487462639809,
                    -0.1812726855278015,
                    -0.19222553074359894,
                    -0.09679817408323288,
                    -0.14561259746551514,
                    0.012308667413890362,
                    0.24263671040534973,
                    -0.15513747930526733,
                    -0.10681679099798203,
                    -0.04219592735171318,
                    -0.09170977026224136,
                    -0.12605567276477814,
                    -0.11318231374025345,
                    0.18367809057235718,
                    0.061445627361536026,
                    -0.24175576865673065,
                    -0.01053665578365326,
                    0.026071595028042793,
                    -0.2228926718235016,
                    0.17456893622875214,
                    0.06958656013011932,
                    0.12283746898174286,
                    -0.1274488866329193,
                    -0.0796026885509491,
                    0.041491344571113586,
                    -0.04525308683514595,
                    -0.18468077480793,
                    -0.08085989207029343,
                    -0.020550774410367012,
                    0.02372707799077034,
                    -0.04505053162574768,
                    -0.15032696723937988,
                    -0.15863120555877686,
                    -0.1764664351940155,
                    0.03738384321331978,
                    -0.03111780807375908,
                    -0.037290606647729874,
                    0.08518960326910019,
                    -0.3176572024822235,
                    0.046454936265945435,
                    -0.1524178832769394,
                    0.10131698101758957,
                    0.057134706526994705,
                    0.06779499351978302,
                    0.06362122297286987,
                    -0.07528430968523026,
                    -0.060939811170101166,
                    0.026951484382152557,
                    0.03924372047185898,
                    -0.11505977064371109,
                    -0.15227435529232025,
                    0.01219953503459692,
                    -0.19862934947013855,
                    -0.00878690741956234,
                    -0.06669510900974274,
                    -0.24959354102611542,
                    -0.17566266655921936,
                    0.1162029430270195,
                    0.020553046837449074,
                    0.05102870240807533,
                    0.1379496306180954,
                    -0.19706961512565613,
                    0.008247653022408485,
                    -0.11177823692560196,
                    -0.0964873805642128,
                    0.09217528998851776,
                    -0.03628002852201462,
                    0.12570954859256744,
                    -0.07464171200990677,
                    -0.01081873755902052,
                    -0.11952093243598938,
                    -0.06103203445672989,
                    -0.0692521408200264,
                    -0.13400119543075562,
                    -0.20515090227127075,
                    -0.2170715034008026,
                    -0.045913565903902054,
                    0.03418365493416786,
                    0.042035020887851715,
                    -0.1372830867767334,
                    0.21384009718894958,
                    -0.09180700778961182,
                    -0.0718766525387764,
                    -0.1492333710193634,
                    -0.07105814665555954,
                    0.04260464757680893,
                    0.011470510624349117,
                    -0.08708052337169647,
                    -0.01547508966177702,
                    -0.13218694925308228,
                    -0.023386703804135323,
                    -0.1910458207130432,
                    -0.07045956701040268,
                    -0.17168329656124115,
                    -0.020299049094319344,
                    -0.07641176134347916,
                    0.21435217559337616,
                    -0.06593684107065201,
                    -0.34906840324401855,
                    -0.07388914376497269,
                    0.16517134010791779,
                    0.03197173774242401,
                    -0.1186852678656578,
                    -0.1563159078359604,
                    -0.059072189033031464,
                    0.09811457246541977,
                    -0.016533739864826202,
                    -0.23817500472068787,
                    -0.053274013102054596,
                    -0.009129985235631466,
                    -0.09434100985527039,
                    0.012445323169231415,
                    -0.03773853927850723,
                    0.013384631834924221,
                    0.03455326333642006,
                    -0.12777064740657806,
                    0.13687439262866974,
                    0.05193917825818062,
                    0.046080488711595535,
                    -0.10314759612083435,
                    -0.06381131708621979,
                    -0.05087406560778618,
                    -0.12759338319301605,
                    0.15165375173091888,
                    0.08792895823717117,
                    -0.13804779946804047,
                    -0.15768609941005707,
                    -0.1143580749630928,
                    -0.06404531747102737,
                    -0.14530184864997864,
                    0.045040443539619446,
                    -0.1877778172492981,
                    -0.2263830304145813,
                    -0.033604077994823456,
                    -0.023710163310170174,
                    -0.0636514201760292,
                    -0.05767808109521866,
                    -0.08476244658231735,
                    -0.30558425188064575,
                    0.05566975474357605,
                    -0.0782037153840065,
                    0.08208494633436203,
                    0.04820721223950386,
                    0.051894210278987885,
                    -0.34675076603889465,
                    -0.14645183086395264,
                    -0.1458558738231659,
                    0.08586104214191437,
                    -0.2097630649805069,
                    0.06566666066646576,
                    0.029581671580672264,
                    -0.023426150903105736,
                    0.0743679478764534,
                    -0.05698447674512863,
                    -0.05302515998482704,
                    -0.23494958877563477,
                    -0.03605278581380844,
                    -0.11261868476867676,
                    -0.03547893464565277,
                    -0.11502853035926819,
                    0.00434061698615551,
                    -0.05056319385766983,
                    -0.011778922751545906,
                    -0.09405311942100525,
                    0.06429214030504227,
                    -0.06324537098407745,
                    -0.25197985768318176,
                    -0.23675887286663055,
                    -0.2278960943222046,
                    -0.018716298043727875,
                    -0.05416348576545715,
                    -0.028929492458701134,
                    -0.03488078713417053,
                    -0.09016630053520203,
                    -0.05654813349246979,
                    -0.16084587574005127,
                    -0.15495312213897705,
                    -0.18459133803844452,
                    0.14246167242527008,
                    0.014742294326424599,
                    -0.08642889559268951,
                    0.11125196516513824,
                    0.22176556289196014,
                    0.036149054765701294,
                    -0.08973211795091629,
                    0.031202465295791626,
                    0.16025730967521667,
                    0.01467250194400549,
                    -0.003636472625657916,
                    0.1769488900899887,
                    -0.03759739175438881,
                    -0.05124146118760109,
                    -0.08882924914360046,
                    -0.10141275823116302,
                    -0.11727763712406158,
                    -0.04110937938094139,
                    -0.1944311410188675,
                    -0.0077515519224107265,
                    -0.2100793570280075,
                    0.015363753773272038,
                    -0.08481757342815399,
                    -0.159269317984581,
                    -0.20705993473529816,
                    -0.06681499630212784,
                    0.05316755175590515,
                    0.025862688198685646,
                    -0.03122554160654545,
                    -0.1176011711359024,
                    0.3554253578186035,
                    -0.1173667162656784,
                    -0.14223560690879822,
                    -0.05625569820404053,
                    -0.03544559329748154,
                    -0.07446803897619247,
                    0.012695667333900928,
                    -0.07853465527296066,
                    0.05836283788084984,
                    -0.1016441360116005,
                    -0.24561253190040588,
                    0.07052713632583618,
                    0.008897600695490837,
                    -0.30529364943504333,
                    0.03171616047620773,
                    -0.22290173172950745,
                    -0.22286522388458252,
                    0.04813458025455475,
                    -0.16701219975948334,
                    -0.012257075868546963,
                    0.18027670681476593,
                    -0.0004210601910017431,
                    -0.10542503744363785,
                    -0.1306147277355194,
                    -0.10963679850101471,
                    0.02404823713004589,
                    -0.12518475949764252,
                    -0.14021563529968262,
                    -0.16444413363933563,
                    -0.14500540494918823,
                    -0.2526428699493408,
                    0.1282431185245514,
                    -0.25766482949256897,
                    -0.013717543333768845,
                    0.06997331976890564,
                    -0.23411859571933746,
                    0.01765313930809498,
                    0.11617402732372284,
                    -0.03826028108596802,
                    -0.05791234225034714,
                    -0.13583168387413025,
                    0.19476883113384247,
                    -0.28900519013404846,
                    -0.042662881314754486,
                    0.18962381780147552,
                    0.0406273677945137,
                    -0.06931230425834656,
                    0.14564824104309082,
                    -0.13781924545764923,
                    -0.013672255910933018,
                    0.11715641617774963,
                    0.07421901077032089,
                    0.05898219719529152,
                    0.10740701854228973,
                    0.00937165692448616,
                    -0.13894551992416382,
                    -0.05681878328323364,
                    0.1645250767469406,
                    -0.11688926070928574,
                    -0.05761546269059181,
                    0.34124037623405457,
                    -0.17170976102352142,
                    -0.11316584050655365,
                    0.0019823573529720306,
                    -0.03925085812807083,
                    -0.1480933576822281,
                    0.012477261014282703,
                    0.12533818185329437,
                    -0.1417219638824463,
                    -0.19603019952774048,
                    0.01724981516599655,
                    0.038914669305086136,
                    0.024971624836325645,
                    0.0029404673259705305,
                    0.04480844736099243,
                    -0.18460720777511597,
                    -0.21775296330451965,
                    -0.09772515296936035,
                    -0.08675836771726608,
                    -0.19096723198890686,
                    -0.06590856611728668,
                    0.07065436989068985,
                    -0.0004489265556912869,
                    -0.32181936502456665,
                    -0.0860551968216896,
                    -0.06659948825836182,
                    -0.11088812351226807,
                    -0.05139537900686264,
                    -0.18450719118118286,
                    0.08617020398378372,
                    -0.06350839138031006,
                    0.15492336452007294,
                    -0.010505598969757557,
                    -0.20798441767692566,
                    -0.0479106530547142,
                    -0.13269050419330597,
                    -0.19249337911605835,
                    -0.07901855558156967,
                    0.19462360441684723,
                    -0.060903795063495636,
                    -0.03130125626921654,
                    0.10888228565454483,
                    0.22755442559719086,
                    0.1092274934053421,
                    -0.08012144267559052,
                    0.1694759875535965,
                    -0.02619321271777153,
                    -0.05268172174692154,
                    -0.00025219793315045536,
                    0.2965928912162781,
                    -0.1390148401260376,
                    0.12149591743946075,
                    -0.11110848933458328,
                    -0.24023981392383575,
                    0.2992040514945984,
                    0.17075668275356293,
                    -0.22508494555950165,
                    -0.013686803169548512,
                    0.11480836570262909,
                    -0.19704243540763855,
                    -0.16593101620674133,
                    0.12795491516590118,
                    -0.09190478175878525,
                    -0.0721043050289154,
                    0.16466398537158966,
                    0.14594487845897675,
                    -0.061901237815618515,
                    0.03487364575266838,
                    -0.034442320466041565,
                    0.08803242444992065,
                    -0.08484470844268799,
                    0.04647723585367203,
                    -0.10036329180002213,
                    -0.30828627943992615,
                    -0.13521334528923035,
                    -0.24106699228286743,
                    -0.1054348275065422,
                    0.044582657516002655,
                    0.08154468238353729,
                    -0.43666064739227295,
                    -0.00933027546852827,
                    0.05691569671034813,
                    0.12098819762468338,
                    -0.056917738169431686,
                    -0.15482161939144135,
                    -0.2795853912830353,
                    0.1633821725845337,
                    -0.10060080885887146,
                    -0.012803083285689354,
                    0.036050695925951004,
                    0.23213674128055573,
                    0.13594111800193787,
                    -0.29549214243888855,
                    0.14432044327259064,
                    -0.29064515233039856,
                    -0.05657084658741951,
                    -0.2700067460536957,
                    -0.04698585346341133,
                    -0.10717163980007172,
                    -0.03609224408864975,
                    -0.13560785353183746,
                    -0.1603432148694992,
                    -0.14918874204158783,
                    -0.13269375264644623,
                    0.0887911319732666,
                    0.11400288343429565,
                    -0.09381958097219467,
                    0.07434730231761932,
                    -0.21566686034202576,
                    -0.005244373343884945,
                    -0.26427990198135376,
                    -0.4322962164878845,
                    -0.32075372338294983,
                    -0.10979638993740082,
                    -0.0257203821092844,
                    -0.08054466545581818,
                    -0.0031202484387904406,
                    0.02711503766477108,
                    -0.042522892355918884,
                    0.011769975535571575,
                    0.11365566402673721,
                    -0.09650419652462006,
                    0.04279366508126259,
                    -0.037194058299064636,
                    0.08526800572872162,
                    0.010731215588748455,
                    -0.003953611012548208,
                    0.11515691131353378,
                    -0.21613402664661407,
                    -0.03251084312796593,
                    -0.09394373744726181,
                    -0.015028479509055614,
                    -0.0813448578119278,
                    0.016902951523661613,
                    0.019496561959385872,
                    -0.25704091787338257,
                    -0.06236924231052399,
                    -0.1087513193488121,
                    -0.15827307105064392,
                    -0.14176927506923676,
                    -0.0985037237405777,
                    -0.5249297618865967,
                    0.04841537028551102,
                    -0.14493200182914734,
                    -0.05376097932457924,
                    -0.09958906471729279,
                    -0.12696324288845062,
                    -0.01083515677601099,
                    0.019644347950816154,
                    0.098944291472435,
                    -0.2715333104133606,
                    0.11857489496469498,
                    0.02852628193795681,
                    0.1310531198978424,
                    0.11091388761997223,
                    0.09681717306375504,
                    0.016776064410805702,
                    -0.15956062078475952,
                    -0.14438048005104065,
                    -0.13039933145046234,
                    0.13086119294166565,
                    0.0626014769077301,
                    0.0009258242789655924,
                    0.10138890892267227,
                    0.03421683982014656,
                    -0.25701799988746643,
                    -0.10544664412736893,
                    -0.05830097571015358,
                    -0.2970410883426666,
                    -0.10709092766046524,
                    -0.3276958167552948,
                    -0.04688694700598717,
                    -0.04248899221420288,
                    -0.13454850018024445,
                    0.03351561725139618,
                    -0.15667299926280975,
                    0.06561189889907837,
                    0.07278434187173843,
                    -0.02023734338581562,
                    0.025949228554964066,
                    0.11957880109548569,
                    -0.6243383884429932,
                    -0.12748610973358154,
                    -0.10278169065713882,
                    0.2263813465833664,
                    -0.21887992322444916,
                    -0.17192219197750092,
                    -0.16965752840042114,
                    0.13124920427799225,
                    -0.17555445432662964,
                    -0.033801015466451645,
                    -0.006584780756384134,
                    -0.07640208303928375,
                    -0.028984514996409416,
                    -0.07207717001438141,
                    0.08066803961992264,
                    -0.12541887164115906,
                    -0.10233664512634277,
                    0.1690673679113388,
                    0.17559997737407684,
                    -0.15402954816818237,
                    -0.10844913870096207,
                    -0.013320274651050568,
                    -0.10346999019384384,
                    -0.12397560477256775,
                    -0.05112345144152641,
                    0.07641661912202835,
                    0.03248630464076996,
                    0.2133241444826126,
                    -0.3820599317550659,
                    -0.05979713052511215,
                    0.1444697380065918,
                    -0.15725615620613098,
                    -0.022048344835639,
                    -0.054769162088632584,
                    -0.018565667793154716,
                    0.05632321909070015,
                    -0.3205309510231018,
                    -0.020566917955875397,
                    0.04037199169397354,
                    0.1995825469493866,
                    -0.13488894701004028,
                    0.10679326951503754,
                    -0.035662997514009476,
                    -0.10259371995925903,
                    0.1610414832830429,
                    -0.13085810840129852,
                    0.1920281946659088,
                    -0.2043679654598236,
                    -0.07733144611120224,
                    -0.14076262712478638,
                    0.08365195244550705,
                    0.23240986466407776,
                    0.15566229820251465,
                    0.2801682651042938,
                    0.11502774804830551,
                    0.12704600393772125,
                    0.2926073670387268,
                    0.014874927699565887,
                    -0.21610142290592194,
                    0.0211821049451828,
                    -0.05108858272433281,
                    -0.03398032486438751,
                    -0.07944686710834503,
                    -0.20026284456253052,
                    -0.19345098733901978,
                    -0.05369170382618904,
                    -0.044343024492263794,
                    -0.11402104794979095,
                    -0.057428233325481415,
                    0.1013948991894722,
                    -0.011308799497783184,
                    -0.02230280637741089,
                    0.016200071200728416,
                    -0.08891256898641586,
                    0.21657738089561462,
                    0.06597412377595901,
                    -0.013550427742302418,
                    -0.1623614877462387,
                    -0.15092940628528595,
                    -0.22787117958068848,
                    -0.20370879769325256,
                    -0.13479243218898773,
                    -0.22743983566761017,
                    -0.08728159964084625,
                    0.11069761216640472,
                    -0.1143818274140358,
                    -0.2733658254146576,
                    -0.1108473613858223,
                    -0.005021202843636274,
                    0.048823174089193344,
                    -0.28785398602485657,
                    -0.1362125426530838,
                    0.0069725969806313515,
                    -0.11468157917261124,
                    0.0005382003146223724,
                    -0.15560942888259888,
                    -0.09270498156547546,
                    0.04361529275774956,
                    0.05467529594898224,
                    -0.16728030145168304,
                    -0.13491973280906677,
