[
    {
        "class": "keras.layers.core.dense.Dense",
        "config": {
            "name": "dense",
            "trainable": true,
            "dtype": "float32",
            "units": 128,
            "activation": "softplus",
            "use_bias": true,
            "kernel_initializer": {
                "class_name": "GlorotUniform",
                "config": {
                    "seed": null
                }
            },
            "bias_initializer": {
                "class_name": "Zeros",
                "config": {}
            },
            "kernel_regularizer": null,
            "bias_regularizer": null,
            "activity_regularizer": null,
            "kernel_constraint": null,
            "bias_constraint": null
        },
        "weights": [
            {
                "_type": "ndarray",
                "shape": [
                    6,
                    128
                ],
                "dtype": "float32",
                "data": [
                    -0.07590749859809875,
                    0.10835699737071991,
                    -0.14199553430080414,
                    0.24122370779514313,
                    -0.003129006130620837,
                    0.01317969337105751,
                    -0.02581794187426567,
                    0.11884750425815582,
                    -0.13202661275863647,
                    0.07823634892702103,
                    0.10716374963521957,
                    0.13507889211177826,
                    0.23974095284938812,
                    -0.013127043843269348,
                    -0.12546686828136444,
                    -0.15874429047107697,
                    0.12717822194099426,
                    -0.22458024322986603,
                    0.11056044697761536,
                    0.050367314368486404,
                    -0.06718120723962784,
                    0.03346042335033417,
                    0.0993535965681076,
                    0.14257101714611053,
                    0.13680599629878998,
                    0.025800764560699463,
                    -0.15521474182605743,
                    -0.13567154109477997,
                    0.05498908460140228,
                    -0.23724332451820374,
                    0.1938564032316208,
                    -0.03549189120531082,
                    0.014051373116672039,
                    -0.14070910215377808,
                    -0.1397504359483719,
                    0.017892437055706978,
                    0.0582965686917305,
                    0.15899920463562012,
                    0.18667256832122803,
                    0.11871644109487534,
                    0.022777492180466652,
                    0.10359562933444977,
                    -0.019135992974042892,
                    0.23053497076034546,
                    0.027921926230192184,
                    0.11409606784582138,
                    -0.08856995403766632,
                    -0.10437861829996109,
                    0.06848324835300446,
                    -0.015519417822360992,
                    -0.08823183923959732,
                    -0.17289280891418457,
                    -0.15802694857120514,
                    0.030298110097646713,
                    0.09058870375156403,
                    0.14696872234344482,
                    -0.04205338656902313,
                    0.023322898894548416,
                    -0.12194008380174637,
                    -0.010182514786720276,
                    -0.1886550933122635,
                    -0.15017542243003845,
                    -0.06990315020084381,
                    -0.09223029762506485,
                    -0.22296857833862305,
                    -0.08942633867263794,
                    0.04368123784661293,
                    -0.10748058557510376,
                    0.23145975172519684,
                    -0.10033972561359406,
                    0.0391487292945385,
                    0.14994587004184723,
                    -0.059770308434963226,
                    0.09050099551677704,
                    0.20300649106502533,
                    0.044520944356918335,
                    -0.04832911118865013,
                    -0.19525928795337677,
                    0.14345897734165192,
                    -0.020429927855730057,
                    -0.03323175758123398,
                    -0.17518773674964905,
                    0.005540414713323116,
                    -0.013914997689425945,
                    0.05284584313631058,
                    0.04992375522851944,
                    -0.059912972152233124,
                    0.1998530775308609,
                    -0.05032690241932869,
                    -0.002305663889274001,
                    -0.2675379514694214,
                    -0.12936940789222717,
                    -0.1634892374277115,
                    0.012831267900764942,
                    -0.21504439413547516,
                    0.12498944997787476,
                    0.21271038055419922,
                    -0.19340699911117554,
                    0.1198127418756485,
                    0.14829522371292114,
                    0.1691306084394455,
                    -0.035174157470464706,
                    0.15137316286563873,
                    -0.04646953195333481,
                    0.04885309934616089,
                    -0.05427035316824913,
                    0.17560669779777527,
                    -0.09100566804409027,
                    -0.04506664350628853,
                    -0.06570040434598923,
                    0.08553597331047058,
                    0.056134480983018875,
                    0.04137207940220833,
                    0.13173939287662506,
                    -0.017014555633068085,
                    0.11466611176729202,
                    -0.05183089151978493,
                    -0.041387371718883514,
                    0.12106001377105713,
                    0.15886004269123077,
                    0.15290005505084991,
                    -0.15381306409835815,
                    -0.17532120645046234,
                    0.21364666521549225,
                    -0.16304749250411987,
                    0.02625838853418827,
                    -0.11323871463537216,
                    0.1199454739689827,
                    0.16300244629383087,
                    0.14986136555671692,
                    -0.13938996195793152,
                    -0.16847659647464752,
                    0.20167845487594604,
                    -0.07726685702800751,
                    -0.022777164354920387,
                    -0.11604707688093185,
                    0.05930200219154358,
                    0.15799202024936676,
                    0.20781902968883514,
                    0.08937734365463257,
                    -0.016427824273705482,
                    0.18973271548748016,
                    0.11731721460819244,
                    -0.07418651133775711,
                    0.00497788842767477,
                    0.2062927484512329,
                    0.09399475902318954,
                    0.10009828209877014,
                    -0.004524990916252136,
                    -0.11022944748401642,
                    0.058299675583839417,
                    -0.17008207738399506,
                    0.006870560348033905,
                    -0.20175743103027344,
                    0.0532313697040081,
                    -0.12742288410663605,
                    -0.19517923891544342,
                    -0.17827793955802917,
                    -0.14360548555850983,
                    -0.1432289034128189,
                    -0.1019391119480133,
                    -0.05745997279882431,
                    -0.08435734361410141,
                    0.13491003215312958,
                    -0.1897798776626587,
                    -0.04608973488211632,
                    0.11532118916511536,
                    0.15514902770519257,
                    0.0427497997879982,
                    0.15014100074768066,
                    -0.12733805179595947,
                    -0.127626433968544,
                    -0.0650290846824646,
                    -0.1873084008693695,
                    -0.033323295414447784,
                    -0.10537153482437134,
                    0.17946948111057281,
                    0.14539623260498047,
                    0.13149607181549072,
                    -0.15047508478164673,
                    -0.14009858667850494,
                    -0.026412127539515495,
                    0.06589651852846146,
                    0.15629583597183228,
                    0.06498107314109802,
                    -0.021528150886297226,
                    -0.040765997022390366,
                    -0.1487419307231903,
                    -0.12232466787099838,
                    -0.052584774792194366,
                    -0.024858256801962852,
                    0.1852007657289505,
                    -0.022779105231165886,
                    0.13847406208515167,
                    0.14332859218120575,
                    0.09932366758584976,
                    0.10451329499483109,
                    0.019622936844825745,
                    0.08911356329917908,
                    0.14233948290348053,
                    0.016116587445139885,
                    0.16098418831825256,
                    0.07355251163244247,
                    -0.15293174982070923,
                    -0.19394896924495697,
                    0.19530147314071655,
                    0.11334674805402756,
                    0.13264600932598114,
                    0.09831412136554718,
                    -0.04809727147221565,
                    0.05524442717432976,
                    0.036583539098501205,
                    0.0981670394539833,
                    0.2023199051618576,
                    -0.13137641549110413,
                    -0.12160306423902512,
                    -0.16969789564609528,
                    -0.06570533663034439,
                    0.1629141867160797,
                    -0.11875789612531662,
                    -0.07454217970371246,
                    0.022027669474482536,
                    -0.03534763678908348,
                    -0.16256219148635864,
                    0.12304509431123734,
                    0.17300520837306976,
                    -0.058564674109220505,
                    -0.10881293565034866,
                    0.14977839589118958,
                    0.03780221566557884,
                    -0.12911653518676758,
                    0.18296578526496887,
                    -0.0644436627626419,
                    -0.018132373690605164,
                    -0.026388127356767654,
                    -0.15126867592334747,
                    -0.03329307585954666,
                    0.07122483104467392,
                    -0.2921890616416931,
                    -0.04298725724220276,
                    0.10718701779842377,
                    0.19173473119735718,
                    0.19483307003974915,
                    -0.08483963459730148,
                    -0.021500160917639732,
                    -0.04286757856607437,
                    0.12135393917560577,
                    0.14243435859680176,
                    0.07443469017744064,
                    -0.0054619284346699715,
                    0.016765719279646873,
                    0.17246176302433014,
                    0.12749658524990082,
                    -0.07919726520776749,
                    0.05620922893285751,
                    -0.08496934920549393,
                    -0.04367345571517944,
                    -0.03185848146677017,
                    0.118583545088768,
                    0.006360576022416353,
                    0.10050398111343384,
                    -0.10901782661676407,
                    0.17963716387748718,
                    0.07586032897233963,
                    0.02394917979836464,
                    -0.03423524647951126,
                    -0.048850446939468384,
                    0.13411369919776917,
                    0.05055522173643112,
                    0.05063255876302719,
                    -0.1777685135602951,
                    0.15437377989292145,
                    0.20252662897109985,
                    0.11244995892047882,
                    -0.048747528344392776,
                    0.10801252722740173,
                    0.1960570365190506,
                    -0.12485180795192719,
                    -0.12753766775131226,
                    0.13628201186656952,
                    -0.20237493515014648,
                    0.14823688566684723,
                    0.08173532038927078,
                    0.11122039705514908,
                    -0.11403834074735641,
                    0.04958778992295265,
                    -0.16426977515220642,
                    -0.06981362402439117,
                    -0.16329480707645416,
                    0.15185874700546265,
                    0.0080319344997406,
                    0.05616972967982292,
                    0.15467429161071777,
                    0.02075176127254963,
                    0.025289632380008698,
                    0.016908489167690277,
                    0.11755231767892838,
                    0.04308938980102539,
                    -0.04662725329399109,
                    0.12078706175088882,
                    -0.08300227671861649,
                    -0.0748768001794815,
                    -0.053316373378038406,
                    -0.13629795610904694,
                    0.19844400882720947,
                    0.15750467777252197,
                    0.10717004537582397,
                    0.07739319652318954,
                    -0.19984449446201324,
                    -0.023120487108826637,
                    0.10417228937149048,
                    -0.0022428457159549,
                    -0.02712739259004593,
                    -0.0637863427400589,
                    -0.10293693095445633,
                    -0.1500537246465683,
                    0.0856805071234703,
                    0.11125123500823975,
                    -0.09197136014699936,
                    0.004426005762070417,
                    0.17047907412052155,
                    -0.12200698256492615,
                    0.08571843802928925,
                    0.11712881177663803,
                    -0.1738978773355484,
                    0.05877402052283287,
                    0.14935816824436188,
                    0.15734043717384338,
                    0.03453981876373291,
                    0.11661333590745926,
                    0.1445445567369461,
                    0.1616562008857727,
                    0.12320782244205475,
                    0.18792665004730225,
                    0.1988343596458435,
                    -0.1371445506811142,
                    -0.01303852628916502,
                    -0.02550448104739189,
                    -0.13890525698661804,
                    -0.0741548240184784,
                    -0.06727376580238342,
                    -0.20525942742824554,
                    -0.18388675153255463,
                    0.12085431814193726,
                    -0.025283362716436386,
                    0.026019327342510223,
                    -0.09761274605989456,
                    -0.044932033866643906,
                    0.05968962237238884,
                    0.06959731131792068,
                    0.11242511868476868,
                    0.20512792468070984,
                    -0.19305843114852905,
                    0.2015129029750824,
                    0.011413020081818104,
                    -0.03281749412417412,
                    0.18612708151340485,
                    0.0928235799074173,
                    0.07548355311155319,
                    -0.07205291837453842,
                    -0.09115105122327805,
                    0.021764466539025307,
                    -0.09639838337898254,
                    -0.04192909225821495,
                    -0.14914602041244507,
                    0.019179895520210266,
                    0.219718337059021,
                    0.19989950954914093,
                    0.11448627710342407,
                    0.004655081778764725,
                    -0.17973364889621735,
                    -0.010462808422744274,
                    0.11271170526742935,
                    -0.19444632530212402,
                    -0.02752581611275673,
                    0.2103181928396225,
                    0.16631774604320526,
                    -0.1534968614578247,
                    -0.030853182077407837,
                    -0.13214904069900513,
                    -0.08782483637332916,
                    0.05773937329649925,
                    0.16468198597431183,
                    -0.0777168795466423,
                    -0.1810062676668167,
                    -0.030835695564746857,
                    -0.2098453938961029,
                    0.10116750001907349,
                    0.05847294256091118,
                    0.19993729889392853,
                    -0.21396493911743164,
                    0.18174992501735687,
                    0.20405280590057373,
                    -0.15293048322200775,
                    -0.14703628420829773,
                    -0.12559455633163452,
                    -0.150015190243721,
                    -0.023398222401738167,
                    0.01737533137202263,
                    -0.4332772493362427,
                    0.25493815541267395,
                    -0.028927918523550034,
                    0.09495896100997925,
                    -0.01977953501045704,
                    0.1525544375181198,
                    -0.18116611242294312,
                    0.19797882437705994,
                    0.12163066118955612,
                    0.010262630879878998,
                    0.4744786322116852,
                    -0.17505288124084473,
                    -0.19939662516117096,
                    -0.20774869620800018,
                    0.24247170984745026,
                    -0.2796255350112915,
                    0.03670458123087883,
                    -0.24363605678081512,
                    -0.19136206805706024,
                    0.21765781939029694,
                    0.1317240446805954,
                    -0.021377328783273697,
                    -0.11438994109630585,
                    -0.13090528547763824,
                    0.019123977050185204,
                    0.06859852373600006,
                    0.19165706634521484,
                    0.037870410829782486,
                    -0.07379528135061264,
                    -0.15852105617523193,
                    -0.18877708911895752,
                    -0.10698478668928146,
                    -0.05807540565729141,
                    -0.10679347068071365,
                    0.08598733693361282,
                    -0.023581834509968758,
                    -0.021414199844002724,
                    -0.015263278037309647,
                    0.0337211973965168,
                    0.178056538105011,
                    -0.13289213180541992,
                    0.1909310519695282,
                    0.02377380058169365,
                    0.07816056162118912,
                    0.11842115223407745,
                    -0.018425824120640755,
                    -0.18890853226184845,
                    0.19222350418567657,
                    -0.05158188194036484,
                    -0.10001175850629807,
                    -0.01741071045398712,
                    0.16980557143688202,
                    -0.09210889786481857,
                    0.10764686018228531,
                    0.007647289894521236,
                    0.130862757563591,
                    0.18285256624221802,
                    -0.10709865391254425,
                    -0.17725567519664764,
                    0.33503568172454834,
                    0.11088594049215317,
                    0.12930817902088165,
                    -0.13152676820755005,
                    -0.09854789078235626,
                    0.26682382822036743,
                    0.1570604145526886,
                    -0.061383187770843506,
                    -0.4038178026676178,
                    0.16086195409297943,
                    -0.036618515849113464,
                    -0.0559464693069458,
                    -0.1338798701763153,
                    -0.029737208038568497,
                    0.038646239787340164,
                    -0.08879147469997406,
                    -0.1731904000043869,
                    -0.004720679949969053,
                    -0.17216309905052185,
                    -0.08886637538671494,
                    -0.06947587430477142,
                    -0.1769443154335022,
                    0.055473074316978455,
                    0.07219509780406952,
                    0.022544512525200844,
                    -0.1950116753578186,
                    -0.0172134842723608,
                    -0.1714143604040146,
                    0.06191832572221756,
                    0.05291726440191269,
                    0.17963697016239166,
                    -0.02415907382965088,
                    -0.05604817345738411,
                    -0.1403900384902954,
                    0.029707225039601326,
                    -0.0987551137804985,
                    0.060633860528469086,
                    -0.2741205096244812,
                    -0.10002065449953079,
                    -0.13683319091796875,
                    -0.17999975383281708,
                    -0.10605476051568985,
                    -0.04312571883201599,
                    -0.03908492997288704,
                    -0.27056437730789185,
                    0.02726029045879841,
                    0.07233252376317978,
                    0.05147876963019371,
                    -0.18674537539482117,
                    0.03134215995669365,
                    0.20752748847007751,
                    0.21331904828548431,
                    0.03170425444841385,
                    -0.23945735394954681,
                    -0.019653450697660446,
                    -0.009292288683354855,
                    0.08733033388853073,
                    0.21530140936374664,
                    0.05495357885956764,
                    -0.09767157584428787,
                    -0.0038500502705574036,
                    -0.1164817214012146,
                    0.02081001177430153,
                    -0.028865450993180275,
                    0.19379784166812897,
                    -0.041087955236434937,
                    -0.318071573972702,
                    -0.07442028820514679,
                    0.18016262352466583,
                    -0.21132515370845795,
                    0.17078885436058044,
                    0.11127446591854095,
                    -0.229152649641037,
                    -0.24915362894535065,
                    0.12464667856693268,
                    -0.13424892723560333,
                    0.123801589012146,
                    0.08998134732246399,
                    -0.18093688786029816,
                    -0.33510714769363403,
                    0.004322974942624569,
                    0.169139102101326,
                    0.11058872193098068,
                    -0.0005418292130343616,
                    0.23335698246955872,
                    -0.20602159202098846,
                    0.1765785962343216,
                    0.18366801738739014,
                    0.23020437359809875,
                    -0.1902780830860138,
                    -0.1646360456943512,
                    0.16291609406471252,
                    0.45088309049606323,
                    0.10925616323947906,
                    -0.1867496520280838,
                    0.06797391921281815,
                    -0.4959566295146942,
                    0.0843445286154747,
                    -0.04811355099081993,
                    0.04057406634092331,
                    -0.12442279607057571,
                    0.20488879084587097,
                    -0.06527204066514969,
                    0.014154693111777306,
                    0.1316707283258438,
                    0.1612744927406311,
                    0.24072206020355225,
                    0.024880962446331978,
                    0.21240948140621185,
                    0.002093526069074869,
                    -0.09582491219043732,
                    -0.07509925216436386,
                    0.05169282481074333,
                    -0.008273892104625702,
                    -0.29313573241233826,
                    0.09682868421077728,
                    -0.057570282369852066,
                    -0.146036759018898,
                    -0.04766491428017616,
                    0.0402647964656353,
                    -0.0494990274310112,
                    -0.1620049625635147,
                    -0.07292920351028442,
                    0.24477894604206085,
                    0.08254658430814743,
                    -0.14064185321331024,
                    -0.19365236163139343,
                    0.10625779628753662,
                    0.5934624075889587,
                    0.2962351441383362,
                    -0.058186888694763184,
                    -0.045789457857608795,
                    0.12955519556999207,
                    -0.19389821588993073,
                    -0.049902159720659256,
                    0.15650935471057892,
                    -0.27386611700057983,
                    0.18444553017616272,
                    -0.2819427251815796,
                    0.9469415545463562,
                    -0.17763690650463104,
                    -0.3202168941497803,
                    0.19622525572776794,
                    0.0031733601354062557,
                    -0.28167983889579773,
                    -0.03270602971315384,
                    0.1520683914422989,
                    -0.10775468498468399,
                    -0.0645441934466362,
                    0.18018163740634918,
                    0.10824097692966461,
                    -0.11725284904241562,
                    0.0028123476076871157,
                    -0.048717521131038666,
                    0.13190314173698425,
                    0.04547887295484543,
                    0.27700573205947876,
                    0.04778558015823364,
                    -0.02158336527645588,
                    0.10154356062412262,
                    0.15957342088222504,
                    0.10263006389141083,
                    0.11320028454065323,
                    0.10158023238182068,
                    0.4300553500652313,
                    0.4906834065914154,
                    0.2112150639295578,
                    0.24626369774341583,
                    -0.19674476981163025,
                    0.13371247053146362,
                    0.09986300021409988,
                    0.18633656203746796,
                    0.11198502779006958,
                    -0.1368643045425415,
                    0.055872976779937744,
                    -0.42366349697113037,
                    0.13332752883434296,
                    -0.010330184362828732,
                    0.24037007987499237,
                    0.271822065114975,
                    -0.012971551157534122,
                    0.12836316227912903,
                    0.14894475042819977,
                    -0.043427884578704834,
                    0.01590379886329174,
                    0.6493609547615051,
                    0.17496079206466675,
                    -0.14649084210395813,
                    0.20867018401622772,
                    -0.3441929817199707,
                    -0.1340276449918747,
                    0.3413127660751343,
                    -0.17752854526042938,
                    0.1769970804452896,
                    0.1450423002243042,
                    0.21246053278446198,
                    -0.1634490191936493,
                    -0.30216941237449646,
                    0.07887991517782211,
                    0.1998387575149536,
                    0.04415713623166084,
                    -0.11935196816921234,
                    -0.016007397323846817,
                    -0.08417213708162308,
                    0.07078473269939423,
                    0.19778798520565033,
                    -0.008287780918180943,
                    0.3637816905975342,
                    0.011605177074670792,
                    0.3159099817276001,
                    -0.08713846653699875,
                    -0.1730596423149109,
                    -0.18542076647281647,
                    -0.2671395540237427,
                    -0.1509343832731247,
                    -0.14899782836437225,
                    0.11690238863229752,
                    0.005571025889366865,
                    0.0635170117020607,
                    -0.009132410399615765,
                    -0.5006705522537231,
                    -0.31318166851997375,
                    0.04395638778805733,
                    0.03713515028357506,
                    -0.9554010629653931,
                    -0.15722982585430145,
                    0.24475085735321045,
                    0.2660942077636719,
                    0.14808489382266998,
                    -0.20607835054397583,
                    -0.11634685844182968,
                    0.06789565086364746,
                    0.1382409930229187,
                    -0.016052786260843277,
                    -0.21264280378818512,
                    0.18061265349388123,
                    0.1613324135541916,
                    -0.04258796200156212,
                    -0.30395230650901794,
                    -0.04250446334481239,
                    -0.005690050311386585,
                    0.16148114204406738,
                    -0.050517234951257706,
                    -0.4916148781776428,
                    0.25083425641059875,
                    0.034159768372774124,
                    0.04000518098473549,
                    0.1334291398525238,
                    0.012501380406320095,
                    0.3229026198387146,
                    -0.24661299586296082,
                    0.09572010487318039,
                    0.2454739511013031,
                    -0.18019811809062958,
                    -0.06617466360330582,
                    0.014809727668762207,
                    0.025590956211090088,
                    0.2503243088722229,
                    0.062300942838191986,
                    0.1459256261587143,
                    -0.14946207404136658,
                    0.37714719772338867,
                    0.13822633028030396,
                    0.14994855225086212,
                    -0.017784297466278076,
                    -0.0751764252781868,
                    0.12102320045232773,
                    -0.8560327291488647,
                    -0.19440683722496033,
                    0.054257772862911224,
                    -0.18342648446559906,
                    0.1955069899559021,
                    0.15151700377464294,
                    -0.2832069993019104,
                    -0.2142157107591629,
                    0.10028892755508423,
                    0.19804592430591583,
                    0.08344771713018417,
                    -0.22101812064647675,
                    0.11516834050416946,
                    -0.1129751056432724,
                    0.29534849524497986,
                    -0.16167990863323212,
                    0.04076263681054115,
                    0.16824185848236084,
                    0.2164158970117569,
                    -0.17151865363121033,
                    0.13640819489955902,
                    0.2295805960893631,
                    -0.30356836318969727,
                    0.1694626361131668,
                    0.7472304105758667,
                    0.2993650436401367,
                    -0.2435622662305832,
                    0.05870324745774269,
                    -0.025095555931329727,
                    0.08538875728845596,
                    0.3156730830669403,
                    0.024548670276999474,
                    -0.13635607063770294,
                    -0.24042074382305145,
                    -0.3810737133026123,
                    -0.20543844997882843,
                    -0.1577107012271881,
                    -0.18594521284103394,
                    -0.031071731820702553,
                    0.07015261054039001,
                    -0.013617021963000298,
                    -0.13174739480018616,
                    -0.006814348511397839
                ]
            },
            {
                "_type": "ndarray",
                "shape": [
                    128
                ],
                "dtype": "float32",
                "data": [
                    -0.015019304119050503,
                    -0.0035901344381272793,
                    -0.002172758337110281,
                    0.054350510239601135,
                    -0.004336031619459391,
                    0.0012350849574431777,
                    0.0012696617050096393,
                    0.0319284126162529,
                    -0.01209103874862194,
                    -0.028060076758265495,
                    -0.006310900207608938,
                    -0.007981176488101482,
                    0.0013666906161233783,
                    -0.039262719452381134,
                    -0.019072331488132477,
                    0.05289890244603157,
                    0.013780798763036728,
                    0.0027928140480071306,
                    -0.010267370380461216,
                    -0.017215102910995483,
                    -0.002993442118167877,
                    0.002553409431129694,
                    0.0007551076705567539,
                    0.030119312927126884,
                    -0.0020694152917712927,
                    -0.001050860621035099,
                    0.01799633912742138,
                    -0.0003989648539572954,
                    -0.0012403520522639155,
                    0.0019898999016731977,
                    0.018948229029774666,
                    -0.023901894688606262,
                    0.0016832276014611125,
                    -0.0008667943184264004,
                    -0.004591162316501141,
                    -0.0011403497774153948,
                    0.0037030542735010386,
                    0.00343453511595726,
                    0.0212539192289114,
                    -0.0022608130238950253,
                    0.016206776723265648,
                    -0.001681967987678945,
                    0.04128871113061905,
                    0.004209481179714203,
                    -0.018503520637750626,
                    0.009211377240717411,
                    -0.00503091374412179,
                    -0.004387150518596172,
                    0.010982893407344818,
                    -0.015466946177184582,
                    -0.026452289894223213,
                    -0.00401634955778718,
                    -0.01757732219994068,
                    -0.0015350475441664457,
                    0.002149798208847642,
                    -0.0029564134310930967,
                    0.0028390451334416866,
                    -0.0031532554421573877,
                    0.003928436432033777,
                    -0.0052430285140872,
                    0.0007226811721920967,
                    -0.001062801107764244,
                    0.0032950479071587324,
                    -0.002719063777476549,
                    -0.004128752276301384,
                    0.0018309466540813446,
                    -0.013206135481595993,
                    0.02584746666252613,
                    0.001837765914388001,
                    0.0009989871177822351,
                    0.003938974812626839,
                    0.001233128597959876,
                    0.005767377093434334,
                    0.0031622082460671663,
                    0.0641838014125824,
                    0.010129280388355255,
                    -0.001145198242738843,
                    0.003228873712942004,
                    -0.009463252499699593,
                    0.005803861189633608,
                    -0.0042143589816987514,
                    0.013792259618639946,
                    0.012369995005428791,
                    0.016231810674071312,
                    -0.004708684515208006,
                    0.049314774572849274,
                    0.005926626268774271,
                    0.00015593410353176296,
                    -0.004465852864086628,
                    -0.001160740852355957,
                    -0.026031548157334328,
                    -0.00410649785771966,
                    -0.0035454765893518925,
                    -0.012752944603562355,
                    -0.012485395185649395,
                    -0.024371517822146416,
                    -0.011284446343779564,
                    -0.000519661873113364,
                    -6.286874850047752e-05,
                    0.002281490247696638,
                    -0.004938432015478611,
                    -0.0016634664498269558,
                    -0.0008587631746195257,
                    -0.000756958092097193,
                    -0.038238342851400375,
                    0.004108645021915436,
                    -0.0076009370386600494,
                    -0.003219649428501725,
                    -0.005047718994319439,
                    0.02773171104490757,
                    0.011975017376244068,
                    0.09235867112874985,
                    -0.004496157635003328,
                    -0.005432133562862873,
                    -0.01327220257371664,
                    -0.006036336999386549,
                    -0.004443190060555935,
                    -0.0028508331160992384,
                    0.0024138789158314466,
                    0.0011394035536795855,
                    -0.005397275555878878,
                    -0.0003431884397286922,
                    0.008529906161129475,
                    -0.007416204083710909,
                    -0.009210119023919106,
                    0.017980897799134254,
                    -0.006121242418885231,
                    0.0031178155913949013
                ]
            }
        ]
    },
    {
        "class": "keras.layers.core.dense.Dense",
        "config": {
            "name": "dense_1",
            "trainable": true,
            "dtype": "float32",
            "units": 128,
            "activation": "softplus",
            "use_bias": true,
            "kernel_initializer": {
                "class_name": "GlorotUniform",
                "config": {
                    "seed": null
                }
            },
            "bias_initializer": {
                "class_name": "Zeros",
                "config": {}
            },
            "kernel_regularizer": null,
            "bias_regularizer": null,
            "activity_regularizer": null,
            "kernel_constraint": null,
            "bias_constraint": null
        },
        "weights": [
            {
                "_type": "ndarray",
                "shape": [
                    128,
                    128
                ],
                "dtype": "float32",
                "data": [
                    -0.07159590721130371,
                    0.129453644156456,
                    -0.07288344204425812,
                    -0.048473574221134186,
                    -0.06636291742324829,
                    0.03521827608346939,
                    0.0507080964744091,
                    -0.05055202543735504,
                    -0.10031857341527939,
                    -0.09563867747783661,
                    -0.13979512453079224,
                    -0.1485937237739563,
                    0.03305695950984955,
                    0.016939183697104454,
                    0.05024603754281998,
                    0.09656566381454468,
                    0.0952506959438324,
                    0.070352703332901,
                    0.12543177604675293,
                    -0.04375145956873894,
                    -0.12410358339548111,
                    -0.0899648517370224,
                    0.07739415019750595,
                    -0.02740306966006756,
                    0.018833816051483154,
                    0.002434996422380209,
                    -0.023623669520020485,
                    -0.06337060034275055,
                    0.13887014985084534,
                    -0.030814651399850845,
                    0.128372922539711,
                    0.06184547767043114,
                    -0.11916285008192062,
                    -0.10992392152547836,
                    -0.1468001753091812,
                    -0.008445575833320618,
                    -0.06911212205886841,
                    -0.02004622481763363,
                    0.07709597051143646,
                    -0.14091268181800842,
                    0.0027661677449941635,
                    -0.007525465916842222,
                    -0.13326017558574677,
                    0.1481797695159912,
                    0.028433017432689667,
                    0.11381605267524719,
                    0.05321294069290161,
                    0.10904919356107712,
                    0.15032322704792023,
                    0.01543637178838253,
                    0.08402199298143387,
                    -0.06427204608917236,
                    0.14863641560077667,
                    -0.12564760446548462,
                    0.12122305482625961,
                    0.06632115691900253,
                    -0.0032153066713362932,
                    0.08437971025705338,
                    -0.017276037484407425,
                    0.13189782202243805,
                    0.11583078652620316,
                    -0.08050908893346786,
                    -0.13181471824645996,
                    0.08675889670848846,
                    -0.08844862878322601,
                    -0.023561304435133934,
                    -0.13963672518730164,
                    -0.03705484792590141,
                    0.1172390729188919,
                    -0.12820713222026825,
                    0.09249935299158096,
                    -0.015983864665031433,
                    -0.14285093545913696,
                    -0.13178719580173492,
                    0.00026122835697606206,
                    0.0037292861379683018,
                    -0.1215531975030899,
                    -0.10607335716485977,
                    -0.012171468697488308,
                    0.024241330102086067,
                    0.07685812562704086,
                    0.11853630095720291,
                    0.025562653318047523,
                    0.05646564066410065,
                    -0.031771548092365265,
                    0.08165214955806732,
                    0.09804855287075043,
                    0.0256972573697567,
                    0.01654067635536194,
                    0.06420285999774933,
                    0.13653090596199036,
                    0.05674579367041588,
                    0.07187400758266449,
                    0.09949829429388046,
                    0.08223427087068558,
                    0.010450622998178005,
                    0.058946963399648666,
                    0.12831301987171173,
                    -0.009932138957083225,
                    0.05078227445483208,
                    -0.041969433426856995,
                    -0.10459867119789124,
                    0.0031579681672155857,
                    0.08170986920595169,
                    -0.06844109296798706,
                    0.08697035163640976,
                    0.036242350935935974,
                    0.10218264907598495,
                    -0.03750057891011238,
                    -0.01817520149052143,
                    -0.0493653267621994,
                    0.04296804964542389,
                    0.0499534010887146,
                    0.11396095901727676,
                    -0.07972702383995056,
                    0.1489880383014679,
                    0.05733589455485344,
                    0.11412715911865234,
                    -0.02331252582371235,
                    0.08379504829645157,
                    0.03300310671329498,
                    0.002168941078707576,
                    0.020224178209900856,
                    -0.0724160373210907,
                    0.04179732874035835,
                    -0.13467371463775635,
                    0.14709502458572388,
                    0.08097173273563385,
                    0.11174588650465012,
                    -0.11220075190067291,
                    0.060416121035814285,
                    -0.07669132947921753,
                    0.07032692432403564,
                    0.029413342475891113,
                    -0.06851618736982346,
                    -0.016238626092672348,
                    -0.08922026306390762,
                    0.09576412290334702,
                    0.14474661648273468,
                    0.05185738205909729,
                    0.14471137523651123,
                    -0.12996241450309753,
                    0.0819535031914711,
                    0.06574267148971558,
                    0.015428910963237286,
                    -0.007635372690856457,
                    -0.011779678985476494,
                    0.10821957886219025,
                    0.05374951288104057,
                    -0.12166066467761993,
                    0.12547774612903595,
                    0.0335671491920948,
                    0.07763811200857162,
                    -0.08687001466751099,
                    0.015477914363145828,
                    -0.08724135905504227,
                    0.07761593163013458,
                    -0.02970530278980732,
                    -0.02491055801510811,
                    0.12060555815696716,
                    -0.04409050941467285,
                    -0.11274844408035278,
                    0.03057030960917473,
                    -0.026020551100373268,
                    -0.06652790307998657,
                    -0.15622620284557343,
                    0.008937142789363861,
                    -0.1055915504693985,
                    0.12686938047409058,
                    -0.12312842160463333,
                    -0.0018836439121514559,
                    0.07597250491380692,
                    0.09571359306573868,
                    -0.0843721479177475,
                    -0.07861628383398056,
                    -0.08378208428621292,
                    -0.03498755395412445,
                    -0.09579279273748398,
                    -0.10138475894927979,
                    -0.08597809076309204,
                    -0.11407995969057083,
                    0.030827321112155914,
                    -0.10180850327014923,
                    0.04029574245214462,
                    0.1463189274072647,
                    -0.12406828999519348,
                    0.14092427492141724,
                    0.03217116370797157,
                    0.13220037519931793,
                    0.11529967933893204,
                    0.0070184459909796715,
                    0.025976091623306274,
                    0.0937267318367958,
                    -0.002679080469533801,
                    0.1004214659333229,
                    -0.01791548728942871,
                    -0.03528531640768051,
                    0.007577794138342142,
                    -0.1393842101097107,
                    -0.0035445657558739185,
                    0.07197025418281555,
                    0.03382116183638573,
                    0.13025929033756256,
                    0.11736859381198883,
                    -0.11402640491724014,
                    0.004836867097765207,
                    -0.0554376021027565,
                    0.09014542400836945,
                    0.05135132372379303,
                    -0.05362773314118385,
                    0.10192739963531494,
                    0.024758312851190567,
                    -0.08393514901399612,
                    0.13950946927070618,
                    0.03145218268036842,
                    -0.02144092507660389,
                    -0.10500408709049225,
                    -0.11064275354146957,
                    0.09689392894506454,
                    -0.12487032264471054,
                    -0.041058022528886795,
                    -0.1433117389678955,
                    -0.1467714160680771,
                    0.1379043161869049,
                    0.07205832749605179,
                    -0.008360530249774456,
                    -0.012667246162891388,
                    -0.07365782558917999,
                    0.0823652595281601,
                    0.043604668229818344,
                    -0.01256268285214901,
                    0.11552698910236359,
                    0.06138012930750847,
                    -0.05068020895123482,
                    -0.13876260817050934,
                    -0.03478774428367615,
                    0.09285914897918701,
                    -0.12009380757808685,
                    -0.06365238130092621,
                    0.08458932489156723,
                    -0.0686388835310936,
                    0.08854223042726517,
                    -0.054193537682294846,
                    0.1005336195230484,
                    0.01316226925700903,
                    0.1170024424791336,
                    -0.0861852616071701,
                    -0.06856491416692734,
                    0.08460187911987305,
                    -0.12969911098480225,
                    -0.004447269253432751,
                    0.04739447310566902,
                    -0.08492930233478546,
                    -0.016888687387108803,
                    0.07654313743114471,
                    -0.1523437649011612,
                    -0.05660005658864975,
                    -0.01507482398301363,
                    -0.09949198365211487,
                    0.13751842081546783,
                    -0.029737889766693115,
                    0.12030792981386185,
                    0.10905059427022934,
                    -0.11523337662220001,
                    0.09966675937175751,
                    0.08652834594249725,
                    -0.026886437088251114,
                    -0.04252217710018158,
                    -0.1106969490647316,
                    0.13000263273715973,
                    -0.07113566249608994,
                    0.12687717378139496,
                    -0.10852628946304321,
                    0.023851091042160988,
                    -0.07102115452289581,
                    0.12756425142288208,
                    0.05939458683133125,
                    0.052426401525735855,
                    -0.07178597897291183,
                    -0.032615602016448975,
                    0.012838677503168583,
                    0.06721393764019012,
                    0.03764575347304344,
                    0.11421513557434082,
                    0.08494199812412262,
                    -0.0876464694738388,
                    0.0436716303229332,
                    -0.10071290284395218,
                    -0.07596685737371445,
                    -0.06909031420946121,
                    -0.019520239904522896,
                    -0.09024561196565628,
                    -0.05893678590655327,
                    -0.14186859130859375,
                    0.07951772212982178,
                    -0.14368419349193573,
                    -0.08143248409032822,
                    -0.011138650588691235,
                    0.030359571799635887,
                    -0.1505541056394577,
                    0.11738457530736923,
                    -0.08865859359502792,
                    -0.14199931919574738,
                    0.008584902621805668,
                    0.08480244129896164,
                    0.01242097094655037,
                    0.11218851059675217,
                    0.11990200728178024,
                    0.05819573253393173,
                    0.12833280861377716,
                    -0.06162983551621437,
                    -0.08763106912374496,
                    -0.12939389050006866,
                    0.007812161929905415,
                    -0.09871072322130203,
                    0.00876635778695345,
                    0.14434385299682617,
                    0.10872071981430054,
                    -0.13901486992835999,
                    -0.05507728457450867,
                    0.03344495967030525,
                    -0.03190087899565697,
                    0.017095932736992836,
                    -0.14831234514713287,
                    -0.148893341422081,
                    -0.08207207918167114,
                    -0.06646769493818283,
                    0.0031827911734580994,
                    -0.05478480085730553,
                    0.02162967436015606,
                    0.022375762462615967,
                    -0.14085693657398224,
                    0.10061171650886536,
                    0.026590904220938683,
                    -0.044687286019325256,
                    0.025354793295264244,
                    -0.00347184669226408,
                    0.1310233473777771,
                    0.06443522125482559,
                    -0.008095433004200459,
                    0.009804352186620235,
                    -0.04775385186076164,
                    -0.04986044391989708,
                    0.11536212265491486,
                    -0.11587956547737122,
                    0.04598361253738403,
                    0.07882582396268845,
                    -0.10751764476299286,
                    -0.038214992731809616,
                    0.1002107709646225,
                    -0.11924060434103012,
                    0.01139343623071909,
                    0.09931662678718567,
                    -0.06305916607379913,
                    0.03200741112232208,
                    -0.023376187309622765,
                    -0.14021354913711548,
                    0.027775922790169716,
                    -0.08717161417007446,
                    0.1169777661561966,
                    0.13031353056430817,
                    0.06699199229478836,
                    -0.11355050653219223,
                    -0.0016796280397102237,
                    0.13927917182445526,
                    0.13401179015636444,
                    -0.08995181322097778,
                    -0.08531409502029419,
                    0.13239234685897827,
                    -0.13024204969406128,
                    -0.051244404166936874,
                    0.03626376762986183,
                    -0.06230757385492325,
                    0.1522977352142334,
                    0.14894834160804749,
                    -0.12102580815553665,
                    0.09469547122716904,
                    0.12751159071922302,
                    0.0010235431836917996,
                    -0.1525157243013382,
                    -0.014743893407285213,
                    0.023680230602622032,
                    -0.09924497455358505,
                    -0.030886786058545113,
                    0.05526496842503548,
                    -0.04427000507712364,
                    -0.17779028415679932,
                    -0.11975907534360886,
                    0.13988682627677917,
                    -0.029041286557912827,
                    0.05322333052754402,
                    -0.05601605400443077,
                    0.1219547837972641,
                    -0.11063581705093384,
                    0.1301499307155609,
                    -0.07150548696517944,
                    -0.062457017600536346,
                    0.01738622412085533,
                    0.12937644124031067,
                    -0.08814135938882828,
                    -0.015923675149679184,
                    0.07727708667516708,
                    0.176920086145401,
                    -0.02976503223180771,
                    -0.013837060891091824,
                    0.09431353956460953,
                    -0.034973639994859695,
                    0.04784194007515907,
                    -0.03320525214076042,
                    -0.1437373012304306,
                    -0.14947620034217834,
                    -0.012480434030294418,
                    -0.05696740001440048,
                    -0.15187959372997284,
                    0.14630456268787384,
                    0.08581721782684326,
                    -0.16205339133739471,
                    -0.09399081021547318,
                    -0.017885124310851097,
                    0.07735221087932587,
                    -0.16540507972240448,
                    0.00013635214418172836,
                    0.09976719319820404,
                    -0.07479080557823181,
                    0.12398184835910797,
                    -0.03965793550014496,
                    0.007307642605155706,
                    -0.0054318965412676334,
                    -0.013777553103864193,
                    0.051351871341466904,
                    0.009197669103741646,
                    0.024340316653251648,
                    -0.1860988587141037,
                    -0.08510866016149521,
                    -0.1327686458826065,
                    -0.005928282160311937,
                    0.1244707778096199,
                    0.11005087196826935,
                    -0.028689976781606674,
                    0.03110145404934883,
                    -0.015848219394683838,
                    0.11741708964109421,
                    -0.05081997811794281,
                    0.04676588624715805,
                    -0.14644446969032288,
                    0.12732379138469696,
                    -0.02457979880273342,
                    -0.12137752026319504,
                    0.11202017217874527,
                    0.017852621152997017,
                    -0.008918534964323044,
                    -0.08242546021938324,
                    0.054016586393117905,
                    -0.16163310408592224,
                    0.05418138578534126,
                    0.09491821378469467,
                    -0.01467810943722725,
                    0.13798081874847412,
                    -0.16473126411437988,
                    0.06064869090914726,
                    0.12463723868131638,
                    0.020683148875832558,
                    -0.05613544583320618,
                    -0.07562700659036636,
                    -0.04704764112830162,
                    0.11695855855941772,
                    0.0597895011305809,
                    -0.15070104598999023,
                    -0.11470232903957367,
                    0.0453009195625782,
                    -0.041017092764377594,
                    0.01903342641890049,
                    -0.06161883845925331,
                    -0.0057742903009057045,
                    0.11828750371932983,
                    -0.15543968975543976,
                    0.12483963370323181,
                    0.08712019771337509,
                    -0.13750550150871277,
                    -0.07185547798871994,
                    0.05133378505706787,
                    -0.1742253601551056,
                    0.03816676139831543,
                    0.0011501121334731579,
                    0.03652076795697212,
                    0.15056189894676208,
                    0.10294275730848312,
                    -0.05508950725197792,
                    -0.11540458351373672,
                    -0.050861284136772156,
                    -0.10021375864744186,
                    -0.038203902542591095,
                    -0.046769335865974426,
                    -0.15650956332683563,
                    0.08925674855709076,
                    -0.013771220110356808,
                    -0.08022192120552063,
                    0.10667572915554047,
                    0.13803042471408844,
                    -0.024779871106147766,
                    -0.14916574954986572,
                    0.11599606275558472,
                    0.06876013427972794,
                    0.06803442537784576,
                    -0.04594360291957855,
                    -0.03928785398602486,
                    0.043387483805418015,
                    -0.06857755780220032,
                    -0.06422343850135803,
                    -0.08648308366537094,
                    0.03027668222784996,
                    0.009331358596682549,
                    -0.030223188921809196,
                    -0.036807503551244736,
                    -0.05874616652727127,
                    0.07884055376052856,
                    0.10107943415641785,
                    -0.05732716992497444,
                    -0.0720469206571579,
                    0.010473967529833317,
                    0.11774887144565582,
                    0.06038149818778038,
                    0.0016400078311562538,
                    -0.05878221243619919,
                    -0.02207019180059433,
                    0.15423622727394104,
                    0.12318570911884308,
                    -0.1319664716720581,
                    0.06210491806268692,
                    0.00409289775416255,
                    0.021949850022792816,
                    0.14387688040733337,
                    0.08329376578330994,
                    0.019257020205259323,
                    0.06109461560845375,
                    -0.11787554621696472,
                    -0.10947874188423157,
                    -0.04818243160843849,
                    -0.11269041150808334,
                    0.01759028062224388,
                    0.08861321210861206,
                    -0.11374958604574203,
                    -0.04056200012564659,
                    -0.05572599917650223,
                    -0.14811921119689941,
                    -0.025282716378569603,
                    0.12378240376710892,
                    0.10507789254188538,
                    -0.019370615482330322,
                    0.07549108564853668,
                    -0.036456022411584854,
                    -0.12953431904315948,
                    0.09308681637048721,
                    -0.011578134261071682,
                    0.0013654333306476474,
                    -0.10960489511489868,
                    -0.07876315712928772,
                    -0.0803711861371994,
                    0.12213635444641113,
                    0.023393630981445312,
                    0.02011856809258461,
                    -0.13257747888565063,
                    -0.09407815337181091,
                    0.10296646505594254,
                    0.16678288578987122,
                    0.039948076009750366,
                    -0.024767611175775528,
                    -0.06633545458316803,
                    -0.01306420098990202,
                    0.07340623438358307,
                    0.015116042457520962,
                    -0.13354460895061493,
                    -0.0022975800093263388,
                    -0.1047394648194313,
                    0.06851325929164886,
                    0.09075227379798889,
                    -0.09553737938404083,
                    0.03168240562081337,
                    0.13027514517307281,
                    0.016196539625525475,
                    0.0007563959225080907,
                    -0.051728565245866776,
                    0.09065413475036621,
                    -0.07203252613544464,
                    0.10691113770008087,
                    -0.03576754406094551,
                    0.06307540833950043,
                    -0.04051288217306137,
                    0.0623292401432991,
                    0.11162868142127991,
                    -0.06896167993545532,
                    0.11247682571411133,
                    -0.09952089190483093,
                    0.017122017219662666,
                    -0.005801786202937365,
                    -0.06532452255487442,
                    0.04072247073054314,
                    -0.12849190831184387,
                    -0.07217447459697723,
                    0.04446547478437424,
                    -0.023953868076205254,
                    0.0892135500907898,
                    0.11038053780794144,
                    0.12699832022190094,
                    0.09100738912820816,
                    0.10741610080003738,
                    -0.03577882796525955,
                    -0.0292341411113739,
                    -0.13163046538829803,
                    0.14214369654655457,
                    -0.041916169226169586,
                    0.016751673072576523,
                    -0.11776567250490189,
                    0.13895878195762634,
                    -0.09405429661273956,
                    0.10529133677482605,
                    -0.08837791532278061,
                    -0.09478665888309479,
                    0.025097759440541267,
                    0.007047572173178196,
                    -0.08801157772541046,
                    0.13522139191627502,
                    -0.033750321716070175,
                    -0.06981904804706573,
                    -0.015933718532323837,
                    -0.013958661817014217,
                    0.09342332184314728,
                    0.12503956258296967,
                    -0.10537604987621307,
                    0.1279015988111496,
                    0.06438097357749939,
                    0.09560501575469971,
                    -0.03802144154906273,
                    0.04806926101446152,
                    -0.07455470412969589,
                    -0.011795764788985252,
                    -0.007556273601949215,
                    -0.10731149464845657,
                    0.08917585760354996,
                    -0.10495561361312866,
                    -0.006170475389808416,
                    -0.08109675347805023,
                    0.0187014602124691,
                    0.10740256309509277,
                    -0.08160638064146042,
                    0.10713502019643784,
                    0.06632665544748306,
                    -0.13923850655555725,
                    -0.15310907363891602,
                    -0.04887135699391365,
                    -0.09499546885490417,
                    0.09026359766721725,
                    -0.0862497016787529,
                    -0.07221669703722,
                    -0.10728350281715393,
                    -0.04223979637026787,
                    -0.07777369022369385,
                    -0.007175253704190254,
                    0.09614822268486023,
                    -0.06080467253923416,
                    0.030497796833515167,
                    0.14183109998703003,
                    0.10182642191648483,
                    -0.1278986632823944,
                    0.04315303638577461,
                    -0.13888314366340637,
                    -0.07970892637968063,
                    -0.10397269576787949,
                    0.0006162492791190743,
                    0.005963375326246023,
                    0.012333910912275314,
                    0.08904962241649628,
                    0.04500248655676842,
                    0.10933521389961243,
                    0.09331078827381134,
                    0.00048663298366591334,
                    0.08616718649864197,
                    -0.10267619043588638,
                    0.13485459983348846,
                    -0.043857771903276443,
                    -0.03850947692990303,
                    -0.11601903289556503,
                    -0.06814858317375183,
                    -0.0954432487487793,
                    -0.12319958209991455,
                    0.12530045211315155,
                    0.08386068791151047,
                    -0.03831934183835983,
                    -0.04921017959713936,
                    -0.08658228069543839,
                    0.08283818513154984,
                    0.10619543492794037,
                    -0.05076826736330986,
                    -0.09674986451864243,
                    0.0725419744849205,
                    -0.015165181830525398,
                    0.004625096917152405,
                    0.13734182715415955,
                    0.09375093132257462,
                    -0.04852467030286789,
                    -0.062047284096479416,
                    -0.1261901706457138,
                    -0.060154370963573456,
                    -0.06636636704206467,
                    0.015205327421426773,
                    0.048834286630153656,
                    0.08796121180057526,
                    0.0625000074505806,
                    0.011395647190511227,
                    -0.09745477885007858,
                    0.04563743248581886,
                    -0.09701215475797653,
                    -0.04479348659515381,
                    -0.13572825491428375,
                    0.027257811278104782,
                    0.15448443591594696,
                    0.15261684358119965,
                    0.01601797714829445,
                    -0.12225570529699326,
                    -0.12263933569192886,
                    0.10618599504232407,
                    -0.013821307569742203,
                    0.11953476816415787,
                    0.12926088273525238,
                    -0.04562374949455261,
                    0.06803213804960251,
                    0.07616391032934189,
                    -0.1270035058259964,
                    -0.062174826860427856,
                    -0.0526374988257885,
                    0.02163238450884819,
                    -0.017628859728574753,
                    -0.10838650912046432,
                    -0.011229421943426132,
                    0.0064867641776800156,
                    0.08210990577936172,
                    -0.05222616717219353,
                    0.07290879637002945,
                    0.0019278675317764282,
                    -0.024282746016979218,
                    0.14226315915584564,
                    -0.03202337026596069,
                    -0.001966420328244567,
                    -0.10105159133672714,
                    0.15247313678264618,
                    0.08264444768428802,
                    -0.1423138678073883,
                    -0.11856809258460999,
                    -0.12496967613697052,
                    -0.015569242648780346,
                    -0.0184487197548151,
                    -0.10970292240381241,
                    -0.14249016344547272,
                    0.04079163074493408,
                    0.029451746493577957,
                    -0.14480681717395782,
                    0.15169541537761688,
                    0.05406605079770088,
                    -0.11652607470750809,
                    0.0353270061314106,
                    0.08351628482341766,
                    0.007176920771598816,
                    0.11915694177150726,
                    -0.042964402586221695,
                    0.13586550951004028,
                    -0.010042148642241955,
                    -0.1170164942741394,
                    0.04008069261908531,
                    -0.05372726917266846,
                    0.12495610862970352,
                    -0.04282855987548828,
                    0.07693726569414139,
                    0.11519233882427216,
                    0.09412335604429245,
                    0.06739336252212524,
                    -0.10814642161130905,
                    0.01501583680510521,
                    0.09042232483625412,
                    -0.04810246452689171,
                    0.13827037811279297,
                    -0.05529965087771416,
                    -0.016347462311387062,
                    -0.10739155858755112,
                    0.0041443645022809505,
                    0.07293174415826797,
                    0.018229622393846512,
                    -0.1187736913561821,
                    0.009203776717185974,
                    0.11901476234197617,
                    -0.11094461381435394,
                    0.06378914415836334,
                    0.11809605360031128,
                    -0.04014374688267708,
                    -0.06671612709760666,
                    0.09148257970809937,
                    0.09869036078453064,
                    -0.04178611561655998,
                    0.09627263993024826,
                    0.07904753088951111,
                    -0.048843253403902054,
                    0.02784682810306549,
                    -0.00812962744385004,
                    0.02976490929722786,
                    -0.0370885506272316,
                    -0.11536122858524323,
                    -0.009195713326334953,
                    0.024713771417737007,
                    0.03194839879870415,
                    -0.1240607425570488,
                    -0.0071072704158723354,
                    -0.10326241701841354,
                    -0.07103915512561798,
                    -0.13253436982631683,
                    -0.017327969893813133,
                    -0.11514795571565628,
                    -0.10166597366333008,
                    0.09387315064668655,
                    -0.14941342175006866,
                    0.00847824476659298,
                    0.12926992774009705,
                    -0.14077061414718628,
                    -0.1112130656838417,
                    -0.145940363407135,
                    0.021039307117462158,
                    -0.038969673216342926,
                    -0.07730267196893692,
                    0.04671057313680649,
                    0.05300016701221466,
                    -0.14156033098697662,
                    0.13236507773399353,
                    0.07424943149089813,
                    -0.11524825543165207,
                    -0.009101057425141335,
                    0.10045047849416733,
                    -0.04447140544652939,
                    0.1310950666666031,
                    0.012904173694550991,
                    -0.013004783540964127,
                    0.0871088057756424,
                    0.0026617187540978193,
                    -0.05458708480000496,
                    0.07767242193222046,
                    -0.030363233759999275,
                    0.09942137449979782,
                    -0.14024053514003754,
                    0.01826508715748787,
                    0.05326083302497864,
                    0.0056903469376266,
                    0.04668450355529785,
                    0.13826502859592438,
                    -0.08558958023786545,
                    0.04005814343690872,
                    -0.02685948833823204,
                    -0.08779966086149216,
                    -0.05048239976167679,
                    0.10265149921178818,
                    -0.09830855578184128,
                    0.03903636708855629,
                    -0.04509260505437851,
                    0.07387090474367142,
                    -0.07406487315893173,
                    -0.028000405058264732,
                    -0.13607853651046753,
                    -0.006806159391999245,
                    0.031045502051711082,
                    0.09115491062402725,
                    0.023368068039417267,
                    0.1299351006746292,
                    0.049910519272089005,
                    -0.1439882069826126,
                    -0.1456032544374466,
                    -0.11838032305240631,
                    0.05093084275722504,
                    -0.0022207375150173903,
                    0.13256427645683289,
                    0.12951414287090302,
                    -0.09283571690320969,
                    -0.09270919859409332,
                    0.016687432304024696,
                    0.13523459434509277,
                    0.11088746041059494,
                    -0.05739973857998848,
                    0.133787602186203,
                    -0.07686231285333633,
                    -0.1174553707242012,
                    0.07725037634372711,
                    -0.023427460342645645,
                    -0.12302826344966888,
                    0.12483479827642441,
                    -0.03059215284883976,
                    -0.036707840859889984,
                    -0.02192879654467106,
                    0.1573527455329895,
                    -0.09760098159313202,
                    0.049968328326940536,
                    0.13162754476070404,
                    0.039300087839365005,
                    0.02921394445002079,
                    0.11936873942613602,
                    -0.10411418974399567,
                    0.15362422168254852,
                    0.11486759781837463,
                    -0.0993148535490036,
                    -0.04566126689314842,
                    0.06244025379419327,
                    -0.06773922592401505,
                    0.04214882850646973,
                    -0.030143311247229576,
                    0.020356370136141777,
                    -0.1625393033027649,
                    0.14703762531280518,
                    -0.03814538195729256,
                    0.12506966292858124,
                    0.08635549992322922,
                    -0.08501037955284119,
                    -0.06450147926807404,
                    -0.02478702925145626,
                    -0.04322647675871849,
                    -0.0072084879502654076,
                    -0.002148270606994629,
                    0.014791764318943024,
                    0.03306380286812782,
                    0.009190725162625313,
                    0.0445636510848999,
                    0.12388649582862854,
                    0.1308043897151947,
                    -0.025848068296909332,
                    0.08781159669160843,
                    0.057156696915626526,
                    -0.09824072569608688,
                    -0.026427680626511574,
                    0.1363663673400879,
                    -0.006413566879928112,
                    -0.051028355956077576,
                    -0.07683488726615906,
                    0.06821663677692413,
                    -0.05917128920555115,
                    0.14674872159957886,
                    -0.07686582207679749,
                    0.10177812725305557,
                    0.03495896980166435,
                    -0.10258719325065613,
                    0.14007604122161865,
                    0.05455144867300987,
                    0.07697220891714096,
                    -0.056713227182626724,
                    0.07807329297065735,
                    -0.07940543442964554,
                    0.0945853441953659,
                    -0.012556668370962143,
                    0.0024614562280476093,
                    0.13134373724460602,
                    -0.01251483429223299,
                    0.007242001127451658,
                    -0.06363336741924286,
                    0.10349229723215103,
                    -0.14324605464935303,
                    -0.038756296038627625,
                    0.045103613287210464,
                    0.038485087454319,
                    -0.10536123812198639,
                    0.11622264981269836,
                    0.028315909206867218,
                    -0.13817983865737915,
                    -0.029086202383041382,
                    0.040077220648527145,
                    0.0054729776456952095,
                    -0.037697091698646545,
                    -0.10337218642234802,
                    0.055669259279966354,
                    -0.00794659648090601,
                    -0.05158009007573128,
                    -0.10602990537881851,
                    -0.15335771441459656,
                    0.11853021383285522,
                    0.00615348108112812,
                    -0.043124109506607056,
                    -0.028219938278198242,
                    -0.0651407316327095,
                    0.094477079808712,
                    -0.10191462934017181,
                    0.08826551586389542,
                    0.06970647722482681,
                    0.06173667311668396,
                    0.10683409124612808,
                    0.14294061064720154,
                    0.024006228893995285,
                    -0.08129210025072098,
                    0.03782143443822861,
                    -0.07996173948049545,
                    -0.07040425390005112,
                    -0.019967643544077873,
                    -0.13806137442588806,
                    -0.03990006446838379,
                    0.0818859115242958,
                    -0.1588059961795807,
                    0.013103164732456207,
                    0.10945888608694077,
                    0.000542946218047291,
                    0.14475245773792267,
                    0.06410194933414459,
                    0.05047938972711563,
                    0.02035466395318508,
                    -0.054939236491918564,
                    0.07686302810907364,
                    -0.13296158611774445,
                    -0.10618452727794647,
                    0.1432669311761856,
                    0.01813790574669838,
                    0.10763814300298691,
                    0.10968047380447388,
                    0.07341334968805313,
                    0.128733828663826,
                    0.030254513025283813,
                    0.03939155489206314,
                    -0.09321766346693039,
                    0.13125558197498322,
                    -0.10941477119922638,
                    -0.12191694229841232,
                    0.08492293208837509,
                    0.08482886850833893,
                    -0.11904284358024597,
                    0.07980538159608841,
                    -0.059649061411619186,
                    0.10263823717832565,
                    -0.0838957205414772,
                    -0.06799628585577011,
                    0.0341145396232605,
                    0.04674306884407997,
                    0.011446570046246052,
                    -0.03808242455124855,
                    -0.13144123554229736,
                    -0.049522437155246735,
                    0.003492817748337984,
                    0.12098516523838043,
                    -0.047040730714797974,
                    -0.11364956200122833,
                    -0.03605600446462631,
                    -0.017830615863204002,
                    -0.14756400883197784,
                    0.006836846936494112,
                    0.14099739491939545,
                    0.05327034741640091,
                    -0.0739741176366806,
                    0.10948152095079422,
                    0.07375013083219528,
                    0.09933964908123016,
                    -0.13790535926818848,
                    -0.06435004621744156,
                    0.05388593301177025,
                    -0.09465506672859192,
                    0.13395261764526367,
                    0.13219791650772095,
                    0.11421750485897064,
                    0.08098703622817993,
                    -0.04763314127922058,
                    0.07729336619377136,
                    -0.07317032665014267,
                    0.045956891030073166,
                    0.06744956970214844,
                    0.015065210871398449,
                    -0.08830473572015762,
                    -0.11397432535886765,
                    0.04138733074069023,
                    0.14952929317951202,
                    0.12027563899755478,
                    0.07385692000389099,
                    0.13838475942611694,
                    0.0036529856733977795,
                    -0.09296213835477829,
                    0.15963071584701538,
                    -0.05810074880719185,
                    -0.11898976564407349,
                    -0.10713791102170944,
                    0.07698096334934235,
                    -0.06643246859312057,
                    -0.017042214050889015,
                    -0.014776906929910183,
                    0.056348830461502075,
                    -0.020351309329271317,
                    -0.027226293459534645,
                    -0.06735018640756607,
                    0.07906217873096466,
                    0.08125938475131989,
                    0.10370587557554245,
                    -0.02987474389374256,
                    -0.12627282738685608,
                    0.11875007301568985,
                    -0.010654909536242485,
                    -0.12820181250572205,
                    -0.06293266266584396,
                    -0.027896823361516,
                    -0.06888551265001297,
                    0.13541370630264282,
                    0.07911407202482224,
                    0.04966719448566437,
                    0.07448650896549225,
                    0.15304824709892273,
                    -0.15748226642608643,
                    -0.08588525652885437,
                    -0.013567323796451092,
                    -0.0829000324010849,
                    -0.10556243360042572,
                    -0.06612682342529297,
                    -0.1434982568025589,
                    0.07923153787851334,
                    -0.08156417310237885,
                    0.1386881023645401,
                    0.10930688679218292,
                    -0.07376787066459656,
                    -0.0172557532787323,
                    0.035161640495061874,
                    -0.042402904480695724,
                    0.08552195876836777,
                    0.0785149410367012,
                    -0.03995513543486595,
                    -0.07737801969051361,
                    -0.08119342476129532,
                    0.08989112824201584,
                    -0.12850794196128845,
                    -0.10720008611679077,
                    0.15618328750133514,
                    0.05333181843161583,
                    0.06921619921922684,
                    0.01068834587931633,
                    -0.07283425331115723,
                    0.12691089510917664,
                    0.09263919293880463,
                    -0.10231571644544601,
                    0.008208843879401684,
                    0.07017051428556442,
                    -0.05212750285863876,
                    0.10316058248281479,
                    -0.0713685005903244,
                    -0.09835724532604218,
                    -0.014526926912367344,
                    -0.09331710636615753,
                    0.07962829619646072,
                    0.10649053752422333,
                    0.13169033825397491,
                    0.14624139666557312,
                    0.061616603285074234,
                    0.06914099305868149,
                    0.018132736906409264,
                    -0.04098544269800186,
                    0.13100682199001312,
                    -0.12192907929420471,
                    0.049681659787893295,
                    -0.014428002759814262,
                    0.07376109808683395,
                    0.060241833329200745,
                    -0.016484199091792107,
                    0.007264886051416397,
                    -0.058565378189086914,
                    -0.04750358685851097,
                    0.0028020984027534723,
                    0.10314630717039108,
                    -0.05927002802491188,
                    -0.11588654667139053,
                    0.0010118128266185522,
                    -0.13391521573066711,
                    0.06090738996863365,
                    -0.05884242802858353,
                    -0.15566641092300415,
                    0.15422140061855316,
                    0.07373806089162827,
                    0.061776719987392426,
                    0.04685796797275543,
                    0.0049342019483447075,
                    0.08646562695503235,
                    0.11700205504894257,
                    0.11860745400190353,
                    -0.13494466245174408,
                    0.06505188345909119,
                    0.08608940243721008,
                    0.009013567119836807,
                    0.048273660242557526,
                    0.12938398122787476,
                    -0.013943815603852272,
                    0.05067599564790726,
                    0.05416267365217209,
                    -0.03517414629459381,
                    0.018798798322677612,
                    -0.13690723478794098,
                    -0.0912872776389122,
                    0.15034699440002441,
                    0.11423049122095108,
                    0.030749982222914696,
                    0.07187558710575104,
                    0.04868597909808159,
                    0.03371608257293701,
                    0.04743359982967377,
                    -0.09114489704370499,
                    -0.013825798407196999,
                    0.05057985708117485,
                    -0.07763047516345978,
                    -0.016462791711091995,
                    -0.08987744152545929,
                    0.14826659858226776,
                    0.007315836381167173,
                    0.008835164830088615,
                    -0.02793814241886139,
                    0.14959624409675598,
                    -0.003713163547217846,
                    0.15638241171836853,
                    0.0439012348651886,
                    -0.15402628481388092,
                    -0.11441843211650848,
                    0.014594795182347298,
                    0.08199859410524368,
                    -0.11499733477830887,
                    -0.011086268350481987,
                    0.12351150065660477,
                    -0.05018637701869011,
                    0.0790148377418518,
                    -0.005528734996914864,
                    0.023439966142177582,
                    -0.04562772810459137,
                    0.14046795666217804,
                    -0.06880269944667816,
                    -0.11990300565958023,
                    -0.11753356456756592,
                    -0.02866189181804657,
                    0.1505178064107895,
                    -0.050062395632267,
                    0.03627711534500122,
                    0.13443051278591156,
                    -0.05889146775007248,
                    -0.007471637334674597,
                    -0.14834117889404297,
                    0.12954002618789673,
                    0.022284304723143578,
                    -0.06999065726995468,
                    -0.13336703181266785,
                    0.1459810435771942,
                    -0.045582644641399384,
                    -0.017507359385490417,
                    -0.046416986733675,
                    0.12322520464658737,
                    0.0012312582693994045,
                    -0.0708598643541336,
                    -0.059084419161081314,
                    0.021207813173532486,
                    0.10351172089576721,
                    -0.09784829616546631,
                    0.06572316586971283,
                    -0.042330462485551834,
                    -0.03838297352194786,
                    0.08167101442813873,
                    0.04020353779196739,
                    -0.15894979238510132,
                    -0.14522375166416168,
                    -0.13017728924751282,
                    0.07040656358003616,
                    0.1078338474035263,
                    -0.11534560471773148,
                    -0.03414859250187874,
                    0.01903129555284977,
                    0.12302705645561218,
                    0.12130708247423172,
                    -0.027940040454268456,
                    0.05951933562755585,
                    -0.05458848923444748,
                    -0.023044968023896217,
                    0.11278244853019714,
                    0.06174733117222786,
                    -0.12624605000019073,
                    -0.1470077633857727,
                    0.040438760071992874,
                    -0.07726321369409561,
                    0.1001625508069992,
                    0.04681064188480377,
                    0.005272017326205969,
                    -0.10427264869213104,
                    -0.09522474557161331,
                    -0.10962311178445816,
                    0.005715344101190567,
                    0.1448882520198822,
                    -0.09995861351490021,
                    0.14314992725849152,
                    -0.13805130124092102,
                    0.12665867805480957,
                    -0.03305240347981453,
                    0.13439445197582245,
                    0.02629418484866619,
                    0.14512810111045837,
                    0.03945194184780121,
                    0.0033060198184102774,
                    0.031020009890198708,
                    0.07084433734416962,
                    0.12038009613752365,
                    0.08757039904594421,
                    -0.014359535649418831,
                    -0.07002916932106018,
                    0.013767607510089874,
                    -0.17355310916900635,
                    -0.1464950293302536,
                    0.07166972756385803,
                    0.04939073324203491,
                    0.011346237733960152,
                    0.14676272869110107,
                    0.07178647816181183,
                    -0.09538805484771729,
                    -0.06992074102163315,
                    -0.06372039020061493,
                    -0.11918643862009048,
                    0.1319153904914856,
                    -0.14338885247707367,
                    -0.0032724253833293915,
                    0.12885762751102448,
                    -0.03687780722975731,
                    0.06823553144931793,
                    -0.12157563120126724,
                    -0.138201504945755,
                    0.07482390850782394,
                    0.11422804743051529,
                    -0.06665635854005814,
                    0.03410104289650917,
                    -0.13280300796031952,
                    -0.012676124460995197,
                    -0.15124699473381042,
                    -0.1378197968006134,
                    -0.06589356064796448,
                    -0.023868847638368607,
                    -0.053098469972610474,
                    -0.00028161381487734616,
                    0.0315665602684021,
                    0.08233978599309921,
                    0.05188847333192825,
                    0.12681415677070618,
                    0.05845428258180618,
                    -0.02111135795712471,
                    -0.1408623605966568,
                    0.01392146572470665,
                    -0.035611025989055634,
                    -0.14604231715202332,
                    -0.02744700387120247,
                    0.022400017827749252,
                    -0.09903579950332642,
                    -0.05815888196229935,
                    0.028923632577061653,
                    -0.09608499705791473,
                    -0.046895138919353485,
                    0.008281643502414227,
                    -0.023083077743649483,
                    -0.14736467599868774,
                    -0.06155208870768547,
                    -0.012056293897330761,
                    0.12776070833206177,
                    0.0002375446492806077,
                    -0.08558773249387741,
                    0.10883490741252899,
                    -0.003584036137908697,
                    -0.11052873730659485,
                    -0.08226177841424942,
                    -0.052883926779031754,
                    0.06619874387979507,
                    0.15178468823432922,
                    -0.035326190292835236,
                    -0.09994887560606003,
                    -0.05448690801858902,
                    0.05426673963665962,
                    -0.14860087633132935,
                    0.09417517483234406,
                    0.12307281792163849,
                    -0.12341047823429108,
                    0.14592240750789642,
                    -0.002680783858522773,
                    -0.01799246110022068,
                    -0.06964704394340515,
                    0.01070441771298647,
                    0.03095194138586521,
                    -0.1263231635093689,
                    0.1340719312429428,
                    -0.12544329464435577,
                    0.08430064469575882,
                    0.0075311316177248955,
                    -0.03000066429376602,
                    0.03354640305042267,
                    -0.025664731860160828,
                    -0.14780354499816895,
                    -0.09957305341959,
                    0.1182095855474472,
                    -0.11127752810716629,
                    0.09932583570480347,
                    0.08516941219568253,
                    -0.01137391198426485,
                    0.10948620736598969,
                    0.020279813557863235,
                    -0.05360259488224983,
                    -0.17241881787776947,
                    0.10377976298332214,
                    0.0353817455470562,
                    0.042632829397916794,
                    0.10536110401153564,
                    -0.027295729145407677,
                    0.08620335161685944,
                    0.0504947230219841,
                    0.1427018791437149,
                    0.10494241118431091,
                    0.05090708285570145,
                    0.11792732775211334,
                    0.15126585960388184,
                    -0.012326921336352825,
                    0.042050521820783615,
                    0.04872424528002739,
                    -0.1315356194972992,
                    0.1170419380068779,
                    0.12629441916942596,
                    -0.02288946881890297,
                    0.03618340194225311,
                    0.1297985464334488,
                    0.041578058153390884,
                    -0.05780808627605438,
                    0.06028163060545921,
                    0.11346514523029327,
                    -0.035973984748125076,
                    0.09598954021930695,
                    0.023759333416819572,
                    -0.06475206464529037,
                    0.033306609839200974,
                    -0.1056395173072815,
                    -0.13326933979988098,
                    0.029457425698637962,
                    -0.021925710141658783,
                    0.021185487508773804,
                    0.09220999479293823,
                    0.02294236049056053,
                    0.16399666666984558,
                    0.07947245240211487,
                    -0.008543667383491993,
                    -0.09078343212604523,
                    0.1034180074930191,
                    -0.04623706266283989,
                    0.09134235978126526,
                    0.1465364247560501,
                    0.08671854436397552,
                    -0.11198702454566956,
                    0.010995976626873016,
                    0.07969965040683746,
                    -0.11613019555807114,
                    0.07052803039550781,
                    0.12045604735612869,
                    -0.09580176323652267,
                    0.053569864481687546,
                    -0.07414504140615463,
                    -0.10510937869548798,
                    0.11875103414058685,
                    0.017380615696310997,
                    -0.07448911666870117,
                    -0.026385575532913208,
                    0.0681765004992485,
