[
    {
        "class": "keras.layers.core.dense.Dense",
        "config": {
            "name": "dense",
            "trainable": true,
            "dtype": "float32",
            "units": 64,
            "activation": "softplus",
            "use_bias": true,
            "kernel_initializer": {
                "class_name": "GlorotUniform",
                "config": {
                    "seed": null
                }
            },
            "bias_initializer": {
                "class_name": "Zeros",
                "config": {}
            },
            "kernel_regularizer": null,
            "bias_regularizer": null,
            "activity_regularizer": null,
            "kernel_constraint": null,
            "bias_constraint": null
        },
        "weights": [
            {
                "_type": "ndarray",
                "shape": [
                    3,
                    64
                ],
                "dtype": "float32",
                "data": [
                    0.1273624151945114,
                    0.15183162689208984,
                    -0.2469971626996994,
                    -0.11918824166059494,
                    -0.08659601211547852,
                    0.2346002757549286,
                    0.21871912479400635,
                    -0.06284137070178986,
                    -0.17405077815055847,
                    -0.28125226497650146,
                    0.010969109833240509,
                    -0.26752015948295593,
                    0.2888437509536743,
                    -0.1929825395345688,
                    -0.2678108811378479,
                    0.06379377096891403,
                    0.29360756278038025,
                    -0.08156531304121017,
                    0.20787261426448822,
                    -0.026451347395777702,
                    0.21254976093769073,
                    -0.1755826771259308,
                    -0.043982669711112976,
                    0.16190692782402039,
                    -0.027343066409230232,
                    0.2134375125169754,
                    -0.05271845683455467,
                    0.20542876422405243,
                    -0.10785530507564545,
                    0.0780874639749527,
                    0.09125705808401108,
                    -0.3116210401058197,
                    0.12796132266521454,
                    -0.3686598837375641,
                    -0.2042258381843567,
                    -0.07758928835391998,
                    -0.060501426458358765,
                    0.28005194664001465,
                    0.07081356644630432,
                    0.04450085759162903,
                    -0.15207460522651672,
                    0.29549211263656616,
                    -0.11968103796243668,
                    -0.19651760160923004,
                    0.040477607399225235,
                    -0.17204798758029938,
                    -0.29126521944999695,
                    -0.2647135853767395,
                    -0.05380530282855034,
                    0.12772610783576965,
                    0.22384528815746307,
                    0.24667350947856903,
                    -0.13480208814144135,
                    -0.3318341374397278,
                    0.05704854801297188,
                    0.21920937299728394,
                    0.005031711887568235,
                    0.01962512917816639,
                    -0.11077789217233658,
                    0.2942083179950714,
                    -0.10281085222959518,
                    -0.20294153690338135,
                    0.15009178221225739,
                    0.019157715141773224,
                    0.4045185446739197,
                    0.18741607666015625,
                    -0.2630471885204315,
                    -0.060745179653167725,
                    -0.11964622139930725,
                    0.31326285004615784,
                    -0.07177292555570602,
                    0.03689774125814438,
                    -0.14818434417247772,
                    -0.10341236740350723,
                    0.11277519166469574,
                    -0.11383268982172012,
                    -0.2561354637145996,
                    0.1707240641117096,
                    0.2934700548648834,
                    0.17637857794761658,
                    -0.12474464625120163,
                    0.16495396196842194,
                    -0.025557273998856544,
                    -0.1286175698041916,
                    0.29629579186439514,
                    -0.21305087208747864,
                    0.00648589339107275,
                    0.11271364986896515,
                    -0.28584590554237366,
                    -0.13431833684444427,
                    -0.4438835084438324,
                    -0.05488792434334755,
                    -0.3517639935016632,
                    -0.02350269816815853,
                    -0.12058217078447342,
                    0.26607638597488403,
                    0.1817510724067688,
                    -0.08462922275066376,
                    0.021522046998143196,
                    0.3258245885372162,
                    -0.2888846695423126,
                    -0.08974967896938324,
                    0.2550773620605469,
                    0.28732722997665405,
                    -0.2218034565448761,
                    0.07833445817232132,
                    -0.0905923992395401,
                    -0.12526212632656097,
                    -0.1042359247803688,
                    -0.40981540083885193,
                    -0.2033320814371109,
                    0.17648102343082428,
                    -0.12778404355049133,
                    0.21270176768302917,
                    0.12178346514701843,
                    -0.2054651975631714,
                    0.05233991518616676,
                    0.13138343393802643,
                    -0.0012771948240697384,
                    0.15198972821235657,
                    -0.16787610948085785,
                    -0.0013758535496890545,
                    -0.17019835114479065,
                    -0.18569430708885193,
                    0.25950029492378235,
                    0.20064055919647217,
                    0.3433520793914795,
                    0.2568567395210266,
                    -0.044074349105358124,
                    -0.29636213183403015,
                    -0.05744867026805878,
                    -0.024024097248911858,
                    0.005036479327827692,
                    0.24369698762893677,
                    0.15832258760929108,
                    0.13927076756954193,
                    0.2823001742362976,
                    -0.24786680936813354,
                    -0.16635838150978088,
                    0.17007870972156525,
                    0.007739582099020481,
                    0.05834019184112549,
                    -0.04689987003803253,
                    -0.2860449552536011,
                    0.07982160151004791,
                    -0.24760647118091583,
                    -0.28769394755363464,
                    0.1319597214460373,
                    -0.28960955142974854,
                    -0.2529778480529785,
                    0.1563766598701477,
                    0.0014862512471154332,
                    0.06959418207406998,
                    0.14926786720752716,
                    -0.10272538661956787,
                    0.26685982942581177,
                    0.26667389273643494,
                    -0.027160929515957832,
                    -0.030285509303212166,
                    0.17977190017700195,
                    -0.11124609410762787,
                    -0.20207281410694122,
                    0.09004732966423035,
                    -0.10050030797719955,
                    0.2749607563018799,
                    0.23649075627326965,
                    -0.2631589472293854,
                    0.0896519273519516,
                    -0.13622553646564484,
                    0.11559829860925674,
                    -0.0303188469260931,
                    -0.04582390934228897,
                    0.1278180629014969,
                    -0.1642058938741684,
                    0.23109318315982819,
                    -0.29800277948379517,
                    0.09515121579170227,
                    0.2687963843345642,
                    0.14949481189250946,
                    -0.26559609174728394,
                    -0.16278381645679474,
                    0.11261037737131119,
                    0.022251712158322334,
                    0.032145678997039795,
                    -0.0557410791516304,
                    0.04703224450349808,
                    0.1329084038734436,
                    0.0408480167388916,
                    0.08259344846010208,
                    0.09813003242015839,
                    -0.1508989781141281,
                    0.25824087858200073
                ]
            },
            {
                "_type": "ndarray",
                "shape": [
                    64
                ],
                "dtype": "float32",
                "data": [
                    0.040296461433172226,
                    0.0012065480696037412,
                    -0.004527981858700514,
                    -0.0019294660305604339,
                    -0.007057604379951954,
                    0.04145190492272377,
                    0.02289799228310585,
                    -0.001573404180817306,
                    -0.009765146300196648,
                    0.005129437427967787,
                    0.009355750866234303,
                    0.0004682753642555326,
                    0.03949098661541939,
                    -0.0027506898622959852,
                    -0.05231621488928795,
                    -0.02895759977400303,
                    0.041808824986219406,
                    0.02665778622031212,
                    -0.004093867260962725,
                    -0.01094005350023508,
                    0.020694129168987274,
                    -0.014577536843717098,
                    -0.007342829834669828,
                    0.005627960432320833,
                    -0.012105103582143784,
                    0.0039577423594892025,
                    0.057558801025152206,
                    -0.00304500013589859,
                    -0.06627754122018814,
                    0.007334059104323387,
                    -0.004921257961541414,
                    -0.01706567034125328,
                    0.004442113451659679,
                    -0.026803545653820038,
                    0.019611822441220284,
                    0.0027978080324828625,
                    -0.0307689867913723,
                    0.03255078196525574,
                    0.006817764136940241,
                    0.00843446422368288,
                    -0.00901130959391594,
                    0.04110666364431381,
                    -0.03381921350955963,
                    -0.00879569910466671,
                    0.006943203508853912,
                    0.05225682631134987,
                    -0.0016029411926865578,
                    -0.00460020313039422,
                    0.02338356524705887,
                    0.01816605031490326,
                    0.019860371947288513,
                    0.002536586718633771,
                    -0.0023187831975519657,
                    -0.03859894722700119,
                    0.0027334357146173716,
                    0.033813249319791794,
                    0.018411029130220413,
                    -0.013678118586540222,
                    -0.009110242128372192,
                    0.035103507339954376,
                    -0.026406463235616684,
                    0.0016112654702737927,
                    0.014401435852050781,
                    -0.0050430940464138985
                ]
            }
        ]
    },
    {
        "class": "keras.layers.core.dense.Dense",
        "config": {
            "name": "dense_1",
            "trainable": true,
            "dtype": "float32",
            "units": 64,
            "activation": "softplus",
            "use_bias": true,
            "kernel_initializer": {
                "class_name": "GlorotUniform",
                "config": {
                    "seed": null
                }
            },
            "bias_initializer": {
                "class_name": "Zeros",
                "config": {}
            },
            "kernel_regularizer": null,
            "bias_regularizer": null,
            "activity_regularizer": null,
            "kernel_constraint": null,
            "bias_constraint": null
        },
        "weights": [
            {
                "_type": "ndarray",
                "shape": [
                    64,
                    64
                ],
                "dtype": "float32",
                "data": [
                    -0.19857430458068848,
                    -0.02970217354595661,
                    -0.08102869987487793,
                    0.2124127298593521,
                    0.1575605422258377,
                    0.03908628225326538,
                    -0.052723828703165054,
                    -0.12860698997974396,
                    0.04830964654684067,
                    0.08488365262746811,
                    -0.13700981438159943,
                    -0.3206038475036621,
                    0.19469961524009705,
                    0.1040935218334198,
                    0.08070585131645203,
                    -0.198232501745224,
                    0.059557486325502396,
                    0.1347890943288803,
                    0.03007400594651699,
                    0.182127445936203,
                    0.08092103898525238,
                    -0.06136045232415199,
                    0.20930369198322296,
                    -0.06918589025735855,
                    0.207485169172287,
                    0.018497172743082047,
                    0.23055703938007355,
                    -0.1773444563150406,
                    -0.030810153111815453,
                    0.1965593695640564,
                    0.010553043335676193,
                    0.053640786558389664,
                    0.10871327668428421,
                    0.13889747858047485,
                    -0.15121649205684662,
                    0.11522560566663742,
                    0.25845807790756226,
                    -0.1380552053451538,
                    0.012583473697304726,
                    0.11484413594007492,
                    -0.18835420906543732,
                    -0.15986043214797974,
                    0.13522866368293762,
                    -0.05272569879889488,
                    -0.174665167927742,
                    -0.09153449535369873,
                    0.21517333388328552,
                    0.0019327772315591574,
                    0.04503374919295311,
                    0.06613875180482864,
                    0.10446599870920181,
                    -0.09272004663944244,
                    0.007069360930472612,
                    0.010105272755026817,
                    0.05442800372838974,
                    -0.1856803447008133,
                    0.030135853216052055,
                    -0.012148970738053322,
                    -0.19742509722709656,
                    0.01616588607430458,
                    0.16158930957317352,
                    -0.20375114679336548,
                    0.02530674636363983,
                    -0.1563558131456375,
                    -0.1976180523633957,
                    0.12154722958803177,
                    -0.12039955705404282,
                    -0.02598329819738865,
                    -0.04721042513847351,
                    -0.15737108886241913,
                    0.1482018530368805,
                    0.16232602298259735,
                    -0.2068810760974884,
                    -0.019204700365662575,
                    0.06814384460449219,
                    -0.20449170470237732,
                    0.01660466566681862,
                    0.156982421875,
                    -0.19348126649856567,
                    -0.08182282745838165,
                    -0.09032803773880005,
                    -0.14194484055042267,
                    -0.12027277797460556,
                    0.0699838399887085,
                    -0.1779835969209671,
                    -0.12218215316534042,
                    0.06293037533760071,
                    -0.20255710184574127,
                    -0.16749560832977295,
                    0.12750348448753357,
                    -0.09145999699831009,
                    0.023508291691541672,
                    -0.04480445384979248,
                    0.19696374237537384,
                    0.15205185115337372,
                    0.14594107866287231,
                    0.054526932537555695,
                    0.14789514243602753,
                    -0.021796679124236107,
                    -0.1270005851984024,
                    0.07603126764297485,
                    -0.026592211797833443,
                    0.20984984934329987,
                    0.10107646137475967,
                    -0.12885461747646332,
                    0.11783600598573685,
                    -0.07841834425926208,
                    0.061210211366415024,
                    0.03742953762412071,
                    0.06652656942605972,
                    0.08304548263549805,
                    -0.04563811793923378,
                    0.007365663070231676,
                    0.08204267174005508,
                    0.04088452458381653,
                    -0.18744923174381256,
                    -0.07528115808963776,
                    0.016788776963949203,
                    0.1777038425207138,
                    0.008694462478160858,
                    0.07611171156167984,
                    0.08502421528100967,
                    0.030365100130438805,
                    0.11775264143943787,
                    -0.05673513561487198,
                    -0.1569611132144928,
                    -0.09500620514154434,
                    0.00015169905964285135,
                    0.1848442256450653,
                    0.21029965579509735,
                    -0.1341199427843094,
                    0.05044051259756088,
                    0.06868553161621094,
                    0.11494210362434387,
                    0.17622721195220947,
                    -0.050676941871643066,
                    -0.011474264785647392,
                    -0.07042109966278076,
                    0.045618943870067596,
                    -0.05823381245136261,
                    -0.14399942755699158,
                    0.08651918917894363,
                    -0.17184321582317352,
                    -0.10066504776477814,
                    0.14165610074996948,
                    -0.0650530457496643,
                    0.21761377155780792,
                    -0.01419156976044178,
                    0.15815438330173492,
                    0.03256857022643089,
                    0.04338371381163597,
                    0.11225216835737228,
                    -0.17780143022537231,
                    -0.03237927332520485,
                    -0.18708057701587677,
                    -0.14441527426242828,
                    0.21869388222694397,
                    -0.10167865455150604,
                    -0.08682869374752045,
                    0.06592795252799988,
                    0.2087571620941162,
                    -0.001424537505954504,
                    -0.00368564878590405,
                    -0.15790294110774994,
                    0.04570625349879265,
                    0.13340532779693604,
                    0.051226623356342316,
                    0.025746576488018036,
                    0.07591688632965088,
                    -0.0265231654047966,
                    -0.03684825450181961,
                    0.024746933951973915,
                    0.06632494926452637,
                    0.22627779841423035,
                    -0.18775837123394012,
                    -0.11604667454957962,
                    0.09796854108572006,
                    0.030875565484166145,
                    -0.13853608071804047,
                    -0.02068977989256382,
                    0.15797048807144165,
                    0.10778696089982986,
                    -0.14316105842590332,
                    -0.13634803891181946,
                    0.13083471357822418,
                    0.024537306278944016,
                    -0.16622766852378845,
                    -0.02956770360469818,
                    0.134706050157547,
                    -0.04845193773508072,
                    0.18023142218589783,
                    -0.08566737920045853,
                    -0.09450571238994598,
                    -0.055951088666915894,
                    0.07496726512908936,
                    -0.18329235911369324,
                    -0.06648820638656616,
                    -0.029956547543406487,
                    0.0710282176733017,
                    0.18810908496379852,
                    0.038936797529459,
                    0.13595592975616455,
                    0.06531182676553726,
                    0.1010957807302475,
                    -0.019467966631054878,
                    -0.16532188653945923,
                    -0.07807884365320206,
                    0.11384095996618271,
                    0.1720760464668274,
                    -0.01836639828979969,
                    0.006857320666313171,
                    -0.06368140876293182,
                    -0.1290702074766159,
                    0.11194305866956711,
                    -0.12162335962057114,
                    -0.043907277286052704,
                    -0.0637008473277092,
                    0.1983850747346878,
                    0.061549656093120575,
                    0.012057487852871418,
                    -0.11272444576025009,
                    0.10850922763347626,
                    -0.15887869894504547,
                    0.058405663818120956,
                    -0.1476566195487976,
                    -0.18189646303653717,
                    -0.027349816635251045,
                    0.027407845482230186,
                    -0.09173630177974701,
                    0.18204551935195923,
                    -0.08459094166755676,
                    -0.19143159687519073,
                    -0.08348540216684341,
                    0.07962626218795776,
                    -0.0032387387473136187,
                    -0.17543916404247284,
                    -0.05054442957043648,
                    0.02450593374669552,
                    -0.08421912044286728,
                    -0.13243483006954193,
                    0.08782113343477249,
                    -0.1353592872619629,
                    0.027375144883990288,
                    0.007029018364846706,
                    -0.06061755120754242,
                    0.014093523845076561,
                    0.0709579586982727,
                    -0.14982134103775024,
                    0.1503404825925827,
                    0.2046726942062378,
                    -0.13556495308876038,
                    -0.08813104033470154,
                    0.03920496255159378,
                    -0.09408783167600632,
                    0.1540418416261673,
                    0.020498741418123245,
                    -0.13461920619010925,
                    -0.14872851967811584,
                    0.018653659150004387,
                    -0.10738963633775711,
                    -0.15836982429027557,
                    -0.042988162487745285,
                    0.1836298108100891,
                    0.1111631765961647,
                    0.019201450049877167,
                    -0.06548766791820526,
                    0.18216320872306824,
                    0.12113796919584274,
                    -0.19358141720294952,
                    0.03636299818754196,
                    -0.07485031336545944,
                    0.11165846139192581,
                    0.1373813897371292,
                    -0.03010127693414688,
                    -0.08225546777248383,
                    -0.08869007974863052,
                    0.1331365704536438,
                    -0.04472368583083153,
                    0.10972557961940765,
                    0.06719041615724564,
                    -0.1953561156988144,
                    -0.1821429580450058,
                    0.07859158515930176,
                    0.05925316363573074,
                    0.02915356494486332,
                    -0.18201208114624023,
                    -0.19759085774421692,
                    0.14788123965263367,
                    -0.06151546910405159,
                    0.003102868562564254,
                    -0.053965769708156586,
                    0.08210469782352448,
                    0.0004287264891900122,
                    0.1039704978466034,
                    -0.15498590469360352,
                    -0.07882797718048096,
                    -0.08795967698097229,
                    -0.02202717587351799,
                    -0.03354813903570175,
                    0.12875127792358398,
                    0.18521040678024292,
                    -0.060338009148836136,
                    -0.15891321003437042,
                    0.12993697822093964,
                    0.029309043660759926,
                    0.18665184080600739,
                    -0.0876874178647995,
                    -0.03152446448802948,
                    -0.0037488220259547234,
                    -0.07884800434112549,
                    0.008175867609679699,
                    -0.10129208117723465,
                    0.10858654230833054,
                    0.0034504823852330446,
                    0.05829330533742905,
                    0.14201213419437408,
                    -0.09997537732124329,
                    -0.17634542286396027,
                    0.06650801002979279,
                    0.07356486469507217,
                    -0.05671965703368187,
                    0.15314282476902008,
                    -0.0578526146709919,
                    0.14429420232772827,
                    -0.009504093788564205,
                    0.013607739470899105,
                    -0.08804689347743988,
                    -0.016466913744807243,
                    0.13228264451026917,
                    0.09687352925539017,
                    -0.1614571064710617,
                    -0.12247492372989655,
                    -0.1699138730764389,
                    0.11279471218585968,
                    -0.16763143241405487,
                    0.17901697754859924,
                    -0.0010934316087514162,
                    -0.2545107901096344,
                    0.12581181526184082,
                    0.03498566895723343,
                    -0.15888439118862152,
                    0.18349137902259827,
                    -0.04180121421813965,
                    0.1827528476715088,
                    0.17977780103683472,
                    -0.09890859574079514,
                    0.19039160013198853,
                    0.1197345107793808,
                    -0.14700248837471008,
                    0.06443599611520767,
                    0.003464312991127372,
                    -0.1300106793642044,
                    0.01042554248124361,
                    -0.04698712006211281,
                    -0.15936025977134705,
                    0.07142119109630585,
                    0.2092762589454651,
                    -0.2116989940404892,
                    0.06433785706758499,
                    -0.1758599728345871,
                    -0.021528534591197968,
                    0.1487533003091812,
                    0.17535574734210968,
                    0.15222863852977753,
                    0.07896450906991959,
                    -0.08941174298524857,
                    0.10748457163572311,
                    0.037826646119356155,
                    0.023420196026563644,
                    -0.1120414063334465,
                    0.061211295425891876,
                    -0.225322425365448,
                    -0.019210563972592354,
                    -0.09090327471494675,
                    0.18177728354930878,
                    -0.15983380377292633,
                    0.12508231401443481,
                    -0.051253169775009155,
                    0.038203395903110504,
                    0.13884291052818298,
                    0.017396384850144386,
                    0.027954543009400368,
                    -0.01903880201280117,
                    0.21977220475673676,
                    0.04283527657389641,
                    0.015448327176272869,
                    -0.09022309631109238,
                    -0.08679920434951782,
                    -0.0018060978036373854,
                    -0.17347398400306702,
                    0.14838111400604248,
                    0.08316385746002197,
                    -0.0349026694893837,
                    0.11058231443166733,
                    0.03056236542761326,
                    -0.1821867823600769,
                    0.08888288587331772,
                    -0.16265462338924408,
                    -0.21097740530967712,
                    0.14663544297218323,
                    -0.18399286270141602,
                    0.07916119694709778,
                    0.09464503079652786,
                    0.17897121608257294,
                    -0.2280632108449936,
                    0.1632092446088791,
                    -0.17896336317062378,
                    0.2153133749961853,
                    -0.11598756164312363,
                    -0.14167854189872742,
                    -0.05603469908237457,
                    0.1862579584121704,
                    -0.1659320890903473,
                    -0.05776868388056755,
                    -0.15808461606502533,
                    -0.09732896834611893,
                    0.19142252206802368,
                    0.03139779716730118,
                    0.0862894132733345,
                    -0.09829853475093842,
                    0.026872193440794945,
                    0.12332471460103989,
                    -0.03452276065945625,
                    -0.1395234912633896,
                    0.06376824527978897,
                    -0.22110280394554138,
                    0.18138441443443298,
                    0.12920399010181427,
                    -0.12038248777389526,
                    0.005786946043372154,
                    -0.15886223316192627,
                    -0.24243588745594025,
                    -0.18422505259513855,
                    -0.048241499811410904,
                    -0.17235831916332245,
                    -0.17056220769882202,
                    -0.1713358610868454,
                    -0.05889879912137985,
                    0.1885586977005005,
                    -0.12903174757957458,
                    0.11323115974664688,
                    -0.19544897973537445,
                    0.10356519371271133,
                    0.014757991768419743,
                    0.17671452462673187,
                    -0.13727852702140808,
                    0.13967332243919373,
                    0.20178568363189697,
                    0.23046454787254333,
                    0.20705798268318176,
                    -0.1904931366443634,
                    -0.08730083703994751,
                    -0.18119968473911285,
                    -0.01077390555292368,
                    -0.07963524758815765,
                    0.17937494814395905,
                    -0.19124850630760193,
                    0.21635471284389496,
                    0.11878042668104172,
                    0.06414873152971268,
                    -0.15365654230117798,
                    -0.1456945538520813,
                    -0.1850207895040512,
                    0.10817258805036545,
                    0.04604567587375641,
                    -0.027896497398614883,
                    -0.1593775451183319,
                    -0.21243438124656677,
                    0.16046661138534546,
                    0.03895392641425133,
                    -0.15714246034622192,
                    -0.11178149282932281,
                    0.19023147225379944,
                    0.15848921239376068,
                    -0.1107378751039505,
                    0.19267451763153076,
                    -0.14306111633777618,
                    0.0505533292889595,
                    -0.21711409091949463,
                    0.018509678542613983,
                    0.047451507300138474,
                    0.16728733479976654,
                    -0.20403467118740082,
                    -0.09922873973846436,
                    -0.16747204959392548,
                    0.0494752898812294,
                    0.02946867048740387,
                    -0.013402831740677357,
                    -0.0008888237061910331,
                    -0.08354581892490387,
                    -0.18015748262405396,
                    0.07334227114915848,
                    0.12924958765506744,
                    -0.025331774726510048,
                    0.09886851161718369,
                    0.044151924550533295,
                    -0.1232118010520935,
                    -0.07411368191242218,
                    -0.0790741890668869,
                    0.17094777524471283,
                    0.017746577039361,
                    0.199998140335083,
                    0.10483966767787933,
                    0.23268704116344452,
                    0.116470567882061,
                    -0.07372362911701202,
                    -0.1860664337873459,
                    -0.10199860483407974,
                    -0.04837479814887047,
                    0.040232885628938675,
                    0.0013489011907950044,
                    -0.09228044003248215,
                    0.08145041018724442,
                    0.21481716632843018,
                    0.021993223577737808,
                    0.13948817551136017,
                    -0.03238172456622124,
                    -0.060350555926561356,
                    0.008088023401796818,
                    0.21354985237121582,
                    0.19007110595703125,
                    -0.07858053594827652,
                    0.11330471187829971,
                    0.12192654609680176,
                    -0.010275729931890965,
                    -0.10434919595718384,
                    0.15525202453136444,
                    0.06275129318237305,
                    -0.09556789696216583,
                    0.12697164714336395,
                    0.1493208259344101,
                    0.1751950979232788,
                    -0.019969414919614792,
                    0.05570153519511223,
                    0.07773550599813461,
                    0.2170291692018509,
                    0.15855203568935394,
                    -0.07103540748357773,
                    -0.10617104172706604,
                    -0.03228544443845749,
                    0.18779686093330383,
                    0.11807791888713837,
                    0.15958784520626068,
                    -0.0920664593577385,
                    -0.1653599739074707,
                    0.02416965551674366,
                    -0.0882394090294838,
                    0.11145566403865814,
                    -0.05303283408284187,
                    0.03258385881781578,
                    0.01463720016181469,
                    -0.07773589342832565,
                    0.13086391985416412,
                    -0.18976636230945587,
                    0.17371393740177155,
                    -0.11427639424800873,
                    0.02482057549059391,
                    0.012253543362021446,
                    0.1448960304260254,
                    -0.21142983436584473,
                    0.003165440633893013,
                    0.12348684668540955,
                    0.18551120162010193,
                    -0.11040801554918289,
                    0.2053568810224533,
                    0.12062472850084305,
                    -0.21041883528232574,
                    -0.12195605039596558,
                    0.0071759396232664585,
                    -0.05322765186429024,
                    0.043272826820611954,
                    0.1611417979001999,
                    -0.17297020554542542,
                    0.040037184953689575,
                    0.10424108058214188,
                    -0.19850526750087738,
                    -0.024833807721734047,
                    -0.08168651908636093,
                    0.05357106402516365,
                    -0.07521988451480865,
                    0.024512268602848053,
                    0.14142680168151855,
                    -0.1520230770111084,
                    -0.20680195093154907,
                    -0.20125415921211243,
                    -0.055592622607946396,
                    -0.06218781694769859,
                    0.20525072515010834,
                    -0.20035766065120697,
                    0.16718274354934692,
                    -0.18536056578159332,
                    -0.0534089095890522,
                    -0.20599886775016785,
                    0.21190141141414642,
                    0.10884635895490646,
                    -0.06681368499994278,
                    0.1252908706665039,
                    -0.14753440022468567,
                    0.09587081521749496,
                    -0.0041257468983531,
                    0.0479486808180809,
                    0.14628876745700836,
                    0.01218481082469225,
                    0.11125528812408447,
                    0.17593124508857727,
                    0.004920195788145065,
                    -0.11724387109279633,
                    0.20171771943569183,
                    0.06561551988124847,
                    -0.1692371815443039,
                    -0.10181593149900436,
                    -0.05818315967917442,
                    0.09431128203868866,
                    0.012326073832809925,
                    -0.09586243331432343,
                    0.09068746864795685,
                    0.11571930348873138,
                    0.06519440561532974,
                    0.010745067149400711,
                    0.11497064679861069,
                    -0.12075109779834747,
                    0.10188805311918259,
                    0.0002228638913948089,
                    -0.02004115656018257,
                    0.06126552075147629,
                    -0.20355010032653809,
                    -0.053030647337436676,
                    -0.04318614304065704,
                    -0.11598687618970871,
                    0.16535411775112152,
                    -0.17224116623401642,
                    0.1118069514632225,
                    0.10111235827207565,
                    -0.12627598643302917,
                    -0.18112069368362427,
                    0.21582864224910736,
                    0.22668690979480743,
                    -0.13396725058555603,
                    -0.14420077204704285,
                    -0.12547244131565094,
                    -0.20266491174697876,
                    -0.07933007180690765,
                    0.0266890786588192,
                    0.09191291034221649,
                    0.14237244427204132,
                    0.21505007147789001,
                    -0.1556396484375,
                    -0.07750377058982849,
                    0.1506330817937851,
                    -0.12285660207271576,
                    -0.19151458144187927,
                    -0.06412728130817413,
                    0.2103617638349533,
                    0.11936759948730469,
                    0.1570855975151062,
                    -0.06995683908462524,
                    -0.10363882035017014,
                    0.12353172153234482,
                    -0.09528104215860367,
                    0.15059982240200043,
                    -0.0737576112151146,
                    0.04921133071184158,
                    -0.18340982496738434,
                    -0.1909073293209076,
                    0.16784749925136566,
                    0.18544432520866394,
                    0.08628281205892563,
                    -0.1344432532787323,
                    0.1237257868051529,
                    0.003451916854828596,
                    -0.0731077492237091,
                    0.17153681814670563,
                    0.037719063460826874,
                    -0.19174699485301971,
                    -0.028333349153399467,
                    -0.1845083236694336,
                    0.22062236070632935,
                    0.1562875211238861,
                    -0.04855920746922493,
                    0.17903046309947968,
                    -0.1689111888408661,
                    0.12336227297782898,
                    0.035064421594142914,
                    -0.11783669143915176,
                    0.13204538822174072,
                    -0.03643618896603584,
                    0.07514601945877075,
                    0.048556987196207047,
                    -0.012929356656968594,
                    0.1263328343629837,
                    0.16716942191123962,
                    -0.104362852871418,
                    -0.17642320692539215,
                    -0.03231499716639519,
                    -0.1125413253903389,
                    0.19600960612297058,
                    -0.16574077308177948,
                    -0.0006402318249456584,
                    0.18021541833877563,
                    0.19313517212867737,
                    0.05300658941268921,
                    -0.08803402632474899,
                    -0.14304186403751373,
                    -0.021924518048763275,
                    0.20431974530220032,
                    -0.03931278735399246,
                    -0.12704992294311523,
                    -0.1816837340593338,
                    0.08867598325014114,
                    0.07401600480079651,
                    0.19910544157028198,
                    -0.06836537271738052,
                    0.20739030838012695,
                    -0.17422974109649658,
                    -0.021823108196258545,
                    -0.1964496672153473,
                    0.1899983286857605,
                    0.056490276008844376,
                    -0.06277114897966385,
                    -0.18772673606872559,
                    0.1948508620262146,
                    0.20861320197582245,
                    0.020103536546230316,
                    0.052579693496227264,
                    0.20688217878341675,
                    0.09669368714094162,
                    0.08243288099765778,
                    -0.0035696171689778566,
                    0.07802457362413406,
                    -0.09325219690799713,
                    -0.06074175983667374,
                    -0.2100343406200409,
                    0.014089620672166348,
                    0.17056751251220703,
                    0.06967637687921524,
                    0.026465555652976036,
                    0.0599958598613739,
                    -0.06176343560218811,
                    0.21173033118247986,
                    0.1396816223859787,
                    -0.10969994962215424,
                    -0.0031463978812098503,
                    -0.09834985435009003,
                    0.13911128044128418,
                    -0.044221580028533936,
                    0.06750625371932983,
                    0.20917610824108124,
                    -0.13397961854934692,
                    0.11051260679960251,
                    0.14516882598400116,
                    -0.04088201746344566,
                    0.014667391777038574,
                    -0.0003609337145462632,
                    0.20483198761940002,
                    -0.17998260259628296,
                    -0.03079414740204811,
                    0.016256509348750114,
                    -0.00400978047400713,
                    0.1257769763469696,
                    -0.11792276054620743,
                    0.20471829175949097,
                    -0.10410577058792114,
                    0.21422500908374786,
                    -0.1934046447277069,
                    0.08867999911308289,
                    0.07226685434579849,
                    -0.09506313502788544,
                    -0.11738056689500809,
                    -0.03236691653728485,
                    0.1465868055820465,
                    -0.03281653672456741,
                    0.06990388035774231,
                    0.14238739013671875,
                    -0.007319753058254719,
                    -0.21214643120765686,
                    -0.21512551605701447,
                    0.19906578958034515,
                    -0.21236982941627502,
                    -0.22076177597045898,
                    -0.23942600190639496,
                    -0.20536360144615173,
                    -0.10565903037786484,
                    0.21723124384880066,
                    0.13646365702152252,
                    -0.05590565875172615,
                    0.14626148343086243,
                    -0.004344406072050333,
                    -0.08071065694093704,
                    -0.12862847745418549,
                    0.02143736742436886,
                    0.05401191860437393,
                    0.21109901368618011,
                    0.06323858350515366,
                    0.18103988468647003,
                    -0.14710967242717743,
                    -0.1219605952501297,
                    0.12410269677639008,
                    -0.1684398353099823,
                    0.09103483706712723,
                    0.1829020380973816,
                    0.12923121452331543,
                    0.1595868617296219,
                    -0.13385996222496033,
                    0.14004121720790863,
                    -0.07090917229652405,
                    -0.15668025612831116,
                    -0.15687552094459534,
                    0.12324322760105133,
                    -0.0119614377617836,
                    0.05107257515192032,
                    -0.16923503577709198,
                    0.1322963386774063,
                    0.0462464913725853,
                    -0.1980566680431366,
                    0.21235424280166626,
                    0.14718639850616455,
                    0.16844181716442108,
                    0.19288423657417297,
                    0.10029157251119614,
                    -0.023586900904774666,
                    0.06262148916721344,
                    0.15155671536922455,
                    -0.06278572231531143,
                    0.09136294573545456,
                    -0.10104148834943771,
                    -0.07867157459259033,
                    -0.12334924191236496,
                    0.1383037567138672,
                    0.0373254232108593,
                    0.1573186218738556,
                    -0.10588204115629196,
                    -0.04508877918124199,
                    -0.16933657228946686,
                    -0.13535365462303162,
                    -0.05741898715496063,
                    -0.16215276718139648,
                    -0.008402299135923386,
                    -0.1877889186143875,
                    -0.03281182423233986,
                    0.04589293897151947,
                    0.028861895203590393,
                    0.06200382858514786,
                    0.07376688718795776,
                    0.05865465849637985,
                    0.12535491585731506,
                    0.13527385890483856,
                    0.05922029912471771,
                    0.0017770390259101987,
                    0.1013607382774353,
                    0.005184965208172798,
                    0.0979083850979805,
                    0.13281629979610443,
                    -0.11328991502523422,
                    -0.1170441135764122,
                    -0.04617391154170036,
                    0.041160523891448975,
                    0.14702105522155762,
                    -0.018273597583174706,
                    -0.11413124948740005,
                    0.07156509160995483,
                    0.16546185314655304,
                    0.047510623931884766,
                    0.13600732386112213,
                    -0.052120137959718704,
                    0.14708904922008514,
                    0.16064366698265076,
                    -0.20651401579380035,
                    0.12800665199756622,
                    -0.1949748396873474,
                    -0.22096602618694305,
                    -0.06370352953672409,
                    0.16709496080875397,
                    0.1687636524438858,
                    0.06483288109302521,
                    -0.06964188814163208,
                    -0.06809274852275848,
                    -0.014889013022184372,
                    0.08607134222984314,
                    -0.14662393927574158,
                    0.1292824149131775,
                    0.09475720673799515,
                    -0.2132430225610733,
                    -0.09033539146184921,
                    0.14809221029281616,
                    0.18517959117889404,
                    0.11680077761411667,
                    0.03726019337773323,
                    -0.033637773245573044,
                    -0.2064904272556305,
                    -0.19337764382362366,
                    -0.10575447976589203,
                    -0.19448351860046387,
                    0.19459092617034912,
                    0.09617225080728531,
                    -0.16959327459335327,
                    0.005685951095074415,
                    0.10677065700292587,
                    0.09665713459253311,
                    0.11360006779432297,
                    0.1324196755886078,
                    0.1348673701286316,
                    0.09129375219345093,
                    0.1693071573972702,
                    -0.21223638951778412,
                    -0.023776846006512642,
                    -0.04463857784867287,
                    0.0758298859000206,
                    0.041161660104990005,
                    0.12179973721504211,
                    -0.11172039061784744,
                    0.1930149793624878,
                    0.2226761281490326,
                    -0.18913528323173523,
                    -0.07095086574554443,
                    0.02727610617876053,
                    -0.049630727618932724,
                    -0.1646592766046524,
                    0.06509118527173996,
                    -0.024090245366096497,
                    -0.09443718940019608,
                    -0.020029589533805847,
                    0.14168620109558105,
                    -0.053402237594127655,
                    -0.055527716875076294,
                    0.0034848477225750685,
                    -0.02227717638015747,
                    -0.05884846672415733,
                    0.07513324916362762,
                    0.0500226765871048,
                    0.07171731442213058,
                    0.036328088492155075,
                    0.17124947905540466,
                    -0.04475012421607971,
                    0.07695373147726059,
                    0.02195659838616848,
                    -0.0852261558175087,
                    -0.0095927519723773,
                    0.1414128690958023,
                    0.06191946566104889,
                    0.020655976608395576,
                    0.16771066188812256,
                    0.04325263947248459,
                    0.017436999827623367,
                    -0.17790751159191132,
                    0.09860201925039291,
                    -0.1283150464296341,
                    -0.14927460253238678,
                    0.0673716738820076,
                    -0.16070464253425598,
                    -0.08159009367227554,
                    -0.03956329822540283,
                    0.1099015325307846,
                    -0.06449632346630096,
                    0.005149952135980129,
                    0.09414941817522049,
                    -0.04343346878886223,
                    -0.1472332924604416,
                    -0.04416745901107788,
                    -0.03081609308719635,
                    -0.09198635816574097,
                    -0.1308704912662506,
                    0.19855409860610962,
                    0.12985756993293762,
                    -0.18718495965003967,
                    0.153272345662117,
                    -0.09275593608617783,
                    0.13173657655715942,
                    -0.07935082912445068,
                    0.18984901905059814,
                    -0.00756654841825366,
                    0.11969989538192749,
                    0.042690541595220566,
                    -0.035938456654548645,
                    -0.06189553812146187,
                    -0.11477773636579514,
                    -0.14621195197105408,
                    0.16199231147766113,
                    -0.09987657517194748,
                    -0.12521909177303314,
                    -0.08924905210733414,
                    0.06096317619085312,
                    -0.022740328684449196,
                    -0.12974175810813904,
                    -0.10990575700998306,
                    -0.07332772016525269,
                    0.053912557661533356,
                    -0.049863383173942566,
                    -0.1381945013999939,
                    -0.09214697033166885,
                    0.09362245351076126,
                    -0.14042530953884125,
                    -0.20926406979560852,
                    0.1483343243598938,
                    -0.19839854538440704,
                    -0.010459507815539837,
                    0.11627229303121567,
                    0.030787847936153412,
                    -0.1529569774866104,
                    -0.07416446506977081,
                    0.20031358301639557,
                    0.20020709931850433,
                    0.18545375764369965,
                    0.0813281387090683,
                    0.08742290735244751,
                    -0.15722094476222992,
                    0.004427303094416857,
                    0.108660027384758,
                    -0.19411960244178772,
                    -0.07048197090625763,
                    0.0027891446370631456,
                    -0.042290277779102325,
                    0.18916551768779755,
                    -0.13593719899654388,
                    0.21157628297805786,
                    -0.049965329468250275,
                    -0.21189254522323608,
                    -0.18344156444072723,
                    -0.16800923645496368,
                    -0.21829108893871307,
                    -0.1573643833398819,
                    -0.06811677664518356,
                    0.04306543245911598,
                    -0.16832640767097473,
                    -0.02908015437424183,
                    0.15352842211723328,
                    0.13766343891620636,
                    0.021581673994660378,
                    0.18169529736042023,
                    0.10151065140962601,
                    0.029817840084433556,
                    0.11753223836421967,
                    0.18028105795383453,
                    0.021536054089665413,
                    -0.04403122514486313,
                    -0.13476833701133728,
                    -0.18378444015979767,
                    -0.1312965750694275,
                    0.18666614592075348,
                    0.1911177933216095,
                    -0.187727153301239,
                    0.16814753413200378,
                    -0.07823466509580612,
                    0.16979101300239563,
                    -0.11952202767133713,
                    -0.2670034170150757,
                    -0.058428023010492325,
                    0.04276227205991745,
                    0.18677687644958496,
                    0.009704290889203548,
                    0.11879971623420715,
                    -0.18838298320770264,
                    0.19858188927173615,
                    -0.020712606608867645,
                    -0.08051697164773941,
                    -0.16495169699192047,
                    0.21140164136886597,
                    0.019339416176080704,
                    0.0526646226644516,
                    -0.015569723211228848,
                    0.06317306309938431,
                    -0.13913819193840027,
                    0.18900927901268005,
                    -0.030708344653248787,
                    0.07276522368192673,
                    0.1593015044927597,
                    0.12881872057914734,
                    -0.08496887236833572,
                    -0.014598183333873749,
                    -0.029156086966395378,
                    0.01681359112262726,
                    0.15844368934631348,
                    -0.19465795159339905,
                    -0.10407605767250061,
                    -0.14454741775989532,
                    -0.06717737019062042,
                    -0.16656185686588287,
                    0.12623873353004456,
                    -0.04394407942891121,
                    0.081941619515419,
                    0.016373513266444206,
                    -0.055105242878198624,
                    0.005632437765598297,
                    -0.199641153216362,
                    -0.19077683985233307,
                    0.0010974535252898932,
                    0.12138102948665619,
                    -0.022835060954093933,
                    -0.09003514796495438,
                    -0.16881242394447327,
                    0.1826353818178177,
                    -0.0031058082822710276,
                    -0.15374469757080078,
                    0.016709046438336372,
                    0.17885012924671173,
                    -0.03129786252975464,
                    -0.0583660714328289,
                    0.2065640389919281,
                    -0.17350971698760986,
                    0.11334383487701416,
                    0.175021231174469,
                    -0.09962418675422668,
                    -0.11855509877204895,
                    0.043654754757881165,
                    0.1766461879014969,
                    0.01143625658005476,
                    -0.01573900505900383,
                    -0.09493277221918106,
                    0.12791001796722412,
                    0.04228376969695091,
                    -0.06153754144906998,
                    0.04952593520283699,
                    0.05751835182309151,
                    -0.10909128934144974,
                    -0.017231997102499008,
                    0.04314660280942917,
                    -0.07854566723108292,
                    0.1232895776629448,
                    -0.05040354281663895,
                    -0.08807174116373062,
                    0.02400652877986431,
                    -0.06450499594211578,
                    -0.18284691870212555,
                    -0.14860652387142181,
                    0.08986128121614456,
                    0.11986095458269119,
                    -0.19097042083740234,
                    0.2061525136232376,
                    0.20409871637821198,
                    0.19112855195999146,
                    -0.07507486641407013,
                    0.1809023916721344,
                    0.17951476573944092,
                    -0.07451051473617554,
                    -0.08118633925914764,
                    -0.04811759293079376,
                    0.010248946025967598,
                    -0.05387141928076744,
                    -0.149998739361763,
                    0.210220605134964,
                    0.06837806850671768,
                    -0.10080493986606598,
                    -0.09446939080953598,
                    0.2022578865289688,
                    0.16176699101924896,
                    -0.17263446748256683,
                    0.1590614914894104,
                    0.005990986712276936,
                    0.1891336292028427,
                    -0.1961270272731781,
                    -0.18148137629032135,
                    0.12501423060894012,
                    -0.1353009045124054,
                    -0.10588809847831726,
                    0.04773886874318123,
                    -0.024536335840821266,
                    -0.19292688369750977,
                    -0.03525891527533531,
                    0.11730494350194931,
                    0.07888727635145187,
                    0.11549723148345947,
                    -0.03210194408893585,
                    0.08429241925477982,
                    -0.13376201689243317,
                    0.1520698368549347,
                    -0.06959239393472672,
                    0.1233501061797142,
                    -0.046223584562540054,
                    -0.18899227678775787,
                    0.12583571672439575,
                    -0.07941924035549164,
                    -0.1445479542016983,
                    -0.02496047504246235,
                    0.0614536814391613,
                    0.013518588617444038,
                    0.1098785325884819,
                    0.19932541251182556,
                    -0.19779624044895172,
                    -0.21266135573387146,
                    -0.04323241859674454,
                    -0.029625046998262405,
                    -0.15218055248260498,
                    -0.010593889281153679,
                    0.15911570191383362,
                    0.0520760752260685,
                    0.08752284198999405,
                    0.004064185079187155,
                    0.12860819697380066,
                    -0.0006228669662959874,
                    0.13413511216640472,
                    -0.08891978114843369,
                    -0.10945075750350952,
                    0.07604236900806427,
                    0.1833212524652481,
                    -0.019576208665966988,
                    0.03161892667412758,
                    0.19498057663440704,
                    -0.1292865127325058,
                    -0.025045955553650856,
                    0.14848807454109192,
                    0.1820366084575653,
                    0.0790400579571724,
                    0.1651138812303543,
                    -0.009127898141741753,
                    0.10637523978948593,
                    -0.10308071225881577,
                    0.21566733717918396,
                    0.05975499004125595,
                    0.06841221451759338,
                    -0.0683266744017601,
                    0.03806954622268677,
                    0.06216736510396004,
                    -0.03876804560422897,
                    0.1980317234992981,
                    0.1240474134683609,
                    0.0476391576230526,
                    0.1458779126405716,
                    0.10866465419530869,
                    -0.0054968586191535,
                    -0.0620574988424778,
                    0.06255906075239182,
                    0.07563577592372894,
                    -0.14130817353725433,
                    -0.0225687138736248,
                    0.08768436312675476,
                    0.18644320964813232,
                    0.1122969537973404,
                    0.024281900376081467,
                    -0.19002975523471832,
                    -0.21283109486103058,
                    -0.04255130514502525,
                    -0.10685122013092041,
                    -0.008754969574511051,
                    0.09181401878595352,
                    -0.18092836439609528,
                    0.15767772495746613,
                    0.11934345215559006,
                    -0.13117367029190063,
                    0.08389636874198914,
                    0.14905256032943726,
                    -0.04475758597254753,
                    -0.17440161108970642,
                    0.17416322231292725,
                    0.12093502283096313,
                    0.10893449187278748,
                    0.05138276517391205,
                    0.09740305691957474,
                    -0.13278305530548096,
                    0.05550722777843475,
                    -0.213070809841156,
                    -0.00675571383908391,
                    0.08503754436969757,
                    -0.1501145362854004,
                    -0.019403034821152687,
                    -0.031234165653586388,
                    0.12699943780899048,
                    0.13329483568668365,
                    0.08895432204008102,
                    0.0028084656223654747,
                    -0.112003855407238,
                    0.03615166246891022,
                    -0.17783589661121368,
                    0.18890036642551422,
                    0.18097902834415436,
                    0.18922552466392517,
                    -0.1461840271949768,
                    0.1755904108285904,
                    0.1335122138261795,
                    -0.07297623157501221,
                    -0.02230933867394924,
                    -0.1862153261899948,
                    0.17790520191192627,
                    0.0075626736506819725,
                    0.17247648537158966,
                    -0.05496780201792717,
                    -0.05003402754664421,
                    0.12307650595903397,
                    -0.1856430470943451,
                    -0.09397050738334656,
                    0.019753122702240944,
                    -0.0006472814711742103,
                    0.054368600249290466,
                    -0.15629617869853973,
                    -0.15094435214996338,
                    0.14568136632442474,
                    -0.12430770695209503,
                    0.08097119629383087,
                    0.09788507968187332,
                    -0.1065400168299675,
                    0.18176351487636566,
                    -0.05725832283496857,
                    -0.16165180504322052,
                    -0.024194084107875824,
                    0.10300013422966003,
                    -0.13126225769519806,
                    -0.13048560917377472,
                    0.1388743817806244,
                    -0.017227694392204285,
                    -0.16097386181354523,
                    0.17945384979248047,
                    -0.20069453120231628,
                    -0.04309923201799393,
                    0.17483073472976685,
                    -0.1185818612575531,
                    0.20836417376995087,
                    0.03543694317340851,
                    0.018537702038884163,
                    0.10373558849096298,
                    0.13663700222969055,
                    -0.1750667542219162,
                    -0.057763781398534775,
                    0.034582726657390594,
                    0.15005183219909668,
                    0.05734553560614586,
                    -0.005123801063746214,
                    0.07468059659004211,
                    0.11627501994371414,
                    0.03184213861823082,
                    0.1028299331665039,
                    0.024612413719296455,
                    -0.03739489987492561,
                    0.19580131769180298,
                    0.17536430060863495,
                    -0.20645074546337128,
                    -0.13553661108016968,
                    0.03521280363202095,
                    0.19998684525489807,
                    -0.08468655496835709,
                    0.1829230934381485,
                    -0.16044080257415771,
                    -0.21156921982765198,
                    0.16455130279064178,
                    0.03538934513926506,
                    0.1058255210518837,
                    -0.1309889703989029,
                    0.10335998237133026,
                    0.051487863063812256,
                    -0.003273316891863942,
                    0.14881795644760132,
                    0.10508573800325394,
                    -0.08903725445270538,
                    -0.19657041132450104,
                    0.21425403654575348,
                    -0.08788807690143585,
                    -0.17274357378482819,
                    -0.16172562539577484,
                    -0.14296606183052063,
                    -0.1588994860649109,
                    -0.00037339949631132185,
                    -0.07331057637929916,
                    0.070180743932724,
                    -0.19349394738674164,
                    0.15282012522220612,
                    0.14879485964775085,
                    0.18486906588077545,
                    0.16305473446846008,
                    -0.16297683119773865,
                    0.1565805822610855,
                    -0.14071913063526154,
                    0.015357503667473793,
                    0.1801856905221939,
                    0.1898004561662674,
                    0.07860353589057922,
                    0.11759348213672638,
                    0.21334446966648102,
                    0.046221088618040085,
                    0.12387906759977341,
                    0.14522109925746918,
                    0.15210124850273132,
                    0.010551931336522102,
                    0.048836879432201385,
                    0.06107683107256889,
                    0.10996492952108383,
                    -0.17650607228279114,
                    -0.12071895599365234,
                    0.133748397231102,
                    0.017134878784418106,
                    -0.07218946516513824,
                    0.03637723624706268,
                    0.10118448734283447,
                    -0.0657670795917511,
                    0.1165492981672287,
                    0.0842682495713234,
                    0.19510391354560852,
                    -0.014020226895809174,
                    -0.14801038801670074,
                    0.18609946966171265,
                    -0.14821602404117584,
                    -0.16982273757457733,
                    0.19390968978405,
                    0.005322552751749754,
                    -0.03635871037840843,
                    0.043264374136924744,
                    0.18993712961673737,
                    -0.05322963744401932,
                    0.06764870136976242,
                    -0.0890580341219902,
                    0.08516822010278702,
                    0.21958711743354797,
                    0.07816723734140396,
                    -0.09094280004501343,
                    0.19291217625141144,
                    0.09895244240760803,
                    -0.10142427682876587,
                    0.14576378464698792,
                    0.08675017952919006,
                    0.13460542261600494,
                    -0.18810725212097168,
                    0.17079895734786987,
                    0.049705974757671356,
                    0.11604521423578262,
                    -0.10770974308252335,
                    -0.1978665590286255,
                    0.12317369133234024,
                    0.1485755890607834,
                    -0.18935945630073547,
                    -0.019300999119877815,
                    0.1581013947725296,
                    0.062276072800159454,
                    0.12192033976316452,
                    0.16106562316417694,
                    0.19054144620895386,
                    0.22566121816635132,
                    -0.012000023387372494,
                    0.009289980866014957,
                    0.03887832164764404,
                    -0.031726110726594925,
                    0.17633093893527985,
                    -0.1386289894580841,
                    0.09801961481571198,
                    -0.17062778770923615,
                    -0.17092503607273102,
                    0.09367403388023376,
                    -0.12055201828479767,
                    -0.15109652280807495,
                    -0.1957673281431198,
                    0.14215268194675446,
                    0.12006858736276627,
                    -0.056157782673835754,
                    -0.0865262970328331,
                    0.011356708593666553,
                    0.2007528841495514,
                    -0.05625279247760773,
                    -0.03789172321557999,
                    -0.15453460812568665,
                    -0.03430149704217911,
                    -0.0264479648321867,
                    0.04711209982633591,
                    0.13349197804927826,
                    0.0999453142285347,
                    0.21618245542049408,
                    0.038797155022621155,
                    0.08932078629732132,
                    -0.13421934843063354,
                    -0.1645888239145279,
                    0.15241305530071259,
                    0.01939505524933338,
                    -0.08929277956485748,
                    -0.10257164388895035,
                    0.0785159021615982,
                    0.16079126298427582,
                    -0.06459695100784302,
                    0.05092255026102066,
                    0.13617686927318573,
                    -0.10883568972349167,
                    0.01682938262820244,
                    0.2148115187883377,
                    -0.09582947194576263,
                    0.2124994993209839,
                    0.06991762667894363,
                    0.13412778079509735,
                    -0.010073132812976837,
                    0.11855772137641907,
                    -0.12350838631391525,
                    -0.09866417944431305,
                    0.11969458311796188,
                    0.15804053843021393,
                    0.16923367977142334,
                    0.1453251838684082,
                    0.11648835986852646,
                    0.19716931879520416,
                    0.12609197199344635,
                    -0.1278483271598816,
                    0.09470753371715546,
                    -0.14416280388832092,
                    -0.044595152139663696,
                    0.12387779355049133,
                    -0.16638782620429993,
                    -0.09129716455936432,
                    -0.0021094016265124083,
                    -0.18402685225009918,
                    -0.19680865108966827,
                    0.07743662595748901,
                    0.054027825593948364,
                    0.1313808113336563,
                    0.13431012630462646,
                    0.16127459704875946,
                    0.0947464182972908,
                    0.15251466631889343,
                    0.021698441356420517,
                    0.18002553284168243,
                    0.15806367993354797,
                    -0.08777802437543869,
                    -0.11330260336399078,
                    -0.13444781303405762,
                    0.14659623801708221,
                    0.01296237763017416,
                    -0.1347253918647766,
                    0.11438971012830734,
                    -0.039380669593811035,
                    -0.1904052197933197,
                    -0.1661374717950821,
                    0.009075517766177654,
                    0.04203277453780174,
                    8.593945676693693e-05,
                    0.17105433344841003,
                    0.0951903685927391,
                    0.054470598697662354,
                    0.0025082756765186787,
                    -0.1799042820930481,
                    -0.1091424748301506,
                    -0.016053203493356705,
                    0.08189955353736877,
                    0.09091217070817947,
                    -0.15555521845817566,
                    -0.19521401822566986,
                    0.09443502873182297,
                    -0.20742061734199524,
                    -0.05242202803492546,
                    -0.04360048472881317,
                    0.10362444818019867,
                    0.10746664553880692,
                    -0.1530284285545349,
                    0.17716337740421295,
                    -0.11013847589492798,
                    0.13416343927383423,
                    -0.0885339304804802,
                    -0.13337057828903198,
                    0.06970575451850891,
                    0.0068557122722268105,
                    -0.07708799093961716,
                    -0.0703384280204773,
                    -0.1853887289762497,
                    -0.21007512509822845,
                    0.17194801568984985,
                    -0.07851787656545639,
                    0.15644216537475586,
                    -0.08280350267887115,
                    0.0023857716005295515,
                    0.1367996484041214,
                    -0.15202122926712036,
                    0.21952465176582336,
                    0.10593956708908081,
                    0.06283319741487503,
                    0.0069722640328109264,
                    -0.03634760528802872,
                    -0.15822258591651917,
                    -0.03313496336340904,
                    -0.11923005431890488,
                    0.14649376273155212,
                    -0.05504773557186127,
                    0.2240685075521469,
                    -0.2195824533700943,
                    0.10699857026338577,
                    0.16737835109233856,
                    -0.040249053388834,
                    0.026351450011134148,
                    -0.08748987317085266,
                    -0.05691692233085632,
                    -0.17695701122283936,
                    0.17297770082950592,
                    -0.10009526461362839,
                    -0.006095974240452051,
                    0.1057160347700119,
                    -0.08859589695930481,
                    -0.01980922929942608,
                    0.12506501376628876,
                    0.07033982872962952,
                    -0.10408173501491547,
                    0.06680771708488464,
                    0.16846558451652527,
                    -0.12685860693454742,
                    0.07373730093240738,
                    0.22767537832260132,
                    -0.060148466378450394,
                    -0.16932979226112366,
                    -0.03988505154848099,
                    -0.10530275106430054,
                    0.06252418458461761,
                    -0.16293607652187347,
                    0.12224240601062775,
                    0.00855927262455225,
                    0.002811719663441181,
                    -0.12956836819648743,
                    0.002418510615825653,
                    0.036631591618061066,
                    0.08441191166639328,
                    -0.08401314914226532,
                    -0.03355686739087105,
                    -0.03171788156032562,
                    0.0432569719851017,
                    0.20796619355678558,
                    0.20159602165222168,
                    -0.06036790832877159,
                    -0.03541718050837517,
                    -0.21136637032032013,
                    0.10188732296228409,
                    0.08660358190536499,
                    0.15884006023406982,
                    0.13982094824314117,
                    0.10915779322385788,
                    0.18269887566566467,
                    -0.07835953682661057,
                    -0.07408230751752853,
                    -0.17466449737548828,
                    0.08860775083303452,
                    0.021018872037529945,
                    0.08508588373661041,
                    0.057814158499240875,
                    -0.07616832107305527,
                    0.07865980267524719,
                    0.08219973742961884,
                    -0.061142582446336746,
                    0.1125463992357254,
                    0.12043445557355881,
                    -0.2041793316602707,
                    0.16642342507839203,
                    -0.08253680914640427,
                    -0.1328507512807846,
                    -0.12118226289749146,
                    0.06864970922470093,
                    0.14940959215164185,
                    -0.10801981389522552,
                    0.21209681034088135,
                    0.008451295085251331,
                    0.14427995681762695,
                    -0.08813478797674179,
                    -0.1037178635597229,
                    0.07495608180761337,
                    0.05215063318610191,
                    0.07304861396551132,
                    -0.06599551439285278,
                    -0.10586003959178925,
                    -0.027384284883737564,
                    -0.19755706191062927,
                    -0.12737944722175598,
                    0.04063531383872032,
                    -0.007305988110601902,
                    -0.21950556337833405,
                    0.06713365763425827,
                    0.06086684390902519,
                    0.11761882156133652,
                    -0.24419008195400238,
                    -0.17551879584789276,
                    -0.08426812291145325,
                    0.18467675149440765,
                    -0.1876673698425293,
                    0.15368834137916565,
                    -0.215150386095047,
                    -0.10204478353261948,
                    0.19697000086307526,
                    0.09880046546459198,
                    -0.12026599794626236,
                    -0.03723903372883797,
                    -0.0011381555814296007,
                    -0.051114361733198166,
                    -0.06953610479831696,
                    0.2349754273891449,
                    -0.14151662588119507,
                    0.12311693280935287,
                    -0.13575898110866547,
                    0.015906356275081635,
                    -0.17306475341320038,
                    0.021570999175310135,
                    0.14071124792099,
                    0.09912338852882385,
                    -0.021666016429662704,
                    -0.024716489017009735,
                    0.014565964229404926,
                    -0.024152014404535294,
                    -0.02250218577682972,
                    0.17839714884757996,
                    0.09021184593439102,
                    -0.048764534294605255,
                    0.06425335258245468,
                    0.08624731749296188,
                    0.08463926613330841,
                    0.14608708024024963,
                    -0.22462698817253113,
                    0.03219669312238693,
                    -0.2535323202610016,
                    0.06644006073474884,
                    -0.1243952214717865,
                    0.11539969593286514,
                    0.06293556094169617,
                    -0.10629615932703018,
                    0.26071277260780334,
                    -0.06613582372665405,
                    0.06357643753290176,
                    0.13773010671138763,
                    0.12421268224716187,
                    -0.11201000213623047,
                    0.19493219256401062,
                    0.18964196741580963,
                    0.03756534308195114,
                    -0.12246876209974289,
                    -0.0841548815369606,
                    -0.16966967284679413,
                    0.0017556389793753624,
                    0.15180763602256775,
                    0.18643656373023987,
                    0.07282920926809311,
                    0.24598929286003113,
                    -0.2125709056854248,
                    0.13195036351680756,
                    0.18960276246070862,
                    -0.1610908806324005,
                    0.035951707512140274,
                    0.2079152762889862,
                    0.19184225797653198,
                    -0.11489573866128922,
                    0.1173710748553276,
                    0.11792270094156265,
                    0.03958944231271744,
                    -0.21966494619846344,
                    -0.04612776264548302,
                    -0.022027015686035156,
                    0.16457776725292206,
                    0.021186208352446556,
                    0.07758184522390366,
                    0.007856003008782864,
                    0.2048548310995102,
                    -0.010433738119900227,
                    -0.20341670513153076,
                    -0.05410667881369591,
                    -0.11819303035736084,
                    -0.12456227093935013,
                    0.0913640707731247,
                    0.018818452954292297,
                    0.009882176294922829,
                    0.06599264591932297,
                    -0.1575954556465149,
                    -0.17747975885868073,
                    0.10260716825723648,
                    0.19625058770179749,
                    -0.07359134405851364,
                    -0.18016335368156433,
                    -0.11502677947282791,
                    0.19307541847229004,
                    0.1007939949631691,
                    -0.06886233389377594,
                    -0.050419680774211884,
                    0.03611866384744644,
                    0.09737063199281693,
                    -0.12803961336612701,
                    -0.051992762833833694,
                    -0.14318563044071198,
                    0.08687903732061386,
                    0.0485265739262104,
                    0.1819939911365509,
                    -0.037028368562459946,
                    0.09903034567832947,
                    -0.19291914999485016,
                    -0.05341748148202896,
                    0.16354258358478546,
                    -0.07665815204381943,
                    0.08245431631803513,
                    0.16308696568012238,
                    -0.13447415828704834,
                    0.212249293923378,
                    -0.16703738272190094,
                    0.0935458317399025,
                    -0.04891137033700943,
                    0.06314410269260406,
                    -0.03040781430900097,
                    0.17846880853176117,
                    -0.17570774257183075,
                    -0.036737147718667984,
                    0.08982142060995102,
                    0.20949892699718475,
                    -0.03843473270535469,
                    0.07647426426410675,
                    -0.15052221715450287,
                    0.2036561667919159,
                    -0.08486657589673996,
                    -0.17660510540008545,
                    -0.2040216475725174,
                    0.16621868312358856,
                    -0.1839292049407959,
                    0.0026117179077118635,
                    0.12463532388210297,
                    -0.17810072004795074,
                    -0.08995914459228516,
                    -0.06046617403626442,
                    0.03994390368461609,
                    0.0013689632760360837,
                    -0.10558298230171204,
                    -0.020457783713936806,
                    0.08006057888269424,
                    0.1370856612920761,
                    -0.18994492292404175,
                    0.10067953914403915,
                    0.13860781490802765,
                    0.12419424951076508,
                    0.18139338493347168,
                    -0.0942310318350792,
                    0.22016529738903046,
                    -0.03778369352221489,
                    -0.1138441190123558,
                    0.018571967259049416,
                    -6.658562051597983e-05,
                    -0.15167154371738434,
                    0.10275167971849442,
                    0.052651334553956985,
                    0.11584997922182083,
                    0.06941486895084381,
                    -0.21923337876796722,
                    0.1745501458644867,
                    0.1472238451242447,
                    0.2104472815990448,
                    -0.02872849814593792,
                    -0.06730742007493973,
                    0.041786689311265945,
                    0.02332724817097187,
                    0.15816301107406616,
                    0.015063023194670677,
                    0.11291006207466125,
                    -0.09937892109155655,
                    -0.0743585005402565,
                    0.15113165974617004,
                    -0.13708539307117462,
                    0.018011514097452164,
                    -0.11711161583662033,
                    -0.03539200499653816,
                    -0.14098231494426727,
                    -0.053072378039360046,
                    0.20663294196128845,
                    -0.10995958745479584,
                    0.23442456126213074,
                    0.08347182720899582,
                    -0.11264565587043762,
                    -0.16374945640563965,
                    -0.15430127084255219,
                    -0.158527210354805,
                    0.05062273144721985,
                    -0.016184387728571892,
                    -0.15337800979614258,
                    -0.1555222123861313,
                    -0.14777354896068573,
                    -0.020467691123485565,
                    -0.017302384600043297,
                    -0.19874557852745056,
                    -0.014942886307835579,
                    0.17022623121738434,
                    0.030821090564131737,
                    0.019626926630735397,
                    -0.10965390503406525,
                    0.1356002390384674,
                    -0.12353232502937317,
                    -0.025314446538686752,
                    0.15974730253219604,
                    0.18657752871513367,
                    -0.037526581436395645,
                    0.19685149192810059,
                    -0.16928832232952118,
                    -0.02396860532462597,
                    -0.10783606022596359,
                    -0.1265648603439331,
                    0.11794266104698181,
                    -0.19429424405097961,
                    0.04275452345609665,
                    0.09268432855606079,
                    -0.12139183282852173,
                    0.028399361297488213,
                    -0.026057425886392593,
                    -0.08416379243135452,
                    -0.14805154502391815,
                    -0.08016826957464218,
                    -0.1353873610496521,
                    0.010247457772493362,
                    0.2157253473997116,
                    0.19815032184123993,
                    0.19051721692085266,
                    0.06635639071464539,
                    0.11008107662200928,
                    0.005716858431696892,
                    -0.14381840825080872,
                    0.03415374830365181,
                    -0.20612044632434845,
                    -0.008350742049515247,
                    -0.05770993232727051,
                    0.16719599068164825,
                    0.18820850551128387,
                    0.062313929200172424,
                    0.16049247980117798,
                    0.16990292072296143,
                    0.0034631851594895124,
                    -0.08618108928203583,
                    0.050445131957530975,
                    -0.2106078863143921,
                    -0.13150720298290253,
                    0.10160496085882187,
                    0.0635327622294426,
                    0.12008451670408249,
                    -0.10145481675863266,
                    0.08614849299192429,
                    -0.04080672562122345,
                    0.10892146080732346,
                    -0.09026624262332916,
                    0.20096276700496674,
                    0.09373925626277924,
                    0.20351609587669373,
                    0.15115627646446228,
                    0.03539464250206947,
                    -0.03733650594949722,
                    -0.15497130155563354,
                    0.07427951693534851,
                    -0.06827054917812347,
                    0.12894296646118164,
                    0.10398082435131073,
                    0.019285811111330986,
                    0.037094488739967346,
                    0.21495097875595093,
                    -0.14864087104797363,
                    -0.05217039957642555,
                    0.07719933241605759,
                    -0.17199523746967316,
                    -0.1875704824924469,
                    -0.03667515516281128,
                    0.12202680855989456,
                    0.11203077435493469,
                    -0.025680556893348694,
                    -0.08217313885688782,
                    0.10833071172237396,
                    -0.20828835666179657,
                    -0.005278658587485552,
                    0.164714053273201,
                    -0.04036657512187958,
                    -0.01875496096909046,
                    0.041025348007678986,
                    0.028088403865695,
                    0.09009819477796555,
                    0.06450864672660828,
                    -0.07445715367794037,
                    0.002076404867693782,
                    -0.0645233765244484,
                    0.027152178809046745,
                    -0.19227740168571472,
                    -0.019601885229349136,
                    0.1242208331823349,
                    0.14169913530349731,
                    -0.13454657793045044,
                    -0.19139684736728668,
                    -0.035601355135440826,
                    -0.07121428102254868,
                    0.03024023026227951,
                    0.2019171416759491,
                    0.011972824111580849,
                    -0.07640831917524338,
                    -0.21323832869529724,
                    -0.20915259420871735,
                    -0.10264229029417038,
                    -0.10468883812427521,
                    -0.19870047271251678,
                    0.08577050268650055,
                    0.17409631609916687,
                    -0.006225461605936289,
                    -0.20080922544002533,
                    -0.06529597193002701,
                    -0.18867258727550507,
                    0.15472327172756195,
                    -0.1466267704963684,
                    0.02391069009900093,
                    0.08667319267988205,
                    -0.08149125427007675,
                    -0.06072080880403519,
                    -0.15791891515254974,
                    -0.06432757526636124,
                    0.1473015397787094,
                    -0.1349790096282959,
                    -0.17899326980113983,
                    0.16933651268482208,
                    -0.16571038961410522,
                    -0.1351817101240158,
                    -0.15284045040607452,
                    -0.16485437750816345,
                    0.11360882222652435,
                    -0.018007267266511917,
                    0.07101237028837204,
                    0.20325644314289093,
                    -0.16897886991500854,
                    0.028727611526846886,
                    -0.03869796171784401,
                    0.10542594641447067,
                    -0.16334807872772217,
                    0.04504050314426422,
                    0.07758862525224686,
                    0.07499386370182037,
                    0.06121250241994858,
                    0.2038464993238449,
                    -0.08748362213373184,
                    0.19557569921016693,
                    0.056023795157670975,
                    0.18626990914344788,
                    -0.2096422016620636,
                    -0.17163395881652832,
                    0.17468857765197754,
                    0.1233869418501854,
                    0.14121179282665253,
                    0.19593721628189087,
                    0.14205460250377655,
                    0.21556061506271362,
                    0.08722254633903503,
                    0.16487056016921997,
                    0.02285248413681984,
                    -0.12702439725399017,
                    -0.12686799466609955,
                    0.18124985694885254,
                    0.20948097109794617,
                    0.18293125927448273,
                    0.10606256872415543,
                    -0.09110225737094879,
                    -0.16406816244125366,
                    0.21406222879886627,
                    -0.17183010280132294,
                    0.18803204596042633,
                    -0.12099207937717438,
                    0.04251863807439804,
                    0.012183288112282753,
                    0.19650258123874664,
                    -0.19898858666419983,
                    0.012903311289846897,
                    -0.2201370894908905,
                    -0.03799362853169441,
                    0.1752767413854599,
                    0.10756483674049377,
                    0.2171884924173355,
                    -0.07428187876939774,
                    0.12988215684890747,
                    0.1855851709842682,
                    -0.08355629444122314,
                    0.15830731391906738,
                    -0.14456266164779663,
                    0.17221732437610626,
                    0.1663116216659546,
                    -0.1671096235513687,
                    0.005197650752961636,
                    -0.12798535823822021,
                    0.06717799603939056,
                    -0.1521967500448227,
                    0.21200433373451233,
                    -0.059416431933641434,
                    -0.14842049777507782,
                    0.02792660892009735,
                    0.004185192286968231,
                    -0.16264460980892181,
                    -0.17699356377124786,
                    -0.15089350938796997,
                    -0.011848083697259426,
                    0.036881495267152786,
                    0.002445473335683346,
                    0.20528320968151093,
                    -0.0170447938144207,
                    -0.19966812431812286,
                    -0.20394639670848846,
                    -0.1546899676322937,
                    -0.023863427340984344,
                    -0.15102329850196838,
                    -0.050492964684963226,
                    -0.05677276849746704,
                    0.047242309898138046,
                    0.12798015773296356,
                    0.02874174900352955,
                    0.050784360617399216,
                    0.040680043399333954,
                    0.19527855515480042,
                    0.20387957990169525,
                    0.02708691731095314,
                    -0.1444724202156067,
                    0.10482750087976456,
                    0.06803115457296371,
                    0.2150420993566513,
                    -0.129132941365242,
                    0.18507002294063568,
                    0.038922425359487534,
                    0.14310672879219055,
                    0.07370030134916306,
                    -0.16421201825141907,
                    -0.09016433358192444,
                    -0.1856366991996765,
                    -0.02564208395779133,
                    -0.0776636078953743,
                    0.17627350986003876,
                    -0.01416449248790741,
                    -0.09447178989648819,
                    0.1761409193277359,
                    0.035162389278411865,
                    0.19179706275463104,
                    0.0863347053527832,
                    -0.20962344110012054,
                    -0.04913506284356117,
