[
    {
        "class": "keras.layers.core.dense.Dense",
        "config": {
            "name": "dense",
            "trainable": true,
            "dtype": "float32",
            "units": 128,
            "activation": "softplus",
            "use_bias": true,
            "kernel_initializer": {
                "class_name": "RandomNormal",
                "config": {
                    "mean": 0.0,
                    "stddev": 0.17677669529663687,
                    "seed": 214127
                }
            },
            "bias_initializer": {
                "class_name": "Zeros",
                "config": {}
            },
            "kernel_regularizer": null,
            "bias_regularizer": null,
            "activity_regularizer": null,
            "kernel_constraint": null,
            "bias_constraint": null
        },
        "weights": [
            {
                "_type": "ndarray",
                "shape": [
                    10,
                    128
                ],
                "dtype": "float32",
                "data": [
                    -0.255654513835907,
                    -0.24440452456474304,
                    -0.1950831562280655,
                    0.3874387741088867,
                    0.02375858835875988,
                    -0.09846418350934982,
                    -0.16811318695545197,
                    0.4076160192489624,
                    0.46446022391319275,
                    -0.12706175446510315,
                    -0.4646763205528259,
                    0.12769465148448944,
                    -0.040911320596933365,
                    -0.288923978805542,
                    -0.011617845855653286,
                    0.026694446802139282,
                    -0.0823744609951973,
                    -0.3011266589164734,
                    -0.09338684380054474,
                    -0.21585361659526825,
                    -0.4001968502998352,
                    -0.08815065771341324,
                    -0.28914305567741394,
                    -0.48462843894958496,
                    -0.5802106857299805,
                    -0.3105902373790741,
                    -0.5350467562675476,
                    -0.13621865212917328,
                    0.014283442869782448,
                    -0.5358832478523254,
                    -0.2339647263288498,
                    0.4032076597213745,
                    -0.058662351220846176,
                    -0.2494465410709381,
                    -0.1401941478252411,
                    -0.08008316904306412,
                    -0.6178913712501526,
                    -0.22557346522808075,
                    -0.4646635353565216,
                    -0.10023549944162369,
                    -0.23763857781887054,
                    -0.09836505353450775,
                    -0.2668510973453522,
                    0.13987743854522705,
                    0.4912770688533783,
                    -0.6155310869216919,
                    0.3232951760292053,
                    -0.050648704171180725,
                    -0.17082169651985168,
                    -0.5309534668922424,
                    -0.14729005098342896,
                    -0.006446707993745804,
                    -0.29625049233436584,
                    -0.7533262968063354,
                    -0.28310078382492065,
                    -0.5264490246772766,
                    -0.015213079750537872,
                    -0.09372662007808685,
                    -0.32766756415367126,
                    -0.2139606773853302,
                    -0.09393396228551865,
                    0.125391885638237,
                    -0.3361591100692749,
                    0.008562153205275536,
                    -0.3711056411266327,
                    -0.4526344835758209,
                    0.545161783695221,
                    0.2498401254415512,
                    -0.10604874789714813,
                    -0.3388606309890747,
                    -0.1478472650051117,
                    0.4201342761516571,
                    -0.31871604919433594,
                    0.04528822749853134,
                    -0.21213504672050476,
                    -0.6250771284103394,
                    -0.20015229284763336,
                    -0.1940702348947525,
                    -0.3590282201766968,
                    -0.13911475241184235,
                    -0.08454042673110962,
                    -0.053973011672496796,
                    -0.10745839774608612,
                    0.08798761665821075,
                    -0.0037770180497318506,
                    -0.1008964255452156,
                    -0.13411687314510345,
                    0.012949519790709019,
                    -0.11414480954408646,
                    0.05534255877137184,
                    -0.1470482498407364,
                    -0.28383028507232666,
                    -0.3522751033306122,
                    0.11251474171876907,
                    0.5548798441886902,
                    -0.033232010900974274,
                    -0.7781115770339966,
                    -0.6147897243499756,
                    -0.04002556577324867,
                    -0.0003644365060608834,
                    -0.4015694260597229,
                    0.09203728288412094,
                    -0.23337408900260925,
                    -0.19386789202690125,
                    -0.267217218875885,
                    -0.14840319752693176,
                    -0.056021954864263535,
                    -0.10077668726444244,
                    -0.5247303247451782,
                    -0.06689134985208511,
                    -0.28944432735443115,
                    -0.4081924557685852,
                    -0.6054537892341614,
                    0.41518133878707886,
                    0.21797685325145721,
                    -0.14560148119926453,
                    0.10368067026138306,
                    -0.15351377427577972,
                    -0.28787580132484436,
                    -0.26159578561782837,
                    -0.4607717990875244,
                    -0.36625126004219055,
                    0.27014756202697754,
                    0.06265604496002197,
                    0.043049197643995285,
                    -0.2531310021877289,
                    -0.12417084723711014,
                    -0.4189551770687103,
                    -0.48204466700553894,
                    0.6935744881629944,
                    0.193845734000206,
                    -0.8458532094955444,
                    -0.6619123220443726,
                    0.251836359500885,
                    0.09624447673559189,
                    -0.14195112884044647,
                    -0.28945210576057434,
                    -0.21328400075435638,
                    0.26990023255348206,
                    -0.6099086403846741,
                    0.21156471967697144,
                    0.12653614580631256,
                    -0.3476950526237488,
                    -0.27107834815979004,
                    0.07999228686094284,
                    0.4734185039997101,
                    0.3776395320892334,
                    1.2195000648498535,
                    0.396340548992157,
                    0.2461615800857544,
                    0.21459157764911652,
                    0.27061334252357483,
                    0.185915008187294,
                    0.18193890154361725,
                    0.6038020849227905,
                    0.16568909585475922,
                    0.4424744248390198,
                    -0.09686575084924698,
                    0.294811487197876,
                    -1.011205792427063,
                    0.35027533769607544,
                    0.0818842351436615,
                    -0.04527866467833519,
                    0.13246680796146393,
                    0.23368926346302032,
                    0.3772813677787781,
                    0.4688453674316406,
                    0.028801443055272102,
                    0.4013890027999878,
                    -0.4500753879547119,
                    0.363922655582428,
                    0.3754759728908539,
                    -1.387489676475525,
                    0.4422258734703064,
                    -0.39194202423095703,
                    0.16761189699172974,
                    -0.11306221783161163,
                    0.2256433367729187,
                    0.2796023488044739,
                    0.2659071981906891,
                    0.1851484328508377,
                    0.18338161706924438,
                    -0.22732193768024445,
                    0.20506571233272552,
                    0.4148424565792084,
                    0.13697800040245056,
                    -0.00013511331053450704,
                    0.06381967663764954,
                    0.26067036390304565,
                    0.2966318130493164,
                    0.24977710843086243,
                    -0.15827621519565582,
                    0.10309529304504395,
                    0.5643810033798218,
                    -0.8565385341644287,
                    -0.7785542607307434,
                    0.12072592973709106,
                    0.496054083108902,
                    0.5676260590553284,
                    -0.36273691058158875,
                    -0.12210657447576523,
                    0.43833568692207336,
                    0.07575896382331848,
                    -0.3301166296005249,
                    0.1454763412475586,
                    0.17544685304164886,
                    0.6201518774032593,
                    0.29011836647987366,
                    0.08595193922519684,
                    0.49553075432777405,
                    0.12193731218576431,
                    -0.0015816681552678347,
                    0.20615357160568237,
                    0.04469742625951767,
                    -0.5881686210632324,
                    0.19709667563438416,
                    0.027683323249220848,
                    -0.5156002044677734,
                    0.13950343430042267,
                    0.1827823668718338,
                    0.43248891830444336,
                    0.6240045428276062,
                    -0.5249955654144287,
                    0.19259925186634064,
                    0.6013391613960266,
                    -0.21938399970531464,
                    -0.3963759243488312,
                    0.29947641491889954,
                    -0.1904667317867279,
                    0.6069990396499634,
                    0.041875798255205154,
                    0.28643742203712463,
                    0.11713630706071854,
                    0.6493497490882874,
                    0.21659637987613678,
                    0.5059064626693726,
                    -0.1196548119187355,
                    0.44721782207489014,
                    0.08994270861148834,
                    0.30214327573776245,
                    0.41020819544792175,
                    -0.7756675481796265,
                    -0.21197271347045898,
                    0.4031379520893097,
                    0.34130093455314636,
                    0.3464074432849884,
                    0.41974779963493347,
                    0.6649846434593201,
                    0.6543005108833313,
                    0.36530038714408875,
                    -0.6219481825828552,
                    -0.04848404973745346,
                    0.5463640093803406,
                    0.12248892337083817,
                    0.11020451039075851,
                    0.3828641474246979,
                    0.15023374557495117,
                    0.2557627558708191,
                    0.14576664566993713,
                    0.12253151834011078,
                    -0.14056658744812012,
                    -0.08503137528896332,
                    0.2620660066604614,
                    -0.1384601891040802,
                    0.2842426896095276,
                    -0.1817847490310669,
                    -0.23792168498039246,
                    0.010723315179347992,
                    0.10159844160079956,
                    0.2513793706893921,
                    0.276112824678421,
                    -0.17354455590248108,
                    -0.12189984321594238,
                    0.3876454532146454,
                    0.0013822850305587053,
                    0.09064312279224396,
                    -0.13157103955745697,
                    0.07563041895627975,
                    -0.025854581966996193,
                    0.09742992371320724,
                    -0.1974082589149475,
                    0.07302888482809067,
                    0.2786685526371002,
                    0.2657780647277832,
                    -0.0852358266711235,
                    -0.017280178144574165,
                    -0.04769422858953476,
                    0.07629920542240143,
                    0.034670352935791016,
                    -0.0046691144816577435,
                    -0.15601606667041779,
                    -0.2537594735622406,
                    -0.3327423632144928,
                    -0.1105935201048851,
                    -0.34096038341522217,
                    0.0556553490459919,
                    0.2814783751964569,
                    -0.12090500444173813,
                    -0.02804061770439148,
                    -0.0856541246175766,
                    -0.005189008545130491,
                    0.06255464255809784,
                    0.11460858583450317,
                    0.05794132500886917,
                    -0.17634306848049164,
                    -0.5568315386772156,
                    0.04909504950046539,
                    0.20662757754325867,
                    0.1298626959323883,
                    0.12501847743988037,
                    -0.3054698407649994,
                    -0.34630805253982544,
                    0.09815594553947449,
                    0.12121078372001648,
                    -0.19511112570762634,
                    0.04849361628293991,
                    -0.15140721201896667,
                    -0.32510659098625183,
                    -0.07694919407367706,
                    0.3276761770248413,
                    0.09949566423892975,
                    -0.06496898084878922,
                    0.05425015836954117,
                    0.014760464429855347,
                    -0.15869665145874023,
                    -0.037878502160310745,
                    -0.38370582461357117,
                    0.08517294377088547,
                    -0.04586818441748619,
                    0.05190159007906914,
                    -0.06137464568018913,
                    -0.02733605168759823,
                    -0.14009706676006317,
                    0.10576024651527405,
                    -0.049097899347543716,
                    -0.15955965220928192,
                    -0.16022254526615143,
                    -0.3647622764110565,
                    0.4181785583496094,
                    0.05993841215968132,
                    -0.031598687171936035,
                    0.20441566407680511,
                    0.1821771264076233,
                    0.05320315435528755,
                    -0.15459270775318146,
                    -0.10209373384714127,
                    0.09415065497159958,
                    -0.06497129052877426,
                    0.331662118434906,
                    -0.04577796906232834,
                    0.14256592094898224,
                    0.0034681889228522778,
                    0.16037006676197052,
                    -0.0025908490642905235,
                    -0.1013178676366806,
                    -0.20251421630382538,
                    -0.219743013381958,
                    0.184247225522995,
                    0.1875491738319397,
                    -0.1045738011598587,
                    0.1465948224067688,
                    0.08210247755050659,
                    0.17734785377979279,
                    -0.3612447679042816,
                    -0.25061219930648804,
                    -0.001597549649886787,
                    0.003701473819091916,
                    0.036595333367586136,
                    -0.07125037163496017,
                    -0.09497314691543579,
                    0.1050293892621994,
                    0.06037399545311928,
                    0.06087178736925125,
                    0.08344131708145142,
                    0.12890462577342987,
                    0.06824646145105362,
                    -0.05892190709710121,
                    -0.016961602494120598,
                    -0.15192654728889465,
                    -0.24223026633262634,
                    0.06731799989938736,
                    0.13627290725708008,
                    -0.20631633698940277,
                    0.10376410186290741,
                    0.1581166535615921,
                    0.1830061823129654,
                    0.4153806269168854,
                    0.0600409097969532,
                    -0.0015730304876342416,
                    -0.051254186779260635,
                    -0.2078631967306137,
                    -0.07173735648393631,
                    -0.10253337025642395,
                    -0.04362540692090988,
                    -0.22522962093353271,
                    0.05041472613811493,
                    0.1235022246837616,
                    0.07921366393566132,
                    0.09359496831893921,
                    0.0847909152507782,
                    0.013984346762299538,
                    0.011552734300494194,
                    -0.00872732512652874,
                    -0.08725180476903915,
                    -0.004529947880655527,
                    0.023941488936543465,
                    0.0934792309999466,
                    0.02663249708712101,
                    -0.20928484201431274,
                    0.04323538392782211,
                    -0.04348928853869438,
                    0.0021734123583883047,
                    -0.07722237706184387,
                    0.07217368483543396,
                    -0.019383886829018593,
                    0.06375683844089508,
                    0.024481073021888733,
                    -0.006234144326299429,
                    -0.13779909908771515,
                    -0.16225767135620117,
                    -0.42892786860466003,
                    -0.08193667978048325,
                    0.4024038016796112,
                    0.14156919717788696,
                    0.1530137062072754,
                    -0.057959239929914474,
                    0.02012953720986843,
                    -0.12028104066848755,
                    0.0008786192629486322,
                    0.018957003951072693,
                    -0.1925910860300064,
                    0.1167452484369278,
                    -0.14104272425174713,
                    -0.09758854657411575,
                    0.036861807107925415,
                    0.1403992772102356,
                    0.09060615301132202,
                    -0.0466870442032814,
                    -0.21146506071090698,
                    -0.6026895642280579,
                    0.16093933582305908,
                    0.0897490456700325,
                    -0.0584329254925251,
                    0.08532137423753738,
                    -0.08042531460523605,
                    -0.10291923582553864,
                    0.17179812490940094,
                    -0.0956624299287796,
                    -0.030898388475179672,
                    0.0005729683907702565,
                    0.035567522048950195,
                    0.06565073877573013,
                    -0.08889119327068329,
                    -0.06998812407255173,
                    0.10533519834280014,
                    -0.04988186061382294,
                    -0.13753929734230042,
                    0.040702953934669495,
                    -0.10480991005897522,
                    0.2190021127462387,
                    -0.034480977803468704,
                    0.13097000122070312,
                    -0.11675722897052765,
                    -0.018178917467594147,
                    -0.18537123501300812,
                    0.08493620902299881,
                    -0.08218195289373398,
                    -0.10833511501550674,
                    -0.056486066430807114,
                    0.13289128243923187,
                    0.13522198796272278,
                    -0.029648935422301292,
                    -0.14477358758449554,
                    -0.13969415426254272,
                    0.07476882636547089,
                    -0.056527428328990936,
                    0.2827380895614624,
                    -0.06265228241682053,
                    0.24927300214767456,
                    0.028504522517323494,
                    0.027394982054829597,
                    -0.17319908738136292,
                    -0.28318649530410767,
                    -0.1480989158153534,
                    -0.10268212109804153,
                    0.1475881040096283,
                    0.32632094621658325,
                    -0.14884155988693237,
                    0.078156478703022,
                    -0.011844214983284473,
                    0.14900381863117218,
                    -0.14849145710468292,
                    -0.2547098994255066,
                    0.045013681054115295,
                    0.00574298482388258,
                    0.023815372958779335,
                    -0.08605096489191055,
                    -0.08317746222019196,
                    0.0752648115158081,
                    0.04683313146233559,
                    0.019327664747834206,
                    0.07924830913543701,
                    0.11312252283096313,
                    -0.06326138228178024,
                    0.08133815973997116,
                    0.18621213734149933,
                    0.1906118243932724,
                    -0.253330796957016,
                    0.03345051035284996,
                    0.15913191437721252,
                    -0.08105506002902985,
                    -0.12515893578529358,
                    0.2840663194656372,
                    -0.3634610176086426,
                    -0.20505331456661224,
                    0.3888886570930481,
                    0.22521165013313293,
                    -0.24320925772190094,
                    -0.12504249811172485,
                    0.04230167716741562,
                    0.25678980350494385,
                    -0.2449038177728653,
                    -0.6494952440261841,
                    0.10877077281475067,
                    -0.5096726417541504,
                    0.08376047760248184,
                    0.039530061185359955,
                    0.2767675518989563,
                    -0.02423502318561077,
                    -0.5285190939903259,
                    -0.16313594579696655,
                    -0.236245259642601,
                    -0.6286924481391907,
                    -0.389931857585907,
                    -0.20856347680091858,
                    -0.478652685880661,
                    -0.009701755829155445,
                    -0.09254580736160278,
                    -0.9765541553497314,
                    -0.47374287247657776,
                    -0.24134288728237152,
                    -0.1423676609992981,
                    -0.29100123047828674,
                    0.381704181432724,
                    -0.20617040991783142,
                    -0.2335406094789505,
                    -0.3365359306335449,
                    -0.27349531650543213,
                    -0.2967202067375183,
                    -0.14042232930660248,
                    -0.9518218040466309,
                    -0.06614450365304947,
                    0.08319350332021713,
                    0.13140293955802917,
                    -0.19111251831054688,
                    0.04103226214647293,
                    0.5271831750869751,
                    -0.3321719765663147,
                    0.3152559697628021,
                    -0.021570099517703056,
                    -0.2713584303855896,
                    -0.7621974945068359,
                    -0.05547715723514557,
                    -0.13177411258220673,
                    -0.5879165530204773,
                    -0.2760542333126068,
                    -0.032968491315841675,
                    -0.2216426283121109,
                    -0.3531055748462677,
                    -0.10369976609945297,
                    -0.4352732300758362,
                    -0.24188093841075897,
                    -0.15164145827293396,
                    -0.1213897317647934,
                    -0.6377968788146973,
                    0.035278063267469406,
                    -0.17956803739070892,
                    -0.5208008885383606,
                    0.5306131839752197,
                    0.20772399008274078,
                    -0.15191131830215454,
                    -0.34547099471092224,
                    -0.6450233459472656,
                    0.35776281356811523,
                    -0.12943680584430695,
                    -0.09644973278045654,
                    -0.31662651896476746,
                    0.020839408040046692,
                    0.05379703640937805,
                    -0.3080977201461792,
                    -0.37557947635650635,
                    -0.3576429784297943,
                    -0.13442744314670563,
                    -0.07171417027711868,
                    -0.08587129414081573,
                    -0.002161318901926279,
                    0.17794175446033478,
                    -0.05807366594672203,
                    -0.49047860503196716,
                    -0.11991149187088013,
                    -0.244291290640831,
                    0.448130339384079,
                    -0.08377336710691452,
                    -0.1294182986021042,
                    -0.09289181977510452,
                    -0.05495676398277283,
                    0.37298455834388733,
                    -0.13537508249282837,
                    -0.30348682403564453,
                    0.07440610229969025,
                    0.23896241188049316,
                    -0.09644852578639984,
                    -0.12503692507743835,
                    -0.01233595423400402,
                    -0.4090743660926819,
                    -0.22282889485359192,
                    -0.30387356877326965,
                    -0.1873738169670105,
                    -0.01965898461639881,
                    -0.07781907916069031,
                    -0.3586541712284088,
                    -0.12013842910528183,
                    -0.14485588669776917,
                    -0.2124718278646469,
                    -0.48453667759895325,
                    0.5172808170318604,
                    -0.11155695468187332,
                    -0.14836059510707855,
                    -0.6963980793952942,
                    -0.2652049660682678,
                    -0.15417124330997467,
                    -0.3807135820388794,
                    -0.4069746732711792,
                    -0.31783220171928406,
                    0.273462176322937,
                    -0.7031254172325134,
                    -0.16555505990982056,
                    -0.17572472989559174,
                    -0.03678535670042038,
                    -0.6706907749176025,
                    0.19381320476531982,
                    -0.19971396028995514,
                    0.06215803697705269,
                    -0.005771164316684008,
                    -0.05845474451780319,
                    0.08317119628190994,
                    0.35487040877342224,
                    -0.0618244968354702,
                    -0.07027491927146912,
                    -0.0011223439360037446,
                    0.2176074981689453,
                    -0.0004905391251668334,
                    0.030833609402179718,
                    0.366864949464798,
                    -0.10876040160655975,
                    0.11890474706888199,
                    -0.311427503824234,
                    -0.3966391682624817,
                    -0.10137485712766647,
                    0.06659872084856033,
                    0.26498040556907654,
                    0.11479886621236801,
                    0.16561061143875122,
                    -0.01658736541867256,
                    -0.27978140115737915,
                    0.02193208783864975,
                    0.2727629840373993,
                    -0.12097975611686707,
                    0.0329335555434227,
                    0.3082594871520996,
                    0.007777839433401823,
                    0.1333269476890564,
                    -0.03156471252441406,
                    0.039713893085718155,
                    0.08715033531188965,
                    0.025926345959305763,
                    0.1465795636177063,
                    -0.09256049245595932,
                    -0.24003291130065918,
                    0.08788958936929703,
                    -0.06382256746292114,
                    -0.3360383212566376,
                    0.10193970054388046,
                    0.00034485681680962443,
                    0.0022230586037039757,
                    0.07879072427749634,
                    -0.07984257489442825,
                    0.03320080414414406,
                    0.12311617285013199,
                    0.2739409804344177,
                    0.1968715339899063,
                    0.12446315586566925,
                    0.14863242208957672,
                    -0.28640127182006836,
                    0.25646448135375977,
                    -0.05934513360261917,
                    0.03351404145359993,
                    -0.09968175739049911,
                    -0.3370369076728821,
                    -0.15295614302158356,
                    0.10978998988866806,
                    0.010123503394424915,
                    0.19429363310337067,
                    -0.158118337392807,
                    -0.24820773303508759,
                    0.21087613701820374,
                    0.0681479424238205,
                    -0.0478803925216198,
                    0.34858477115631104,
                    0.0269703920930624,
                    -0.0025912325363606215,
                    -0.168705016374588,
                    -0.07602699100971222,
                    -0.07736600935459137,
                    -0.055193983018398285,
                    -0.10110007971525192,
                    0.03775157406926155,
                    -0.17410795390605927,
                    0.007303217891603708,
                    0.10085971653461456,
                    -0.1763995736837387,
                    0.325355589389801,
                    -0.10091439634561539,
                    0.11691117286682129,
                    -0.019650671631097794,
                    -0.04887797310948372,
                    0.09137434512376785,
                    -0.054347097873687744,
                    0.008453547023236752,
                    0.007810717914253473,
                    0.10454946756362915,
                    -0.010639335960149765,
                    0.07862012088298798,
                    -0.017899712547659874,
                    -0.11909474432468414,
                    -0.06065783649682999,
                    -0.10643932968378067,
                    -0.06860731542110443,
                    0.11774381250143051,
                    0.2289503514766693,
                    -0.029520168900489807,
                    0.028452878817915916,
                    0.08514993637800217,
                    0.013043656013906002,
                    0.18038436770439148,
                    -0.0645412802696228,
                    0.16020044684410095,
                    -0.22015482187271118,
                    -0.04492293670773506,
                    -0.0929594486951828,
                    0.0425972118973732,
                    -0.10356204956769943,
                    0.23337331414222717,
                    -0.004818622022867203,
                    0.05059747025370598,
                    0.08090852946043015,
                    0.33093976974487305,
                    -0.08778098225593567,
                    -0.06161785125732422,
                    -0.029687192291021347,
                    0.18761301040649414,
                    -0.24000655114650726,
                    0.2666998505592346,
                    -0.17653784155845642,
                    0.10980813205242157,
                    0.006159321404993534,
                    -0.3053794801235199,
                    -0.2661203444004059,
                    0.0036016982048749924,
                    -0.16985832154750824,
                    -0.20777350664138794,
                    -0.05047563090920448,
                    -0.00248887250199914,
                    0.11687512695789337,
                    -0.06074448302388191,
                    0.15151414275169373,
                    -0.07405312359333038,
                    0.32118624448776245,
                    -0.057988718152046204,
                    0.01894822157919407,
                    -0.06062689796090126,
                    0.2032344490289688,
                    -0.18926610052585602,
                    -0.024579880759119987,
                    0.0034424152690917253,
                    -0.08541911095380783,
                    -0.09704901278018951,
                    0.16440925002098083,
                    -0.0769972875714302,
                    0.04024520888924599,
                    0.21473416686058044,
                    0.0761156976222992,
                    -0.23368167877197266,
                    0.05735325440764427,
                    -0.02574574202299118,
                    -0.20785890519618988,
                    0.05167210474610329,
                    0.1621730923652649,
                    0.023577261716127396,
                    0.13693340122699738,
                    -0.03154517337679863,
                    0.03893579915165901,
                    0.04871264472603798,
                    -0.08240151405334473,
                    0.054984964430332184,
                    -0.06856915354728699,
                    0.10682985931634903,
                    0.13875193893909454,
                    -0.1821187287569046,
                    -0.2957611680030823,
                    0.10068361461162567,
                    -0.1594875305891037,
                    0.0009584293002262712,
                    0.10442084074020386,
                    0.2532464265823364,
                    0.04852903261780739,
                    0.11174141615629196,
                    -0.23290519416332245,
                    0.1689269244670868,
                    0.09823036938905716,
                    -0.05277649685740471,
                    -0.19744990766048431,
                    0.04348960891366005,
                    0.11654400825500488,
                    0.0497891865670681,
                    -0.04843585938215256,
                    -0.23985934257507324,
                    -0.1363179236650467,
                    0.11110640317201614,
                    0.13357165455818176,
                    0.35890430212020874,
                    0.24431926012039185,
                    -0.1259964406490326,
                    0.09684834629297256,
                    0.06310420483350754,
                    -0.06622615456581116,
                    0.29383525252342224,
                    0.014593695290386677,
                    -0.3444957137107849,
                    -0.12702448666095734,
                    -0.19163522124290466,
                    -0.06375154852867126,
                    -0.04239613935351372,
                    0.23651444911956787,
                    0.05177886784076691,
                    -0.1711852103471756,
                    0.08418406546115875,
                    0.14552094042301178,
                    -0.09608148783445358,
                    -0.12124734371900558,
                    0.3541780710220337,
                    0.2689465880393982,
                    0.02428262121975422,
                    -0.15746140480041504,
                    0.12993626296520233,
                    -0.05030161142349243,
                    0.0437704399228096,
                    0.032264288514852524,
                    0.0743369534611702,
                    0.004535416606813669,
                    0.06884673982858658,
                    -0.00971695315092802,
                    -0.09477627277374268,
                    -0.026036011055111885,
                    0.04752098768949509,
                    -0.13216905295848846,
                    0.020356087014079094,
                    0.17578952014446259,
                    -0.005297059193253517,
                    0.009225443936884403,
                    -0.08226140588521957,
                    0.005183343775570393,
                    0.1500108540058136,
                    0.008335373364388943,
                    0.12037692219018936,
                    -0.17254960536956787,
                    0.15067000687122345,
                    -0.06417103856801987,
                    0.006599330808967352,
                    -0.06622123718261719,
                    0.2083306908607483,
                    -0.06355216354131699,
                    -0.008469873107969761,
                    0.06353282928466797,
                    0.05281289294362068,
                    -0.06422258168458939,
                    -0.05827968195080757,
                    -0.08669734001159668,
                    -0.044525496661663055,
                    -0.23763081431388855,
                    -0.09987447410821915,
                    -0.18258720636367798,
                    0.07596062868833542,
                    0.034473687410354614,
                    -0.4362845718860626,
                    -0.1533886194229126,
                    -0.11627843230962753,
                    0.10480670630931854,
                    -0.24447089433670044,
                    -0.007814407348632812,
                    0.02267015352845192,
                    -0.16998890042304993,
                    -0.15604843199253082,
                    -0.1516941487789154,
                    -0.02776079997420311,
                    -0.14403091371059418,
                    0.22396442294120789,
                    -0.035037536174058914,
                    -0.5226780772209167,
                    0.136027529835701,
                    0.08486613631248474,
                    0.2611047327518463,
                    0.1843179613351822,
                    -0.43690580129623413,
                    -0.08936405926942825,
                    -0.3056439757347107,
                    0.055366892367601395,
                    0.12891891598701477,
                    -0.037334177643060684,
                    -0.02041691541671753,
                    0.07835162431001663,
                    -0.006134688388556242,
                    -0.6107589602470398,
                    0.27535349130630493,
                    0.0502396896481514,
                    -0.34546563029289246,
                    -0.22799043357372284,
                    0.04638072848320007,
                    -0.14251664280891418,
                    -0.12905798852443695,
                    0.13075445592403412,
                    -0.02662743255496025,
                    -0.1446729451417923,
                    -0.1469649374485016,
                    -0.149554044008255,
                    0.01334128063172102,
                    -0.030903978273272514,
                    -0.1141282245516777,
                    -0.054238464683294296,
                    -0.08278140425682068,
                    0.14345338940620422,
                    0.22668488323688507,
                    -0.03638568893074989,
                    -0.03781778737902641,
                    -0.03825805336236954,
                    -0.08406080305576324,
                    -0.10551527887582779,
                    -0.0383247546851635,
                    -0.3291798233985901,
                    0.18426427245140076,
                    -0.06527593731880188,
                    -0.27501198649406433,
                    -0.06185075268149376,
                    -0.04156877100467682,
                    0.06628858298063278,
                    -0.020458944141864777,
                    -0.1181432232260704,
                    -0.31791943311691284,
                    -0.23958024382591248,
                    -0.06581933051347733,
                    -0.09296943247318268,
                    -0.1230614110827446,
                    -0.04399621859192848,
                    -0.06534682959318161,
                    0.04224630445241928,
                    0.059422239661216736,
                    -0.30636081099510193,
                    0.04205957427620888,
                    0.008902672678232193,
                    0.10643824189901352,
                    0.08529651165008545,
                    -0.057388290762901306,
                    -0.35660427808761597,
                    -0.025136608630418777,
                    0.18919546902179718,
                    0.10131413489580154,
                    -0.3937186002731323,
                    -0.26932474970817566,
                    0.04307005554437637,
                    0.3232097923755646,
                    0.23345687985420227,
                    -0.16213048994541168,
                    0.20400342345237732,
                    -0.07374516874551773,
                    -0.0966397300362587,
                    0.23282292485237122,
                    0.08569706231355667,
                    -0.02423389069736004,
                    0.05915209278464317,
                    -0.1981838345527649,
                    0.1837233603000641,
                    -0.11146343499422073,
                    -0.8511791825294495,
                    0.12907534837722778,
                    0.058776289224624634,
                    -0.051208995282649994,
                    -0.1374203860759735,
                    -0.030302172526717186,
                    -0.49786341190338135,
                    -0.015466739423573017,
                    0.08657209575176239,
                    -0.010964340530335903,
                    0.12715311348438263,
                    -0.02894330956041813,
                    0.06068475544452667,
                    0.1208576112985611,
                    0.08081486076116562,
                    -0.3971420228481293,
                    -0.2824094295501709,
                    0.2882421016693115,
                    -0.3501978814601898,
                    -0.1568932682275772,
                    -0.07208170741796494,
                    0.17168977856636047,
                    0.011110720224678516,
                    0.1536668986082077,
                    0.3778248727321625,
                    0.0018089597579091787,
                    0.06630033999681473,
                    -0.1310766637325287,
                    0.12012043595314026,
                    -0.3435775339603424,
                    -0.15178297460079193,
                    -0.06937338411808014,
                    -0.012077978812158108,
                    0.1998569667339325,
                    -0.037005819380283356,
                    -0.017908772453665733,
                    -0.03370007872581482,
                    -0.15888293087482452,
                    -0.04640727862715721,
                    0.09507228434085846,
                    0.06229081377387047,
                    0.3463899493217468,
                    0.05147336795926094,
                    0.329107403755188,
                    0.4053730070590973,
                    0.19429518282413483,
                    0.12234625965356827,
                    0.2510138154029846,
                    -0.028270136564970016,
                    0.367975115776062,
                    -0.028054112568497658,
                    -0.004118434619158506,
                    0.17345616221427917,
                    0.11724796891212463,
                    -0.02225128561258316,
                    0.23237194120883942,
                    0.05667788162827492,
                    -0.009219341911375523,
                    0.840203583240509,
                    -0.10430803149938583,
                    -0.062248315662145615,
                    0.2852563261985779,
                    -0.01342112384736538,
                    0.1526884287595749,
                    -0.20309343934059143,
                    -0.04299607500433922,
                    -0.10847952216863632,
                    -0.007815674878656864,
                    -0.20434881746768951,
                    0.1584048718214035,
                    -0.06815352290868759,
                    -0.23321227729320526,
                    0.17703397572040558,
                    0.13361769914627075,
                    -0.049059588462114334,
                    -0.26102375984191895,
                    0.14223478734493256,
                    0.24793550372123718,
                    0.10607399046421051,
                    0.023370742797851562,
                    -0.15871790051460266,
                    0.6409347057342529,
                    -0.08516908437013626,
                    -0.1962873786687851,
                    -0.03903815150260925,
                    0.008895399048924446,
                    0.20811590552330017,
                    0.29306545853614807,
                    -0.010007952339947224,
                    -0.2087486982345581,
                    0.0339195542037487,
                    -0.03231026977300644,
                    -0.10401461273431778,
                    0.05496176332235336,
                    -0.13524146378040314,
                    0.07861410081386566,
                    -0.07633940875530243,
                    0.07030493021011353,
                    0.14009106159210205,
                    0.2750273048877716,
                    -0.04077992960810661,
                    0.13863687217235565,
                    0.5003157258033752,
                    -0.009957777336239815,
                    -0.3017394244670868,
                    -0.0538627989590168,
                    0.11498212814331055,
                    0.3731897175312042,
                    -0.25628188252449036,
                    0.0024738600477576256,
                    0.3450833261013031,
                    0.07596831023693085,
                    -0.4438146948814392,
                    -0.19667764008045197,
                    0.1092560663819313,
                    0.1865020990371704,
                    -0.2999529540538788,
                    -0.11514098197221756,
                    0.16409137845039368,
                    -0.12499121576547623,
                    -0.22046126425266266,
                    0.13088396191596985,
                    -0.12161558866500854,
                    -0.28561288118362427,
                    0.16168028116226196,
                    -0.1252458542585373,
                    0.1951296478509903,
                    -0.2012852430343628,
                    0.8112367391586304,
                    0.10720079392194748,
                    0.1471295803785324,
                    -0.0011934885988011956,
                    0.07150091975927353,
                    -0.04916392266750336,
                    0.543420672416687,
                    -0.06600282341241837,
                    0.010119285434484482,
                    0.13402165472507477,
                    -0.09596442431211472,
                    0.06577496230602264,
                    0.10255620628595352,
                    -0.0751287192106247,
                    -0.06602032482624054,
                    -0.26937615871429443,
                    -0.06160156801342964,
                    0.2147783637046814,
                    0.1276405155658722,
                    -0.21978142857551575,
                    0.2222546488046646,
                    0.23346829414367676,
                    -0.0021458875853568316,
                    0.228392094373703,
                    0.1806345283985138,
                    0.08971772342920303,
                    -0.00083656155038625,
                    -0.17046339809894562,
                    0.10531516373157501,
                    -0.2302699089050293,
                    0.1066916361451149,
                    -0.05132396146655083,
                    -0.000131179069285281,
                    0.08216524124145508,
                    0.10627823323011398,
                    -0.0718785747885704,
                    -0.10662715882062912,
                    -0.12404043227434158,
                    0.0589434988796711,
                    0.15762299299240112,
                    0.016083376482129097,
                    0.2487790435552597,
                    -0.12458157539367676,
                    0.18799780309200287,
                    -0.021418970078229904,
                    0.08315467834472656,
                    0.013040839694440365,
                    -0.019689494743943214,
                    0.20825491845607758,
                    -1.0010402202606201,
                    -0.06703903526067734,
                    0.13896533846855164,
                    -0.08257929980754852,
                    0.13837958872318268,
                    0.03282533213496208,
                    0.17342695593833923,
                    0.05167676880955696,
                    0.004912040662020445,
                    -0.6595407128334045,
                    -0.3497185707092285,
                    -0.08308913558721542,
                    -0.5143247842788696,
                    0.030009416863322258,
                    -0.07811455428600311,
                    -0.03168654814362526,
                    -0.05546177923679352,
                    -0.07719866931438446,
                    0.009413385763764381,
                    -0.03355712816119194,
                    0.11325927823781967,
                    -0.07018215209245682,
                    -0.07313904911279678,
                    0.17920203506946564,
                    0.15553544461727142,
                    0.01753940060734749,
                    0.0017937847878783941,
                    -0.040195729583501816,
                    0.18066543340682983,
                    0.08160912990570068,
                    0.0389140360057354,
                    -0.08568374812602997,
                    -0.426561176776886,
                    -0.11487428843975067,
                    -0.05116444081068039,
                    0.06303789466619492,
                    -0.12658905982971191,
                    0.1823434978723526,
                    -0.463983416557312,
                    0.06251642107963562,
                    0.10308597981929779,
                    -0.005953051149845123,
                    -0.1259380578994751,
                    0.021779535338282585,
                    -0.0505814328789711,
                    0.03671373426914215,
                    0.08367399871349335,
                    0.009035114198923111,
                    0.10952272266149521,
                    0.08823159337043762,
                    0.0035820994526147842,
                    -0.041038114577531815,
                    0.07164153456687927,
                    -0.9325869083404541,
                    -0.08887488394975662,
                    -0.05469368025660515,
                    -0.07032201439142227,
                    0.06009797751903534,
                    0.31556937098503113,
                    0.0480789951980114,
                    0.16409742832183838,
                    0.15048572421073914,
                    0.13284969329833984,
                    0.058260273188352585,
                    -0.021833239123225212,
                    -0.005162484012544155,
                    -0.10347781330347061,
                    -0.15297050774097443,
                    0.11407332867383957,
                    -0.008720362558960915,
                    0.12321425974369049,
                    0.02573729120194912,
                    -0.1036011278629303,
                    -0.019097430631518364,
                    -0.1878804862499237,
                    0.11312137544155121,
                    -0.08036791533231735,
                    -0.001235884497873485,
                    -0.028397278860211372,
                    -0.5157946944236755,
                    0.009621006436645985,
                    -0.03173081576824188,
                    0.045109182596206665,
                    0.35145047307014465,
                    -0.13649721443653107,
                    -0.1613539606332779,
                    -0.023503679782152176,
                    -0.16341033577919006,
                    0.09054628014564514,
                    -0.038858357816934586,
                    0.08877652883529663,
                    0.0403493233025074,
                    0.0068372865207493305,
                    0.015531519427895546,
                    0.019805649295449257,
                    0.08307754248380661,
                    -0.06212342157959938,
                    -0.04132656753063202,
                    -0.040500275790691376,
                    0.01672855019569397,
                    -0.03981670364737511,
                    0.021338777616620064,
                    -0.06066504865884781,
                    -0.13754235208034515,
                    -0.06673682481050491,
                    -0.07894834876060486,
                    -0.026291651651263237,
                    0.03108433075249195,
                    -0.07093524932861328,
                    0.15199914574623108,
                    0.011077028699219227
                ]
            },
            {
                "_type": "ndarray",
                "shape": [
                    128
                ],
                "dtype": "float32",
                "data": [
                    -0.1994081735610962,
                    0.02196592092514038,
                    0.18673761188983917,
                    -0.41378065943717957,
                    -0.4242357313632965,
                    -0.009657826274633408,
                    -0.4549885094165802,
                    -0.18934482336044312,
                    -0.2597652077674866,
                    -0.31895312666893005,
                    -0.36841878294944763,
                    -0.22643113136291504,
                    -0.1927478015422821,
                    -0.07488276809453964,
                    -0.28506729006767273,
                    -0.21629410982131958,
                    -0.036233607679605484,
                    -0.5260695219039917,
                    0.11402098834514618,
                    0.2822258472442627,
                    -0.3868650794029236,
                    -0.3736509382724762,
                    -0.285596638917923,
                    -0.45861610770225525,
                    -0.18385519087314606,
                    -0.07307077944278717,
                    -0.6548317074775696,
                    -0.41516032814979553,
                    0.2590520977973938,
                    -0.3833608329296112,
                    -0.2821028232574463,
                    -0.32529088854789734,
                    0.46543508768081665,
                    0.08232703059911728,
                    -0.14810246229171753,
                    -0.3097141683101654,
                    -0.18069325387477875,
                    0.08352521061897278,
                    -0.7449414134025574,
                    -0.23172518610954285,
                    -0.0739738866686821,
                    -0.3487692177295685,
                    0.26427382230758667,
                    0.1465538740158081,
                    -1.0308215618133545,
                    -0.18134784698486328,
                    -0.15460073947906494,
                    -0.37341660261154175,
                    -0.4570901095867157,
                    -0.38648003339767456,
                    0.37360501289367676,
                    0.2669965624809265,
                    -0.35284557938575745,
                    -0.15820403397083282,
                    -0.46788403391838074,
                    -0.47865501046180725,
                    -0.17981168627738953,
                    0.03944382444024086,
                    -0.15491388738155365,
                    0.06346526741981506,
                    -0.05605701729655266,
                    -0.37150728702545166,
                    -0.27257317304611206,
                    0.03946688026189804,
                    -0.10183758288621902,
                    -0.27248066663742065,
                    -0.9570273756980896,
                    -0.20068733394145966,
                    -0.07427536696195602,
                    -0.06493943929672241,
                    -0.48119795322418213,
                    -0.4153733253479004,
                    -0.15257743000984192,
                    0.2546994984149933,
                    -0.07667573541402817,
                    -0.38750067353248596,
                    -0.1916944980621338,
                    -0.22141483426094055,
                    0.019285468384623528,
                    -0.07327093929052353,
                    -0.1755048930644989,
                    0.35899093747138977,
                    -0.17241765558719635,
                    0.1124783605337143,
                    1.1493228673934937,
                    -0.3337148129940033,
                    -0.5962083339691162,
                    0.008253696374595165,
                    -0.23702305555343628,
                    -0.29931020736694336,
                    0.022866304963827133,
                    0.35876211524009705,
                    0.14301587641239166,
                    0.12439494580030441,
                    -0.3298221230506897,
                    -0.0014764320803806186,
                    -0.47094854712486267,
                    -0.3495810925960541,
                    -0.2256368100643158,
                    -0.16351577639579773,
                    -0.21549175679683685,
                    0.05856171250343323,
                    -0.2710729241371155,
                    -0.2015591859817505,
                    0.06267099827528,
                    0.1035887748003006,
                    -0.22419562935829163,
                    0.14973734319210052,
                    -0.37967172265052795,
                    0.12649357318878174,
                    -0.13264106214046478,
                    -0.04470692574977875,
                    -0.30863744020462036,
                    -0.4738682508468628,
                    -0.1605292558670044,
                    0.28102147579193115,
                    -0.2654518485069275,
                    0.012614114210009575,
                    -0.11912167072296143,
                    -0.3180718719959259,
                    0.06853102147579193,
                    -0.1254798024892807,
                    -0.23969236016273499,
                    -0.5938752293586731,
                    -0.05133751779794693,
                    0.04650958627462387,
                    -0.3189324140548706,
                    -0.47701704502105713
                ]
            }
        ]
    },
    {
        "class": "keras.layers.core.dense.Dense",
        "config": {
            "name": "dense_1",
            "trainable": true,
            "dtype": "float32",
            "units": 128,
            "activation": "softplus",
            "use_bias": true,
            "kernel_initializer": {
                "class_name": "RandomNormal",
                "config": {
                    "mean": 0.0,
                    "stddev": 0.08838834764831843,
                    "seed": 775411
                }
            },
            "bias_initializer": {
                "class_name": "Zeros",
                "config": {}
            },
            "kernel_regularizer": null,
            "bias_regularizer": null,
            "activity_regularizer": null,
            "kernel_constraint": null,
            "bias_constraint": null
        },
        "weights": [
            {
                "_type": "ndarray",
                "shape": [
                    128,
                    128
                ],
                "dtype": "float32",
                "data": [
                    -0.03274941071867943,
                    0.08773069828748703,
                    0.24389690160751343,
                    -0.0027504749596118927,
                    -0.09691619873046875,
                    0.09121479839086533,
                    -0.05598549172282219,
                    -0.02162540890276432,
                    0.14855539798736572,
                    0.03120804950594902,
                    0.0787772685289383,
                    -0.28318360447883606,
                    -0.15526147186756134,
                    -0.045072536915540695,
                    -0.03445295989513397,
                    -0.07539715617895126,
                    0.003630366874858737,
                    -0.037093985825777054,
                    0.14577095210552216,
                    -0.3325062096118927,
                    -0.04651327803730965,
                    -0.07345128804445267,
                    0.040369145572185516,
                    -0.10810397565364838,
                    0.2295302152633667,
                    0.16217797994613647,
                    0.32286378741264343,
                    -0.12986983358860016,
                    0.034220609813928604,
                    0.05494092404842377,
                    -0.702104389667511,
                    0.11804502457380295,
                    -0.13032667338848114,
                    0.06098014488816261,
                    0.16647255420684814,
                    0.04043347388505936,
                    0.11900695413351059,
                    -0.07099983841180801,
                    -0.07198125123977661,
                    -0.15952211618423462,
                    -0.0061555770225822926,
                    -0.018809450790286064,
                    -0.11803057789802551,
                    0.12398628890514374,
                    -0.18321457505226135,
                    -0.39180994033813477,
                    0.12432462722063065,
                    0.034483302384614944,
                    0.013794874772429466,
                    0.05508357658982277,
                    0.06863070279359818,
                    0.07945140451192856,
                    0.15886825323104858,
                    0.036797430366277695,
                    -0.023168351501226425,
                    0.0752306655049324,
                    0.004031215328723192,
                    -0.11743074655532837,
                    0.08584962785243988,
                    0.07418369501829147,
                    0.07453537732362747,
                    0.05566397309303284,
                    -0.019789481535553932,
                    -0.025142639875411987,
                    -0.15336106717586517,
                    0.018009506165981293,
                    0.1310756355524063,
                    -0.07105379551649094,
                    -0.01274916809052229,
                    0.0469655841588974,
                    0.031406331807374954,
                    0.1402149647474289,
                    -0.047769349068403244,
                    -0.0781690701842308,
                    0.02257544919848442,
                    -0.05914261192083359,
                    0.046158529818058014,
                    0.11882126331329346,
                    0.24397805333137512,
                    0.11731460690498352,
                    -0.0928126871585846,
                    0.06455139815807343,
                    0.023554693907499313,
                    0.009447945281863213,
                    -0.01791432686150074,
                    -0.03605620190501213,
                    0.0480717271566391,
                    -0.1313769519329071,
                    0.05491973087191582,
                    0.049854934215545654,
                    -0.09588108956813812,
                    0.2859869599342346,
                    -0.062552310526371,
                    -0.10199829936027527,
                    0.08802052587270737,
                    0.09964597970247269,
                    0.09672939032316208,
                    -0.07426771521568298,
                    0.0223991796374321,
                    0.07018565386533737,
                    -0.1403549462556839,
                    0.13455602526664734,
                    0.025727013126015663,
                    0.05994105711579323,
                    -0.05180230364203453,
                    -0.013640819117426872,
                    -0.09782619029283524,
                    -0.12526263296604156,
                    -0.07003898918628693,
                    -0.2633841633796692,
                    0.04290943965315819,
                    0.13980615139007568,
                    0.09402443468570709,
                    0.16211694478988647,
                    0.0918891429901123,
                    0.1404881626367569,
                    0.14342817664146423,
                    -0.06458749622106552,
                    0.10184024274349213,
                    0.12628372013568878,
                    -0.041457463055849075,
                    -0.0217768382281065,
                    -0.011360792443156242,
                    -0.04381079599261284,
                    -0.029652386903762817,
                    0.024631693959236145,
                    -0.0886281356215477,
                    0.1440529227256775,
                    -0.01890643499791622,
                    0.02112058363854885,
                    0.038238681852817535,
                    -0.10836447030305862,
                    -0.0505414716899395,
                    -0.06363815069198608,
                    -0.19416697323322296,
                    -0.25517338514328003,
                    -0.26430201530456543,
                    -0.02868504263460636,
                    -0.15247328579425812,
                    0.41482293605804443,
                    -0.17798997461795807,
                    0.049408212304115295,
                    -0.056641917675733566,
                    0.1937134861946106,
                    0.20256367325782776,
                    -0.06925681233406067,
                    -0.028984928503632545,
                    -0.21361510455608368,
                    0.05983500927686691,
                    -0.09099514037370682,
                    -0.22654561698436737,
                    -0.12567110359668732,
                    -0.005606028251349926,
                    0.2599140703678131,
                    0.010560031980276108,
                    -0.2494106888771057,
                    0.1125146821141243,
                    -0.1342751681804657,
                    0.5401344299316406,
                    0.03353346884250641,
                    -0.11991763859987259,
                    -0.3091322183609009,
                    0.06786081939935684,
                    -0.210353285074234,
                    0.06705097109079361,
                    0.2952745258808136,
                    -0.05064040794968605,
                    -0.25781044363975525,
                    0.028642427176237106,
                    0.07123187184333801,
                    -0.12338856607675552,
                    0.23232606053352356,
                    0.052980124950408936,
                    0.37501248717308044,
                    -0.0485837459564209,
                    -0.08835700899362564,
                    -0.061678171157836914,
                    -0.055322084575891495,
                    -0.10181669890880585,
                    0.06457992643117905,
                    -0.001986427465453744,
                    -0.004711028654128313,
                    0.1281651258468628,
                    0.00423829909414053,
                    -0.12403366714715958,
                    -0.028533682227134705,
                    0.03520175814628601,
                    -0.014482107944786549,
                    -0.11146915704011917,
                    0.005964105483144522,
                    -0.07898662239313126,
                    -0.17662231624126434,
                    -0.06404188275337219,
                    0.1389332264661789,
                    -0.0730227679014206,
                    -0.16514712572097778,
                    0.10181576758623123,
                    0.08113355934619904,
                    -0.049395229667425156,
                    0.022171735763549805,
                    -0.017321476712822914,
                    -0.007905595935881138,
                    -0.01082451082766056,
                    0.0032722658943384886,
                    0.018013011664152145,
                    0.14043237268924713,
                    -0.000534404709469527,
                    -0.13791051506996155,
                    -0.046433355659246445,
                    -0.04801830276846886,
                    0.19736284017562866,
                    0.017479106783866882,
                    -0.08153081685304642,
                    0.027993587777018547,
                    -0.03288710489869118,
                    -0.023596391081809998,
                    0.019804684445261955,
                    -0.060281723737716675,
                    0.02862461283802986,
                    -0.14233188331127167,
                    0.03692293539643288,
                    0.1849168837070465,
                    -0.08824825286865234,
                    0.03430300951004028,
                    0.017736822366714478,
                    -0.09820211678743362,
                    6.25228785793297e-05,
                    -0.21571268141269684,
                    -0.16673628985881805,
                    0.055226631462574005,
                    -0.10849667340517044,
                    -0.1319226175546646,
                    0.25396808981895447,
                    -0.1073538139462471,
                    -0.12584097683429718,
                    0.07532115280628204,
                    -0.00602881470695138,
                    -0.06094943732023239,
                    -0.21926721930503845,
                    -0.09452585875988007,
                    0.020978804677724838,
                    -0.02905760332942009,
                    -0.132706418633461,
                    -0.06541257351636887,
                    -0.18922282755374908,
                    -0.2645784318447113,
                    -0.13183291256427765,
                    -0.13115352392196655,
                    0.05087750777602196,
                    -0.0003285941784270108,
                    -0.18993394076824188,
                    -0.06687123328447342,
                    -0.10274665057659149,
                    -0.28489217162132263,
                    -0.3208519518375397,
                    -0.20069754123687744,
                    -0.08752968162298203,
                    -0.11478187888860703,
                    0.07211299240589142,
                    -0.048843592405319214,
                    -0.09695690125226974,
                    -0.03581596165895462,
                    0.07438792288303375,
                    -0.2258511483669281,
                    -0.08438345044851303,
                    -0.006394118536263704,
                    0.03608764708042145,
                    -0.02228626422584057,
                    -0.10024620592594147,
                    0.2668323814868927,
                    -0.17321614921092987,
                    0.09172137826681137,
                    -0.06648790836334229,
                    -0.07379793375730515,
                    -0.04765539616346359,
                    -0.005216376855969429,
                    -0.19503815472126007,
                    -0.13507424294948578,
                    0.07238525152206421,
                    -0.15585094690322876,
                    -0.0414109043776989,
                    -0.02025900036096573,
                    0.013020281679928303,
                    -0.28241539001464844,
                    0.07114307582378387,
                    -0.3850107789039612,
                    0.2793252170085907,
                    -0.03146952763199806,
                    0.013819433748722076,
                    -0.062527596950531,
                    -0.04854191094636917,
                    0.0025973753072321415,
                    -0.0009603810613043606,
                    0.10795661807060242,
                    0.12035398930311203,
                    -0.3311505913734436,
                    -0.033442359417676926,
                    -0.14700497686862946,
                    0.05844155326485634,
                    -0.08711665868759155,
                    -0.03991495072841644,
                    -0.07990469038486481,
                    0.07851524651050568,
                    0.15577830374240875,
                    -0.06171233579516411,
                    0.04270973056554794,
                    -0.05363348498940468,
                    0.04159533977508545,
                    0.09404736757278442,
                    -0.1996121108531952,
                    0.018035640940070152,
                    0.0961490198969841,
                    -0.10126041620969772,
                    0.23944197595119476,
                    0.09120729565620422,
                    -0.05559244006872177,
                    0.022874245420098305,
                    0.27502524852752686,
                    -0.023778369650244713,
                    -0.03732649236917496,
                    -0.30113065242767334,
                    0.14004121720790863,
                    -0.025177109986543655,
                    0.05222082510590553,
                    -0.018301721662282944,
                    0.03886128589510918,
                    -0.17534805834293365,
                    0.09660062193870544,
                    -0.016686605289578438,
                    -0.06342191994190216,
                    0.025197135284543037,
                    -0.01424174103885889,
                    -0.041338879615068436,
                    -0.07655122876167297,
                    0.14892257750034332,
                    0.1824268251657486,
                    0.031699422746896744,
                    -0.03574923053383827,
                    0.0002158669230993837,
                    -0.06807643920183182,
                    -0.13747267425060272,
                    -0.08417151868343353,
                    0.017318129539489746,
                    -0.19229672849178314,
                    -0.04781723767518997,
                    -0.11789506673812866,
                    0.22972528636455536,
                    0.08199344575405121,
                    -0.08077631890773773,
                    -0.10426665097475052,
                    -0.014317171648144722,
                    -0.12986452877521515,
                    -0.1799190193414688,
                    0.15749295055866241,
                    -0.08513880521059036,
                    -0.550443708896637,
                    0.0010135953780263662,
                    -0.04018596187233925,
                    -0.23822715878486633,
                    0.06314168125391006,
                    0.11032942682504654,
                    0.19033733010292053,
                    -0.019965752959251404,
                    0.05509781837463379,
                    0.1307268738746643,
                    0.02145540527999401,
                    0.0963759571313858,
                    -0.202734112739563,
                    0.012666920199990273,
                    0.11788877099752426,
                    0.025385361164808273,
                    0.034229133278131485,
                    -0.08940354734659195,
                    0.2026853859424591,
                    -0.12977974116802216,
                    0.14499430358409882,
                    -0.13110432028770447,
                    0.17674486339092255,
                    -0.13708651065826416,
                    0.10532655566930771,
                    -0.1032804623246193,
                    -0.11877799779176712,
                    0.05434580147266388,
                    -0.004385230131447315,
                    -0.14131422340869904,
                    0.007290862500667572,
                    0.031953904777765274,
                    0.05389143526554108,
                    -0.0995318815112114,
                    -0.1076732948422432,
                    0.15216031670570374,
                    -0.16229873895645142,
                    0.019650408998131752,
                    0.07800296694040298,
                    -0.05605923756957054,
                    -0.24894167482852936,
                    -0.00938919372856617,
                    0.05997033789753914,
                    -0.1162726953625679,
                    -0.09447939693927765,
                    0.030111508443951607,
                    -0.11700550466775894,
                    0.12174481898546219,
                    -0.2570381164550781,
                    -0.037108972668647766,
                    -0.0003401098947506398,
                    0.19449013471603394,
                    -0.015726378187537193,
                    -0.034605685621500015,
                    0.2200164794921875,
                    0.08109545707702637,
                    -0.2057151347398758,
                    0.17634829878807068,
                    -0.05551362782716751,
                    0.04238782450556755,
                    -0.010075826197862625,
                    -0.1996554285287857,
                    0.08498058468103409,
                    0.044747620820999146,
                    0.15844470262527466,
                    0.21946674585342407,
                    -0.12256232649087906,
                    0.18652570247650146,
                    0.1178111582994461,
                    0.351032555103302,
                    -0.18760977685451508,
                    -0.06167411804199219,
                    0.21023105084896088,
                    -0.12779371440410614,
                    -0.12788298726081848,
                    0.22948791086673737,
                    0.0026621234137564898,
                    0.16215752065181732,
                    0.13260802626609802,
                    -0.1254265308380127,
                    -0.13140229880809784,
                    -0.06936775892972946,
                    0.0512610524892807,
                    0.10286980122327805,
                    -0.14484860002994537,
                    -0.04986165836453438,
                    -0.03676050901412964,
                    -0.02512158453464508,
                    0.13643419742584229,
                    -0.1868324875831604,
                    0.09457522630691528,
                    0.11984215676784515,
                    0.004137944895774126,
                    0.01194334588944912,
                    0.0331529900431633,
                    -0.016962124034762383,
                    0.06453125923871994,
                    0.18558943271636963,
                    -0.020942671224474907,
                    -0.08159114420413971,
                    0.009755400009453297,
                    0.045747771859169006,
                    0.05170701444149017,
                    0.06193361431360245,
                    -0.0076679266057908535,
                    0.10912061482667923,
                    -0.03437245637178421,
                    0.07752642780542374,
                    0.038825105875730515,
                    0.04973950237035751,
                    -0.052040357142686844,
                    0.09829875081777573,
                    0.10045643150806427,
                    -0.22531163692474365,
                    -0.07854270190000534,
                    0.01050468161702156,
                    0.12642782926559448,
                    -0.17612382769584656,
                    -0.16768765449523926,
                    0.09600662440061569,
                    0.06993924826383591,
                    0.03418927639722824,
                    -0.061804816126823425,
                    0.045944083482027054,
                    -0.14938628673553467,
                    -0.05276278406381607,
                    0.19101935625076294,
                    -0.11172220855951309,
                    -0.04180007800459862,
                    -0.012960935942828655,
                    0.0383901409804821,
                    -0.1637042611837387,
                    0.0014684883644804358,
                    -0.12525644898414612,
                    0.056474875658750534,
                    0.04400049149990082,
                    -0.20762552320957184,
                    0.09780407696962357,
                    -0.03963794931769371,
                    -0.16358517110347748,
                    -0.020927494391798973,
                    0.054031483829021454,
                    0.022013135254383087,
                    -0.026048801839351654,
                    0.09109707921743393,
                    0.019722258672118187,
                    0.004358834121376276,
                    -0.14831213653087616,
                    0.024663181975483894,
                    -0.05837899073958397,
                    -0.03683730214834213,
                    -0.0679076686501503,
                    0.13816837966442108,
                    -0.0729639083147049,
                    -0.10968723893165588,
                    -0.0375826358795166,
                    -0.004811350256204605,
                    -0.016970397904515266,
                    -0.03388991951942444,
                    -0.07212674617767334,
                    -0.06206386163830757,
                    -0.009128045290708542,
                    0.22130490839481354,
                    0.1688048392534256,
                    -0.12064825743436813,
                    0.11046202480792999,
                    -0.11158007383346558,
                    0.05122791975736618,
                    -0.16323676705360413,
                    -0.13586679100990295,
                    0.18281272053718567,
                    0.007982602342963219,
                    0.09527081251144409,
                    -0.01923936791718006,
                    0.006708724424242973,
                    0.014062718488276005,
                    0.0073653897270560265,
                    0.11084728688001633,
                    0.14058975875377655,
                    -0.002420372562482953,
                    -0.02066894806921482,
                    0.09408728778362274,
                    0.05539785325527191,
                    0.016357330605387688,
                    -0.18081583082675934,
                    0.2368621528148651,
                    -0.04311519116163254,
                    -0.17782437801361084,
                    -0.029709545895457268,
                    -0.009922831319272518,
                    0.09812714159488678,
                    0.032374057918787,
                    -0.08989697694778442,
                    0.13151785731315613,
                    -0.1776517927646637,
                    0.18560141324996948,
                    0.09564562141895294,
                    0.06076006218791008,
                    0.05865044891834259,
                    0.12182365357875824,
                    0.04491480067372322,
                    -0.09188519418239594,
                    -0.09285087138414383,
                    0.06443636864423752,
                    0.002777976682409644,
                    0.02401963248848915,
                    0.1627570390701294,
                    -0.09859241545200348,
                    0.04118951037526131,
                    0.03722135350108147,
                    -0.21158254146575928,
                    0.1370096206665039,
                    -0.2051689475774765,
                    -0.05552498996257782,
                    0.054010555148124695,
                    -0.11345463246107101,
                    0.13874457776546478,
                    0.14789271354675293,
                    0.1961582899093628,
                    0.11518748849630356,
                    0.06385959684848785,
                    -0.09261608123779297,
                    0.010998648591339588,
                    -0.11413786560297012,
                    0.019229421392083168,
                    -0.012965152971446514,
                    0.10018299520015717,
                    -0.03846696764230728,
                    0.09099556505680084,
                    0.03456912934780121,
                    0.02549874410033226,
                    0.10077471286058426,
                    -0.2852851152420044,
                    0.15290899574756622,
                    -0.05821463093161583,
                    0.06436815112829208,
                    -0.006030873861163855,
                    0.17871242761611938,
                    0.04064638540148735,
                    0.17069555819034576,
                    -0.06311030685901642,
                    0.0032802512869238853,
                    -0.0826474279165268,
                    -0.006473263259977102,
                    0.18960382044315338,
                    0.05372383072972298,
                    0.04768888279795647,
                    0.1129629909992218,
                    0.031639114022254944,
                    0.15430857241153717,
                    -0.05902596190571785,
                    -0.08888422697782516,
                    -0.08777568489313126,
                    0.02479458600282669,
                    0.01166621595621109,
                    -0.026217570528388023,
                    -0.10576212406158447,
                    0.059915319085121155,
                    0.06527013331651688,
                    -0.04173413664102554,
                    -0.05801057443022728,
                    -0.2866038978099823,
                    0.1888963282108307,
                    -0.033729638904333115,
                    0.027331408113241196,
                    -0.08877260982990265,
                    -0.1897086799144745,
                    0.08850720524787903,
                    -0.05043366923928261,
                    -0.13389120995998383,
                    0.18670405447483063,
                    0.011025998741388321,
                    0.34342166781425476,
                    0.12137264013290405,
                    0.19640207290649414,
                    -0.11929921060800552,
                    0.0014508647145703435,
                    -0.23809762299060822,
                    0.085288867354393,
                    0.049286384135484695,
                    0.03438618779182434,
                    -0.09669680893421173,
                    -0.08462309092283249,
                    -0.18811148405075073,
                    0.2286662459373474,
                    0.18107402324676514,
                    -0.23933307826519012,
                    0.017551831901073456,
                    -0.023184917867183685,
                    -0.06032595783472061,
                    -0.09067943692207336,
                    -0.07509031891822815,
                    0.2810472249984741,
                    -0.1253487467765808,
                    -0.010896965861320496,
                    0.08844847232103348,
                    0.20881788432598114,
                    -0.17246147990226746,
                    -0.012607692740857601,
                    -0.002869016258046031,
                    -0.06702017039060593,
                    -0.15107110142707825,
                    0.04932276904582977,
                    -0.036621153354644775,
                    -0.05946085602045059,
                    -0.010357966646552086,
                    0.19907237589359283,
                    -0.009831082075834274,
                    0.2211715281009674,
                    0.34431830048561096,
                    0.019244659692049026,
                    0.02133473940193653,
                    0.05404052883386612,
                    -0.10968557000160217,
                    0.052105702459812164,
                    -0.191426083445549,
                    0.07275224477052689,
                    -0.007006305735558271,
                    0.17129240930080414,
                    0.06127467378973961,
                    0.1319587677717209,
                    0.017935948446393013,
                    -0.2981325387954712,
                    0.21263106167316437,
                    -0.06162372604012489,
                    0.08532529324293137,
                    0.03447302058339119,
                    -0.024813994765281677,
                    0.02394712343811989,
                    -0.013057223521173,
                    0.1626429706811905,
                    -0.05455603450536728,
                    -0.03027605637907982,
                    -0.021164443343877792,
                    0.07040513306856155,
                    -0.02456413209438324,
                    0.17664678394794464,
                    0.16124297678470612,
                    -0.08881024271249771,
                    0.197267547249794,
                    -0.051196008920669556,
                    0.09185250848531723,
                    -0.0549040250480175,
                    -0.1665271371603012,
                    -0.00634676031768322,
                    0.29434022307395935,
                    -0.09637186676263809,
                    0.14643780887126923,
                    0.09153353422880173,
                    -0.09011264145374298,
                    -0.16005225479602814,
                    0.15289035439491272,
                    -0.05221036449074745,
                    -0.09877607971429825,
                    -0.03367358818650246,
                    0.008750993758440018,
                    0.11531411111354828,
                    -0.1544991433620453,
                    0.05447893962264061,
                    0.16080743074417114,
                    0.1002974882721901,
                    0.030331533402204514,
                    0.060531895607709885,
                    -0.1673821210861206,
                    -0.07611238956451416,
                    0.03142674267292023,
                    -0.14295487105846405,
                    0.008159874938428402,
                    -0.0822223499417305,
                    0.08360068500041962,
                    -0.06850223243236542,
                    -0.1552770733833313,
                    0.03949982300400734,
                    -0.10315338522195816,
                    -0.13777221739292145,
                    -0.10135194659233093,
                    0.11818375438451767,
                    -0.01294675562530756,
                    0.0719224363565445,
                    0.10509483516216278,
                    -0.06028216332197189,
                    -0.013503552414476871,
                    0.012522293254733086,
                    -0.14918163418769836,
                    -0.1257665455341339,
                    -0.06373530626296997,
                    0.019230974838137627,
                    -0.04939700663089752,
                    0.08229124546051025,
                    -0.13002826273441315,
                    0.13322682678699493,
                    0.03894323483109474,
                    0.027267467230558395,
                    0.0025422738399356604,
                    0.04166224226355553,
                    0.17573662102222443,
                    0.05496932938694954,
                    -0.006834735628217459,
                    -0.23000302910804749,
                    0.21098484098911285,
                    0.10084252804517746,
                    -0.05101989582180977,
                    0.005044355057179928,
                    -0.011556190438568592,
                    -0.044886812567710876,
                    0.05209871008992195,
                    0.01164872758090496,
                    0.10810522735118866,
                    -0.017589528113603592,
                    0.24048905074596405,
                    -0.02087249979376793,
                    -0.8523553609848022,
                    0.1000717431306839,
                    0.04070078581571579,
                    0.04464727267622948,
                    -0.19597168266773224,
                    0.1780712753534317,
                    0.010499818250536919,
                    0.0654413104057312,
                    0.15418970584869385,
                    0.3599303662776947,
                    0.09017281979322433,
                    -0.1671086996793747,
                    0.07627132534980774,
                    0.026106469333171844,
                    -0.11080770194530487,
                    0.061645567417144775,
                    0.05212251469492912,
                    0.013509795069694519,
                    -0.010272595100104809,
                    0.0662250965833664,
                    0.0034284202847629786,
                    -0.11978015303611755,
                    0.022054452449083328,
                    0.11563433706760406,
                    0.28216928243637085,
                    -0.1392665058374405,
                    -0.022324329242110252,
                    0.1121058315038681,
                    0.05478556081652641,
                    -0.04027664288878441,
                    0.2016877830028534,
                    -0.22081615030765533,
                    0.08201466500759125,
                    0.016345113515853882,
                    -0.026679083704948425,
                    -0.045179333537817,
                    -0.0668615773320198,
                    0.12694035470485687,
                    0.0705859586596489,
                    -0.04543827846646309,
                    0.10018233954906464,
                    0.00701264338567853,
                    -0.10929283499717712,
                    -0.031301695853471756,
                    -0.05064316838979721,
                    0.21868330240249634,
                    -0.14532935619354248,
                    0.05166253820061684,
                    -0.08775486797094345,
                    0.13094842433929443,
                    -0.10228201001882553,
                    -0.028514301404356956,
                    0.04177650809288025,
                    -0.029739249497652054,
                    0.09722796827554703,
                    -0.1003224179148674,
                    0.02765769511461258,
                    -0.159501314163208,
                    -0.031636908650398254,
                    0.24556772410869598,
                    -0.06128329038619995,
                    -0.08628448098897934,
                    0.025522908195853233,
                    0.0353846438229084,
                    0.11537659168243408,
                    0.08125262707471848,
                    0.17030756175518036,
                    0.0014574229717254639,
                    0.047638796269893646,
                    0.007132329512387514,
                    -0.19373147189617157,
                    0.06445346772670746,
                    -0.029864506796002388,
                    0.1032707691192627,
                    -0.07816645503044128,
                    0.10782423615455627,
                    -0.061530400067567825,
                    0.08781064301729202,
                    0.06700131297111511,
                    0.015117866918444633,
                    -0.1239173635840416,
                    -0.07032506912946701,
                    0.06183211877942085,
                    -0.02527046576142311,
                    -0.003956464119255543,
                    0.05583466216921806,
                    -0.11114373058080673,
                    -0.0248588677495718,
                    0.07911701500415802,
                    0.1888044774532318,
                    0.04787059873342514,
                    0.04217143729329109,
                    -0.20635177195072174,
                    0.03614203259348869,
                    -0.04625160992145538,
                    -0.020431185141205788,
                    -0.08261337131261826,
                    0.13212883472442627,
                    0.04019917547702789,
                    -0.09846602380275726,
                    0.01989755965769291,
                    0.05112722888588905,
                    -0.10988829284906387,
                    0.06761475652456284,
                    -0.07635611295700073,
                    -0.058947671204805374,
                    0.0712759718298912,
                    0.13578934967517853,
                    0.04743172600865364,
                    -0.03981296718120575,
                    -0.035624776035547256,
                    0.04582533985376358,
                    0.14819085597991943,
                    -0.04863622039556503,
                    0.10439776629209518,
                    0.0021899999119341373,
                    0.18773765861988068,
                    0.1326248198747635,
                    0.010982752777636051,
                    -0.07312791794538498,
                    0.10294893383979797,
                    -0.02304387092590332,
                    -0.01722828485071659,
                    0.04159053415060043,
                    0.06088549271225929,
                    -0.2014016956090927,
                    0.06614191085100174,
                    0.023981930688023567,
                    0.029508085921406746,
                    -0.0528537854552269,
                    -0.054282188415527344,
                    -0.159162700176239,
                    0.10534799098968506,
                    -0.0030951390508562326,
                    0.021115487441420555,
                    0.03548163175582886,
                    0.09040311723947525,
                    -0.1512000560760498,
                    -0.18334871530532837,
                    0.019610488787293434,
                    -0.056057438254356384,
                    -0.061519261449575424,
                    0.12303411215543747,
                    0.40630292892456055,
                    -0.12911482155323029,
                    -0.01452427078038454,
                    -0.150591641664505,
                    -0.21241790056228638,
                    -0.1113535538315773,
                    0.1367073655128479,
                    0.10871300101280212,
                    -0.15296496450901031,
                    0.18301942944526672,
                    0.13735346496105194,
                    -0.1337427943944931,
                    0.12563300132751465,
                    0.12493589520454407,
                    0.10355906188488007,
                    -0.09889066964387894,
                    -0.05570106580853462,
                    0.379128634929657,
                    -0.10254130512475967,
                    -0.24910184741020203,
                    0.035169586539268494,
                    -0.06389103829860687,
                    0.013222933746874332,
                    0.01777804270386696,
                    -0.19324040412902832,
                    -0.03449060395359993,
                    -0.08755563944578171,
                    0.0808703601360321,
                    -0.14308802783489227,
                    -0.0391739122569561,
                    0.14203447103500366,
                    -0.2421562671661377,
                    0.17280180752277374,
                    -0.11183206737041473,
                    0.20589937269687653,
                    0.11567671597003937,
