[
    {
        "class": "keras.layers.core.dense.Dense",
        "config": {
            "name": "dense",
            "trainable": true,
            "dtype": "float32",
            "units": 128,
            "activation": "softplus",
            "use_bias": true,
            "kernel_initializer": {
                "class_name": "RandomNormal",
                "config": {
                    "mean": 0.0,
                    "stddev": 0.17677669529663687,
                    "seed": 214127
                }
            },
            "bias_initializer": {
                "class_name": "Zeros",
                "config": {}
            },
            "kernel_regularizer": null,
            "bias_regularizer": null,
            "activity_regularizer": null,
            "kernel_constraint": null,
            "bias_constraint": null
        },
        "weights": [
            {
                "_type": "ndarray",
                "shape": [
                    7,
                    128
                ],
                "dtype": "float32",
                "data": [
                    -0.3553837835788727,
                    0.12058023363351822,
                    -0.1083325743675232,
                    -0.263160765171051,
                    -0.2773921489715576,
                    0.07948250323534012,
                    0.02797205187380314,
                    0.15720584988594055,
                    0.18197910487651825,
                    -0.05865232273936272,
                    0.011713058687746525,
                    0.036674972623586655,
                    0.0273712370544672,
                    -0.1578700989484787,
                    0.06409590691328049,
                    -0.038311783224344254,
                    -0.031999621540308,
                    0.20307035744190216,
                    -0.03846844285726547,
                    -0.0006761116092093289,
                    -0.008486160077154636,
                    0.06392473727464676,
                    -0.04805566370487213,
                    0.050800301134586334,
                    -0.5006078481674194,
                    -0.14727163314819336,
                    0.17193304002285004,
                    0.105341836810112,
                    0.05211854726076126,
                    -0.20851223170757294,
                    0.10921507328748703,
                    0.23462937772274017,
                    0.024755515158176422,
                    -0.15230120718479156,
                    0.04104927182197571,
                    0.13573531806468964,
                    -0.1911194920539856,
                    -0.2009594887495041,
                    0.08554235100746155,
                    0.017490141093730927,
                    -0.08593695610761642,
                    -0.04330125078558922,
                    -0.11004797369241714,
                    0.18837204575538635,
                    -0.13890309631824493,
                    -0.4501548707485199,
                    -0.09198085218667984,
                    0.26552072167396545,
                    0.11121495068073273,
                    -0.1901772916316986,
                    -0.31827250123023987,
                    -0.011530490592122078,
                    0.02604692429304123,
                    -0.5303433537483215,
                    0.013982209376990795,
                    0.0039783986285328865,
                    0.07840391248464584,
                    -0.1135435551404953,
                    -0.13533484935760498,
                    -0.11460289359092712,
                    0.14830780029296875,
                    0.4694845974445343,
                    0.019480468705296516,
                    -0.0649065226316452,
                    -0.2634526193141937,
                    -0.13608016073703766,
                    -0.05105358362197876,
                    0.19729578495025635,
                    0.10766349732875824,
                    -0.07636022567749023,
                    0.18571782112121582,
                    0.326857328414917,
                    -0.22639510035514832,
                    0.15152256190776825,
                    -0.016125094145536423,
                    -0.26090988516807556,
                    -0.056351542472839355,
                    -0.02408509887754917,
                    -0.06558166444301605,
                    -0.04063526168465614,
                    0.058662690222263336,
                    -0.19877442717552185,
                    0.13773518800735474,
                    0.10390233248472214,
                    0.07246427983045578,
                    0.08823918551206589,
                    0.1164807677268982,
                    0.17772860825061798,
                    0.08414974808692932,
                    -0.0690390095114708,
                    -0.08564311265945435,
                    -0.12946099042892456,
                    -0.26947540044784546,
                    0.21089710295200348,
                    0.2891246974468231,
                    0.09131571650505066,
                    -0.21710389852523804,
                    -0.2475053369998932,
                    -0.12912625074386597,
                    0.19176137447357178,
                    -0.30492910742759705,
                    0.12981471419334412,
                    0.05183860659599304,
                    0.06452649086713791,
                    -0.22385933995246887,
                    0.061348505318164825,
                    0.07006915658712387,
                    0.021784653887152672,
                    -0.09399119764566422,
                    -0.09597587585449219,
                    -0.18073394894599915,
                    -0.06463383883237839,
                    -0.08629576861858368,
                    -0.03978986665606499,
                    0.39582595229148865,
                    0.07440529018640518,
                    0.3369085192680359,
                    -0.008031231351196766,
                    -0.09788637608289719,
                    0.15795788168907166,
                    -0.41584667563438416,
                    -0.09588364511728287,
                    0.11598023027181625,
                    0.10440327227115631,
                    0.312514066696167,
                    -0.12460257112979889,
                    0.0621156245470047,
                    0.12393050640821457,
                    -0.0762108862400055,
                    0.051617030054330826,
                    -0.21004171669483185,
                    -0.17039808630943298,
                    -0.1882261484861374,
                    -0.1978120058774948,
                    0.3431050777435303,
                    0.02596147544682026,
                    0.09092933684587479,
                    0.1331852376461029,
                    -0.08386952430009842,
                    -0.12506598234176636,
                    0.07055727392435074,
                    -0.044790513813495636,
                    -0.11697767674922943,
                    -0.19683516025543213,
                    0.06396900117397308,
                    -0.08542214334011078,
                    0.0866921991109848,
                    0.3309272229671478,
                    -0.06656961143016815,
                    0.1134796291589737,
                    -0.0674482136964798,
                    -0.005228405352681875,
                    0.10574361681938171,
                    -0.10020922124385834,
                    -0.013054706156253815,
                    -0.019928375259041786,
                    0.24444633722305298,
                    -0.22216041386127472,
                    -0.16204848885536194,
                    -0.10629304498434067,
                    0.13201940059661865,
                    -0.19480423629283905,
                    -0.07335330545902252,
                    -0.0694841593503952,
                    0.018813826143741608,
                    0.19377559423446655,
                    0.04056447744369507,
                    0.023770909756422043,
                    0.2575342059135437,
                    -0.1989206224679947,
                    -0.06810721755027771,
                    0.15225647389888763,
                    -0.40912479162216187,
                    0.22449278831481934,
                    -0.04415091127157211,
                    0.26750925183296204,
                    -0.2698345482349396,
                    -0.13853967189788818,
                    -0.09457718580961227,
                    0.223486989736557,
                    -0.26344212889671326,
                    -0.16841529309749603,
                    -0.38825520873069763,
                    -0.2783060669898987,
                    0.20601220428943634,
                    0.1765863448381424,
                    -0.144259974360466,
                    -0.23778049647808075,
                    0.06688985228538513,
                    0.131798654794693,
                    -0.13906735181808472,
                    0.002710511675104499,
                    -0.07164651155471802,
                    0.1235537976026535,
                    0.12617060542106628,
                    -0.1858818233013153,
                    -0.23388148844242096,
                    0.05910984426736832,
                    0.07416278123855591,
                    -0.10198436677455902,
                    -0.12955179810523987,
                    0.20783619582653046,
                    -0.152811199426651,
                    -0.12077123671770096,
                    -0.029537517577409744,
                    0.057107239961624146,
                    0.03036780282855034,
                    0.17879146337509155,
                    0.05310754477977753,
                    0.226740762591362,
                    0.01105843111872673,
                    0.09392844140529633,
                    0.05635928735136986,
                    -0.04083729535341263,
                    -0.39425286650657654,
                    0.016717202961444855,
                    -0.08648217469453812,
                    -0.14933191239833832,
                    0.021305810660123825,
                    -0.021515490487217903,
                    0.19561433792114258,
                    0.2146216332912445,
                    -0.07020602375268936,
                    0.008251494728028774,
                    0.014068708755075932,
                    -0.46229249238967896,
                    0.11519354581832886,
                    0.147426038980484,
                    -0.23504342138767242,
                    0.2553407549858093,
                    -0.24177907407283783,
                    0.12017209082841873,
                    -0.03503626212477684,
                    0.24369432032108307,
                    0.11272093653678894,
                    0.29836320877075195,
                    -0.2654583752155304,
                    0.39881688356399536,
                    0.014163393527269363,
                    -0.11945022642612457,
                    0.010298097506165504,
                    -0.14334896206855774,
                    -0.20351114869117737,
                    0.09804459661245346,
                    0.07052482664585114,
                    0.07717089354991913,
                    0.09089209884405136,
                    0.1111130341887474,
                    0.08288354426622391,
                    -0.03178311511874199,
                    -0.2779470682144165,
                    0.16259579360485077,
                    0.2619149684906006,
                    -0.1932843029499054,
                    0.053089357912540436,
                    -0.08466318994760513,
                    0.01716766133904457,
                    0.16371116042137146,
                    -0.008299004286527634,
                    0.08480558544397354,
                    -0.08781241625547409,
                    -0.1926131397485733,
                    0.2666216492652893,
                    -0.06692821532487869,
                    0.1628303974866867,
                    -0.19164501130580902,
                    -0.04105573892593384,
                    0.10282101482152939,
                    -0.16787555813789368,
                    0.22912006080150604,
                    0.19591031968593597,
                    -0.15452183783054352,
                    -0.17618712782859802,
                    0.2073114961385727,
                    0.017813662067055702,
                    0.29618245363235474,
                    -0.1384126991033554,
                    0.07740708440542221,
                    -0.052032727748155594,
                    0.10345613956451416,
                    -0.192469522356987,
                    0.08127983659505844,
                    0.16756846010684967,
                    0.2883013188838959,
                    -0.2900278866291046,
                    -0.11785875260829926,
                    -0.10949459671974182,
                    0.11299488693475723,
                    0.13120245933532715,
                    0.07106079906225204,
                    -0.2809634804725647,
                    -0.32530874013900757,
                    -0.1382044404745102,
                    -0.068057581782341,
                    -0.20035958290100098,
                    -0.030794864520430565,
                    0.2761077582836151,
                    -0.21638326346874237,
                    -0.18943525850772858,
                    0.010616990737617016,
                    0.17199929058551788,
                    -0.06738878786563873,
                    0.019301580265164375,
                    0.04943322390317917,
                    0.07195958495140076,
                    -0.24284988641738892,
                    -0.054199233651161194,
                    0.12751111388206482,
                    -0.0015894368989393115,
                    0.4361056685447693,
                    -0.26282158493995667,
                    -0.13925479352474213,
                    0.13695542514324188,
                    0.09178614616394043,
                    -0.2648656964302063,
                    -0.047934938222169876,
                    -0.1239905133843422,
                    -0.4466247260570526,
                    -0.3227654695510864,
                    0.14357583224773407,
                    0.01625584065914154,
                    -0.07136458158493042,
                    -0.2946746349334717,
                    0.07137040793895721,
                    0.050588179379701614,
                    0.11551571637392044,
                    -0.02819092571735382,
                    0.14857693016529083,
                    0.0015225318493321538,
                    0.06922505050897598,
                    -0.07511289417743683,
                    -0.04327664151787758,
                    -0.18758367002010345,
                    -0.030730746686458588,
                    0.018076526001095772,
                    -0.11859747767448425,
                    -0.05552194267511368,
                    -0.21968397498130798,
                    0.3402317464351654,
                    0.07583899796009064,
                    -0.14292468130588531,
                    0.2822427451610565,
                    0.18943767249584198,
                    0.13170590996742249,
                    -0.06286478787660599,
                    -0.05752809718251228,
                    0.07284457981586456,
                    0.09167799353599548,
                    0.25707733631134033,
                    -0.009318999946117401,
                    0.08816415816545486,
                    -0.07833335548639297,
                    0.12183398008346558,
                    0.08987022936344147,
                    0.02894415706396103,
                    -0.14330808818340302,
                    -0.23387303948402405,
                    0.10104873776435852,
                    -0.11244869232177734,
                    -0.07370082288980484,
                    0.12088000774383545,
                    -0.024271590635180473,
                    0.01151567604392767,
                    -0.13876274228096008,
                    -0.09570124000310898,
                    0.005717975553125143,
                    0.023338519036769867,
                    0.0988968089222908,
                    -0.026189472526311874,
                    -0.06368798762559891,
                    0.19580943882465363,
                    0.0994446724653244,
                    -0.15921208262443542,
                    0.05988868325948715,
                    -0.07433170080184937,
                    0.12447043508291245,
                    -0.1729627400636673,
                    -0.12473458796739578,
                    0.08972131460905075,
                    -0.05575171113014221,
                    0.00755771528929472,
                    0.1127028539776802,
                    -0.006703927647322416,
                    0.10369039326906204,
                    0.42774489521980286,
                    0.17389710247516632,
                    0.4868929982185364,
                    0.044168684631586075,
                    0.0017488747835159302,
                    0.0015874161617830396,
                    -0.16937214136123657,
                    -0.23682333528995514,
                    -0.3183631896972656,
                    -0.09764175117015839,
                    -0.3188228905200958,
                    0.015875622630119324,
                    -0.0016893543070182204,
                    0.09654214233160019,
                    0.05193598195910454,
                    0.153946191072464,
                    0.02632545866072178,
                    -0.12840011715888977,
                    0.0132932523265481,
                    -0.07168255001306534,
                    0.11100689321756363,
                    -0.10959963500499725,
                    0.08748311549425125,
                    -0.07440220564603806,
                    -0.12035234272480011,
                    -0.036647964268922806,
                    0.006537487730383873,
                    -0.04529957100749016,
                    -0.10941801220178604,
                    -0.19904029369354248,
                    0.09638386219739914,
                    0.13089732825756073,
                    -0.12081114202737808,
                    -0.03003648854792118,
                    -0.08972734212875366,
                    0.17436110973358154,
                    -0.6337851881980896,
                    -0.1284690499305725,
                    0.19525031745433807,
                    0.3036375045776367,
                    0.1566830575466156,
                    -0.095481738448143,
                    0.21133795380592346,
                    -0.1772414594888687,
                    -0.3399123251438141,
                    0.008028578013181686,
                    -0.0883103609085083,
                    0.10728588700294495,
                    -0.16914033889770508,
                    0.04024752601981163,
                    0.030859721824526787,
                    0.01538898330181837,
                    -0.023004544898867607,
                    -0.17207220196723938,
                    -0.02634003572165966,
                    -0.3379441797733307,
                    0.06475960463285446,
                    0.0984543040394783,
                    -0.06271380186080933,
                    0.25083354115486145,
                    -0.2802167236804962,
                    -0.09156665951013565,
                    0.2300076186656952,
                    0.09107452630996704,
                    -0.035661425441503525,
                    -0.1476563811302185,
                    0.21339087188243866,
                    0.03547140583395958,
                    -0.07991130650043488,
                    -0.3012492060661316,
                    0.21921642124652863,
                    -0.23714648187160492,
                    -0.15068025887012482,
                    0.0454714410007,
                    -0.14267359673976898,
                    0.2275271862745285,
                    0.0733499825000763,
                    0.16140569746494293,
                    -0.12554830312728882,
                    -0.019415317103266716,
                    -0.3581748902797699,
                    -0.06505558639764786,
                    -0.18859955668449402,
                    -0.08195119351148605,
                    -0.24696661531925201,
                    0.08836482465267181,
                    -0.026157723739743233,
                    -0.1981673240661621,
                    -0.33535370230674744,
                    -0.31046852469444275,
                    0.29587310552597046,
                    -0.10752885788679123,
                    0.17632032930850983,
                    -0.17189735174179077,
                    0.45017415285110474,
                    -0.012851300649344921,
                    -0.3907344341278076,
                    -0.05967532843351364,
                    -0.3749430477619171,
                    -0.3842872977256775,
                    -0.0904533863067627,
                    0.22886572778224945,
                    -0.08878465741872787,
                    -0.17068001627922058,
                    -0.008846421726047993,
                    -0.06727933138608932,
                    0.4984140396118164,
                    -0.17971271276474,
                    -0.2893626391887665,
                    -0.06624162942171097,
                    -0.008944175206124783,
                    -0.2509569525718689,
                    -0.10864009708166122,
                    -0.2179357260465622,
                    -0.11012996733188629,
                    -0.023002823814749718,
                    0.03137051314115524,
                    0.13076841831207275,
                    0.3633502721786499,
                    -0.19222140312194824,
                    0.16486676037311554,
                    0.3719738721847534,
                    0.15106751024723053,
                    -0.089418426156044,
                    0.06203332915902138,
                    0.25900039076805115,
                    -0.08358623087406158,
                    -0.10246774554252625,
                    0.38006383180618286,
                    -0.6850374341011047,
                    -0.2085994929075241,
                    0.04017139598727226,
                    -0.1362924426794052,
                    -0.09071557223796844,
                    0.06640687584877014,
                    0.10227540135383606,
                    0.1574956476688385,
                    -0.49678125977516174,
                    -0.4705897867679596,
                    -0.11842890828847885,
                    -0.38396570086479187,
                    0.30195310711860657,
                    0.009258837439119816,
                    0.5579895377159119,
                    -0.11229220777750015,
                    0.22951555252075195,
                    -0.6357545256614685,
                    -0.8959781527519226,
                    -0.654482901096344,
                    -0.5868995785713196,
                    0.01891602948307991,
                    0.15864765644073486,
                    1.242388129234314,
                    -0.12956087291240692,
                    -0.26134413480758667,
                    -0.17884056270122528,
                    -0.13627822697162628,
                    0.11004858464002609,
                    -0.017983514815568924,
                    0.1715785712003708,
                    -0.5133365988731384,
                    -0.16431374847888947,
                    -0.31310775876045227,
                    -0.26566970348358154,
                    0.023262739181518555,
                    -0.06400970369577408,
                    -0.09593335539102554,
                    0.1592494547367096,
                    0.22345177829265594,
                    0.6255643367767334,
                    -0.28517523407936096,
                    0.26805058121681213,
                    0.8536555767059326,
                    -0.1566236913204193,
                    1.1456948518753052,
                    -0.22657743096351624,
                    0.38206449151039124,
                    -0.2388770878314972,
                    -0.1063261479139328,
                    -0.5328477621078491,
                    -0.2848775088787079,
                    -1.2615679502487183,
                    0.8190534710884094,
                    0.5908111333847046,
                    0.22838877141475677,
                    0.12387651950120926,
                    -0.28026244044303894,
                    -0.25770267844200134,
                    0.22099049389362335,
                    -0.08342001587152481,
                    -0.07677242159843445,
                    0.17622238397598267,
                    0.2633526921272278,
                    -0.19530166685581207,
                    0.01323666051030159,
                    0.19289249181747437,
                    0.2983943521976471,
                    0.15449735522270203,
                    0.23892176151275635,
                    0.3334200084209442,
                    -0.04375101625919342,
                    -0.041420940309762955,
                    0.15925289690494537,
                    0.27727019786834717,
                    0.15037789940834045,
                    -0.25438427925109863,
                    -0.04280645027756691,
                    -1.1668918132781982,
                    0.16059450805187225,
                    0.013714444823563099,
                    0.3601551949977875,
                    -0.21624161303043365,
                    -0.10792359709739685,
                    0.19039642810821533,
                    -0.3925671875476837,
                    -0.02548934705555439,
                    -0.2736595869064331,
                    0.6712486743927002,
                    -0.13467904925346375,
                    -0.038194961845874786,
                    -0.5260169506072998,
                    -0.0871618315577507,
                    -0.2191864401102066,
                    -0.010567030869424343,
                    0.3042287826538086,
                    -0.29810136556625366,
                    -0.020069900900125504,
                    -0.12704944610595703,
                    0.1369509994983673,
                    0.508386492729187,
                    -0.5195704102516174,
                    0.14007508754730225,
                    -0.6943986415863037,
                    0.013306748121976852,
                    0.41766151785850525,
                    -0.046887073665857315,
                    -0.013012777082622051,
                    -1.333512783050537,
                    -0.23637469112873077,
                    -0.21677881479263306,
                    -0.2007298469543457,
                    0.19791215658187866,
                    0.3858420252799988,
                    -0.40450331568717957,
                    -0.3705783188343048,
                    -0.2918500304222107,
                    0.0877339094877243,
                    0.3361118733882904,
                    0.04985794797539711,
                    -0.013425574637949467,
                    0.2947283983230591,
                    -0.6361182928085327,
                    -0.26263079047203064,
                    -0.35208216309547424,
                    0.6138873100280762,
                    0.08104944974184036,
                    -0.055056992918252945,
                    -0.24683968722820282,
                    -0.06772331893444061,
                    0.16128750145435333,
                    0.005749354138970375,
                    -0.17394839227199554,
                    0.19554737210273743,
                    -0.2878236174583435,
                    0.7177789807319641,
                    0.05500503256917,
                    0.3768601417541504,
                    -0.06447815150022507,
                    -0.09962154924869537,
                    0.7068694829940796,
                    -0.14619575440883636,
                    -0.04017632454633713,
                    -0.6115719079971313,
                    0.1545109897851944,
                    -2.013054847717285,
                    0.38250401616096497,
                    0.5379708409309387,
                    0.20391978323459625,
                    0.06664298474788666,
                    0.07234953343868256,
                    -0.9900056719779968,
                    -0.06157119572162628,
                    0.2418694794178009,
                    -0.1019061878323555,
                    -0.5814369916915894,
                    -0.11915125697851181,
                    -0.14534245431423187,
                    0.0714852437376976,
                    0.033146005123853683,
                    0.27084001898765564,
                    0.3587712347507477,
                    -0.22008149325847626,
                    0.4092608392238617,
                    -0.04819473251700401,
                    0.2058267444372177,
                    -0.22603218257427216,
                    -0.23823055624961853,
                    -0.5888072848320007,
                    0.02435487136244774,
                    0.3468405604362488,
                    -0.5058593153953552,
                    0.3134230971336365,
                    0.1786053478717804,
                    -0.30848780274391174,
                    0.1773780733346939,
                    0.14600738883018494,
                    0.3624956011772156,
                    0.2648802101612091,
                    0.33613771200180054,
                    -0.9688857793807983,
                    0.30784034729003906,
                    0.41774722933769226,
                    0.7135300636291504,
                    0.08434932678937912,
                    -0.6804643273353577,
                    -0.32312116026878357,
                    0.17966976761817932,
                    -0.49633610248565674,
                    0.38752928376197815,
                    -0.19281627237796783,
                    -0.4710560142993927,
                    0.11087119579315186,
                    -0.4291510581970215,
                    -0.06897196173667908,
                    0.7431321740150452,
                    0.4271029531955719,
                    -0.2559100389480591,
                    -0.0024315440095961094,
                    -0.10845997184515,
                    -0.3742246627807617,
                    -0.13819238543510437,
                    -0.2170308381319046,
                    -0.018510857596993446,
                    -0.2807439863681793,
                    -0.013802418485283852,
                    0.795760452747345,
                    -0.19523070752620697,
                    0.14570891857147217,
                    -0.6005063056945801,
                    0.2892129421234131,
                    -0.16605821251869202,
                    0.11290900409221649,
                    -0.08604893088340759,
                    -0.6144972443580627,
                    -0.15375486016273499,
                    -0.22367632389068604,
                    -0.07631902396678925,
                    0.716741681098938,
                    -0.17779889702796936,
                    0.027612924575805664,
                    -0.47806066274642944,
                    -0.04528125375509262,
                    0.6074374318122864,
                    0.29689863324165344,
                    0.2783948481082916,
                    0.3541623651981354,
                    0.0014718135353177786,
                    0.3907592296600342,
                    -0.022903550416231155,
                    0.2388208657503128,
                    0.467705100774765,
                    -0.6729877591133118,
                    0.12668479979038239,
                    -0.15877462923526764,
                    -0.3159022927284241,
                    -0.4397824704647064,
                    0.7637131810188293,
                    -0.24968001246452332,
                    -0.20900046825408936,
                    0.041730597615242004,
                    1.11458420753479,
                    0.33803480863571167,
                    0.33597618341445923,
                    -0.5531666278839111,
                    -0.10070102661848068,
                    0.1500454545021057,
                    -0.15973953902721405,
                    -0.5148976445198059,
                    0.8172321319580078,
                    0.1423315703868866,
                    0.760012686252594,
                    -0.002776894485577941,
                    -0.4801057279109955,
                    -0.14671488106250763,
                    -0.5125870704650879,
                    0.04913197457790375,
                    -0.19078406691551208,
                    0.004490960855036974,
                    0.26808664202690125,
                    0.053938426077365875,
                    -0.20212937891483307,
                    -0.057876329869031906,
                    -0.4224146604537964,
                    0.23241111636161804,
                    -0.0494854673743248,
                    -0.02439037524163723,
                    0.09744249284267426,
                    0.404770165681839,
                    -0.30702582001686096,
                    0.05275580286979675,
                    0.6291121244430542,
                    -0.8566727042198181,
                    -0.7287893891334534,
                    0.3506525754928589,
                    -0.8943224549293518,
                    0.23634026944637299,
                    0.046293191611766815,
                    0.11361844837665558,
                    -1.0854620933532715,
                    -0.167265847325325,
                    0.16730999946594238,
                    0.027321064844727516,
                    0.25167638063430786,
                    -0.7200168967247009,
                    -0.2526494562625885,
                    0.06862501800060272,
                    0.12118019163608551,
                    0.45186296105384827,
                    0.07761184126138687,
                    -0.7554558515548706,
                    0.4737161695957184,
                    -0.09862121194601059,
                    0.017553510144352913,
                    0.48216110467910767,
                    -0.16895326972007751,
                    -0.3471728563308716,
                    -0.17235171794891357,
                    -0.9070175290107727,
                    -0.6397467851638794,
                    0.7408275604248047,
                    -0.00048771678120829165,
                    0.03562584146857262,
                    0.3479419946670532,
                    -0.01479825098067522,
                    0.3499011993408203,
                    0.12772539258003235,
                    -0.2226073443889618,
                    -1.2906924486160278,
                    -0.13205112516880035,
                    -0.13542726635932922,
                    -1.466938853263855,
                    0.08329997956752777,
                    -0.10205702483654022,
                    -0.20424297451972961,
                    0.13206738233566284,
                    -0.3562794029712677,
                    0.028034856542944908,
                    0.774135410785675,
                    -0.24873150885105133,
                    -0.12221211940050125,
                    0.5619797110557556,
                    -0.06577107310295105,
                    0.41730988025665283,
                    0.004521767143160105,
                    -0.4067908823490143,
                    -0.4334954619407654,
                    -0.34060925245285034,
                    -0.31450462341308594,
                    -0.04328102618455887,
                    0.38957148790359497,
                    0.05410536751151085,
                    -0.14441461861133575,
                    0.09199360013008118,
                    0.3948780596256256,
                    -0.35842666029930115,
                    -0.8912208676338196,
                    0.5517194271087646,
                    0.3269244134426117,
                    -0.160814568400383,
                    -0.06961008161306381,
                    0.24460841715335846,
                    -0.38382768630981445,
                    -0.08335278183221817,
                    -0.13847951591014862,
                    -0.2596674859523773,
                    0.06863956153392792,
                    -0.5397056341171265,
                    0.33391043543815613,
                    -0.20667435228824615,
                    0.005716541316360235,
                    0.43524816632270813,
                    0.30634215474128723,
                    -0.0373629666864872,
                    0.7633832097053528,
                    -0.4964534044265747,
                    0.2744627594947815,
                    -0.10306042432785034,
                    0.16428358852863312,
                    0.20035628974437714,
                    -0.6265701055526733,
                    -0.6421077251434326,
                    -0.08280203491449356,
                    0.6031352281570435,
                    -0.44161611795425415,
                    0.08624071627855301,
                    -0.21715319156646729,
                    0.38370952010154724,
                    -0.2276361733675003,
                    1.1386488676071167,
                    -0.37605059146881104,
                    0.04282449558377266,
                    0.2705620229244232,
                    0.11933791637420654,
                    -0.7828659415245056,
                    -0.4993593096733093,
                    0.05298938974738121,
                    -0.365323930978775,
                    -0.07711457461118698,
                    0.5754448175430298,
                    0.2751130163669586,
                    -0.16280469298362732,
                    -0.5446195006370544
                ]
            },
            {
                "_type": "ndarray",
                "shape": [
                    128
                ],
                "dtype": "float32",
                "data": [
                    0.0058952621184289455,
                    -0.010220272466540337,
                    -0.01052349153906107,
                    -0.006128599401563406,
                    -0.0003660841321107,
                    -0.028327293694019318,
                    -0.016903413459658623,
                    -0.017615526914596558,
                    0.05956496670842171,
                    -0.03851490467786789,
                    0.0005902526318095624,
                    -0.0046556005254387856,
                    0.0025226923171430826,
                    -0.01833050511777401,
                    0.00080198043724522,
                    -0.009752336889505386,
                    -0.0172622911632061,
                    0.0054469034075737,
                    0.040090370923280716,
                    -0.04096319153904915,
                    -0.025007786229252815,
                    -0.014369281008839607,
                    0.0014731338014826179,
                    0.009466263465583324,
                    0.0038381493650376797,
                    0.009222415275871754,
                    -0.019121203571558,
                    -0.02188604138791561,
                    -0.020708167925477028,
                    -0.04042529687285423,
                    -0.003866286249831319,
                    -0.019765516743063927,
                    0.009407403878867626,
                    -0.023488124832510948,
                    0.002286611357703805,
                    -0.0032004453241825104,
                    0.00044118743971921504,
                    -0.01125519908964634,
                    -0.005514799151569605,
                    0.0029578579124063253,
                    -0.03654729574918747,
                    -0.020317791029810905,
                    0.01597518101334572,
                    0.006466596387326717,
                    0.019649092108011246,
                    -0.019986964762210846,
                    0.01961655169725418,
                    -0.010407033376395702,
                    -0.012584160082042217,
                    -0.01878548227250576,
                    -0.00012398374383337796,
                    -0.028834685683250427,
                    -0.025240812450647354,
                    0.026500193402171135,
                    0.012145320884883404,
                    0.015978306531906128,
                    0.008755489252507687,
                    -0.0235885102301836,
                    0.010239056311547756,
                    -0.02443140186369419,
                    -0.006088219583034515,
                    0.0007897398318164051,
                    -0.00725528784096241,
                    -0.024973483756184578,
                    -0.009903336875140667,
                    -0.0024393366184085608,
                    -0.010139758698642254,
                    -0.03543229028582573,
                    -0.010501028969883919,
                    -0.008422710001468658,
                    -0.016950692981481552,
                    -0.05547688901424408,
                    -0.009049098007380962,
                    -0.05943458899855614,
                    -0.0112388264387846,
                    -0.029662976041436195,
                    -0.0023689677473157644,
                    -0.02478751167654991,
                    -0.02907024882733822,
                    -0.016604213044047356,
                    -0.002360746031627059,
                    -0.005217401776462793,
                    -0.0033578374423086643,
                    -0.005358800292015076,
                    0.010722723789513111,
                    0.0069846948608756065,
                    -0.009365062229335308,
                    0.0027543995529413223,
                    0.0022251405753195286,
                    -0.005140080116689205,
                    0.022420383989810944,
                    -0.004870609845966101,
                    -0.03181808069348335,
                    0.014584659598767757,
                    -0.0013303529703989625,
                    -0.03192302584648132,
                    0.004957369528710842,
                    -0.003752864897251129,
                    -0.005461434368044138,
                    0.0216696634888649,
                    -0.006932131480425596,
                    -0.0052005937322974205,
                    -0.031115572899580002,
                    -0.011962485499680042,
                    -0.004844028037041426,
                    0.006251790095120668,
                    0.024047663435339928,
                    -0.005575799848884344,
                    0.02694125473499298,
                    -0.06470456719398499,
                    -0.01177150383591652,
                    0.009252019226551056,
                    -0.0017664353363215923,
                    0.0014851458836346865,
                    -0.027058083564043045,
                    0.007528330665081739,
                    -0.005078872665762901,
                    0.0023321073967963457,
                    -0.0023146469611674547,
                    -0.0014918720116838813,
                    -0.012184030376374722,
                    0.010633512400090694,
                    -0.02019581012427807,
                    -0.014569316059350967,
                    -0.014489789493381977,
                    -0.0197020061314106,
                    -0.0004844400391448289,
                    -0.004749747458845377
                ]
            }
        ]
    },
    {
        "class": "keras.layers.core.dense.Dense",
        "config": {
            "name": "dense_1",
            "trainable": true,
            "dtype": "float32",
            "units": 128,
            "activation": "softplus",
            "use_bias": true,
            "kernel_initializer": {
                "class_name": "RandomNormal",
                "config": {
                    "mean": 0.0,
                    "stddev": 0.08838834764831843,
                    "seed": 775411
                }
            },
            "bias_initializer": {
                "class_name": "Zeros",
                "config": {}
            },
            "kernel_regularizer": null,
            "bias_regularizer": null,
            "activity_regularizer": null,
            "kernel_constraint": null,
            "bias_constraint": null
        },
        "weights": [
            {
                "_type": "ndarray",
                "shape": [
                    128,
                    128
                ],
                "dtype": "float32",
                "data": [
                    -0.0477650985121727,
                    0.0882953628897667,
                    0.20067928731441498,
                    -0.05693010613322258,
                    -0.1673157960176468,
                    0.04065532237291336,
                    -0.11456228792667389,
                    -0.01620188169181347,
                    0.026304498314857483,
                    0.06076803803443909,
                    0.0646226555109024,
                    -0.06745225191116333,
                    -0.24708425998687744,
                    -0.03927543759346008,
                    0.04239848256111145,
                    -0.09385644644498825,
                    -0.012302674353122711,
                    -0.11698261648416519,
                    0.10171578079462051,
                    -0.11061855405569077,
                    -0.027130741626024246,
                    -0.0743672102689743,
                    -0.03373289480805397,
                    -0.08894351869821548,
                    0.27602890133857727,
                    0.09537774324417114,
                    0.046981293708086014,
                    -0.03606698662042618,
                    0.0002238039451185614,
                    0.15155506134033203,
                    -0.10097125172615051,
                    0.08698868006467819,
                    -0.04532897472381592,
                    0.08436067402362823,
                    0.125628262758255,
                    0.13962076604366302,
                    0.06402935832738876,
                    -0.056498780846595764,
                    -0.18638485670089722,
                    -0.07032563537359238,
                    -0.014151724986732006,
                    -0.07924360781908035,
                    -0.04731068015098572,
                    0.07891560345888138,
                    -0.11452982574701309,
                    -0.12704512476921082,
                    0.01831677556037903,
                    -0.002874805359169841,
                    0.11911468952894211,
                    0.011432132683694363,
                    0.0463079959154129,
                    0.10488071292638779,
                    0.025472767651081085,
                    -0.01803179644048214,
                    -0.07602862268686295,
                    0.15018363296985626,
                    -0.00726133119314909,
                    -0.11190211772918701,
                    0.06357569247484207,
                    0.07843416184186935,
                    0.14586372673511505,
                    -0.004356679506599903,
                    -0.11888973414897919,
                    0.02047465182840824,
                    -0.03322087228298187,
                    0.016705326735973358,
                    0.10142473131418228,
                    -0.05509762093424797,
                    0.05709492415189743,
                    0.02913321740925312,
                    0.010003280825912952,
                    0.03211645409464836,
                    -0.0665651336312294,
                    -0.08217571675777435,
                    -0.1090218648314476,
                    -0.10047706216573715,
                    -0.021831080317497253,
                    -0.011328138411045074,
                    0.1752135157585144,
                    0.032048314809799194,
                    -0.146306112408638,
                    0.056751612573862076,
                    -0.035250209271907806,
                    0.04860248416662216,
                    -0.04855269193649292,
                    -0.05629792436957359,
                    0.09482171386480331,
                    -0.10040044039487839,
                    0.03872884064912796,
                    0.010260459966957569,
                    -0.047009870409965515,
                    0.26839402318000793,
                    0.011335574090480804,
                    -0.09974667429924011,
                    0.042117804288864136,
                    0.0867602601647377,
                    0.04499666392803192,
                    -0.11010023206472397,
                    -0.037667375057935715,
                    0.08532434701919556,
                    -0.11315302550792694,
                    0.09820681810379028,
                    -0.010106213390827179,
                    0.1343352347612381,
                    -0.03771206736564636,
                    -0.13816510140895844,
                    0.08180642873048782,
                    -0.14216916263103485,
                    0.03575809672474861,
                    -0.24007093906402588,
                    0.010986551642417908,
                    0.11793936789035797,
                    0.02263234369456768,
                    0.11633357405662537,
                    0.0245207529515028,
                    -0.11686856299638748,
                    0.08828891068696976,
                    -0.021000782027840614,
                    0.1288447231054306,
                    -0.019037919119000435,
                    0.11780551075935364,
                    0.06322230398654938,
                    -0.07230696082115173,
                    -0.07296141237020493,
                    -0.005530951544642448,
                    0.06594371795654297,
                    0.07983053475618362,
                    0.09038243442773819,
                    -0.03146642446517944,
                    0.03849395364522934,
                    0.07765259593725204,
                    -0.09729505330324173,
                    -0.030153999105095863,
                    -0.04812772572040558,
                    -0.16909563541412354,
                    -0.04895033314824104,
                    -0.03999834507703781,
                    0.010588033124804497,
                    0.07238946110010147,
                    0.1724775731563568,
                    -0.19999101758003235,
                    -0.03956631198525429,
                    0.11365854740142822,
                    0.17116034030914307,
                    0.18116021156311035,
                    -0.06662280857563019,
                    0.11498945951461792,
                    -0.17537128925323486,
                    0.0518193282186985,
                    -0.05213075131177902,
                    -0.28375548124313354,
                    0.1072155013680458,
                    0.04689772054553032,
                    0.23924416303634644,
                    0.03180921822786331,
                    -0.034536104649305344,
                    0.08415023982524872,
                    -0.017970610409975052,
                    -0.024075457826256752,
                    0.030291734263300896,
                    0.034836895763874054,
                    -0.27100542187690735,
                    0.06013549119234085,
                    -0.08871209621429443,
                    0.15935614705085754,
                    0.08297446370124817,
                    -0.07347429543733597,
                    -0.10931188613176346,
                    0.09419091045856476,
                    0.05005656182765961,
                    -0.020776085555553436,
                    0.21877025067806244,
                    0.14572347700595856,
                    0.10522165894508362,
                    0.08062288910150528,
                    0.010627311654388905,
                    -0.04329674318432808,
                    -0.011487911455333233,
                    -0.1037936881184578,
                    0.0823025032877922,
                    0.005813885945826769,
                    -0.023021839559078217,
                    0.12030724436044693,
                    0.036368999630212784,
                    -0.10798213630914688,
                    0.014138643629848957,
                    0.06022746115922928,
                    0.018487978726625443,
                    -0.023437565192580223,
                    -0.0020049179438501596,
                    -0.04427218437194824,
                    -0.10337335616350174,
                    -0.05821037292480469,
                    0.19979195296764374,
                    -0.08131434768438339,
                    0.001722191576845944,
                    0.10691333562135696,
                    0.04012151435017586,
                    -0.07486042380332947,
                    0.04723694548010826,
                    0.029730457812547684,
                    0.03527096286416054,
                    -0.14321549236774445,
                    0.01499070692807436,
                    0.07269160449504852,
                    0.1453663557767868,
                    0.05227823182940483,
                    -0.060419049113988876,
                    0.03346199914813042,
                    -0.04383675754070282,
                    0.18172678351402283,
                    0.10440539568662643,
                    -0.07065125554800034,
                    0.0017566188471391797,
                    -0.045413788408041,
                    0.029381241649389267,
                    0.03854283317923546,
                    -0.07335405796766281,
                    0.14199522137641907,
                    -0.0026872551534324884,
                    0.09929966926574707,
                    0.16964012384414673,
                    -0.10218549519777298,
                    0.039568621665239334,
                    -0.015043918043375015,
                    -0.10751061886548996,
                    -0.024151386693120003,
                    -0.044698793441057205,
                    -0.0761096253991127,
                    0.06468194723129272,
                    -0.08747866004705429,
                    0.024063142016530037,
                    0.10759802162647247,
                    -0.12212908267974854,
                    -0.08298812806606293,
                    0.06616651266813278,
                    0.036598678678274155,
                    0.03491794690489769,
                    -0.14980483055114746,
                    -0.034045737236738205,
                    0.012903655879199505,
                    0.005444314796477556,
                    -0.14481046795845032,
                    -0.0685807317495346,
                    -0.12187490612268448,
                    -0.18206265568733215,
                    -0.11856787651777267,
                    -0.09812738746404648,
                    0.1323351263999939,
                    0.11078518629074097,
                    -0.1695239543914795,
                    0.021200895309448242,
                    -0.058527473360300064,
                    -0.22507932782173157,
                    -0.08959182351827621,
                    -0.18236136436462402,
                    0.04238946735858917,
                    -0.03393098711967468,
                    0.09932713210582733,
                    -0.057060275226831436,
                    -0.0870169997215271,
                    -0.04951909929513931,
                    0.07512795925140381,
                    0.05961634963750839,
                    -0.16001173853874207,
                    -0.0736704021692276,
                    -0.06283943355083466,
                    0.09376750141382217,
                    -0.058989740908145905,
                    0.11461903899908066,
                    -0.12103600800037384,
                    0.08631893992424011,
                    0.007154954597353935,
                    -0.013424419797956944,
                    -0.12267647683620453,
                    0.0919262021780014,
                    -0.2165956199169159,
                    -0.1355205476284027,
                    0.03381599485874176,
                    0.04022212326526642,
                    -0.059974703937768936,
                    -0.052352454513311386,
                    -0.01652410440146923,
                    -0.18787004053592682,
                    0.05707157403230667,
                    -0.143381267786026,
                    -0.16211935877799988,
                    0.060506727546453476,
                    0.04712748900055885,
                    -0.06293212622404099,
                    0.02994338981807232,
                    -0.10794983804225922,
                    -0.030299006029963493,
                    0.0034538491163402796,
                    0.10857805609703064,
                    -0.10913248360157013,
                    -0.032455455511808395,
                    -0.11839358508586884,
                    -0.08841728419065475,
                    -0.09363953024148941,
                    -0.023207856342196465,
                    0.02626066841185093,
                    -0.021596426144242287,
                    0.14582177996635437,
                    -0.04215507209300995,
                    0.03842424973845482,
                    0.020585354417562485,
                    0.16116638481616974,
                    0.0671377032995224,
                    -0.09940687566995621,
                    0.01951562985777855,
                    0.23339520394802094,
                    -0.01878173276782036,
                    0.13717882335186005,
                    0.17485491931438446,
                    -0.06930843740701675,
                    -0.0033964714966714382,
                    0.18481403589248657,
                    -0.02139744907617569,
                    0.010909685865044594,
                    -0.09922295063734055,
                    -0.007448721211403608,
                    -0.018089568242430687,
                    -0.0759737640619278,
                    0.013776233419775963,
                    -0.04538002610206604,
                    -0.07004240900278091,
                    0.07940870523452759,
                    -0.015787024050951004,
                    -0.07124506682157516,
                    -0.019618112593889236,
                    0.08920879662036896,
                    -0.04284914210438728,
                    -0.11474264413118362,
                    0.10729917138814926,
                    0.06589789688587189,
                    -0.0060251979157328606,
                    0.03077048249542713,
                    -0.04081983491778374,
                    -0.12348808348178864,
                    -0.04466375708580017,
                    -0.0656406581401825,
                    -0.05854177102446556,
                    -0.19170129299163818,
                    0.003346977522596717,
                    -0.04905730485916138,
                    0.027666473761200905,
                    0.014746560715138912,
                    -0.11343766748905182,
                    -0.0330595038831234,
                    0.09522878378629684,
                    -0.15059415996074677,
                    -0.10102544724941254,
                    0.1458883434534073,
                    -0.05335313081741333,
                    0.010992978699505329,
                    0.010785584338009357,
                    -0.19994615018367767,
                    -0.12117873132228851,
                    0.07138027995824814,
                    0.08294272422790527,
                    0.16808529198169708,
                    -0.031028935685753822,
                    0.09635217487812042,
                    0.03168812021613121,
                    -0.004954573232680559,
                    0.0033638591412454844,
                    -0.021140756085515022,
                    0.10782451182603836,
                    0.09681079536676407,
                    0.01840091310441494,
                    0.033432669937610626,
                    -0.1331254541873932,
                    0.18507058918476105,
                    -0.08368723094463348,
                    0.14297941327095032,
                    -0.10264907032251358,
                    0.10179144889116287,
                    -0.154540553689003,
                    0.015032337978482246,
                    -0.09626444429159164,
                    0.007089927792549133,
                    0.0614425465464592,
                    0.01590392179787159,
                    -0.054461583495140076,
                    0.07543332129716873,
                    0.12537948787212372,
                    0.007451691199094057,
                    -0.07655011117458344,
                    -0.17544573545455933,
                    0.07208456099033356,
                    -0.03027859330177307,
                    0.028744304552674294,
                    0.08309905230998993,
                    -0.08397752791643143,
                    0.01286249328404665,
                    0.0622740238904953,
                    -0.00414263317361474,
                    -0.033600419759750366,
                    -0.10655654966831207,
                    0.08970862627029419,
                    -0.056110259145498276,
                    0.05044788122177124,
                    -0.13129287958145142,
                    -0.10019881278276443,
                    0.0362694077193737,
                    0.1676318198442459,
                    -0.009387119673192501,
                    0.00172940525226295,
                    0.17003749310970306,
                    0.07895492017269135,
                    -0.10128414630889893,
                    0.11645667254924774,
                    -0.01999736577272415,
                    0.02211776375770569,
                    0.050341635942459106,
                    -0.08373360335826874,
                    0.11952722072601318,
                    0.14991876482963562,
                    0.13397115468978882,
                    0.08395840972661972,
                    -0.00560727110132575,
                    0.18313954770565033,
                    0.03792732581496239,
                    0.2828330099582672,
                    -0.13372480869293213,
                    -0.09462480992078781,
                    0.13807617127895355,
                    -0.02956916205585003,
                    0.1273898184299469,
                    0.11053790897130966,
                    -0.03789183869957924,
                    0.08527743071317673,
                    0.058856166899204254,
                    -0.07629545032978058,
                    -0.009268376976251602,
                    -0.08661188185214996,
                    0.07989171147346497,
                    0.10307823866605759,
                    -0.010095304809510708,
                    0.01391458697617054,
                    -0.14911529421806335,
                    0.037993960082530975,
                    0.07336072623729706,
                    -0.13766224682331085,
                    0.00791530217975378,
                    -0.02643762342631817,
                    0.05149031803011894,
                    0.05284735560417175,
                    0.0071470532566308975,
                    0.025601711124181747,
                    0.005989823490381241,
                    0.12520377337932587,
                    -0.08338995277881622,
                    -0.009782250039279461,
                    -0.018225664272904396,
                    0.0013467386597767472,
                    0.01639259047806263,
                    0.007739480584859848,
                    0.060166049748659134,
                    0.04369965195655823,
                    -0.0773744210600853,
                    -0.0199106577783823,
                    0.03321581706404686,
                    -0.01739172823727131,
                    0.017999490723013878,
                    -0.05787419527769089,
                    0.057244181632995605,
                    -0.14010891318321228,
                    -0.021046338602900505,
                    -0.05653773248195648,
                    0.05409003421664238,
                    -0.12085316330194473,
                    -0.09973656386137009,
                    0.0176991056650877,
                    -0.011320079676806927,
                    -0.03519851714372635,
                    0.006140936631709337,
                    0.07728080451488495,
                    -0.10501497238874435,
                    0.091046042740345,
                    0.1803334355354309,
                    -0.08041482418775558,
                    -0.052273113280534744,
                    -0.04453295096755028,
                    -0.07086338847875595,
                    -0.0835064947605133,
                    -0.005021402146667242,
                    0.05109706148505211,
                    0.06525322049856186,
                    -0.030201997607946396,
                    -0.15782633423805237,
                    0.04492638632655144,
                    -0.1346680074930191,
                    -0.15573860704898834,
                    0.04799284785985947,
                    0.13522455096244812,
                    -0.03191547468304634,
                    -0.02242005243897438,
                    0.08192574232816696,
                    -0.02716745436191559,
                    -0.06398684531450272,
                    -0.08487310260534286,
                    0.06665737181901932,
                    0.0771966353058815,
                    -0.07857899367809296,
                    -0.08542732894420624,
                    0.08597493916749954,
                    -0.028614124283194542,
                    -0.020442470908164978,
                    -0.01708180643618107,
                    0.01580251008272171,
                    -0.0012838137336075306,
                    0.013511362485587597,
                    -0.06151892989873886,
                    -0.13447095453739166,
                    -0.02527102641761303,
                    0.1606624573469162,
                    0.09456632286310196,
                    -0.014090255834162235,
                    -0.014788401313126087,
                    -0.0670023038983345,
                    0.15510505437850952,
                    0.011717410758137703,
                    -0.13935276865959167,
                    0.06549907475709915,
                    0.09732643514871597,
                    0.05824516713619232,
                    -0.020784055814146996,
                    0.021331826224923134,
                    0.04107610136270523,
                    0.14703765511512756,
                    0.06438621133565903,
                    0.03748467192053795,
                    -0.08887059986591339,
                    0.005331588909029961,
                    0.047786980867385864,
                    -0.021033186465501785,
                    -0.07996010035276413,
                    0.0840064212679863,
                    0.17783185839653015,
                    -0.041595082730054855,
                    -0.05326255410909653,
                    -0.03326087445020676,
                    0.10648822039365768,
                    0.04513808712363243,
                    0.018564820289611816,
                    -0.028787851333618164,
                    0.10714787244796753,
                    -0.059397611767053604,
                    0.053826022893190384,
                    0.1122429221868515,
                    0.02481936477124691,
                    0.0590161569416523,
                    0.12388761341571808,
                    -0.014064566232264042,
                    0.016077091917395592,
                    0.1585160195827484,
                    -0.022755930200219154,
                    -0.019216330721974373,
                    0.021131262183189392,
                    0.11147280037403107,
                    -0.09810089319944382,
                    0.09120616316795349,
                    -0.08973224461078644,
                    -0.2411450743675232,
                    0.02764357626438141,
                    -0.12476471811532974,
                    -0.055411551147699356,
                    0.012308331206440926,
                    -0.08165598660707474,
                    0.09235582500696182,
                    0.09505180269479752,
                    0.09415307641029358,
                    0.02605382539331913,
                    0.02467424049973488,
                    -0.10391628742218018,
                    0.031089792028069496,
                    -0.16527792811393738,
                    0.05976502597332001,
                    -0.014265045523643494,
                    -0.003404257819056511,
                    0.008189703337848186,
                    -0.004696863237768412,
                    -0.00673126382753253,
                    -0.033125583082437515,
                    0.004240522161126137,
                    -0.2658179700374603,
                    0.10734369605779648,
                    -0.19510167837142944,
                    -0.019946370273828506,
                    0.020726988092064857,
                    0.13273540139198303,
                    0.07222550362348557,
                    0.10961984843015671,
                    -0.05147766321897507,
                    0.004402774851769209,
                    -0.02971706911921501,
                    -0.11744249612092972,
                    0.16398027539253235,
                    0.09835036844015121,
                    0.05251830816268921,
                    0.0754789412021637,
                    -0.012622591108083725,
                    0.10102140158414841,
                    -0.0231949295848608,
                    -0.0970708578824997,
                    -0.04695647582411766,
                    0.1665154993534088,
                    -0.0727337896823883,
                    -0.026344146579504013,
                    -0.060353703796863556,
                    0.027277158573269844,
                    0.1345142424106598,
                    -0.0502173975110054,
                    -0.04504520073533058,
                    -0.12972916662693024,
                    0.0911148265004158,
                    -0.04888599365949631,
                    0.02797907404601574,
                    -0.022947564721107483,
                    -0.19545131921768188,
                    0.10583430528640747,
                    -0.06588129699230194,
                    -0.09358412772417068,
                    0.12533636391162872,
                    -0.07392662763595581,
                    0.24450066685676575,
                    0.08675438165664673,
                    0.11119744181632996,
                    -0.05734432488679886,
                    -0.11719532310962677,
                    -0.09083686023950577,
                    0.051887381821870804,
                    -0.02712853066623211,
                    -0.0006664013490080833,
                    -0.13384920358657837,
                    -0.021028190851211548,
                    -0.06384797394275665,
                    0.1362333446741104,
                    0.19840756058692932,
                    -0.19741657376289368,
                    0.04219314083456993,
                    -0.014192781411111355,
                    -0.030325813218951225,
                    -0.06480450928211212,
                    -0.02777271904051304,
                    0.19200903177261353,
                    -0.04317159950733185,
                    0.021861596032977104,
                    0.14766374230384827,
                    0.023768799379467964,
                    -0.055539824068546295,
                    0.004653446841984987,
                    -0.21005630493164062,
                    -0.03255822882056236,
                    -0.10731258243322372,
                    0.09333869069814682,
                    0.00012310195597819984,
                    0.018366551026701927,
                    0.008463294245302677,
                    0.07958219200372696,
                    0.019242893904447556,
                    0.02884022891521454,
                    0.14038962125778198,
                    0.031765758991241455,
                    -0.08752661943435669,
                    0.06112642213702202,
                    -0.0713326707482338,
                    -0.07124698907136917,
                    -0.2539975643157959,
                    0.09811007231473923,
                    0.12809765338897705,
                    0.02856888435781002,
                    0.08313313871622086,
                    0.12840913236141205,
                    0.06589290499687195,
                    -0.1695834845304489,
                    0.008987035602331161,
                    -0.1833171844482422,
                    0.14147305488586426,
                    0.0678393691778183,
                    -0.03532995283603668,
                    0.13786712288856506,
                    0.09172367304563522,
                    0.08479440212249756,
                    -0.008952483534812927,
                    -0.028862150385975838,
                    0.04495207220315933,
                    0.07842519134283066,
                    -0.011522267013788223,
                    0.22284895181655884,
                    0.0572797991335392,
                    -0.04595421254634857,
                    0.11501394212245941,
                    -0.00929961446672678,
                    0.12296853959560394,
                    -0.015445422381162643,
                    -0.07844275236129761,
                    0.03217705711722374,
                    0.10412711650133133,
                    -0.09422232210636139,
                    0.187555193901062,
                    -0.14658229053020477,
                    -0.2333959937095642,
                    -0.08051156997680664,
                    0.043169040232896805,
                    -0.029162967577576637,
                    -0.07263816893100739,
                    0.002424543257802725,
                    0.05158654600381851,
                    -0.007598236668854952,
                    -0.12500184774398804,
                    0.08979479223489761,
                    0.005941067822277546,
                    0.1398966908454895,
                    0.11507293581962585,
                    -0.08984526991844177,
                    -0.16223430633544922,
                    0.03584523871541023,
                    0.0825629010796547,
                    -0.10295215994119644,
                    0.0558372363448143,
                    -0.032463181763887405,
                    0.11447443068027496,
                    0.0013160951202735305,
                    -0.12460632622241974,
                    0.1328016072511673,
                    -0.03987782076001167,
                    -0.11999313533306122,
                    -0.06955019384622574,
                    0.16730515658855438,
                    0.030712272971868515,
                    0.0991160199046135,
                    0.11110483855009079,
                    -0.006971478462219238,
                    0.011812922544777393,
                    -0.08981282263994217,
                    -0.13673360645771027,
                    0.010665686801075935,
                    -0.03899412602186203,
                    -0.05066268891096115,
                    -0.04984423518180847,
                    0.07305517792701721,
                    -0.040973130613565445,
                    -0.04333021119236946,
                    0.08293239772319794,
                    0.04104365408420563,
                    -0.005816714838147163,
                    0.00895090401172638,
                    0.15407396852970123,
                    -0.07500439137220383,
                    0.029270807281136513,
                    -0.1976822018623352,
                    0.11610059440135956,
                    0.023840004578232765,
                    -0.04884025454521179,
                    0.017274655401706696,
                    -0.02563881315290928,
                    -0.15485639870166779,
                    0.19346928596496582,
                    -0.004248395562171936,
                    -0.031964872032403946,
                    0.0025290988851338625,
                    0.10566696524620056,
                    0.047632865607738495,
                    -0.07160565257072449,
                    -0.0005300266784615815,
                    0.06919559091329575,
                    0.045047491788864136,
                    -0.042905401438474655,
                    0.07477956265211105,
                    -0.06261526048183441,
                    0.0030593753326684237,
                    0.015792831778526306,
                    0.0607079453766346,
                    0.024033740162849426,
                    -0.14165346324443817,
                    0.11101687699556351,
                    -0.0044722165912389755,
                    -0.18353863060474396,
                    -0.03469868376851082,
                    -0.05609407275915146,
                    -0.01260816678404808,
                    -0.010004461742937565,
                    0.026691202074289322,
                    -0.035054657608270645,
                    -0.025612976402044296,
                    0.0322665311396122,
                    0.11745434254407883,
                    0.14187860488891602,
                    -0.13456623256206512,
                    0.044471144676208496,
                    0.05921002849936485,
                    -0.13654494285583496,
                    -0.050155412405729294,
                    0.15491342544555664,
                    -0.03010055050253868,
                    0.11229178309440613,
                    0.13194774091243744,
                    0.10014995187520981,
                    -0.06088404729962349,
                    -0.11380330473184586,
                    0.10063930600881577,
                    0.042473722249269485,
                    -0.08713923394680023,
                    0.13806921243667603,
                    0.05619022250175476,
                    -0.07247919589281082,
                    -0.11187917739152908,
                    0.035640474408864975,
                    0.12804529070854187,
                    -0.07192552834749222,
                    -0.15340350568294525,
                    -0.057623934000730515,
                    0.012307267636060715,
                    -0.042479392141103745,
                    -0.13396918773651123,
                    0.010740370489656925,
                    0.04376647248864174,
                    0.0952962264418602,
                    0.02810472436249256,
                    0.02430346980690956,
                    -0.04946514219045639,
                    0.06214527785778046,
                    0.2696724236011505,
                    -0.02239004522562027,
                    -0.011654571630060673,
                    -0.12625271081924438,
                    -0.04840106889605522,
                    0.05201084911823273,
                    0.08087922632694244,
                    0.10884799808263779,
                    0.07177937030792236,
                    0.021456008777022362,
                    0.016420848667621613,
                    -0.15118299424648285,
                    0.049823977053165436,
                    -0.029154954478144646,
                    0.005840730387717485,
                    -0.09617450833320618,
                    0.1253308653831482,
                    -0.1361980140209198,
                    0.08475098013877869,
                    -0.04233236238360405,
                    -0.05399700254201889,
                    -0.2710800766944885,
                    0.07481951266527176,
                    0.09842205047607422,
                    0.014652580954134464,
                    -0.07503640651702881,
                    0.06860214471817017,
                    -0.08788316696882248,
                    -0.029068097472190857,
                    0.06525847315788269,
                    0.17417404055595398,
                    0.021647484973073006,
                    0.012036710977554321,
                    -0.10111067444086075,
                    0.015044603496789932,
                    -0.03872377425432205,
                    0.013449558056890965,
                    -0.05285145714879036,
                    0.15149542689323425,
                    -0.033663149923086166,
                    -0.022567326202988625,
                    0.03997640311717987,
                    -0.0664072334766388,
                    -0.12250785529613495,
                    0.05984119325876236,
                    -0.05671209096908569,
                    -0.05623805522918701,
                    0.01955624856054783,
                    0.11502804607152939,
                    0.021747801452875137,
                    -0.014058951288461685,
                    -0.017914433032274246,
                    -0.07067590951919556,
                    0.14119642972946167,
                    -0.15620997548103333,
                    0.061325691640377045,
                    -0.061997976154088974,
                    0.22637541592121124,
                    0.10012030601501465,
                    0.07996109873056412,
                    -0.059577587991952896,
                    0.07480744272470474,
                    -0.044364046305418015,
                    0.10223810374736786,
                    0.015924762934446335,
                    0.06831155717372894,
                    -0.10747972875833511,
                    0.09435641765594482,
                    0.14434179663658142,
                    0.03674813732504845,
                    -0.04122395068407059,
                    0.02566348947584629,
                    -0.10318504273891449,
                    0.07713538408279419,
                    0.031362809240818024,
                    0.04887743666768074,
                    0.060738325119018555,
                    0.09120949357748032,
                    -0.1255081295967102,
                    -0.1858559399843216,
                    0.029204223304986954,
                    -0.03285573422908783,
                    0.03595518320798874,
                    0.23862262070178986,
                    -0.07517936825752258,
                    -0.10288043320178986,
                    0.03332572057843208,
                    -0.054965823888778687,
                    -0.08746682107448578,
                    -0.12346377223730087,
                    0.1974371075630188,
                    0.05807330831885338,
                    -0.1966082751750946,
                    0.13603827357292175,
                    0.12136314809322357,
                    -0.13091102242469788,
                    0.16822224855422974,
                    0.10236132889986038,
                    0.12459118664264679,
                    -0.08813271671533585,
                    -0.06132553145289421,
                    0.0005224015912972391,
                    -0.05856896936893463,
                    -0.11212555319070816,
                    -0.035381436347961426,
                    0.034818120300769806,
                    0.020176036283373833,
                    0.003968081437051296,
                    -0.11968547105789185,
                    -0.08600370585918427,
                    -0.12124527990818024,
                    0.07022300362586975,
                    -0.03747367486357689,
                    -0.0025163847021758556,
                    0.148469015955925,
                    -0.11010687053203583,
                    0.14541684091091156,
                    -0.14877866208553314,
                    0.18094699084758759,
                    0.09336798638105392,
                    0.0798363983631134,
                    0.049602869898080826,
                    -0.00607922300696373,
                    0.008158855140209198,
                    0.06799536198377609,
                    0.09050647914409637,
                    0.0218354519456625,
                    -0.13185235857963562,
                    0.004836508072912693,
                    -0.06833391636610031,
                    0.05409586802124977,
                    -0.03527394309639931,
                    -0.1930810809135437,
                    -0.05640789866447449,
                    0.11174405366182327,
                    -0.010187222622334957,
                    0.1055973693728447,
                    0.06178443878889084,
                    -0.18079674243927002,
                    0.019909687340259552,
                    0.030713533982634544,
                    -0.07060589641332626,
                    0.05869539827108383,
                    0.02027161791920662,
                    0.14974181354045868,
                    -0.010557294823229313,
                    -0.016227655112743378,
                    -0.05696902051568031,
                    -0.059875115752220154,
                    -0.014668615534901619,
                    -0.03126198425889015,
                    -0.05107840523123741,
                    -0.1396680772304535,
                    -0.02754930965602398,
                    0.05051744729280472,
                    0.08228684961795807,
                    -0.0898229330778122,
                    0.12162138521671295,
                    -0.04720413312315941,
                    0.011742477305233479,
                    -0.056213151663541794,
                    -0.018991243094205856,
                    0.052293118089437485,
                    0.05397148057818413,
                    -0.058929625898599625,
                    0.025230323895812035,
                    -0.0251460038125515,
                    0.10512824356555939,
                    -0.17079995572566986,
                    -0.07381176948547363,
                    0.01628888212144375,
                    0.007442310452461243,
                    0.032363224774599075,
                    0.2210782766342163,
                    -0.03097292222082615,
                    -0.12481389939785004,
                    -0.009009608998894691,
                    0.0969090461730957,
                    0.0484851635992527,
                    -0.05264841765165329,
                    -0.0813693180680275,
                    -0.007948377169668674,
                    0.10400179028511047,
                    0.04956260323524475,
                    -0.10682826489210129,
                    0.02186857908964157,
                    0.15406103432178497,
                    0.010953893885016441,
                    0.045499976724386215,
                    -0.010840872302651405,
                    0.1417173147201538,
                    0.0283619686961174,
                    0.05590585619211197,
                    0.0958714634180069,
                    0.042386602610349655,
                    0.11897128075361252,
                    -0.07966906577348709,
                    -0.0334848128259182,
                    0.012483702041208744,
                    -0.030391482636332512,
                    0.07923423498868942,
                    0.1259724199771881,
                    -0.13162726163864136,
                    -0.09820857644081116,
                    0.011512365192174911,
                    -0.047993145883083344,
                    -0.04799102619290352,
                    0.009370747022330761,
                    -0.017678063362836838,
                    -0.09695858508348465,
                    -0.03418727591633797,
                    -0.015582012012600899,
                    0.06395335495471954,
                    -0.10782738775014877,
                    0.012541919015347958,
                    -0.22139763832092285,
                    0.1418781280517578,
                    -0.07617364823818207,
                    0.08272278308868408,
                    0.03829115629196167,
                    0.13192954659461975,
                    -0.10538633912801743,
                    -0.06277810037136078,
                    -0.07204050570726395,
                    0.07103098183870316,
                    -0.16046592593193054,
                    0.14534486830234528,
                    0.05389536917209625,
                    -0.0058342586271464825,
                    0.025058498606085777,
                    0.005019368138164282,
                    -0.0213093850761652,
                    -0.18786363303661346,
                    0.0835157260298729,
                    -0.12876175343990326,
                    -0.0164609644562006,
                    -0.07582224160432816,
                    0.10815048962831497,
                    0.02035929076373577,
                    0.017398236319422722,
                    -0.03547448664903641,
                    0.05896100029349327,
                    -0.019515734165906906,
                    -0.02233058027923107,
                    -0.026808932423591614,
                    -0.13613419234752655,
                    0.011092103086411953,
                    -0.024481356143951416,
                    -0.023093881085515022,
                    0.009311350993812084,
                    0.015407211147248745,
                    0.04986511170864105,
                    -0.07261546701192856,
                    -0.10245612263679504,
                    -0.06694353371858597,
                    0.0487050898373127,
                    -0.004024090711027384,
                    0.02666190080344677,
                    0.12429285794496536,
                    0.11897727847099304,
                    0.041268523782491684,
                    0.016995929181575775,
                    -0.047790806740522385,
                    0.0642336905002594,
                    0.06057126820087433,
                    -0.06887231022119522,
                    0.18522502481937408,
                    0.05780450627207756,
                    0.09087825566530228,
                    -0.016918864101171494,
                    -0.1318260282278061,
                    -0.09124547243118286,
                    -0.05319840833544731,
                    -0.1344933807849884,
                    0.0512988455593586,
                    -0.09612961113452911,
                    0.05360352247953415,
                    0.017771176993846893,
                    0.02119499444961548,
                    0.00343118142336607,
                    -0.027966761961579323,
                    0.07877124100923538,
                    0.007079671137034893,
                    0.06877820938825607,
                    -0.04886716231703758,
                    0.23349496722221375,
                    -0.09723976999521255,
                    -0.03653082996606827,
                    0.0587005652487278,
                    0.0006477269344031811,
                    -0.08861732482910156,
                    0.023933246731758118,
                    -0.002126883715391159,
                    0.11076536774635315,
                    -0.006784894037991762,
                    -0.15790824592113495,
                    0.12721623480319977,
                    0.03788323327898979,
                    -0.17822346091270447,
                    0.038933511823415756,
                    -0.1239350363612175,
                    -0.1713763177394867,
                    0.07542793452739716,
                    -0.0018059307476505637,
                    0.10232405364513397,
                    0.10590429604053497,
                    0.01162656955420971,
                    -0.05748514086008072,
                    -0.10490051656961441,
                    -0.09671998023986816,
                    0.0479305163025856,
                    -0.010332485660910606,
                    -0.008413480594754219,
                    -0.02730974741280079,
                    0.03029816783964634,
                    -0.17416471242904663,
                    0.11157368123531342,
                    -0.23020736873149872,
                    0.0759677141904831,
                    0.05481543391942978,
                    -0.030805980786681175,
                    0.01780080422759056,
                    0.09918083250522614,
                    0.02789989300072193,
                    -0.019277559593319893,
                    -0.07398981600999832,
                    0.2886693477630615,
                    -0.10752175748348236,
                    -0.0486900620162487,
                    0.09334386140108109,
                    -0.009997562505304813,
                    0.07724402844905853,
                    0.13945023715496063,
                    -0.06228862330317497,
                    0.07746357470750809,
                    0.07653441280126572,
                    0.09225612133741379,
                    0.08986593782901764,
                    0.0386800654232502,
                    0.13218751549720764,
                    -0.06111428514122963,
                    -0.02234901301562786,
                    0.08800126612186432,
                    0.03156832605600357,
                    0.02419978938996792,
                    0.16274228692054749,
                    -0.05040924996137619,
                    -0.06155260652303696,
                    0.0977611094713211,
                    0.025077341124415398,
                    0.02924196980893612,
                    0.09782152622938156,
                    0.028150152415037155,
                    0.027847355231642723,
                    -0.0728924423456192,
                    0.05854031443595886,
                    -0.01945730857551098,
                    0.15297438204288483,
                    0.09684105962514877,
                    0.021126840263605118,
                    -0.015962472185492516,
                    -0.0062708440236747265,
                    0.012299216352403164,
                    -0.12190688401460648,
                    -0.18013836443424225,
                    0.05986221134662628,
                    0.08036794513463974,
                    -0.021116727963089943,
                    -0.1842750906944275,
                    -0.009499319829046726,
                    -0.0054024579003453255,
                    -0.19585087895393372,
                    -0.07546042650938034,
                    0.04812724515795708,
                    0.0027802991680800915,
                    -0.04657124727964401,
                    0.12273839116096497,
                    0.008420747704803944,
                    -0.06378637999296188,
                    -0.025122428312897682,
                    -0.05069870874285698,
                    0.005416341125965118,
                    -0.050998419523239136,
                    0.07353329658508301,
                    0.02019334025681019,
                    0.010095532052218914,
                    0.029589207842946053,
                    0.1622447669506073,
                    0.13503405451774597,
                    -0.0973702073097229,
                    0.08458177000284195,
                    -0.13462869822978973,
                    -0.008427208289504051,
                    -0.024325000122189522,
                    0.06752623617649078,
                    0.011136733926832676,
                    0.09184069186449051,
                    -0.038492072373628616,
                    0.07755644619464874,
                    0.1969425082206726,
                    0.004610655829310417,
                    -0.10608574002981186,
                    0.10461333394050598,
                    -0.008344200439751148,
                    -0.12767294049263,
                    0.021856022998690605,
                    0.05149504914879799,
                    -0.014514879323542118,
                    -0.0168867576867342,
                    0.030760038644075394,
                    0.06897976249456406,
                    0.12151679396629333,
                    0.07002057135105133,
                    0.007234831340610981,
                    0.003855582559481263,
                    0.048829834908246994,
                    0.08261705189943314,
                    -0.08876797556877136,
                    -0.19621236622333527,
                    -0.05632351338863373,
                    -0.023092452436685562,
                    0.012277357280254364,
                    0.05596555024385452,
                    0.08222456276416779,
                    -0.08647124469280243,
                    -0.02073332667350769,
                    0.0829939916729927,
                    -0.027740947902202606,
                    -0.01894329860806465,
                    -0.018153203651309013,
                    -0.0718744546175003,
                    0.005122139118611813,
                    0.08413798362016678,
                    0.126750648021698,
                    0.07543976604938507,
                    0.20539085566997528,
                    0.07082192599773407,
                    -0.17632633447647095,
                    0.07028685510158539,
                    -0.09790907055139542,
                    0.052851296961307526,
                    -0.09814121574163437,
                    -0.01472239289432764,
                    -0.11104512214660645,
                    0.10227517038583755,
                    -0.024600869044661522,
                    -0.0322420559823513,
                    -0.04190265014767647,
                    -0.04654426872730255,
                    0.07831461727619171,
                    0.053692057728767395,
                    -0.08337920904159546,
                    0.10354740172624588,
                    -0.07133252918720245,
                    0.023961013182997704,
                    -0.13433581590652466,
                    -0.18196478486061096,
                    -0.06757698208093643,
                    -0.03909577801823616,
                    0.04181687906384468,
                    -0.08873807638883591,
                    -0.01655733585357666,
                    0.00275621865876019,
                    -0.046618785709142685,
                    -0.05136817321181297,
                    0.04653229936957359,
                    0.04213450849056244,
                    0.040830373764038086,
                    -0.02599969506263733,
                    -0.043496765196323395,
                    -0.01359515730291605,
                    0.04674498364329338,
                    0.08150988817214966,
                    -0.07925861328840256,
                    0.03414009511470795,
                    -0.052035920321941376,
                    -0.005419502034783363,
                    -0.08926799893379211,
                    0.018411189317703247,
                    0.11105295270681381,
                    -0.1376439481973648,
                    -0.02679171971976757,
                    -0.08541005849838257,
                    -0.06895755976438522,
                    -0.06935279816389084,
                    -0.050430990755558014,
                    -0.19814004004001617,
                    0.01854967698454857,
                    -0.02531077153980732,
                    -0.005985788535326719,
                    -0.059874653816223145,
                    -0.08117563277482986,
                    0.08806651830673218,
                    0.026975492015480995,
                    -0.033932771533727646,
                    -0.23960307240486145,
                    0.12532533705234528,
                    0.004140996374189854,
